{"learner":{"attributes":{"best_iteration":"299","best_ntree_limit":"300","best_score":"0.00672001958094879","scikit_learn":"{\"use_label_encoder\": false, \"n_estimators\": 300, \"objective\": \"binary:logistic\", \"max_depth\": 6, \"max_leaves\": null, \"max_bin\": null, \"grow_policy\": null, \"learning_rate\": 0.1, \"verbosity\": null, \"booster\": null, \"tree_method\": null, \"gamma\": null, \"min_child_weight\": null, \"max_delta_step\": null, \"subsample\": null, \"sampling_method\": null, \"colsample_bytree\": null, \"colsample_bylevel\": null, \"colsample_bynode\": null, \"reg_alpha\": null, \"reg_lambda\": null, \"scale_pos_weight\": null, \"base_score\": null, \"missing\": NaN, \"num_parallel_tree\": null, \"random_state\": 42, \"n_jobs\": null, \"monotone_constraints\": null, \"interaction_constraints\": null, \"importance_type\": null, \"gpu_id\": null, \"validate_parameters\": null, \"predictor\": null, \"enable_categorical\": false, \"max_cat_to_onehot\": null, \"eval_metric\": \"logloss\", \"early_stopping_rounds\": null, \"callbacks\": null, \"classes_\": [0, 1], \"n_classes_\": 2, \"evals_result_\": {\"validation_0\": {\"logloss\": [0.6143673379493482, 0.5514152670629097, 0.4932332888877753, 0.4430365594228109, 0.4021955508896799, 0.36531154336351335, 0.33231556711774884, 0.3050474134719733, 0.27909959601633477, 0.2552141354661999, 0.23518684426943462, 0.21711418668429056, 0.20108434774658895, 0.18665886615261887, 0.17299345485188744, 0.16132653189427926, 0.15054473441658597, 0.1401205001635985, 0.13146109451850255, 0.12333764799616553, 0.11554825081969752, 0.10809515101440025, 0.10236514296044003, 0.09654035049405965, 0.09106217772671671, 0.08598648446978945, 0.08153499072699835, 0.0774431354665395, 0.07422684877207784, 0.07050771720030091, 0.06759896945546974, 0.06377795282412659, 0.06039326176047325, 0.05828426136437691, 0.055867669654615, 0.05364643012483915, 0.05129375976143461, 0.0495015733350407, 0.04748925520163594, 0.04577622829851779, 0.04409129595666221, 0.04256586973978715, 0.04096268005556229, 0.03975203870485226, 0.03859971410058664, 0.03744680247580012, 0.0364154409549453, 0.03527764514257962, 0.03435434216464107, 0.03336631387754372, 0.03225146071364482, 0.03150782734155655, 0.03080626721070572, 0.0300735148482702, 0.02919127528809688, 0.02849966976424735, 0.02768047955846696, 0.02707909236633868, 0.026381364285833, 0.02588639733268682, 0.02533172244206071, 0.02484165070437347, 0.02430927891256006, 0.0237720490557452, 0.02334362353085343, 0.02284478825545221, 0.02249120890727323, 0.02207775846137806, 0.02153336864077684, 0.02117601604172678, 0.02087989528169573, 0.02052993784813831, 0.02014127684545449, 0.01979980230599529, 0.01954695773508512, 0.01925982120079976, 0.01903034346728501, 0.01874354878242946, 0.01845442058193977, 0.01817641475760011, 0.01785775777531054, 0.01761098756878213, 0.01739620988214896, 0.01714611046023272, 0.0169297387607565, 0.01670034521238201, 0.01650776845508848, 0.01631281230443468, 0.01608348566206228, 0.01588508333439346, 0.01571040176426653, 0.01548739373182991, 0.0153362940486069, 0.01516190153052748, 0.01495644492802746, 0.01477740523913367, 0.01462195158336368, 0.01446036456068131, 0.0142834456343994, 0.01412796973709412, 0.01391799382978317, 0.01378089535685087, 0.01364413606136981, 0.01352526574861258, 0.01341187837311405, 0.01326707931641122, 0.01313417560650233, 0.01303508291260876, 0.01295455807181442, 0.01283354415170227, 0.01273665961301462, 0.01265193808912017, 0.01255630002575785, 0.01245805072224219, 0.01238159421157572, 0.01227961838333585, 0.01217093381960171, 0.01208753520224215, 0.01201311606987887, 0.0119289029027674, 0.01184504902110237, 0.01172555105263283, 0.01165224061128825, 0.01154402617647341, 0.01147375422473432, 0.01138142264476328, 0.01131890511616472, 0.01126261259940679, 0.01119869056775122, 0.01112662584097548, 0.01106665862135053, 0.0110086156643405, 0.01086736779169631, 0.01080138895960497, 0.01074485153954645, 0.01069228280628467, 0.01061524362252164, 0.01053611703305223, 0.0104900241572812, 0.01042891636684847, 0.01038108776231776, 0.01031295713965047, 0.01019200837424829, 0.01015833659587908, 0.01008553044665887, 0.01003523868662094, 0.00999035594092372, 0.00994115007095829, 0.0098914828128005, 0.00983763660076709, 0.0097741119279244, 0.00973515955110391, 0.00968975415948962, 0.00963328312562115, 0.00960396701584669, 0.00953763378037944, 0.009496566103348, 0.00944404031866174, 0.00939634972139064, 0.00935856992338262, 0.00932113692543653, 0.00925958095813368, 0.009224205344993, 0.00918330736153152, 0.00915064974374025, 0.00910441573846831, 0.00904691772427847, 0.00900854245443814, 0.00898116809266591, 0.00892794902907388, 0.00889592509393961, 0.00886194627915481, 0.00882713766583369, 0.00880229362628818, 0.00875432040443587, 0.00872359402105565, 0.00868260886350816, 0.00865167105909098, 0.00862287832125951, 0.00859410584791366, 0.00855854832383832, 0.00853074349591748, 0.00848824944487371, 0.00845633596234785, 0.00843489635360046, 0.00838977828637739, 0.0083640003266963, 0.00833529269358912, 0.0082957655348935, 0.00826726970142, 0.00824298299064994, 0.00821361903931106, 0.00817470321159238, 0.00815371880733768, 0.00812883553349159, 0.0081142525011797, 0.00809485478727076, 0.00806934270601205, 0.00804105039607472, 0.00800756134242737, 0.00798038888340781, 0.0079575526957386, 0.00793166992236917, 0.00790180238958618, 0.00788183955562999, 0.00785914808019615, 0.00783293601370656, 0.00781918959604809, 0.00779545566462206, 0.00777229244074657, 0.00776165191155583, 0.00773323285659761, 0.00772225693688432, 0.00770301597590636, 0.00768009283523442, 0.0076590586645056, 0.00764272384899386, 0.00761906661901969, 0.00760951831011687, 0.00758174470259815, 0.00756311527661499, 0.0075532865263945, 0.00753280466468299, 0.00751437839825292, 0.00748974930173118, 0.00747241442198477, 0.00744255464012509, 0.00743290799753705, 0.00741463171947874, 0.00738541998786704, 0.00736481046336738, 0.00733857945685458, 0.00731248860134546, 0.00729556309334426, 0.00727566011050702, 0.00726643873499459, 0.00724050392146279, 0.00722278171556712, 0.00721259927457361, 0.00718862724655385, 0.00715865520285936, 0.0071488357041204, 0.00714009349053606, 0.00712075064460585, 0.00710106045125003, 0.00708057257837164, 0.00707171272757202, 0.00704886205835712, 0.00702592831231992, 0.007006021104656, 0.00699762573134098, 0.00697988342715138, 0.00695782313005166, 0.0069324111945532, 0.00691410788173512, 0.00689667611880313, 0.0068812109315662, 0.00686074360747377, 0.00684348828138106, 0.00683504714709036, 0.00681868473534423, 0.00680220855134504, 0.00677928865833427, 0.00676474968723734, 0.00674597511105028, 0.00672715360820858, 0.00670819564090132, 0.00669443528767619, 0.00668040116461326, 0.00665877286185136, 0.00665102586214551, 0.0066375640821846, 0.00661755914202359, 0.00660543467893149, 0.00659023027613964, 0.0065682566748133, 0.00654828021008253, 0.00653619909212769, 0.00652383724827263, 0.00651018454485562, 0.00649471229235077, 0.00647691138859514, 0.00646849026559556, 0.00645702545112616, 0.0064382036559409, 0.00642228295080272, 0.0064145910782452, 0.00640055003990931, 0.00638974944959927, 0.00636752166169269, 0.0063613243441355, 0.00635394335488937, 0.00634354421994155, 0.00633685889679879, 0.00632079515855752, 0.00631086071874244, 0.00630067716062926, 0.00629446410079254, 0.00628486158006567, 0.00627160016497135]}, \"validation_1\": {\"logloss\": [0.6175594435910047, 0.552647459810063, 0.495415136470633, 0.44517426571603547, 0.40499953218435836, 0.36855010410486644, 0.33699344300617606, 0.3083959130917565, 0.2831803610769369, 0.25887481009556074, 0.23801022427061858, 0.2197618786308725, 0.20380900913881042, 0.1882143515651509, 0.17425102153319424, 0.16296293851682694, 0.15082269704948037, 0.1407901606822418, 0.13084315578058614, 0.12193641830551422, 0.1140948422884537, 0.10674162054339707, 0.10028533066102004, 0.094368581675877, 0.0888307194335986, 0.08428468267922684, 0.08000614620366339, 0.07626283276131597, 0.0727148123590623, 0.06912697976360381, 0.06620871150960862, 0.06316561962209516, 0.06053943928899402, 0.0583801587128033, 0.05566011020377026, 0.05323776689563262, 0.05136550756929032, 0.0495415420855506, 0.04700968476896316, 0.04497768328193638, 0.04376520484022922, 0.04253514445686744, 0.04098170612133661, 0.0398057504415007, 0.03861993811708891, 0.03730997967660048, 0.0361755063709945, 0.03504577849723273, 0.03429924993444297, 0.03343853951131893, 0.03233820066187468, 0.03157328510799019, 0.03092071601047607, 0.03036494849060299, 0.02956756985730539, 0.02874363728372727, 0.02810061425838809, 0.02763724335177281, 0.02705213939376428, 0.02668188133087578, 0.0259994783505829, 0.02553157384854631, 0.02480509864576792, 0.02416782954044766, 0.02374286291394698, 0.02313421565202712, 0.0230036150620682, 0.02250568460578383, 0.02206818339655618, 0.02173454188682549, 0.0215978076685441, 0.0212982465785344, 0.02088401504591013, 0.02051955823770771, 0.02040874360472564, 0.02000697174354188, 0.01990722186599022, 0.01943235250556904, 0.0191094838931241, 0.01880917692620118, 0.0185922175809599, 0.01840691440699275, 0.01824325653112699, 0.0179955634067498, 0.01780234584861072, 0.01760669501293135, 0.01739451585148098, 0.01721432521372986, 0.0169904359963612, 0.01679347519234012, 0.01652851122060506, 0.01624064393227099, 0.01602869724531232, 0.0159276960071342, 0.01560032836327298, 0.01549372390569661, 0.0153566192459686, 0.01518260541971836, 0.01490238280197353, 0.01467557730088089, 0.01446515250846475, 0.01430444078277244, 0.01407878538712038, 0.01391641804514358, 0.01389588172630391, 0.01368769702464105, 0.0136318931196248, 0.01353729348698773, 0.01348004805617689, 0.01337182864924632, 0.01335447621373933, 0.0132314425967614, 0.01318433622990427, 0.01312927789497781, 0.01301687563127262, 0.01291359810284891, 0.01283844888764749, 0.0127768360832568, 0.01271045471416289, 0.01266348170352334, 0.01259107304361089, 0.01240485393732265, 0.01240484504511588, 0.01223293993616145, 0.01215567735716369, 0.01208206667477005, 0.01202030998671435, 0.01190800792799071, 0.01181071574116023, 0.01177800250741835, 0.01174638887583199, 0.01169617200848425, 0.01149265855152191, 0.01144930545533652, 0.01137947760126751, 0.01129349079540481, 0.01121943572785713, 0.01114282146221031, 0.01113376481484689, 0.01113833912134751, 0.01111647997187624, 0.01108654638023759, 0.01090797190729556, 0.01088698925679822, 0.01087271739280846, 0.01081826134537489, 0.01072883651302279, 0.01059457856554526, 0.01056255520912384, 0.01051894609862741, 0.01045342518169121, 0.01044378286956166, 0.01038526842862435, 0.01035359759740551, 0.01035815656347441, 0.01032915484491673, 0.01027366534673108, 0.01024961369669546, 0.01024226015455867, 0.01019803296169858, 0.01011723061427632, 0.01009441600528928, 0.01000845760106547, 0.0099568348539494, 0.00987640850248912, 0.00983494878053503, 0.00981291514817404, 0.00976416582285557, 0.00974379489380843, 0.00972294849560643, 0.00970623517183042, 0.00967453439030362, 0.00964601888305062, 0.0096063339966596, 0.00958730869850546, 0.00951524782640725, 0.00948910936390117, 0.00944177718905602, 0.00939492234662747, 0.00937337812008652, 0.00933987969632253, 0.00933221992195517, 0.00932484044454414, 0.00930418373592162, 0.00927047686460448, 0.00925415636139421, 0.00919315498260588, 0.00915183020234986, 0.0091481457439856, 0.00908643502055892, 0.00904691165148614, 0.00902696636195149, 0.00896339861596431, 0.00894201818423965, 0.00888863421438392, 0.00886890197173254, 0.00884193885792491, 0.00880427784431959, 0.00879502156928184, 0.00874053627989793, 0.00872249972771743, 0.00869081214631925, 0.00868397491513722, 0.00867387624064084, 0.00865430995333354, 0.00863129268679077, 0.00859949569354994, 0.00858612502547735, 0.00858505329628222, 0.00855003584032509, 0.00852372654221885, 0.00852478555322504, 0.00850220696902706, 0.00848304671289644, 0.00845600080898849, 0.00844895863159208, 0.00843934908223642, 0.00843123273770581, 0.00840754734149491, 0.00835396736961152, 0.00834561468218453, 0.00833151431399559, 0.00828578003526318, 0.00826045818505039, 0.00826155238505404, 0.00824353459473182, 0.0081952611325798, 0.00818070414181605, 0.0081396051550578, 0.00810620437630983, 0.00807416295794024, 0.00803108324741469, 0.00796045476398815, 0.00794410941825383, 0.0079047451904675, 0.00789080479783371, 0.00786227773044059, 0.0078368053547234, 0.00781809816316265, 0.00779759251069617, 0.00776228482357248, 0.00774187321026841, 0.00772754634614349, 0.00769838713393379, 0.00769907124228312, 0.00766434381351909, 0.00765064469034491, 0.00763373409180361, 0.00761949644158634, 0.00760426720869688, 0.00759120707047937, 0.00757122388078981, 0.00755289579547796, 0.0075497821017052, 0.00752265750751406, 0.00752366204502878, 0.00751669023415839, 0.00750531691553957, 0.00747428836744433, 0.007456213893651, 0.007437454870388, 0.00743856464396231, 0.00741766012793898, 0.00740792956645946, 0.0074066561487675, 0.00738839677809264, 0.00737558804751843, 0.00735663852907946, 0.0073303208635603, 0.00731028254992098, 0.00729355152115034, 0.00727637974125821, 0.00725960912523541, 0.00724440160516, 0.0072128808257684, 0.00721189838176064, 0.0071945393773588, 0.00717108228990721, 0.0071532132017221, 0.0071144716968497, 0.00710155905724574, 0.00708497537401607, 0.00705561112639987, 0.00703937766217169, 0.00702257435906346, 0.00700802616212691, 0.00698114158963031, 0.0069425743117559, 0.00692948176438838, 0.00690381002003328, 0.0069067114124926, 0.00688139646145998, 0.006870386369775, 0.00684694980705992, 0.00683265801733611, 0.00681764425308309, 0.00678983853710741, 0.00676804409867746, 0.0067558412821369, 0.00672001958094879]}}, \"_estimator_type\": \"classifier\"}"},"feature_names":[],"feature_types":[],"gradient_booster":{"model":{"gbtree_model_param":{"num_parallel_tree":"1","num_trees":"300","size_leaf_vector":"0"},"tree_info":[0,0,0,0,0,0,0,0,0,0,0,0,0,0,0,0,0,0,0,0,0,0,0,0,0,0,0,0,0,0,0,0,0,0,0,0,0,0,0,0,0,0,0,0,0,0,0,0,0,0,0,0,0,0,0,0,0,0,0,0,0,0,0,0,0,0,0,0,0,0,0,0,0,0,0,0,0,0,0,0,0,0,0,0,0,0,0,0,0,0,0,0,0,0,0,0,0,0,0,0,0,0,0,0,0,0,0,0,0,0,0,0,0,0,0,0,0,0,0,0,0,0,0,0,0,0,0,0,0,0,0,0,0,0,0,0,0,0,0,0,0,0,0,0,0,0,0,0,0,0,0,0,0,0,0,0,0,0,0,0,0,0,0,0,0,0,0,0,0,0,0,0,0,0,0,0,0,0,0,0,0,0,0,0,0,0,0,0,0,0,0,0,0,0,0,0,0,0,0,0,0,0,0,0,0,0,0,0,0,0,0,0,0,0,0,0,0,0,0,0,0,0,0,0,0,0,0,0,0,0,0,0,0,0,0,0,0,0,0,0,0,0,0,0,0,0,0,0,0,0,0,0,0,0,0,0,0,0,0,0,0,0,0,0,0,0,0,0,0,0,0,0,0,0,0,0,0,0,0,0,0,0,0,0,0,0,0,0,0,0,0,0,0,0,0,0,0,0,0,0],"trees":[{"base_weights":[-5.2834743E-1,-1.6632444E0,1.0751445E0,1.0588236E0,-1.7468355E0,1.7905759E0,1.8867925E-1,1.3846154E0,-0E0,-1.7787234E0,1E0,1.9277109E0,7.586207E-1,-4.3809524E-1,1.3103448E0,5.4545456E-1,-1.8185745E0,1.6363636E0,-1.2727273E0,1.36E0,-9.5238096E-1,1.8139535E0,-1.0526316E-1,-2.2222222E-1,-1.8663697E0,-1.1392405E0,1.1111112E0,-1.3333334E0,1.2727273E0,-1.3333334E0,1.2E0,-3.529412E-1,-1.9082569E0,9.52381E-2,-1.483871E0],"categories":[],"categories_nodes":[],"categories_segments":[],"categories_sizes":[],"default_left":[1,1,1,1,1,1,1,0,0,1,0,0,1,1,1,0,1,0,0,0,1,0,1,1,1,1,0,0,0,0,0,0,0,0,0],"id":0,"left_children":[1,3,5,7,9,11,13,-1,-1,15,-1,-1,17,19,21,-1,23,-1,-1,-1,25,-1,27,29,31,33,-1,-1,-1,-1,-1,-1,-1,-1,-1],"loss_changes":[3.7894138E2,2.9552673E1,5.4520897E1,1.4660635E0,1.2158264E1,5.295044E0,2.8519552E1,0E0,0E0,1.1874908E1,0E0,0E0,1.5009404E1,2.5569525E1,1.0528173E1,0E0,8.416748E0,0E0,0E0,0E0,9.363071E0,0E0,9.735248E0,8.711111E0,6.442383E0,8.543739E0,0E0,0E0,0E0,0E0,0E0,0E0,0E0,0E0,0E0],"parents":[2147483647,0,0,1,1,2,2,3,3,4,4,5,5,6,6,9,9,12,12,13,13,14,14,16,16,20,20,22,22,23,23,24,24,25,25],"right_children":[2,4,6,8,10,12,14,-1,-1,16,-1,-1,18,20,22,-1,24,-1,-1,-1,26,-1,28,30,32,34,-1,-1,-1,-1,-1,-1,-1,-1,-1],"split_conditions":[1.2604793E2,1.01E1,1.26E1,1.7285199E2,1.948E3,2.85E1,1.8026666E2,1.3846155E-1,-0E0,2.05E1,1E-1,1.9277109E-1,8.65E0,1.3783334E2,7.9552536E1,5.454546E-2,3.5E0,1.6363637E-1,-1.2727273E-1,1.36E-1,7.133333E1,1.8139535E-1,2.2325E2,5E-1,1.2090909E1,5.5E0,1.1111112E-1,-1.3333334E-1,1.2727273E-1,-1.3333334E-1,1.20000005E-1,-3.529412E-2,-1.9082569E-1,9.52381E-3,-1.483871E-1],"split_indices":[7,8,8,5,1,10,7,0,0,10,0,0,8,7,4,0,9,0,0,0,6,0,7,0,8,12,0,0,0,0,0,0,0,0,0],"split_type":[0,0,0,0,0,0,0,0,0,0,0,0,0,0,0,0,0,0,0,0,0,0,0,0,0,0,0,0,0,0,0,0,0,0,0],"sum_hessian":[2.0625E2,1.2075E2,8.55E1,3.25E0,1.175E2,4.675E1,3.875E1,2.25E0,1E0,1.165E2,1E0,4.05E1,6.25E0,2.525E1,1.35E1,1.75E0,1.1475E2,4.5E0,1.75E0,5.25E0,2E1,9.75E0,3.75E0,3.5E0,1.1125E2,1.875E1,1.25E0,2E0,1.75E0,2E0,1.5E0,3.25E0,1.08E2,4.25E0,1.45E1],"tree_param":{"num_deleted":"0","num_feature":"13","num_nodes":"35","size_leaf_vector":"0"}},{"base_weights":[-4.7667578E-1,-1.5094742E0,9.8084134E-1,9.8813653E-1,-1.5867357E0,1.6308868E0,1.7790699E-1,1.2931875E0,-0E0,5.109941E-1,-1.6228404E0,1.7559875E0,6.9149345E-1,-2.2467591E-1,1.6324394E0,-2.036475E-1,-1.6650897E0,1.5110165E0,-1.1949158E0,1.250779E0,-5.612221E-1,-1.2482635E0,1.1305224E0,3.2957274E-1,-1.6903111E0,1.3582717E0,-8.148079E-1,-3.2603198E-1,-1.7284113E0,7.216951E-1,-1.0660096E0],"categories":[],"categories_nodes":[],"categories_segments":[],"categories_sizes":[],"default_left":[1,1,1,1,1,1,1,0,0,0,1,0,1,1,0,1,1,0,0,0,1,0,0,0,1,0,1,0,0,0,0],"id":1,"left_children":[1,3,5,7,9,11,13,-1,-1,-1,15,-1,17,19,-1,21,23,-1,-1,-1,25,-1,-1,-1,27,-1,29,-1,-1,-1,-1],"loss_changes":[3.1101764E2,2.4867584E1,4.453733E1,1.2778459E0,9.728729E0,4.3489685E0,2.3524084E1,0E0,0E0,0E0,6.6015625E0,0E0,1.2956429E1,1.6518742E1,0E0,7.662959E0,6.205139E0,0E0,0E0,0E0,1.4067585E1,0E0,0E0,0E0,5.207794E0,0E0,1.0088566E1,0E0,0E0,0E0,0E0],"parents":[2147483647,0,0,1,1,2,2,3,3,4,4,5,5,6,6,10,10,12,12,13,13,15,15,16,16,20,20,24,24,26,26],"right_children":[2,4,6,8,10,12,14,-1,-1,-1,16,-1,18,20,-1,22,24,-1,-1,-1,26,-1,-1,-1,28,-1,30,-1,-1,-1,-1],"split_conditions":[1.2604793E2,1.01E1,1.26E1,1.7285199E2,2.05E1,2.85E1,2.2005E2,1.2931876E-1,-0E0,5.109941E-2,3.5E0,1.7559876E-1,8.65E0,1.3783334E2,1.6324393E-1,5E-1,5.5E0,1.5110165E-1,-1.1949158E-1,1.250779E-1,1.8E1,-1.2482635E-1,1.1305224E-1,3.2957274E-2,1.2090909E1,1.3582717E-1,3.5E0,-3.26032E-2,-1.7284113E-1,7.216951E-2,-1.0660096E-1],"split_indices":[7,8,8,5,10,10,7,0,0,0,9,0,8,7,0,0,11,0,0,0,10,0,0,0,8,0,9,0,0,0,0],"split_type":[0,0,0,0,0,0,0,0,0,0,0,0,0,0,0,0,0,0,0,0,0,0,0,0,0,0,0,0,0,0,0],"sum_hessian":[2.0462857E2,1.19742935E2,8.4885635E1,3.2392504E0,1.16503685E2,4.633901E1,3.854663E1,2.2392504E0,1E0,1.748699E0,1.1475499E2,4.0126064E1,6.212942E0,3.0852783E1,7.6938453E0,3.4857504E0,1.1126924E2,4.47001E0,1.7429323E0,5.2257986E0,2.5626986E1,1.9911375E0,1.4946129E0,1.2386892E0,1.1003055E2,2.4821706E0,2.3144815E1,3.2489882E0,1.0678156E2,2.9890425E0,2.0155771E1],"tree_param":{"num_deleted":"0","num_feature":"13","num_nodes":"31","size_leaf_vector":"0"}},{"base_weights":[-4.3517143E-1,-1.3895764E0,9.064266E-1,9.265884E-1,-1.462303E0,1.5079218E0,1.7201841E-1,1.2152325E0,-0E0,-8.170454E-1,-1.6019325E0,1.6248273E0,6.3605785E-1,-3.5927692E-1,1.1301304E0,-1.2055548E0,3.5047707E-1,5.9674174E-1,-1.6377752E0,1.409041E0,-1.1272982E0,9.1818297E-1,-8.938796E-1,1.5763528E0,-1.12544216E-1,7.63066E-1,-1.4413161E0,1.5962918E0,-1.1993467E0,3.1081653E-1,-1.667789E0,-2.852351E-1,1.2289973E0,-1.0961486E0,1.083627E0,-1.1854056E0,1.1037569E0,-1.5478743E0,-2.4577814E-1,-1.3561748E0,2.3303308E-1],"categories":[],"categories_nodes":[],"categories_segments":[],"categories_sizes":[],"default_left":[1,1,1,1,1,1,1,0,0,1,1,0,1,1,1,1,1,0,1,0,0,1,1,0,1,0,1,0,0,0,0,0,0,1,0,0,0,0,0,0,0],"id":2,"left_children":[1,3,5,7,9,11,13,-1,-1,15,17,-1,19,21,23,25,27,-1,29,-1,-1,31,33,-1,35,-1,37,-1,-1,-1,-1,-1,-1,39,-1,-1,-1,-1,-1,-1,-1],"loss_changes":[2.5937778E2,2.1263016E1,3.70243E1,1.1260204E0,9.050156E0,3.6826706E0,2.0325165E1,0E0,0E0,1.0626073E1,8.344238E0,0E0,1.1285109E1,1.8529871E1,8.051319E0,9.03804E0,1.4254762E1,0E0,5.9134827E0,0E0,0E0,3.3965678E0,8.702562E0,0E0,7.4220634E0,0E0,1.6095352E0,0E0,0E0,0E0,0E0,0E0,0E0,6.3786545E0,0E0,0E0,0E0,0E0,0E0,0E0,0E0],"parents":[2147483647,0,0,1,1,2,2,3,3,4,4,5,5,6,6,9,9,10,10,12,12,13,13,14,14,15,15,16,16,18,18,21,21,22,22,24,24,26,26,33,33],"right_children":[2,4,6,8,10,12,14,-1,-1,16,18,-1,20,22,24,26,28,-1,30,-1,-1,32,34,-1,36,-1,38,-1,-1,-1,-1,-1,-1,40,-1,-1,-1,-1,-1,-1,-1],"split_conditions":[1.2604793E2,1.01E1,1.26E1,1.7285199E2,1.6183334E1,2.85E1,1.8026666E2,1.2152325E-1,-0E0,8.253967E1,3.5E0,1.6248272E-1,8.65E0,1.387E2,7.9552536E1,4.5E0,1.7845E2,5.9674174E-2,5.5E0,1.4090411E-1,-1.12729825E-1,4.2291664E1,7.133333E1,1.5763529E-1,2.2325E2,7.6306604E-2,9.684546E1,1.5962918E-1,-1.1993467E-1,3.1081652E-2,-1.667789E-1,-2.852351E-2,1.2289973E-1,8.5E0,1.083627E-1,-1.1854056E-1,1.10375695E-1,-1.5478744E-1,-2.4577815E-2,-1.3561748E-1,2.3303308E-2],"split_indices":[7,8,8,5,8,10,7,0,0,4,9,0,8,7,4,12,5,0,11,0,0,6,6,0,7,0,7,0,0,0,0,0,0,11,0,0,0,0,0,0,0],"split_type":[0,0,0,0,0,0,0,0,0,0,0,0,0,0,0,0,0,0,0,0,0,0,0,0,0,0,0,0,0,0,0,0,0,0,0,0,0,0,0,0,0],"sum_hessian":[2.0058746E2,1.1718616E2,8.340131E1,3.2101424E0,1.1397601E2,4.5270557E1,3.8130753E1,2.2101424E0,1E0,2.1494926E1,9.248109E1,3.915656E1,6.1139994E0,2.493097E1,1.3199784E1,1.610364E1,5.3912873E0,1.232424E0,9.1248665E1,4.390372E0,1.7236274E0,7.143563E0,1.7787407E1,9.514706E0,3.685078E0,1.4830961E0,1.46205435E1,2.9721575E0,2.41913E0,1.2422441E0,9.000642E1,1.4831944E0,5.6603684E0,1.6541185E1,1.2462221E0,1.9714897E0,1.7135884E0,1.3153467E1,1.4670762E0,1.3817731E1,2.7234535E0],"tree_param":{"num_deleted":"0","num_feature":"13","num_nodes":"41","size_leaf_vector":"0"}},{"base_weights":[-4.0225023E-1,-1.2937467E0,8.446615E-1,8.723517E-1,-1.3632097E0,1.374666E0,1.1902131E-1,1.1478146E0,-0E0,-7.543417E-1,-1.4968836E0,1.5286165E0,4.4727087E-1,-4.1039014E-1,1.0352825E0,-1.1180186E0,3.235506E-1,5.6539077E-1,-1.5316427E0,1.324228E0,-8.579112E-1,7.3615247E-1,-8.5518056E-1,1.4682678E0,-1.0456453E-1,7.1935076E-1,-1.3433135E0,1.4736198E0,-1.1353463E0,2.9321802E-1,-1.560863E0,-1.0678822E0,-2.0836376E-1,1.2886924E0,4.0838156E-2,1.7744996E-1,-1.1492859E0,-1.1203674E0,1.0470467E0,-1.4444902E0,-2.3164675E-1,-1.0414312E0,8.433298E-1,-6.2311345E-1,1.1359879E0,1.820909E-1,-1.3882557E0],"categories":[],"categories_nodes":[],"categories_segments":[],"categories_sizes":[],"default_left":[1,1,1,1,1,1,1,0,0,1,1,0,1,1,1,1,1,0,1,0,1,1,1,0,1,0,1,0,0,0,0,0,0,0,1,1,1,0,0,0,0,0,0,0,0,0,0],"id":3,"left_children":[1,3,5,7,9,11,13,-1,-1,15,17,-1,19,21,23,25,27,-1,29,-1,31,33,35,-1,37,-1,39,-1,-1,-1,-1,-1,-1,-1,41,43,45,-1,-1,-1,-1,-1,-1,-1,-1,-1,-1],"loss_changes":[2.1858064E2,1.8414139E1,3.1438705E1,1.001298E0,7.9305115E0,6.082588E0,1.7780483E1,0E0,0E0,9.007216E0,7.3358765E0,0E0,1.0476824E1,1.2559125E1,6.76015E0,7.8855267E0,1.2309591E1,0E0,5.2051086E0,0E0,3.0755758E-1,2.66583E0,5.4630995E0,0E0,6.5759935E0,0E0,1.3792934E0,0E0,0E0,0E0,0E0,0E0,0E0,0E0,4.4963617E0,4.318307E0,4.583519E0,0E0,0E0,0E0,0E0,0E0,0E0,0E0,0E0,0E0,0E0],"parents":[2147483647,0,0,1,1,2,2,3,3,4,4,5,5,6,6,9,9,10,10,12,12,13,13,14,14,15,15,16,16,18,18,20,20,21,21,22,22,24,24,26,26,34,34,35,35,36,36],"right_children":[2,4,6,8,10,12,14,-1,-1,16,18,-1,20,22,24,26,28,-1,30,-1,32,34,36,-1,38,-1,40,-1,-1,-1,-1,-1,-1,-1,42,44,46,-1,-1,-1,-1,-1,-1,-1,-1,-1,-1],"split_conditions":[1.2604793E2,1.01E1,1.3083334E1,1.7285199E2,1.6183334E1,2.85E1,1.8026666E2,1.1478146E-1,-0E0,8.253967E1,3.5E0,1.5286165E-1,8.65E0,1.387E2,7.9552536E1,4.5E0,1.7845E2,5.6539077E-2,5.5E0,1.324228E-1,1.932E3,5E0,1.925E3,1.4682679E-1,2.2325E2,7.193508E-2,9.684546E1,1.4736198E-1,-1.1353463E-1,2.9321803E-2,-1.5608631E-1,-1.0678822E-1,-2.0836376E-2,1.2886924E-1,2.9E1,1.72466E2,3.822619E1,-1.1203674E-1,1.0470467E-1,-1.4444903E-1,-2.3164675E-2,-1.0414312E-1,8.433298E-2,-6.2311348E-2,1.1359879E-1,1.820909E-2,-1.3882558E-1],"split_indices":[7,8,8,5,8,10,7,0,0,4,9,0,8,7,4,12,5,0,11,0,1,12,1,0,7,0,7,0,0,0,0,0,0,0,10,5,6,0,0,0,0,0,0,0,0,0,0],"split_type":[0,0,0,0,0,0,0,0,0,0,0,0,0,0,0,0,0,0,0,0,0,0,0,0,0,0,0,0,0,0,0,0,0,0,0,0,0,0,0,0,0,0,0,0,0,0,0],"sum_hessian":[1.9464993E2,1.1347901E2,8.117092E1,3.1668572E0,1.1031216E2,4.6391987E1,3.477893E1,2.1668572E0,1E0,2.1054539E1,8.9257614E1,3.9231194E1,7.1607943E0,2.239266E1,1.2386271E1,1.5715096E1,5.3394427E0,1.2264339E0,8.803118E1,4.274289E0,2.886505E0,6.075836E0,1.6316824E1,8.767643E0,3.618628E0,1.4769613E0,1.4238135E1,2.9800975E0,2.3593452E0,1.24499E0,8.6786194E1,1.6946552E0,1.1918497E0,2.9099853E0,3.1658506E0,3.704973E0,1.2611851E1,1.9370993E0,1.6815287E0,1.277596E1,1.462176E0,1.2211783E0,1.9446723E0,2.2095268E0,1.4954462E0,1.9554476E0,1.0656403E1],"tree_param":{"num_deleted":"0","num_feature":"13","num_nodes":"47","size_leaf_vector":"0"}},{"base_weights":[-3.752499E-1,-1.2154223E0,7.923323E-1,8.240468E-1,-1.2825578E0,1.3301818E0,1.565023E-1,1.0887659E0,-0E0,-7.016752E-1,-1.4121591E0,1.4372486E0,5.491378E-1,-1.6651884E-1,1.3559257E0,-1.0440358E0,3.006776E-1,5.36163E-1,-1.4463469E0,1.2523413E0,-1.0151428E0,1.0036815E0,-4.3230733E-1,6.792026E-1,-1.2613043E0,1.372485E0,-1.0791076E0,2.76691E-1,-1.475256E0,1.1825165E0,-6.447408E-1,-1.3590988E0,-2.1835624E-1,6.0824895E-1,-8.546254E-1],"categories":[],"categories_nodes":[],"categories_segments":[],"categories_sizes":[],"default_left":[1,1,1,1,1,1,1,0,0,1,1,0,1,1,0,1,1,0,1,0,0,0,1,0,1,0,0,0,0,0,1,0,0,0,0],"id":4,"left_children":[1,3,5,7,9,11,13,-1,-1,15,17,-1,19,21,-1,23,25,-1,27,-1,-1,-1,29,-1,31,-1,-1,-1,-1,-1,33,-1,-1,-1,-1],"loss_changes":[1.857715E2,1.6111664E1,2.6959202E1,8.9719415E-1,7.0523376E0,2.7984848E0,1.47694845E1,0E0,0E0,7.6839104E0,6.5280304E0,0E0,8.740958E0,9.909021E0,0E0,6.934107E0,1.071546E1,0E0,4.6493225E0,0E0,0E0,0E0,9.518381E0,0E0,1.2091599E0,0E0,0E0,0E0,0E0,0E0,6.6221294E0,0E0,0E0,0E0,0E0],"parents":[2147483647,0,0,1,1,2,2,3,3,4,4,5,5,6,6,9,9,10,10,12,12,13,13,15,15,16,16,18,18,22,22,24,24,30,30],"right_children":[2,4,6,8,10,12,14,-1,-1,16,18,-1,20,22,-1,24,26,-1,28,-1,-1,-1,30,-1,32,-1,-1,-1,-1,-1,34,-1,-1,-1,-1],"split_conditions":[1.2604793E2,1.01E1,1.26E1,1.7285199E2,1.6183334E1,2.85E1,2.2005E2,1.08876586E-1,-0E0,8.253967E1,3.5E0,1.4372486E-1,8.65E0,1.3783334E2,1.3559256E-1,4.5E0,1.7845E2,5.3616296E-2,5.5E0,1.2523413E-1,-1.0151428E-1,1.0036816E-1,1.8E1,6.792026E-2,9.684546E1,1.372485E-1,-1.0791077E-1,2.76691E-2,-1.475256E-1,1.18251644E-1,3.5E0,-1.3590989E-1,-2.1835623E-2,6.0824897E-2,-8.546254E-2],"split_indices":[7,8,8,5,8,10,7,0,0,4,9,0,8,7,0,12,5,0,11,0,0,0,10,0,7,0,0,0,0,0,9,0,0,0,0],"split_type":[0,0,0,0,0,0,0,0,0,0,0,0,0,0,0,0,0,0,0,0,0,0,0,0,0,0,0,0,0,0,0,0,0,0,0],"sum_hessian":[1.8739355E2,1.0895233E2,7.844122E1,3.11291E0,1.0583942E2,4.1903206E1,3.653802E1,2.11291E0,1E0,2.0476458E1,8.536296E1,3.611266E1,5.790547E0,2.9464102E1,7.073919E0,1.5232206E1,5.244252E0,1.2188579E0,8.4144104E1,4.132324E0,1.6582227E0,4.9396806E0,2.4524422E1,1.4674228E0,1.3764783E1,2.9545047E0,2.2897477E0,1.2470362E0,8.2897064E1,2.3202672E0,2.2204155E1,1.23076E1,1.4571834E0,2.9134052E0,1.9290749E1],"tree_param":{"num_deleted":"0","num_feature":"13","num_nodes":"35","size_leaf_vector":"0"}},{"base_weights":[-3.5091072E-1,-1.1499232E0,7.4822915E-1,7.80618E-1,-1.2154187E0,1.2639148E0,1.5351105E-1,1.0364561E0,-0E0,-6.5652585E-1,-1.3423126E0,1.3681033E0,5.1410156E-1,-2.768771E-1,9.554892E-1,-9.801825E-1,2.8092498E-1,5.088439E-1,-1.3763142E0,5.32253E-1,1.3943884E0,1.1903937E0,-9.6789926E-1,7.584148E-1,-7.0983475E-1,1.3492181E0,-1.12967245E-1,6.4216274E-1,-1.1911739E0,1.2874745E0,-1.0291243E0,2.611585E-1,-1.4052802E0,-2.2720867E-1,1.0202867E0,-8.941522E-1,9.934781E-1,-1.0219983E0,9.353418E-1,-1.3540362E0,-4.2446876E-1,-1.1344204E0,2.6944143E-1],"categories":[],"categories_nodes":[],"categories_segments":[],"categories_sizes":[],"default_left":[1,1,1,1,1,1,1,0,0,1,1,1,1,1,1,1,1,0,1,0,0,0,0,1,1,0,1,0,1,0,0,0,0,0,0,1,0,0,0,0,0,0,0],"id":5,"left_children":[1,3,5,7,9,11,13,-1,-1,15,17,19,21,23,25,27,29,-1,31,-1,-1,-1,-1,33,35,-1,37,-1,39,-1,-1,-1,-1,-1,-1,41,-1,-1,-1,-1,-1,-1,-1],"loss_changes":[1.5936998E2,1.4213455E1,2.3292393E1,8.090763E-1,6.3423615E0,2.4900894E0,1.2933171E1,0E0,0E0,6.587597E0,5.8648834E0,3.314209E-2,7.756171E0,1.1592132E1,5.6393194E0,6.134823E0,9.390395E0,0E0,4.201416E0,0E0,0E0,0E0,0E0,2.233532E0,6.509658E0,0E0,5.182087E0,0E0,1.2024269E0,0E0,0E0,0E0,0E0,0E0,0E0,4.969842E0,0E0,0E0,0E0,0E0,0E0,0E0,0E0],"parents":[2147483647,0,0,1,1,2,2,3,3,4,4,5,5,6,6,9,9,10,10,11,11,12,12,13,13,14,14,15,15,16,16,18,18,23,23,24,24,26,26,28,28,35,35],"right_children":[2,4,6,8,10,12,14,-1,-1,16,18,20,22,24,26,28,30,-1,32,-1,-1,-1,-1,34,36,-1,38,-1,40,-1,-1,-1,-1,-1,-1,42,-1,-1,-1,-1,-1,-1,-1],"split_conditions":[1.2604793E2,1.01E1,1.26E1,1.7285199E2,1.6183334E1,2.85E1,1.8026666E2,1.03645615E-1,-0E0,8.253967E1,3.5E0,1.9195E3,8.65E0,1.387E2,7.9552536E1,4.5E0,1.7845E2,5.0884392E-2,5.5E0,5.3225305E-2,1.3943885E-1,1.1903937E-1,-9.678993E-2,4.2291664E1,7.133333E1,1.3492182E-1,2.2325E2,6.421628E-2,9.405E1,1.2874745E-1,-1.02912426E-1,2.611585E-2,-1.4052802E-1,-2.2720868E-2,1.0202867E-1,8.5E0,9.9347815E-2,-1.0219983E-1,9.353418E-2,-1.3540362E-1,-4.2446878E-2,-1.1344204E-1,2.6944144E-2],"split_indices":[7,8,8,5,8,10,7,0,0,4,9,1,8,7,4,12,5,0,11,0,0,0,0,6,6,0,7,0,7,0,0,0,0,0,0,11,0,0,0,0,0,0,0],"split_type":[0,0,0,0,0,0,0,0,0,0,0,0,0,0,0,0,0,0,0,0,0,0,0,0,0,0,0,0,0,0,0,0,0,0,0,0,0,0,0,0,0,0,0],"sum_hessian":[1.7948827E2,1.0390732E2,7.558094E1,3.0512192E0,1.008561E2,3.987753E1,3.570341E1,2.0512192E0,1E0,1.9804165E1,8.105193E1,3.4288467E1,5.589063E0,2.3660543E1,1.2042868E1,1.4687644E1,5.116521E0,1.2100075E0,7.984193E1,1.6932576E0,3.2595207E1,3.9728632E0,1.6161997E0,6.755362E0,1.6905182E1,8.608018E0,3.43485E0,1.4551585E0,1.3232486E1,2.9031653E0,2.2133555E0,1.2484789E0,7.859345E1,1.4458592E0,5.3095026E0,1.5683143E1,1.2220399E0,1.8530735E0,1.5817764E0,1.0282293E1,2.9501925E0,1.3019784E1,2.6633582E0],"tree_param":{"num_deleted":"0","num_feature":"13","num_nodes":"43","size_leaf_vector":"0"}},{"base_weights":[-3.303413E-1,-1.0941172E0,7.106483E-1,-1.148665E0,1.0268612E0,1.1178929E0,1.8476265E-2,-5.970267E-1,-1.2836514E0,1.2930968E0,1.7293924E-2,8.4453964E-1,-3.824227E-1,-1.010389E0,3.0094245E-1,4.832497E-1,-1.3177704E0,8.7679726E-1,1.3798251E0,1.0047879E0,-6.3699895E-1,1.1872998E-1,1.0578842E0,8.7002885E-1,-6.67346E-1,-1.1555403E0,3.2940003E-1,1.3223226E0,-1.1240559E0,2.4655037E-1,-1.3470916E0,-3.0217105E-1,1.1399069E0,5.118072E-1,-1.1110088E0,-8.3118486E-1,1.0151922E0,1.1247674E-1,1.1165395E0,-9.243944E-1,5.5633354E-1,-1.2482595E0,-4.6932735E-2,4.3958417E-1,-1.1026183E0,9.8293304E-1,-1.9894505E-1],"categories":[],"categories_nodes":[],"categories_segments":[],"categories_sizes":[],"default_left":[1,1,1,1,0,1,1,1,1,1,1,1,1,1,1,0,1,1,0,0,1,1,0,1,1,1,0,0,0,0,0,0,0,0,0,0,0,0,0,1,1,0,0,0,0,0,0],"id":6,"left_children":[1,3,5,7,-1,9,11,13,15,17,19,21,23,25,27,-1,29,31,-1,-1,33,35,-1,37,39,41,-1,-1,-1,-1,-1,-1,-1,-1,-1,-1,-1,-1,-1,43,45,-1,-1,-1,-1,-1,-1],"loss_changes":[1.3751434E2,1.2701675E1,2.0665993E1,6.4987183E0,0E0,8.883732E0,9.662184E0,8.11768E0,5.3098373E0,2.2824097E-1,5.3930073E0,1.3494835E0,7.6016083E0,3.2285414E0,1.2265641E1,0E0,3.8325195E0,3.3255305E0,0E0,0E0,3.3112898E0,3.6458147E0,0E0,6.364136E-1,5.733941E0,1.3223534E0,0E0,0E0,0E0,0E0,0E0,0E0,0E0,0E0,0E0,0E0,0E0,0E0,0E0,3.9097261E0,1.3248647E0,0E0,0E0,0E0,0E0,0E0,0E0],"parents":[2147483647,0,0,1,1,2,2,3,3,5,5,6,6,7,7,8,8,9,9,10,10,11,11,12,12,13,13,14,14,16,16,17,17,20,20,21,21,23,23,24,24,25,25,39,39,40,40],"right_children":[2,4,6,8,-1,10,12,14,16,18,20,22,24,26,28,-1,30,32,-1,-1,34,36,-1,38,40,42,-1,-1,-1,-1,-1,-1,-1,-1,-1,-1,-1,-1,-1,44,46,-1,-1,-1,-1,-1,-1],"split_conditions":[1.2604793E2,6.4725E1,4.5E0,1.6183334E1,1.0268612E-1,1.5366667E1,2.45E1,8.253967E1,3.5E0,4.3800003E1,2.25E1,4.4833336E1,4.5E0,1.0745E2,1.7845E2,4.832497E-2,5.5E0,1.9265E3,1.3798252E-1,1.0047879E-1,4.1233334E1,2.15E1,1.05788425E-1,3E0,7.133333E1,1.85E1,3.2940004E-2,1.3223226E-1,-1.1240559E-1,2.4655037E-2,-1.3470916E-1,-3.0217106E-2,1.1399069E-1,5.118072E-2,-1.11100875E-1,-8.311849E-2,1.0151922E-1,1.1247674E-2,1.1165395E-1,1.2944215E2,1.9255E3,-1.24825954E-1,-4.6932735E-3,4.3958418E-2,-1.10261835E-1,9.8293304E-2,-1.9894505E-2],"split_indices":[7,6,9,8,0,8,10,4,9,6,10,6,12,7,5,0,11,1,0,0,6,10,0,12,6,2,0,0,0,0,0,0,0,0,0,0,0,0,0,7,1,0,0,0,0,0,0],"split_type":[0,0,0,0,0,0,0,0,0,0,0,0,0,0,0,0,0,0,0,0,0,0,0,0,0,0,0,0,0,0,0,0,0,0,0,0,0,0,0,0,0,0,0,0,0,0,0],"sum_hessian":[1.7097812E2,9.859083E1,7.238729E1,9.656575E1,2.0250766E0,4.518645E1,2.7200834E1,2.005036E1,7.651539E1,3.883019E1,6.356265E0,8.526052E0,1.8674782E1,1.3644289E1,6.4060707E0,1.2001528E0,7.531524E1,8.610266E0,3.0219923E1,2.319646E0,4.036619E0,2.2904239E0,6.235629E0,3.0804298E0,1.5594353E1,1.2434653E1,1.2096366E0,3.7734618E0,2.6326091E0,1.2494038E0,7.4065834E1,1.5438708E0,7.0663943E0,1.1557685E0,2.8808508E0,1.1474123E0,1.1430117E0,1.1138207E0,1.9666091E0,1.3089355E1,2.5049968E0,1.1358689E1,1.0759636E0,1.3431933E0,1.1746162E1,1.4081959E0,1.0968008E0],"tree_param":{"num_deleted":"0","num_feature":"13","num_nodes":"47","size_leaf_vector":"0"}},{"base_weights":[-3.1122446E-1,-1.0458941E0,6.7762244E-1,1.118011E-1,-1.1495299E0,1.20903E0,1.8658431E-1,1.077467E0,-3.3752012E-1,6.606899E-1,-1.192716E0,2.1812353E-1,1.2802864E0,-2.2752011E-1,1.11426E0,-9.514904E-1,9.902215E-1,2.3280299E-1,-1.2168225E0,-3.780164E-1,7.416609E-1,-6.507488E-1,7.829177E-1,1.217778E0,5.0597286E-1,-2.8617558E-1,-1.1037899E0,2.1577208E-1,-1.2396548E0,-1.2635989E0,-3.355038E-1,1.2651587E0,1.4717256E-1,4.6427675E-2,7.4652004E-1,-1.2693638E0,-1.7542054E-1,-8.8723296E-1,1.2208086E-1,9.790528E-1,-7.177414E-1],"categories":[],"categories_nodes":[],"categories_segments":[],"categories_sizes":[],"default_left":[1,1,1,1,1,1,1,0,1,0,1,1,0,1,1,1,0,0,1,0,0,1,1,0,1,0,0,0,1,0,1,0,1,0,0,0,0,0,0,0,0],"id":7,"left_children":[1,3,5,7,9,11,13,-1,15,-1,17,19,-1,21,23,25,-1,-1,27,-1,-1,29,31,-1,33,-1,-1,-1,35,-1,37,-1,39,-1,-1,-1,-1,-1,-1,-1,-1],"loss_changes":[1.1938905E2,1.1421089E1,1.8103699E1,4.1145706E0,7.548462E0,2.0898094E0,1.47325535E1,0E0,6.3722935E0,0E0,3.1980057E0,1.3590602E0,0E0,1.200841E1,1.2697983E-1,1.9732857E-1,0E0,0E0,3.0009537E0,0E0,0E0,3.3428726E0,2.3865495E0,0E0,3.4418762E-1,0E0,0E0,0E0,2.3827744E0,0E0,3.7023978E0,0E0,4.121348E0,0E0,0E0,0E0,0E0,0E0,0E0,0E0,0E0],"parents":[2147483647,0,0,1,1,2,2,3,3,4,4,5,5,6,6,8,8,10,10,11,11,13,13,14,14,15,15,18,18,21,21,22,22,24,24,28,28,30,30,32,32],"right_children":[2,4,6,8,10,12,14,-1,16,-1,18,20,-1,22,24,26,-1,-1,28,-1,-1,30,32,-1,34,-1,-1,-1,36,-1,38,-1,40,-1,-1,-1,-1,-1,-1,-1,-1],"split_conditions":[1.2604793E2,1.2090909E1,2.35E1,7.0978134E1,3.5E0,3.5875E1,2.0929999E2,1.077467E-1,8.90742E1,6.606899E-2,5.5E0,1.93E3,1.2802865E-1,1.9335E3,4.5E0,1.35E1,9.902215E-2,2.3280298E-2,2.05E1,-3.7801642E-2,7.416609E-2,4.26875E1,5.5E0,1.21777795E-1,1.75265E2,-2.8617559E-2,-1.10378996E-1,2.1577207E-2,1.9455E3,-1.263599E-1,1.45E1,1.2651587E-1,4.5E0,4.6427674E-3,7.465201E-2,-1.2693638E-1,-1.7542055E-2,-8.8723294E-2,1.2208086E-2,9.790528E-2,-7.177414E-2],"split_indices":[7,8,10,4,9,6,7,0,4,0,11,1,0,1,9,2,0,0,10,0,0,6,12,0,5,0,0,0,1,0,2,0,9,0,0,0,0,0,0,0,0],"split_type":[0,0,0,0,0,0,0,0,0,0,0,0,0,0,0,0,0,0,0,0,0,0,0,0,0,0,0,0,0,0,0,0,0,0,0,0,0,0,0,0,0],"sum_hessian":[1.6236446E2,9.312155E1,6.9242905E1,7.6447453E0,8.547681E1,3.2552258E1,3.669065E1,1.9836228E0,5.6611223E0,1.6585195E0,8.381829E1,2.4562473E0,3.0096008E1,2.5888876E1,1.0801774E1,4.0648456E0,1.5962769E0,1.249887E0,8.2568405E1,1.2784561E0,1.1777912E0,1.849718E1,7.3916955E0,8.374608E0,2.4271662E0,1.2934572E0,2.7713883E0,1.1627424E0,8.140566E1,5.2610884E0,1.3236093E1,3.6403143E0,3.7513812E0,1.2438684E0,1.1832979E0,7.9007355E1,2.3983066E0,5.5750594E0,7.6610336E0,1.8449398E0,1.9064413E0],"tree_param":{"num_deleted":"0","num_feature":"13","num_nodes":"41","size_leaf_vector":"0"}},{"base_weights":[-2.9382214E-1,-9.997926E-1,6.436788E-1,-3.3451468E-1,-1.1930037E0,1.0310457E0,1.5421537E-2,1.0092007E0,-5.370365E-1,4.26776E-1,-1.2275654E0,1.1994834E0,7.40194E-3,-2.816474E-1,9.1024953E-1,-1.1077281E0,-7.996476E-2,2.1985872E-1,-1.2582744E0,7.9689085E-1,1.2843863E0,9.175994E-1,-5.866544E-1,5.321585E-1,-5.9267926E-1,1.1478173E0,7.072458E-2,-6.18797E-1,6.941454E-1,-2.79812E-1,1.0526754E0,4.3175954E-1,-1.017973E0,-2.9414812E-1,1.1731756E0,3.939771E-1,-8.5584617E-1,5.393131E-1,-1.1236953E0,-7.0779926E-1,1.242959E0,2.4941538E-1,-6.4514065E-1,-5.070274E-1,9.138488E-1,4.357077E-1,-1.0488001E0],"categories":[],"categories_nodes":[],"categories_segments":[],"categories_sizes":[],"default_left":[1,1,1,1,1,1,1,0,1,0,1,1,1,1,1,0,1,0,0,1,0,0,1,1,1,0,0,1,1,0,0,0,0,1,0,1,1,0,0,0,0,0,0,0,0,0,0],"id":8,"left_children":[1,3,5,7,9,11,13,-1,15,-1,17,19,21,23,25,-1,27,-1,-1,29,-1,-1,31,33,35,-1,-1,37,39,-1,-1,-1,-1,41,-1,43,45,-1,-1,-1,-1,-1,-1,-1,-1,-1,-1],"loss_changes":[1.0332951E2,1.1027473E1,1.6351643E1,6.364627E0,4.3586426E0,7.1617584E0,7.345059E0,0E0,4.9318585E0,0E0,3.2692108E0,1.9694519E-1,4.2597384E0,5.576228E0,1.2915387E0,0E0,5.336903E0,0E0,0E0,2.7327595E0,0E0,0E0,2.5367613E0,3.6682425E0,4.3644476E0,0E0,0E0,4.971214E0,4.9573665E0,0E0,0E0,0E0,0E0,8.3636415E-1,0E0,2.3138428E0,3.5869083E0,0E0,0E0,0E0,0E0,0E0,0E0,0E0,0E0,0E0,0E0],"parents":[2147483647,0,0,1,1,2,2,3,3,4,4,5,5,6,6,8,8,10,10,11,11,12,12,13,13,14,14,16,16,19,19,22,22,23,23,24,24,27,27,28,28,33,33,35,35,36,36],"right_children":[2,4,6,8,10,12,14,-1,16,-1,18,20,22,24,26,-1,28,-1,-1,30,-1,-1,32,34,36,-1,-1,38,40,-1,-1,-1,-1,42,-1,44,46,-1,-1,-1,-1,-1,-1,-1,-1,-1,-1],"split_conditions":[1.2604793E2,1.6183334E1,4.5E0,2.05E1,3.5E0,1.5366667E1,7.133333E1,1.0092007E-1,1.55E1,4.26776E-2,5.5E0,4.3800003E1,2.25E1,5.5E0,1.475E1,-1.1077281E-1,3.4487183E1,2.1985872E-2,-1.2582745E-1,1.9265E3,1.2843864E-1,9.175994E-2,4.1233334E1,1.933E3,2.45E1,1.1478173E-1,7.0724576E-3,2.675E1,1.5620999E2,-2.7981201E-2,1.0526754E-1,4.3175954E-2,-1.017973E-1,1.65225E2,1.1731756E-1,1.929E3,1.2944215E2,5.3931307E-2,-1.1236953E-1,-7.077993E-2,1.24295905E-1,2.494154E-2,-6.451406E-2,-5.070274E-2,9.138488E-2,4.3570768E-2,-1.0488001E-1],"split_indices":[7,8,9,10,9,8,6,0,2,0,11,6,10,12,8,0,6,0,0,1,0,0,6,1,10,0,0,6,5,0,0,0,0,7,0,1,7,0,0,0,0,0,0,0,0,0,0],"split_type":[0,0,0,0,0,0,0,0,0,0,0,0,0,0,0,0,0,0,0,0,0,0,0,0,0,0,0,0,0,0,0,0,0,0,0,0,0,0,0,0,0,0,0,0,0,0,0],"sum_hessian":[1.5415039E2,8.789557E1,6.625482E1,2.0396442E1,6.749912E1,4.0588135E1,2.566669E1,2.149764E0,1.8246677E1,1.1730801E0,6.632604E1,3.470564E1,5.882496E0,1.9783972E1,5.8827205E0,7.4816675E0,1.076501E1,1.2499943E0,6.507605E1,7.853204E0,2.6852434E1,2.108016E0,3.7744799E0,5.2739325E0,1.4510038E1,4.2989783E0,1.5837421E0,6.465338E0,4.2996716E0,1.4894706E0,6.363733E0,1.1226635E0,2.6518164E0,2.540373E0,2.7335591E0,2.9506187E0,1.155942E1,1.9422171E0,4.523121E0,1.1281421E0,3.1715295E0,1.110304E0,1.4300692E0,1.0886152E0,1.8620034E0,1.3389502E0,1.0220469E1],"tree_param":{"num_deleted":"0","num_feature":"13","num_nodes":"47","size_leaf_vector":"0"}},{"base_weights":[-2.7859858E-1,-9.761183E-1,5.982245E-1,-1.0296015E0,9.016442E-1,1.064619E0,5.23131E-2,-5.465048E-1,-1.1531003E0,1.1953427E0,3.8721678E-1,-3.2084972E-1,7.880067E-1,-9.8434997E-1,3.2644904E-1,4.0604594E-1,-1.1889361E0,3.4565267E-1,1.226062E0,-6.3922846E-1,9.74396E-1,4.788856E-1,-6.38032E-1,1.174122E0,-1.4308953E-1,-1.6549308E-2,-1.1179824E0,1.2021261E0,-9.75335E-1,2.076645E-1,-1.2211612E0,-6.2136686E-1,1.2074143E0,2.0846707E-1,-9.2103463E-1,-9.1395384E-1,7.973482E-1,-9.304324E-1,-1.1082791E-2,1.0988047E0,-8.961526E-1,-1.2543584E0,-1.1433561E-1],"categories":[],"categories_nodes":[],"categories_segments":[],"categories_sizes":[],"default_left":[1,1,1,1,0,1,1,1,1,1,1,1,1,1,1,0,1,0,0,0,0,1,1,0,1,0,0,0,0,0,0,1,0,1,1,0,0,0,0,0,0,0,0],"id":9,"left_children":[1,3,5,7,-1,9,11,13,15,17,19,21,23,25,27,-1,29,-1,-1,-1,-1,31,33,-1,35,-1,-1,-1,-1,-1,-1,37,-1,39,41,-1,-1,-1,-1,-1,-1,-1,-1],"loss_changes":[9.0287186E1,9.170189E0,1.6647387E1,4.1583557E0,0E0,2.6653671E0,8.839256E0,7.2935987E0,4.003868E0,3.3662796E-1,4.958481E0,5.749542E0,4.0560327E0,1.5848455E0,8.974428E0,0E0,3.0375595E0,0E0,0E0,0E0,0E0,6.093416E0,3.97605E0,0E0,3.673135E0,0E0,0E0,0E0,0E0,0E0,0E0,6.1509204E-1,0E0,5.6790004E0,3.0893574E0,0E0,0E0,0E0,0E0,0E0,0E0,0E0,0E0],"parents":[2147483647,0,0,1,1,2,2,3,3,5,5,6,6,7,7,8,8,9,9,10,10,11,11,12,12,13,13,14,14,16,16,21,21,22,22,24,24,31,31,33,33,34,34],"right_children":[2,4,6,8,-1,10,12,14,16,18,20,22,24,26,28,-1,30,-1,-1,-1,-1,32,34,-1,36,-1,-1,-1,-1,-1,-1,38,-1,40,42,-1,-1,-1,-1,-1,-1,-1,-1],"split_conditions":[1.2025E2,6.4725E1,1.3083334E1,1.6183334E1,9.0164416E-2,2.85E1,1.8026666E2,8.253967E1,3.5E0,1.9195E3,5E-1,5.5E0,7.9552536E1,1.9245E3,1.7845E2,4.0604595E-2,5.5E0,3.4565266E-2,1.2260621E-1,-6.3922845E-2,9.74396E-2,1.45E1,1.925E3,1.174122E-1,2.2325E2,-1.6549308E-3,-1.1179824E-1,1.20212615E-1,-9.75335E-2,2.076645E-2,-1.22116126E-1,1.9295E3,1.2074143E-1,1.7562899E1,1.6937899E1,-9.1395386E-2,7.9734825E-2,-9.304324E-2,-1.1082791E-3,1.0988047E-1,-8.961526E-2,-1.2543584E-1,-1.1433561E-2],"split_indices":[7,6,8,8,0,10,7,4,9,1,0,12,4,1,5,0,11,0,0,0,0,2,1,0,7,0,0,0,0,0,0,1,0,8,8,0,0,0,0,0,0,0,0],"split_type":[0,0,0,0,0,0,0,0,0,0,0,0,0,0,0,0,0,0,0,0,0,0,0,0,0,0,0,0,0,0,0,0,0,0,0,0,0,0,0,0,0,0,0],"sum_hessian":[1.4566946E2,8.106687E1,6.4602585E1,7.926102E1,1.8058542E0,3.4326168E1,3.0276419E1,1.7241547E1,6.201947E1,2.8132597E1,6.1935725E0,2.0461632E1,9.814787E0,1.1397383E1,5.844164E0,1.1613355E0,6.0858135E1,1.4091029E0,2.6723494E1,2.221513E0,3.9720592E0,5.6659184E0,1.4795713E1,6.7532706E0,3.0615163E0,1.5191498E0,9.878233E0,3.5396714E0,2.3044922E0,1.2497848E0,5.960835E1,2.3157203E0,3.350198E0,3.773134E0,1.1022579E1,1.6979172E0,1.363599E0,1.1889915E0,1.1267288E0,2.0921214E0,1.6810125E0,7.407084E0,3.6154952E0],"tree_param":{"num_deleted":"0","num_feature":"13","num_nodes":"43","size_leaf_vector":"0"}},{"base_weights":[-2.662034E-1,-9.2807907E-1,5.903049E-1,-2.9553005E-1,-1.1209652E0,1.0917108E0,1.532138E-1,9.3096757E-1,-4.8605475E-1,3.8647634E-1,-1.1571702E0,1.7073582E-1,1.1625249E0,-2.4763365E-1,9.1864175E-1,-1.0187483E0,-6.1746042E-2,1.9617186E-1,-1.1901112E0,6.524534E-1,-3.627232E-1,5.530026E-1,1.2125952E0,-5.842572E-1,8.754483E-1,4.3111023E-1,1.1604501E0,-3.9197177E-1,-1.1117669E0,-5.6301737E-1,6.418342E-1,-3.259879E-2,7.9312813E-1,4.4811767E-1,-7.014842E-1,1.9079392E-1,9.911262E-1,1.0688776E0,-7.8497815E-1,4.8186603E-1,-1.0442593E0,-6.471758E-1,1.1359992E0,-2.9544464E-1,-1.0917556E0],"categories":[],"categories_nodes":[],"categories_segments":[],"categories_sizes":[],"default_left":[1,1,1,1,1,1,1,0,1,0,1,1,1,1,1,1,1,0,0,0,0,1,0,1,1,1,0,0,0,1,1,0,0,0,1,0,0,0,0,0,0,0,0,0,0],"id":10,"left_children":[1,3,5,7,9,11,13,-1,15,-1,17,19,21,23,25,27,29,-1,-1,-1,-1,31,-1,33,35,37,-1,-1,-1,39,41,-1,-1,-1,43,-1,-1,-1,-1,-1,-1,-1,-1,-1,-1],"loss_changes":[7.889366E1,9.227745E0,1.3169428E1,5.047978E0,3.7043762E0,1.6392593E0,1.0559715E1,0E0,3.9329457E0,0E0,2.842804E0,1.0548996E0,1.2275314E-1,9.164717E0,8.8921547E-1,1.744175E-2,4.207372E0,0E0,0E0,0E0,0E0,5.6184185E-1,0E0,2.518177E0,2.6064444E-1,5.1038365E0,0E0,0E0,0E0,3.973163E0,3.9228053E0,0E0,0E0,0E0,2.330636E0,0E0,0E0,0E0,0E0,0E0,0E0,0E0,0E0,0E0,0E0],"parents":[2147483647,0,0,1,1,2,2,3,3,4,4,5,5,6,6,8,8,10,10,11,11,12,12,13,13,14,14,15,15,16,16,21,21,23,23,24,24,25,25,29,29,30,30,34,34],"right_children":[2,4,6,8,10,12,14,-1,16,-1,18,20,22,24,26,28,30,-1,-1,-1,-1,32,-1,34,36,38,-1,-1,-1,40,42,-1,-1,-1,44,-1,-1,-1,-1,-1,-1,-1,-1,-1,-1],"split_conditions":[1.2604793E2,1.6183334E1,2.35E1,2.05E1,3.5E0,3.5875E1,1.9335E3,9.3096755E-2,1.55E1,3.8647633E-2,5.5E0,1.68021E2,1.05E1,2.2108334E2,1.4619643E2,1.6103601E2,3.4487183E1,1.9617187E-2,-1.1901112E-1,6.5245345E-2,-3.627232E-2,5.8375E1,1.21259525E-1,1.3101923E2,6.525682E1,1.387E2,1.1604501E-1,-3.9197177E-2,-1.1117669E-1,2.675E1,1.5620999E2,-3.259879E-3,7.9312816E-2,4.4811767E-2,1.6410713E1,1.9079393E-2,9.911262E-2,1.0688776E-1,-7.849782E-2,4.8186604E-2,-1.0442593E-1,-6.471758E-2,1.1359992E-1,-2.9544463E-2,-1.0917556E-1],"split_indices":[7,8,10,10,9,6,1,0,2,0,11,5,2,7,7,5,6,0,0,0,0,6,0,7,4,7,0,0,0,6,5,0,0,0,8,0,0,0,0,0,0,0,0,0,0],"split_type":[0,0,0,0,0,0,0,0,0,0,0,0,0,0,0,0,0,0,0,0,0,0,0,0,0,0,0,0,0,0,0,0,0,0,0,0,0,0,0,0,0,0,0,0,0],"sum_hessian":[1.3719992E2,7.734625E1,5.9853676E1,1.8665844E1,5.868041E1,2.7178446E1,3.267523E1,1.9871681E0,1.6678675E1,1.1493845E0,5.7531025E1,2.1841013E0,2.4994345E1,2.1888765E1,1.0786464E1,6.773723E0,9.904952E0,1.2493097E0,5.6281715E1,1.0304947E0,1.1536067E0,2.811655E0,2.218269E1,1.7210115E1,4.6786485E0,4.49883E0,6.2876344E0,1.5491543E0,5.224569E0,5.9007196E0,4.0042324E0,1.0689695E0,1.7426856E0,1.4671165E0,1.5743E1,1.0591699E0,3.6194785E0,3.0305407E0,1.4682891E0,1.8602992E0,4.0404205E0,1.0238707E0,2.9803617E0,8.576749E0,7.166251E0],"tree_param":{"num_deleted":"0","num_feature":"13","num_nodes":"45","size_leaf_vector":"0"}},{"base_weights":[-2.5320187E-1,-9.114294E-1,5.50205E-1,-9.640507E-1,8.296025E-1,9.4196814E-1,-2.9920874E-2,-5.0052816E-1,-1.0882282E0,1.1031828E0,-3.6977096E-3,-2.9139248E-1,8.117218E-1,-9.135467E-1,3.1182292E-1,3.679793E-1,-1.1260682E0,7.365137E-1,1.1854281E0,8.038805E-1,-5.139309E-1,4.394942E-1,-5.6036997E-1,1.048614E0,1.7767668E-2,-7.909876E-3,-1.0446786E0,1.1091361E0,-8.983041E-1,1.8533635E-1,-1.1609576E0,-2.883386E-1,9.8916453E-1,3.7296835E-1,-9.11003E-1,-3.8464075E-1,9.671119E-1,3.2636705E-1,-7.732874E-1,-4.517316E-1,8.062611E-1,-9.082157E-1,3.2271534E-1],"categories":[],"categories_nodes":[],"categories_segments":[],"categories_sizes":[],"default_left":[1,1,1,1,0,1,1,1,1,1,1,1,1,1,1,0,1,1,0,0,1,1,1,0,0,0,0,0,0,0,0,0,0,0,0,0,0,1,1,0,0,0,0],"id":11,"left_children":[1,3,5,7,-1,9,11,13,15,17,19,21,23,25,27,-1,29,31,-1,-1,33,35,37,-1,-1,-1,-1,-1,-1,-1,-1,-1,-1,-1,-1,-1,-1,39,41,-1,-1,-1,-1],"loss_changes":[6.940516E1,7.3956604E0,1.350555E1,3.5043488E0,0E0,5.405205E0,5.710215E0,5.893118E0,3.4246597E0,3.9794922E-2,2.9499915E0,4.1217303E0,1.139914E0,1.3379488E0,7.151629E0,0E0,2.6626968E0,2.4049673E0,0E0,0E0,1.883268E0,2.9216332E0,3.0560064E0,0E0,0E0,0E0,0E0,0E0,0E0,0E0,0E0,0E0,0E0,0E0,0E0,0E0,0E0,1.7004136E0,2.107779E0,0E0,0E0,0E0,0E0],"parents":[2147483647,0,0,1,1,2,2,3,3,5,5,6,6,7,7,8,8,9,9,10,10,11,11,12,12,13,13,14,14,16,16,17,17,20,20,21,21,22,22,37,37,38,38],"right_children":[2,4,6,8,-1,10,12,14,16,18,20,22,24,26,28,-1,30,32,-1,-1,34,36,38,-1,-1,-1,-1,-1,-1,-1,-1,-1,-1,-1,-1,-1,-1,40,42,-1,-1,-1,-1],"split_conditions":[1.2025E2,6.4725E1,4.5E0,1.6183334E1,8.296025E-2,1.5366667E1,7.133333E1,8.253967E1,3.5E0,4.3800003E1,2.25E1,5.5E0,7.9552536E1,1.9245E3,1.7845E2,3.679793E-2,5.5E0,1.9265E3,1.1854281E-1,8.0388054E-2,4.1233334E1,6.939595E1,2.45E1,1.048614E-1,1.7767668E-3,-7.9098763E-4,-1.0446786E-1,1.1091361E-1,-8.983041E-2,1.8533636E-2,-1.1609576E-1,-2.883386E-2,9.8916456E-2,3.7296835E-2,-9.11003E-2,-3.8464077E-2,9.671119E-2,1.929E3,1.9579166E2,-4.517316E-2,8.0626115E-2,-9.082157E-2,3.2271534E-2],"split_indices":[7,6,9,8,0,8,6,4,9,6,10,12,4,1,5,0,11,1,0,0,6,4,10,0,0,0,0,0,0,0,0,0,0,0,0,0,0,1,7,0,0,0,0],"split_type":[0,0,0,0,0,0,0,0,0,0,0,0,0,0,0,0,0,0,0,0,0,0,0,0,0,0,0,0,0,0,0,0,0,0,0,0,0,0,0,0,0,0,0],"sum_hessian":[1.2929594E2,7.099534E1,5.8300606E1,6.9345695E1,1.649642E0,3.4427643E1,2.3872967E1,1.5715302E1,5.3630394E1,2.9271029E1,5.1566133E0,1.8713163E1,5.159803E0,1.0335777E1,5.3795257E0,1.1373376E0,5.2493057E1,7.186593E0,2.2084435E1,1.7737195E0,3.3828936E0,4.8635635E0,1.38496E1,3.727022E0,1.4327809E0,1.4413929E0,8.894384E0,3.293199E0,2.0863266E0,1.2486138E0,5.1244442E1,1.3933518E0,5.7932415E0,1.064943E0,2.3179505E0,2.0041234E0,2.8594403E0,2.5784206E0,1.1271179E1,1.0059925E0,1.5724281E0,1.0188248E1,1.0829314E0],"tree_param":{"num_deleted":"0","num_feature":"13","num_nodes":"43","size_leaf_vector":"0"}},{"base_weights":[-2.4072324E-1,-8.827126E-1,5.2862424E-1,1.807495E-1,-9.745088E-1,9.1167945E-1,-2.1833513E-2,8.6530733E-1,-3.0397335E-1,-4.798778E-1,-1.1019378E0,1.0706699E0,7.5860985E-4,-2.6823023E-1,7.7540636E-1,-7.0183295E-1,3.7416974E-1,-7.8791475E-1,1.7420183E-1,1.7511667E-1,-1.1393015E0,7.0024854E-1,1.1565775E0,7.772785E-1,-4.8972055E-1,-5.167723E-1,4.801453E-1,1.018928E0,-1.4030073E-2,-9.975101E-1,4.1451553E-1,1.0207003E0,-8.664405E-1,-2.7155247E-1,9.511717E-1,3.5553983E-1,-8.7892437E-1,2.5496924E-1,-7.2544515E-1,1.0105212E0,-2.941364E-1,-1.0828141E0,-2.8281155E-1,7.953188E-1,-4.382422E-1,3.3515383E-2,-9.080207E-1],"categories":[],"categories_nodes":[],"categories_segments":[],"categories_sizes":[],"default_left":[1,1,1,1,1,1,1,0,1,1,1,1,1,1,1,0,0,1,1,0,0,1,0,0,1,1,1,0,0,1,0,0,0,0,0,0,0,1,1,0,0,0,0,0,0,0,0],"id":12,"left_children":[1,3,5,7,9,11,13,-1,15,17,19,21,23,25,27,-1,-1,29,31,-1,-1,33,-1,-1,35,37,39,-1,-1,41,-1,-1,-1,-1,-1,-1,-1,43,45,-1,-1,-1,-1,-1,-1,-1,-1],"loss_changes":[6.106391E1,6.741623E0,1.1919315E1,2.316182E0,3.383297E0,4.8220005E0,4.948715E0,0E0,1.4396422E0,3.0558684E0,2.5175743E0,9.22966E-2,2.6464987E0,3.8154235E0,1.1590774E0,0E0,0E0,2.9410324E0,5.6912856E0,0E0,0E0,2.1778252E0,0E0,0E0,1.7138187E0,2.5810874E0,2.4736614E0,0E0,0E0,2.3234177E-1,0E0,0E0,0E0,0E0,0E0,0E0,0E0,1.8119323E0,1.6893811E0,0E0,0E0,0E0,0E0,0E0,0E0,0E0,0E0],"parents":[2147483647,0,0,1,1,2,2,3,3,4,4,5,5,6,6,8,8,9,9,10,10,11,11,12,12,13,13,14,14,17,17,18,18,21,21,24,24,25,25,26,26,29,29,37,37,38,38],"right_children":[2,4,6,8,10,12,14,-1,16,18,20,22,24,26,28,-1,-1,30,32,-1,-1,34,-1,-1,36,38,40,-1,-1,42,-1,-1,-1,-1,-1,-1,-1,44,46,-1,-1,-1,-1,-1,-1,-1,-1],"split_conditions":[1.2025E2,2.4E1,4.5E0,1.3E1,1.6183334E1,1.5366667E1,7.133333E1,8.653074E-2,1.8625E1,8.253967E1,5.5E0,4.3800003E1,2.25E1,1.9335E3,1.475E1,-7.01833E-2,3.7416976E-2,4.4166668E1,1.7845E2,1.7511668E-2,-1.1393016E-1,1.9265E3,1.1565775E-1,7.772785E-2,4.1233334E1,2.35E1,5.5E0,1.0189281E-1,-1.4030073E-3,3.3933334E1,4.1451555E-2,1.0207003E-1,-8.6644046E-2,-2.7155248E-2,9.5117174E-2,3.5553984E-2,-8.7892435E-2,6.572801E1,1.3101923E2,1.0105212E-1,-2.941364E-2,-1.0828141E-1,-2.8281156E-2,7.953188E-2,-4.3824222E-2,3.3515382E-3,-9.0802066E-2],"split_indices":[7,10,9,2,8,8,6,0,8,4,11,6,10,1,8,0,0,6,5,0,0,1,0,0,6,10,12,0,0,6,0,0,0,0,0,0,0,4,7,0,0,0,0,0,0,0,0],"split_type":[0,0,0,0,0,0,0,0,0,0,0,0,0,0,0,0,0,0,0,0,0,0,0,0,0,0,0,0,0,0,0,0,0,0,0,0,0,0,0,0,0,0,0,0,0,0,0],"sum_hessian":[1.21688194E2,6.62543E1,5.543389E1,5.1875305E0,6.1066772E1,3.230035E1,2.3133543E1,1.8249938E0,3.3625367E0,1.3485815E1,4.758096E1,2.7351158E1,4.9491906E0,1.8178734E1,4.9548087E0,2.0971982E0,1.2653383E0,9.029012E0,4.4568033E0,1.2477365E0,4.633322E1,6.871858E0,2.04793E1,1.6895638E0,3.2596269E0,1.3878904E1,4.2998304E0,3.5645344E0,1.390274E0,7.833907E0,1.1951046E0,2.468221E0,1.9885827E0,1.393347E0,5.4785113E0,1.0549704E0,2.2046566E0,2.9067857E0,1.0972118E1,2.370768E0,1.9290622E0,6.538437E0,1.2954702E0,1.5507219E0,1.356064E0,2.2859461E0,8.6861725E0],"tree_param":{"num_deleted":"0","num_feature":"13","num_nodes":"47","size_leaf_vector":"0"}},{"base_weights":[-2.2933464E-1,-8.418205E-1,5.253874E-1,-2.4931908E-1,-1.0369846E0,1.0137711E-1,9.713001E-1,8.3412665E-1,-4.254916E-1,3.4990278E-1,-1.077511E0,7.7567095E-1,-2.0332424E-1,1.0256556E0,-1.6917127E-1,-9.1255176E-1,-3.7697736E-2,1.6547513E-1,-1.1151361E0,1.0987549E-1,1.0278738E0,-5.548206E-1,5.1077014E-1,1.116397E0,5.942303E-1,-2.766096E-1,-1.0179384E0,-4.9625254E-1,5.736585E-1,7.272735E-1,-5.3093535E-1,-7.1476364E-1,4.0421337E-1,1.0109018E0,-8.297433E-2,-3.880709E-2,7.8327465E-1,4.1853252E-1,-9.465113E-1,-2.1553577E-1,9.8311156E-1,3.3433887E-1,-8.616079E-1,8.504082E-1,-8.237161E-1,1.7590962E-1,9.064127E-1],"categories":[],"categories_nodes":[],"categories_segments":[],"categories_sizes":[],"default_left":[1,1,1,1,1,1,1,0,1,0,1,1,1,1,0,1,1,0,0,1,0,1,1,0,1,0,0,1,1,0,0,1,0,0,1,0,1,0,0,0,0,0,0,0,0,0,0],"id":13,"left_children":[1,3,5,7,9,11,13,-1,15,-1,17,19,21,23,-1,25,27,-1,-1,29,-1,31,33,-1,35,-1,-1,37,39,-1,-1,41,-1,-1,43,-1,45,-1,-1,-1,-1,-1,-1,-1,-1,-1,-1],"loss_changes":[5.3848892E1,7.160755E0,9.8038225E0,3.6406317E0,3.0719223E0,5.9028316E0,1.7487469E0,0E0,2.8873165E0,0E0,2.3747063E0,1.3833046E0,5.3164124E0,2.9167747E-1,0E0,1.750803E-1,2.9913783E0,0E0,0E0,1.7976576E0,0E0,2.4236288E0,2.2026079E0,0E0,7.936144E-1,0E0,0E0,2.8893766E0,1.6989434E0,0E0,0E0,2.181219E0,0E0,0E0,3.5949004E0,0E0,2.1137643E-1,0E0,0E0,0E0,0E0,0E0,0E0,0E0,0E0,0E0,0E0],"parents":[2147483647,0,0,1,1,2,2,3,3,4,4,5,5,6,6,8,8,10,10,11,11,12,12,13,13,15,15,16,16,19,19,21,21,22,22,24,24,27,27,28,28,31,31,34,34,36,36],"right_children":[2,4,6,8,10,12,14,-1,16,-1,18,20,22,24,-1,26,28,-1,-1,30,-1,32,34,-1,36,-1,-1,38,40,-1,-1,42,-1,-1,44,-1,46,-1,-1,-1,-1,-1,-1,-1,-1,-1,-1],"split_conditions":[1.2604793E2,1.6183334E1,1.98925E2,2.05E1,3.5E0,2.35E1,1.75E1,8.341267E-2,1.55E1,3.4990277E-2,5.5E0,4.2975E1,1.9325E3,4.5E0,-1.6917128E-2,1.6103601E2,3.4487183E1,1.6547514E-2,-1.11513615E-1,1.6328E2,1.02787375E-1,6.995833E1,5.5E0,1.116397E-1,2.1825E2,-2.766096E-2,-1.0179384E-1,2.675E1,1.5811499E2,7.272735E-2,-5.3093534E-2,1.3101923E2,4.0421337E-2,1.01090185E-1,1.3861667E2,-3.8807092E-3,6.825E1,4.1853253E-2,-9.465113E-2,-2.1553578E-2,9.8311156E-2,3.3433888E-2,-8.6160794E-2,8.504082E-2,-8.2371615E-2,1.7590962E-2,9.0641275E-2],"split_indices":[7,8,7,10,9,10,8,0,2,0,11,6,1,9,0,5,6,0,0,5,0,6,12,0,7,0,0,6,5,0,0,7,0,0,7,0,6,0,0,0,0,0,0,0,0,0,0],"split_type":[0,0,0,0,0,0,0,0,0,0,0,0,0,0,0,0,0,0,0,0,0,0,0,0,0,0,0,0,0,0,0,0,0,0,0,0,0,0,0,0,0,0,0,0,0,0,0],"sum_hessian":[1.1453457E2,6.3161327E1,5.1373238E1,1.6214125E1,4.69472E1,2.6962465E1,2.4410774E1,1.7453933E0,1.4468732E1,1.1161608E0,4.5831043E1,7.9106927E0,1.9051773E1,2.3396364E1,1.0144101E0,5.8136873E0,8.655045E0,1.2467117E0,4.458433E1,2.5677361E0,5.3429565E0,1.2916814E1,6.134958E0,1.801879E1,5.377574E0,1.3417542E0,4.471933E0,5.0531487E0,3.6018963E0,1.2390394E0,1.3286966E0,1.1288823E1,1.627991E0,2.948634E0,3.1863241E0,1.4193689E0,3.9582052E0,1.6900195E0,3.3631291E0,1.3921733E0,2.209723E0,1.2293222E0,1.0059501E1,1.3443309E0,1.8419931E0,1.0765918E0,2.8816135E0],"tree_param":{"num_deleted":"0","num_feature":"13","num_nodes":"47","size_leaf_vector":"0"}},{"base_weights":[-2.1745408E-1,-8.2940805E-1,4.9233064E-1,1.9123158E-1,-9.2328E-1,9.4554305E-1,7.511367E-2,8.050094E-1,-2.539661E-1,-4.4030657E-1,-1.0554593E0,1.0561175E0,3.3914605E-1,-1.2635782E-1,9.736577E-1,-6.433397E-1,3.6563426E-1,-7.36464E-1,1.780602E-1,1.5637644E-1,-1.0966883E0,1.8180549E-1,1.0983721E0,8.4868747E-1,-4.0653986E-1,-5.977104E-1,1.4604089E-1,-9.265575E-1,7.020857E-2,6.8702304E-1,-7.2354025E-1,-1.0844711E0,2.3170653E-1,6.935021E-1,-2.8763688E-1,-1.023555E0,-3.045672E-1,8.4932536E-1,1.5250428E-1,-7.417237E-1,9.861757E-1,1.0643388E0,-6.7487925E-1,7.534694E-1,-8.4027606E-1],"categories":[],"categories_nodes":[],"categories_segments":[],"categories_sizes":[],"default_left":[1,1,1,1,1,1,1,0,1,1,1,1,1,1,0,0,0,1,1,0,0,0,0,0,0,1,1,1,0,1,0,0,1,1,1,0,0,0,0,0,0,0,0,0,0],"id":14,"left_children":[1,3,5,7,9,11,13,-1,15,17,19,21,23,25,-1,-1,-1,27,29,-1,-1,-1,-1,-1,-1,31,33,35,-1,37,-1,-1,39,41,43,-1,-1,-1,-1,-1,-1,-1,-1,-1,-1],"loss_changes":[4.7614296E1,5.8039055E0,9.562184E0,1.782607E0,2.979988E0,1.273407E0,5.1217504E0,0E0,1.2262143E0,2.56867E0,2.252407E0,5.4314995E-1,2.3306046E0,3.0969296E0,0E0,0E0,0E0,1.474967E0,2.8445492E0,0E0,0E0,0E0,0E0,0E0,0E0,3.79656E0,3.9172533E0,1.414361E-1,0E0,1.9864011E-1,0E0,0E0,3.7217178E0,4.379347E0,6.066958E0,0E0,0E0,0E0,0E0,0E0,0E0,0E0,0E0,0E0,0E0],"parents":[2147483647,0,0,1,1,2,2,3,3,4,4,5,5,6,6,8,8,9,9,10,10,11,11,12,12,13,13,17,17,18,18,25,25,26,26,27,27,29,29,32,32,33,33,34,34],"right_children":[2,4,6,8,10,12,14,-1,16,18,20,22,24,26,-1,-1,-1,28,30,-1,-1,-1,-1,-1,-1,32,34,36,-1,38,-1,-1,40,42,44,-1,-1,-1,-1,-1,-1,-1,-1,-1,-1],"split_conditions":[1.2025E2,2.4E1,1.26E1,1.3E1,1.6183334E1,2.85E1,2.2005E2,8.0500945E-2,1.8625E1,2.95E1,5.5E0,1.9195E3,8.65E0,4.26875E1,9.7365774E-2,-6.433397E-2,3.6563426E-2,4.2833336E1,1.7845E2,1.5637644E-2,-1.0966883E-1,1.818055E-2,1.0983721E-1,8.486875E-2,-4.0653985E-2,1.9295E3,1.9255E3,1.59E1,7.020857E-3,1.7E1,-7.2354026E-2,-1.0844711E-1,1.6071428E1,2.075E1,4.5E0,-1.023555E-1,-3.045672E-2,8.4932536E-2,1.5250429E-2,-7.417237E-2,9.8617576E-2,1.0643388E-1,-6.7487925E-2,7.534694E-2,-8.402761E-2],"split_indices":[7,10,8,2,8,10,7,0,8,10,11,1,8,6,0,0,0,6,5,0,0,0,0,0,0,1,1,8,0,2,0,0,8,8,12,0,0,0,0,0,0,0,0,0,0],"split_type":[0,0,0,0,0,0,0,0,0,0,0,0,0,0,0,0,0,0,0,0,0,0,0,0,0,0,0,0,0,0,0,0,0,0,0,0,0,0,0,0,0,0,0,0,0],"sum_hessian":[1.07680435E2,5.7734787E1,4.9945644E1,4.7754717E0,5.2959316E1,2.3333134E1,2.6612513E1,1.6678545E0,3.107617E0,1.23101225E1,4.0649193E1,1.9107346E1,4.2257876E0,2.2440321E1,4.172192E0,1.8848269E0,1.2227901E0,8.194505E0,4.1156178E0,1.245569E0,3.9403625E1,1.1253223E0,1.7982023E1,2.428332E0,1.7974558E0,7.7813683E0,1.4658952E1,6.511456E0,1.6830492E0,2.7827325E0,1.3328853E0,4.7098083E0,3.0715604E0,6.2146516E0,8.444301E0,5.074491E0,1.4369648E0,1.682808E0,1.0999244E0,1.348541E0,1.7230194E0,5.0643773E0,1.1502746E0,2.8020916E0,5.6422086E0],"tree_param":{"num_deleted":"0","num_feature":"13","num_nodes":"45","size_leaf_vector":"0"}},{"base_weights":[-2.0850815E-1,-8.034833E-1,4.750982E-1,-8.587286E-1,7.4044657E-1,8.403349E-1,-1.3836647E-2,-3.9278686E-2,-9.1802853E-1,9.9987596E-1,-1.363787E-2,-2.1677811E-1,7.495483E-1,-6.4957815E-1,7.9028106E-1,-9.845582E-1,-2.0517161E-1,6.1910194E-1,1.092027E0,6.9576406E-1,-4.5110604E-1,4.1928515E-1,-4.0173095E-1,1.9750454E-1,8.7130964E-1,-4.8481685E-1,-1.0705398E0,3.159247E-1,-7.5435984E-1,-2.562809E-1,8.665893E-1,-7.943733E-1,7.576226E-2,-2.0447536E-1,9.3767333E-1,2.9308474E-1,-6.715145E-1,-8.649464E-1,4.8137975E-1,-5.645769E-1,-1.1155827E0,5.38879E-1,1.327839E-2,7.685907E-1,-6.5531415E-1,1.606977E-1,-1.1054655E0],"categories":[],"categories_nodes":[],"categories_segments":[],"categories_sizes":[],"default_left":[1,1,1,1,0,1,1,1,1,1,1,1,1,0,0,1,1,1,0,0,1,1,1,0,0,1,1,1,0,0,0,0,0,0,0,1,1,0,0,0,0,0,0,0,0,0,0],"id":15,"left_children":[1,3,5,7,-1,9,11,13,15,17,19,21,23,-1,-1,25,27,29,-1,-1,31,33,35,-1,-1,37,39,41,-1,-1,-1,-1,-1,-1,-1,43,45,-1,-1,-1,-1,-1,-1,-1,-1,-1,-1],"loss_changes":[4.1919994E1,5.3249397E0,8.610556E0,2.5655823E0,0E0,3.7711163E0,3.5046926E0,2.8714125E0,2.163681E0,1.3977814E-1,1.9673201E0,2.2646246E0,1.4753485E-1,0E0,0E0,1.4300461E0,1.8183775E0,1.7038784E0,0E0,0E0,7.659304E-1,1.647877E0,2.880168E0,0E0,0E0,3.533254E0,2.333107E-1,2.3156747E-1,0E0,0E0,0E0,0E0,0E0,0E0,0E0,2.6231623E0,4.0112147E0,0E0,0E0,0E0,0E0,0E0,0E0,0E0,0E0,0E0,0E0],"parents":[2147483647,0,0,1,1,2,2,3,3,5,5,6,6,7,7,8,8,9,9,10,10,11,11,12,12,15,15,16,16,17,17,20,20,21,21,22,22,25,25,26,26,27,27,35,35,36,36],"right_children":[2,4,6,8,-1,10,12,14,16,18,20,22,24,-1,-1,26,28,30,-1,-1,32,34,36,-1,-1,38,40,42,-1,-1,-1,-1,-1,-1,-1,44,46,-1,-1,-1,-1,-1,-1,-1,-1,-1,-1],"split_conditions":[1.2025E2,6.4725E1,4.5E0,2.4E1,7.404466E-2,1.5366667E1,2.1825E2,5E-1,1.9355E3,4.3800003E1,2.25E1,5.5E0,6.5E0,-6.495782E-2,7.902811E-2,1.5733334E1,1.8535713E1,1.9265E3,1.092027E-1,6.9576405E-2,1.927E3,1.35E1,1.9245E3,1.9750454E-2,8.7130964E-2,8.90742E1,4.5E0,1.35E1,-7.543599E-2,-2.562809E-2,8.665893E-2,-7.943733E-2,7.576226E-3,-2.0447535E-2,9.376734E-2,1.7562899E1,1.6256E2,-8.649465E-2,4.8137974E-2,-5.6457695E-2,-1.1155827E-1,5.38879E-2,1.3278391E-3,7.685907E-2,-6.553142E-2,1.606977E-2,-1.1054655E-1],"split_indices":[7,6,9,10,0,8,7,0,1,6,10,12,11,0,0,8,8,1,0,0,1,2,1,0,0,4,9,2,0,0,0,0,0,0,0,8,5,0,0,0,0,0,0,0,0,0,0],"split_type":[0,0,0,0,0,0,0,0,0,0,0,0,0,0,0,0,0,0,0,0,0,0,0,0,0,0,0,0,0,0,0,0,0,0,0,0,0,0,0,0,0,0,0,0,0,0,0],"sum_hessian":[1.0112768E2,5.3975163E1,4.715251E1,5.2539E1,1.4361607E0,2.6579096E1,2.0573418E1,3.6576276E0,4.8881374E1,2.225122E1,4.3278747E0,1.6818378E1,3.7550385E0,2.2323031E0,1.4253246E0,4.4360172E1,4.5211997E0,5.839668E0,1.6411552E1,1.4256293E0,2.9022455E0,3.503311E0,1.3315068E1,1.1523874E0,2.6026511E0,7.4864054E0,3.6873768E1,2.5378792E0,1.9833202E0,1.2792667E0,4.560401E0,1.4498848E0,1.4523607E0,1.8648952E0,1.6384156E0,3.6998632E0,9.615205E0,5.447855E0,2.0385506E0,4.1206775E0,3.275309E1,1.0118847E0,1.5259945E0,2.5905905E0,1.1092727E0,3.511223E0,6.103982E0],"tree_param":{"num_deleted":"0","num_feature":"13","num_nodes":"47","size_leaf_vector":"0"}},{"base_weights":[-1.9865483E-1,-7.771792E-1,4.5701677E-1,-2.4431989E-1,-9.669185E-1,9.414845E-1,9.6531905E-2,7.604199E-1,-4.1687587E-1,3.1272858E-1,-1.0127528E0,1.2170496E-1,1.0137866E0,-2.1897279E-1,7.918942E-1,-6.819077E-1,1.8176901E-1,1.5477847E-1,-1.0581763E0,3.5864326E-1,1.0781331E0,-4.0915275E-1,8.2037836E-1,3.757847E-1,9.8666525E-1,-9.8355275E-1,-8.954371E-2,9.1998005E-1,-7.686375E-1,5.956821E-1,-6.692615E-2,-8.698806E-1,-9.187802E-2,9.058552E-1,-6.30973E-1,-6.0902303E-1,2.6349026E-1,-1.0560763E0,-2.577316E-1,9.670336E-1,-4.3645105E-1],"categories":[],"categories_nodes":[],"categories_segments":[],"categories_sizes":[],"default_left":[1,1,1,1,1,1,1,0,1,0,1,0,1,1,1,1,1,0,0,1,0,1,0,1,0,0,1,0,0,0,0,1,1,0,0,0,0,0,0,0,0],"id":16,"left_children":[1,3,5,7,9,11,13,-1,15,-1,17,-1,19,21,23,25,27,-1,-1,29,-1,31,-1,33,-1,-1,35,-1,-1,-1,-1,37,39,-1,-1,-1,-1,-1,-1,-1,-1],"loss_changes":[3.6896435E1,4.9754524E0,7.9052362E0,2.895667E0,2.5263748E0,1.0276356E0,6.177253E0,0E0,2.2403705E0,0E0,2.105194E0,0E0,3.5987854E-1,4.211483E0,3.3902216E-1,1.6016393E0,4.1329875E0,0E0,0E0,3.5079294E-1,0E0,2.440534E0,0E0,2.9236443E0,0E0,0E0,9.473833E-1,0E0,0E0,0E0,0E0,5.158129E-1,4.555689E0,0E0,0E0,0E0,0E0,0E0,0E0,0E0,0E0],"parents":[2147483647,0,0,1,1,2,2,3,3,4,4,5,5,6,6,8,8,10,10,12,12,13,13,14,14,15,15,16,16,19,19,21,21,23,23,26,26,31,31,32,32],"right_children":[2,4,6,8,10,12,14,-1,16,-1,18,-1,20,22,24,26,28,-1,-1,30,-1,32,-1,34,-1,-1,36,-1,-1,-1,-1,38,40,-1,-1,-1,-1,-1,-1,-1,-1],"split_conditions":[1.2025E2,1.6183334E1,2.35E1,2.05E1,3.5E0,3.5875E1,1.9335E3,7.604199E-2,8.253967E1,3.127286E-2,5.5E0,1.2170496E-2,1.05E1,2.55375E2,1.4619643E2,3.3933334E1,1.7845E2,1.5477846E-2,-1.0581763E-1,1.8E1,1.0781331E-1,1.45E1,8.203784E-2,1.387E2,9.866653E-2,-9.835528E-2,1.5E0,9.1998E-2,-7.686375E-2,5.9568208E-2,-6.6926153E-3,5E-1,5.5E0,9.058552E-2,-6.30973E-2,-6.0902305E-2,2.6349027E-2,-1.0560763E-1,-2.5773158E-2,9.6703365E-2,-4.3645106E-2],"split_indices":[7,8,10,10,9,6,1,0,4,0,11,0,2,7,7,6,5,0,0,10,0,2,0,7,0,0,3,0,0,0,0,0,12,0,0,0,0,0,0,0,0],"split_type":[0,0,0,0,0,0,0,0,0,0,0,0,0,0,0,0,0,0,0,0,0,0,0,0,0,0,0,0,0,0,0,0,0,0,0,0,0,0,0,0,0],"sum_hessian":[9.533306E1,5.0547626E1,4.478544E1,1.3873445E1,3.667418E1,1.8419344E1,2.6366095E1,1.5340937E0,1.2339351E1,1.066812E0,3.560737E1,1.710341E0,1.6709003E1,1.8608162E1,7.7579317E0,8.456435E0,3.8829155E0,1.2432921E0,3.4364075E1,2.0822473E0,1.4626757E1,1.6242464E1,2.3656995E0,3.4075012E0,4.3504305E0,5.165607E0,3.2908287E0,2.2034442E0,1.6794713E0,1.0806205E0,1.0016267E0,5.9134984E0,1.0328964E1,2.2978694E0,1.1096317E0,1.0381333E0,2.2526953E0,3.9782503E0,1.9352481E0,2.092379E0,8.236586E0],"tree_param":{"num_deleted":"0","num_feature":"13","num_nodes":"41","size_leaf_vector":"0"}},{"base_weights":[-1.885115E-1,-7.549282E-1,4.4045007E-1,1.9563618E-1,-8.5143805E-1,8.767932E-1,6.2649995E-2,7.3563606E-1,-2.0786771E-1,-3.7279627E-1,-9.964544E-1,9.987604E-1,2.6623157E-1,-1.1670031E-1,8.975275E-1,-5.7625514E-1,3.449129E-1,-6.735914E-1,1.7119104E-1,1.4628568E-1,-1.0456513E0,1.2384592E-1,1.048759E0,7.7133405E-1,-3.9502132E-1,-5.552171E-1,1.417537E-1,3.897853E-1,-9.859268E-1,7.559394E-1,-7.195713E-1,-4.751591E-1,-1.07478E0,-1.0167522E0,2.1288376E-1,6.3637006E-1,-2.4986827E-1,1.9292301E-1,1.0277609E0,-6.2663436E-2,-6.298177E-1,-6.883348E-1,8.9713347E-1,9.887852E-1,-6.19946E-1,6.5542483E-1,-7.307364E-1],"categories":[],"categories_nodes":[],"categories_segments":[],"categories_sizes":[],"default_left":[1,1,1,1,1,1,1,0,1,1,1,1,1,1,0,0,0,1,1,0,1,0,0,0,0,1,1,0,0,1,0,1,0,0,1,1,1,0,0,0,0,0,0,0,0,0,0],"id":17,"left_children":[1,3,5,7,9,11,13,-1,15,17,19,21,23,25,-1,-1,-1,27,29,-1,31,-1,-1,-1,-1,33,35,-1,-1,37,-1,39,-1,-1,41,43,45,-1,-1,-1,-1,-1,-1,-1,-1,-1,-1],"loss_changes":[3.265749E1,4.5801334E0,7.136776E0,1.296306E0,2.6730614E0,1.2359304E0,3.767015E0,0E0,9.691218E-1,2.0456264E0,2.0118904E0,5.895386E-1,1.8816229E0,2.460826E0,0E0,0E0,0E0,2.9746249E0,3.14716E0,0E0,1.81427E-2,0E0,0E0,0E0,0E0,3.051585E0,2.8748581E0,0E0,0E0,3.3809996E-1,0E0,1.735084E-1,0E0,0E0,2.9785001E0,3.480913E0,4.197992E0,0E0,0E0,0E0,0E0,0E0,0E0,0E0,0E0,0E0,0E0],"parents":[2147483647,0,0,1,1,2,2,3,3,4,4,5,5,6,6,8,8,9,9,10,10,11,11,12,12,13,13,17,17,18,18,20,20,25,25,26,26,29,29,31,31,34,34,35,35,36,36],"right_children":[2,4,6,8,10,12,14,-1,16,18,20,22,24,26,-1,-1,-1,28,30,-1,32,-1,-1,-1,-1,34,36,-1,-1,38,-1,40,-1,-1,42,44,46,-1,-1,-1,-1,-1,-1,-1,-1,-1,-1],"split_conditions":[1.2025E2,2.4E1,1.26E1,1.3E1,1.6183334E1,2.85E1,2.2005E2,7.3563606E-2,1.8625E1,3.3933334E1,5.5E0,1.9195E3,8.65E0,4.26875E1,8.9752756E-2,-5.7625514E-2,3.449129E-2,2.675E1,9.455E1,1.4628569E-2,2.65E1,1.2384593E-2,1.048759E-1,7.713341E-2,-3.9502133E-2,1.9295E3,1.9255E3,3.897853E-2,-9.859268E-2,1.5208334E1,-7.195713E-2,7.035217E1,-1.07478E-1,-1.0167523E-1,1.6071428E1,2.075E1,4.5E0,1.92923E-2,1.0277609E-1,-6.266344E-3,-6.298178E-2,-6.8833485E-2,8.971335E-2,9.8878525E-2,-6.19946E-2,6.554248E-2,-7.307364E-2],"split_indices":[7,10,8,2,8,10,7,0,8,6,11,1,8,6,0,0,0,6,7,0,10,0,0,0,0,1,1,0,0,8,0,4,0,0,8,8,12,0,0,0,0,0,0,0,0,0,0],"split_type":[0,0,0,0,0,0,0,0,0,0,0,0,0,0,0,0,0,0,0,0,0,0,0,0,0,0,0,0,0,0,0,0,0,0,0,0,0,0,0,0,0,0,0,0,0,0,0],"sum_hessian":[8.9735695E1,4.7110058E1,4.2625637E1,4.247512E0,4.2862545E1,1.916736E1,2.3458277E1,1.4644938E0,2.7830179E0,1.0796913E1,3.206563E1,1.5446021E1,3.721339E0,2.001815E1,3.4401264E0,1.6445684E0,1.1384495E0,6.7991233E0,3.9977899E0,1.2420462E0,3.0823587E1,1.0229329E0,1.4423089E1,2.0153933E0,1.7059455E0,6.9974356E0,1.3020714E1,1.4873443E0,5.311779E0,2.5048301E0,1.4929597E0,2.3383744E0,2.8485212E1,4.168782E0,2.8286536E0,5.477589E0,7.5431247E0,1.3722557E0,1.1325744E0,1.0208366E0,1.3175378E0,1.2182016E0,1.6104518E0,4.443946E0,1.0336434E0,2.4908297E0,5.052295E0],"tree_param":{"num_deleted":"0","num_feature":"13","num_nodes":"47","size_leaf_vector":"0"}},{"base_weights":[-1.8060416E-1,-7.31732E-1,4.256261E-1,-2.1723613E-1,-9.259459E-1,8.985117E-1,8.9873224E-2,7.121562E-1,-3.8140824E-1,2.9977378E-1,-9.762894E-1,3.368723E-1,1.0338627E0,-2.006842E-1,7.52292E-1,-6.37294E-1,1.9204389E-1,1.3826686E-1,-1.0268123E0,7.819559E-1,-3.4539455E-1,-3.738896E-1,7.729847E-1,3.5604778E-1,9.345777E-1,3.911933E-2,-8.3863497E-1,6.452092E-1,-6.3346076E-1,-8.06185E-1,-7.7740416E-2,8.569061E-1,-5.9085906E-1,-1.60632E-1,-9.514131E-1,7.545262E-1,2.0447607E-1,-9.886214E-1,-2.1244785E-1,9.158144E-1,-3.99901E-1],"categories":[],"categories_nodes":[],"categories_segments":[],"categories_sizes":[],"default_left":[1,1,1,1,1,1,1,0,1,0,1,1,0,1,1,1,1,0,0,0,0,1,0,1,0,0,1,1,0,1,1,0,0,0,0,0,0,0,0,0,0],"id":18,"left_children":[1,3,5,7,9,11,13,-1,15,-1,17,19,-1,21,23,25,27,-1,-1,-1,-1,29,-1,31,-1,-1,33,35,-1,37,39,-1,-1,-1,-1,-1,-1,-1,-1,-1,-1],"loss_changes":[2.8806389E1,4.29945E0,6.4678264E0,2.3542678E0,2.2914486E0,9.4510555E-1,5.007182E0,0E0,1.9201646E0,0E0,1.9072304E0,1.7238383E0,0E0,3.3798542E0,2.3810244E-1,1.2180688E0,2.1102893E0,0E0,0E0,0E0,0E0,2.0156212E0,0E0,2.453486E0,0E0,0E0,3.6340046E-1,1.1067271E-2,0E0,4.9329376E-1,3.8041234E0,0E0,0E0,0E0,0E0,0E0,0E0,0E0,0E0,0E0,0E0],"parents":[2147483647,0,0,1,1,2,2,3,3,4,4,5,5,6,6,8,8,10,10,11,11,13,13,14,14,15,15,16,16,21,21,23,23,26,26,27,27,29,29,30,30],"right_children":[2,4,6,8,10,12,14,-1,16,-1,18,20,-1,22,24,26,28,-1,-1,-1,-1,30,-1,32,-1,-1,34,36,-1,38,40,-1,-1,-1,-1,-1,-1,-1,-1,-1,-1],"split_conditions":[1.2025E2,1.6183334E1,2.35E1,2.05E1,3.5E0,4.1725E1,1.9335E3,7.121562E-2,2.95E1,2.997738E-2,5.5E0,1.3E1,1.03386275E-1,2.55375E2,1.4619643E2,7.5E0,1.7845E2,1.3826686E-2,-1.02681234E-1,7.8195594E-2,-3.4539457E-2,1.45E1,7.729847E-2,1.387E2,9.345777E-2,3.911933E-3,1.9265E3,1.5833334E1,-6.334608E-2,5E-1,5.5E0,8.569061E-2,-5.9085906E-2,-1.60632E-2,-9.5141314E-2,7.545262E-2,2.0447608E-2,-9.886214E-2,-2.1244785E-2,9.158144E-2,-3.99901E-2],"split_indices":[7,8,10,10,9,6,1,0,10,0,11,8,0,7,7,11,5,0,0,0,0,2,0,7,0,0,1,8,0,0,12,0,0,0,0,0,0,0,0,0,0],"split_type":[0,0,0,0,0,0,0,0,0,0,0,0,0,0,0,0,0,0,0,0,0,0,0,0,0,0,0,0,0,0,0,0,0,0,0,0,0,0,0,0,0],"sum_hessian":[8.428602E1,4.4041023E1,4.0245E1,1.2649504E1,3.1391518E1,1.6014097E1,2.42309E1,1.3979164E0,1.1251587E1,1.0429953E0,3.0348522E1,3.7873516E0,1.2226746E1,1.7327545E1,6.9033556E0,7.703018E0,3.548569E0,1.2407346E0,2.9107788E1,2.2036586E0,1.583693E0,1.523364E1,2.093904E0,3.105659E0,3.7976966E0,1.9517478E0,5.751271E0,2.4319456E0,1.1166235E0,5.4930663E0,9.740574E0,2.093413E0,1.0122459E0,1.1659704E0,4.5853E0,1.3781397E0,1.0538057E0,3.6931856E0,1.7998806E0,1.9338341E0,7.80674E0],"tree_param":{"num_deleted":"0","num_feature":"13","num_nodes":"41","size_leaf_vector":"0"}},{"base_weights":[-1.7052817E-1,-7.0823854E-1,4.111337E-1,-2.0387545E-1,-9.0600824E-1,1.314892E-1,9.578171E-1,6.8985236E-1,-3.6298132E-1,2.8603294E-1,-9.5837444E-1,6.8384093E-1,-1.1699693E-1,1.7161979E-1,1.0190527E0,-6.1208606E-1,1.8596382E-1,1.3069424E-1,-1.0117753E0,8.091933E-2,9.2843014E-1,-4.0047398E-1,5.25669E-1,-9.2530334E-1,-4.5129336E-2,8.5150635E-1,-7.0173913E-1,-4.32426E-1,4.957799E-1,-8.6471254E-1,-8.534957E-2,1.1590083E-1,9.415229E-1,2.7840525E-1,-4.5012763E-1,-1.011637E0,-1.331555E-1,4.9666205E-1,-5.884582E-1,7.204852E-1,-6.188091E-1],"categories":[],"categories_nodes":[],"categories_segments":[],"categories_sizes":[],"default_left":[1,1,1,1,1,1,1,0,1,0,1,1,1,0,0,1,1,0,0,1,0,1,1,0,1,0,0,0,0,1,1,1,0,0,0,0,0,0,0,0,0],"id":19,"left_children":[1,3,5,7,9,11,13,-1,15,-1,17,19,21,-1,-1,23,25,-1,-1,27,-1,29,31,-1,33,-1,-1,-1,-1,35,37,39,-1,-1,-1,-1,-1,-1,-1,-1,-1],"loss_changes":[2.5446865E1,4.020773E0,5.8773236E0,2.1225615E0,2.146511E0,3.8048155E0,4.5723724E-1,0E0,1.7317216E0,0E0,1.8166332E0,1.1881881E0,3.7761295E0,0E0,0E0,1.4448426E0,3.2325697E0,0E0,0E0,9.7421205E-1,0E0,1.9960654E0,9.853828E-1,0E0,6.534134E-1,0E0,0E0,0E0,0E0,4.6842337E-1,3.0849707E0,2.389442E0,0E0,0E0,0E0,0E0,0E0,0E0,0E0,0E0,0E0],"parents":[2147483647,0,0,1,1,2,2,3,3,4,4,5,5,6,6,8,8,10,10,11,11,12,12,15,15,16,16,19,19,21,21,22,22,24,24,29,29,30,30,31,31],"right_children":[2,4,6,8,10,12,14,-1,16,-1,18,20,22,-1,-1,24,26,-1,-1,28,-1,30,32,-1,34,-1,-1,-1,-1,36,38,40,-1,-1,-1,-1,-1,-1,-1,-1,-1],"split_conditions":[1.2025E2,1.6183334E1,2.1825E2,2.05E1,3.5E0,2.35E1,1.9195E3,6.898524E-2,8.253967E1,2.8603295E-2,5.5E0,4.2E1,1.9325E3,1.7161978E-2,1.0190528E-1,3.3933334E1,1.7845E2,1.3069424E-2,-1.0117753E-1,1.576E2,9.284302E-2,1.45E1,1.6050995E1,-9.253033E-2,1.932E3,8.515064E-2,-7.017391E-2,-4.32426E-2,4.9577992E-2,1.845E1,7.5286545E1,4.5E0,9.4152294E-2,2.7840525E-2,-4.5012765E-2,-1.011637E-1,-1.331555E-2,4.9666207E-2,-5.8845818E-2,7.204852E-2,-6.1880913E-2],"split_indices":[7,8,7,10,9,10,1,0,4,0,11,6,1,0,0,6,5,0,0,7,0,2,8,0,1,0,0,0,0,8,4,9,0,0,0,0,0,0,0,0,0],"split_type":[0,0,0,0,0,0,0,0,0,0,0,0,0,0,0,0,0,0,0,0,0,0,0,0,0,0,0,0,0,0,0,0,0,0,0,0,0,0,0,0,0],"sum_hessian":[7.9429825E1,4.1161217E1,3.826861E1,1.2165915E1,2.8995302E1,2.6138515E1,1.2130092E1,1.3344197E0,1.0831495E1,1.0323842E0,2.796292E1,7.5667048E0,1.8571812E1,1.1513004E0,1.0978791E1,7.3714137E0,3.4600813E0,1.2393755E0,2.6723543E1,2.5678055E0,4.9988995E0,1.3148792E1,5.4230185E0,4.341103E0,3.030311E0,2.000792E0,1.4592893E0,1.1287537E0,1.4390519E0,4.611352E0,8.53744E0,3.375562E0,2.0474565E0,1.8583428E0,1.1719682E0,3.521289E0,1.090063E0,3.9642668E0,4.5731735E0,1.8623863E0,1.5131755E0],"tree_param":{"num_deleted":"0","num_feature":"13","num_nodes":"41","size_leaf_vector":"0"}},{"base_weights":[-1.6229296E-1,-6.8720174E-1,3.956703E-1,2.0553386E-1,-7.882386E-1,1.2642421E-1,9.375806E-1,-1.6097414E-1,7.031486E-1,-3.203525E-1,-9.44741E-1,6.6055614E-1,-1.1007725E-1,1.6354376E-1,1.0021092E0,3.4499475E-1,-5.1474726E-1,-6.183505E-1,1.8786664E-1,-2.3054509E-1,-1.0611882E0,9.060257E-1,5.030666E-2,-3.7985185E-1,5.0999224E-1,3.6231855E-1,-9.2831784E-1,7.1726024E-1,-6.60922E-1,-7.8809714E-1,8.086425E-1,3.8621446E-1,-3.592515E-1,-8.3298606E-1,-7.924046E-2,1.11215584E-1,9.0540135E-1,1.7735635E-1,9.673955E-1,-9.803613E-1,-1.2686495E-1,8.514567E-1,-3.561703E-1,7.008957E-1,-5.9528315E-1],"categories":[],"categories_nodes":[],"categories_segments":[],"categories_sizes":[],"default_left":[1,1,1,1,1,1,1,1,0,1,1,1,1,0,0,0,0,1,1,1,0,0,1,1,1,0,0,1,0,0,0,0,0,1,1,1,0,0,0,0,0,0,0,0,0],"id":20,"left_children":[1,3,5,7,9,11,13,15,-1,17,19,21,23,-1,-1,-1,-1,25,27,29,-1,-1,31,33,35,-1,-1,37,-1,-1,-1,-1,-1,39,41,43,-1,-1,-1,-1,-1,-1,-1,-1,-1],"loss_changes":[2.2465096E1,3.7167416E0,5.3334327E0,9.886069E-1,2.3048878E0,3.3721406E0,4.4781685E-1,8.180106E-1,0E0,1.6970812E0,1.9319038E0,1.176554E0,3.3654037E0,0E0,0E0,0E0,0E0,2.407415E0,2.5524268E0,3.5032778E0,0E0,0E0,6.0637975E-1,1.8117918E0,8.7299776E-1,0E0,0E0,2.7789688E-1,0E0,0E0,0E0,0E0,0E0,4.3682384E-1,2.7240753E0,2.1730297E0,0E0,0E0,0E0,0E0,0E0,0E0,0E0,0E0,0E0],"parents":[2147483647,0,0,1,1,2,2,3,3,4,4,5,5,6,6,7,7,9,9,10,10,11,11,12,12,17,17,18,18,19,19,22,22,23,23,24,24,27,27,33,33,34,34,35,35],"right_children":[2,4,6,8,10,12,14,16,-1,18,20,22,24,-1,-1,-1,-1,26,28,30,-1,-1,32,34,36,-1,-1,38,-1,-1,-1,-1,-1,40,42,44,-1,-1,-1,-1,-1,-1,-1,-1,-1],"split_conditions":[1.2025E2,2.4E1,2.1825E2,5E-1,1.6183334E1,2.35E1,1.9195E3,2.05E1,7.031486E-2,3.3933334E1,1.35E1,1.35E1,1.9325E3,1.6354376E-2,1.0021092E-1,3.4499478E-2,-5.1474728E-2,2.675E1,9.455E1,1.934E3,-1.0611882E-1,9.060257E-2,4.5E0,1.45E1,1.6050995E1,3.6231857E-2,-9.283178E-2,1.5208334E1,-6.60922E-2,-7.8809716E-2,8.086425E-2,3.8621448E-2,-3.592515E-2,1.845E1,5.5E0,4.5E0,9.054013E-2,1.7735636E-2,9.673955E-2,-9.803613E-2,-1.2686496E-2,8.5145675E-2,-3.561703E-2,7.008957E-2,-5.9528317E-2],"split_indices":[7,10,7,0,8,10,1,10,0,6,2,8,1,0,0,0,0,6,7,1,0,0,9,2,8,0,0,8,0,0,0,0,0,8,12,9,0,0,0,0,0,0,0,0,0],"split_type":[0,0,0,0,0,0,0,0,0,0,0,0,0,0,0,0,0,0,0,0,0,0,0,0,0,0,0,0,0,0,0,0,0,0,0,0,0,0,0,0,0,0,0,0,0],"sum_hessian":[7.4775764E1,3.8409794E1,3.636597E1,3.7999732E0,3.460982E1,2.5118988E1,1.1246983E1,2.577832E0,1.2221411E0,9.438636E0,2.5171186E1,7.158557E0,1.7960432E1,1.1374484E0,1.0109533E1,1.0709562E0,1.5068758E0,5.8132772E0,3.6253583E0,3.9464672E0,2.1224718E1,4.7594233E0,2.3991334E0,1.2785311E1,5.1751213E0,1.3555908E0,4.4576864E0,2.3282053E0,1.297153E0,2.7256854E0,1.2207816E0,1.3493955E0,1.0497379E0,4.392776E0,8.392535E0,3.214506E0,1.9606153E0,1.2782376E0,1.0499678E0,3.3129513E0,1.0798246E0,1.4488053E0,6.94373E0,1.75643E0,1.4580759E0],"tree_param":{"num_deleted":"0","num_feature":"13","num_nodes":"45","size_leaf_vector":"0"}},{"base_weights":[-1.5295838E-1,-6.6475666E-1,3.8230866E-1,-1.7742854E-1,-8.682662E-1,7.232151E-1,-1.8023968E-2,5.676969E-2,-8.00686E-1,-2.1540058E-1,-9.710255E-1,9.04718E-1,-8.792794E-2,-3.4524378E-1,3.2229987E-1,-2.9838443E-1,8.4976375E-1,-7.693053E-1,7.549995E-1,2.4513852E-2,-1.0488462E0,5.046484E-1,1.0035841E0,5.655952E-1,-4.477983E-1,-7.9905444E-1,3.4704325E-1,5.8285457E-1,-7.044784E-1,4.7297907E-1,-6.757232E-1,-3.7458424E-2,6.657807E-1,-7.193054E-1,4.6611894E-2,-6.1628424E-2,-9.5233846E-1,-2.838587E-1,8.5815346E-1,8.658051E-1,-1.2081868E-1,-2.101669E-1,9.329276E-1,-2.1883123E-2,-8.623457E-1,2.326701E-1,1.0023795E0,4.282029E-1,-6.085559E-1],"categories":[],"categories_nodes":[],"categories_segments":[],"categories_sizes":[],"default_left":[1,1,1,1,1,1,1,1,0,1,1,1,1,1,1,1,0,0,0,0,0,1,0,0,1,1,1,1,0,1,1,0,0,0,0,0,0,0,0,1,1,0,0,0,0,0,0,0,0],"id":21,"left_children":[1,3,5,7,9,11,13,15,-1,17,19,21,23,25,27,29,-1,-1,-1,-1,-1,31,-1,-1,33,35,37,39,-1,41,43,-1,-1,-1,-1,-1,-1,-1,-1,45,47,-1,-1,-1,-1,-1,-1,-1,-1],"loss_changes":[1.9850323E1,3.5088024E0,4.871493E0,1.8169938E0,1.5214577E0,2.9137783E0,2.0431952E0,3.0010633E0,0E0,3.1571918E0,1.7303715E0,1.1926174E-1,1.2954707E0,3.207626E0,2.8240352E0,2.496192E0,0E0,0E0,0E0,0E0,0E0,4.744618E-1,0E0,0E0,4.920622E-1,6.1238194E-1,1.659335E0,1.6461661E0,0E0,1.1527551E0,6.441071E-1,0E0,0E0,0E0,0E0,0E0,0E0,0E0,0E0,2.5485516E-1,1.0901564E0,0E0,0E0,0E0,0E0,0E0,0E0,0E0,0E0],"parents":[2147483647,0,0,1,1,2,2,3,3,4,4,5,5,6,6,7,7,9,9,10,10,11,11,12,12,13,13,14,14,15,15,21,21,24,24,25,25,26,26,27,27,29,29,30,30,39,39,40,40],"right_children":[2,4,6,8,10,12,14,16,-1,18,20,22,24,26,28,30,-1,-1,-1,-1,-1,32,-1,-1,34,36,38,40,-1,42,44,-1,-1,-1,-1,-1,-1,-1,-1,46,48,-1,-1,-1,-1,-1,-1,-1,-1],"split_conditions":[1.2025E2,1.6183334E1,4.5E0,1.7845E2,1.35E1,1.5366667E1,4.6425E1,8.105283E1,-8.00686E-2,1.934E3,2.4E1,4.3800003E1,2.25E1,1.6908138E1,1.15E1,4.5E0,8.4976375E-2,-7.693053E-2,7.549995E-2,2.4513851E-3,-1.04884624E-1,1.60625E2,1.0035842E-1,5.655952E-2,1.927E3,5.5E0,1.929E3,1.6583332E1,-7.044784E-2,1.5E0,1.9305E3,-3.7458425E-3,6.6578075E-2,-7.193054E-2,4.6611894E-3,-6.1628423E-3,-9.523385E-2,-2.8385868E-2,8.581535E-2,9.5E0,1.54275E2,-2.101669E-2,9.3292765E-2,-2.1883124E-3,-8.623457E-2,2.326701E-2,1.0023796E-1,4.282029E-2,-6.0855594E-2],"split_indices":[7,8,9,5,2,8,6,4,0,1,10,6,10,8,11,9,0,0,0,0,0,7,0,0,1,12,1,8,0,3,1,0,0,0,0,0,0,0,0,8,7,0,0,0,0,0,0,0,0],"split_type":[0,0,0,0,0,0,0,0,0,0,0,0,0,0,0,0,0,0,0,0,0,0,0,0,0,0,0,0,0,0,0,0,0,0,0,0,0,0,0,0,0,0,0,0,0,0,0,0,0],"sum_hessian":[7.053229E1,3.5932926E1,3.4599365E1,1.1136673E1,2.4796253E1,1.8251024E1,1.634834E1,8.755557E0,2.381116E0,3.7931585E0,2.1003096E1,1.4819601E1,3.4314232E0,8.32726E0,8.021079E0,6.4780087E0,2.2775478E0,2.546719E0,1.2464393E0,1.5724304E0,1.9430664E1,4.14617E0,1.0673431E1,1.015541E0,2.4158823E0,4.9368277E0,3.3904326E0,6.7424617E0,1.2786175E0,2.0447104E0,4.4332986E0,1.1258702E0,3.0203E0,1.2658569E0,1.1500255E0,1.0908704E0,3.8459573E0,1.7163882E0,1.6740443E0,4.644484E0,2.0979776E0,1.0412465E0,1.0034639E0,1.2324866E0,3.2008119E0,1.3038204E0,3.340664E0,1.044405E0,1.0535727E0],"tree_param":{"num_deleted":"0","num_feature":"13","num_nodes":"49","size_leaf_vector":"0"}},{"base_weights":[-1.4628316E-1,-6.4431036E-1,3.6706224E-1,-7.084185E-1,6.4070976E-1,8.246389E-1,7.148346E-2,-1.8062797E-1,-8.083301E-1,2.7292326E-1,9.7486377E-1,-1.7817663E-1,6.859134E-1,2.8279144E-1,-6.548606E-1,-9.0855753E-1,5.328608E-3,7.017379E-1,-3.1307113E-1,-3.183022E-1,6.784301E-1,1.5772282E-1,7.585294E-1,7.430402E-1,-1.4961024E-1,9.404413E-2,-9.8296374E-1,3.6682925E-1,-5.3962314E-1,-7.276393E-1,-4.595097E-2,-1.0243866E0,-2.0661385E-1,1.1410349E-1,4.3653053E-1,-9.068695E-1,-1.6432433E-1,8.3469886E-1,-3.3175552E-1],"categories":[],"categories_nodes":[],"categories_segments":[],"categories_sizes":[],"default_left":[1,1,1,1,0,1,1,1,1,1,0,1,1,1,0,1,1,0,0,1,0,0,0,0,0,0,1,1,0,1,1,0,0,0,0,0,0,0,0],"id":22,"left_children":[1,3,5,7,-1,9,11,13,15,17,-1,19,21,23,-1,25,27,-1,-1,29,-1,-1,-1,-1,-1,-1,31,33,-1,35,37,-1,-1,-1,-1,-1,-1,-1,-1],"loss_changes":[1.7497734E1,3.306919E0,4.5238543E0,1.6185074E0,0E0,8.2821846E-1,3.4480448E0,1.6387086E0,2.275854E0,1.2787082E0,0E0,2.161736E0,1.2853742E-1,9.1586745E-1,0E0,1.9424801E0,9.954631E-1,0E0,0E0,1.5955852E0,0E0,0E0,0E0,0E0,0E0,0E0,5.3357697E-1,3.5490394E-3,0E0,4.3359017E-1,2.754007E0,0E0,0E0,0E0,0E0,0E0,0E0,0E0,0E0],"parents":[2147483647,0,0,1,1,2,2,3,3,5,5,6,6,7,7,8,8,9,9,11,11,12,12,13,13,15,15,16,16,19,19,26,26,27,27,29,29,30,30],"right_children":[2,4,6,8,-1,10,12,14,16,18,-1,20,22,24,-1,26,28,-1,-1,30,-1,-1,-1,-1,-1,-1,32,34,-1,36,38,-1,-1,-1,-1,-1,-1,-1,-1],"split_conditions":[1.2025E2,6.4725E1,2.35E1,4.5E0,6.407098E-2,4.1725E1,1.9335E3,7.711895E1,1.9355E3,1.3E1,9.748638E-2,2.55375E2,1.9345E3,2.65E1,-6.5486066E-2,1.1715909E1,1.8535713E1,7.017379E-2,-3.1307112E-2,1.45E1,6.784301E-2,1.5772281E-2,7.5852945E-2,7.430402E-2,-1.4961024E-2,9.4044125E-3,9.940979E1,8.496667E1,-5.3962316E-2,5E-1,5.5E0,-1.02438666E-1,-2.0661386E-2,1.1410349E-2,4.3653052E-2,-9.068695E-2,-1.6432432E-2,8.346989E-2,-3.3175554E-2],"split_indices":[7,6,10,9,0,6,1,4,1,8,0,7,1,10,0,8,8,0,0,2,0,0,0,0,0,0,4,7,0,0,12,0,0,0,0,0,0,0,0],"split_type":[0,0,0,0,0,0,0,0,0,0,0,0,0,0,0,0,0,0,0,0,0,0,0,0,0,0,0,0,0,0,0,0,0,0,0,0,0,0,0],"sum_hessian":[6.6516365E1,3.363242E1,3.288395E1,3.2461655E1,1.1707646E0,1.2202974E1,2.0680973E1,5.6138644E0,2.684779E1,3.2144294E0,8.988545E0,1.5210525E1,5.470449E0,3.0434732E0,2.570391E0,2.3799505E1,3.0482836E0,1.7420954E0,1.472334E0,1.3612223E1,1.598302E0,1.0445644E0,4.4258847E0,1.1262687E0,1.9172044E0,1.6259797E0,2.2173527E1,2.0291083E0,1.0191754E0,4.7705345E0,8.841688E0,2.0747057E1,1.426469E0,1.0087128E0,1.0203955E0,3.1563857E0,1.6141487E0,1.6958232E0,7.145865E0],"tree_param":{"num_deleted":"0","num_feature":"13","num_nodes":"39","size_leaf_vector":"0"}},{"base_weights":[-1.3637474E-1,-6.187059E-1,3.5345572E-1,-1.3815665E-1,-8.3160913E-1,1.0945168E-1,8.8377035E-1,9.45861E-2,-7.660261E-1,-1.6528738E-1,-9.433519E-1,6.0078454E-1,-9.503279E-2,9.3296856E-2,9.604716E-1,-2.5202444E-1,8.240529E-1,-7.2739595E-1,7.0390105E-1,3.4829397E-2,-1.027903E0,8.5248905E-1,3.237935E-2,-3.3127394E-1,4.672912E-1,4.6797845E-1,-6.251367E-1,1.279639E-1,-8.745917E-2,-7.70023E-1,-4.8056755E-2,7.2974615E-2,8.3767337E-1,5.788239E-3,-8.2144886E-1,-9.235875E-1,-8.7610185E-2,4.7852734E-1,-5.292913E-1,6.4040315E-1,-5.5564725E-1],"categories":[],"categories_nodes":[],"categories_segments":[],"categories_sizes":[],"default_left":[1,1,1,1,1,1,1,1,0,1,1,1,1,0,0,1,0,0,0,0,0,0,1,1,1,0,1,0,0,1,1,1,0,0,0,0,0,0,0,0,0],"id":23,"left_children":[1,3,5,7,9,11,13,15,-1,17,19,21,23,-1,-1,25,-1,-1,-1,-1,-1,-1,27,29,31,-1,33,-1,-1,35,37,39,-1,-1,-1,-1,-1,-1,-1,-1,-1],"loss_changes":[1.537937E1,3.2302256E0,4.105318E0,1.7146078E0,1.5162458E0,2.406266E0,5.222573E-1,2.5056276E0,0E0,2.680234E0,1.6089153E0,9.750259E-1,2.462819E0,0E0,0E0,2.1533904E0,0E0,0E0,0E0,0E0,0E0,0E0,4.773595E-2,1.5559374E0,7.501066E-1,0E0,6.228843E-1,0E0,0E0,4.3910193E-1,2.4977446E0,1.7062242E0,0E0,0E0,0E0,0E0,0E0,0E0,0E0,0E0,0E0],"parents":[2147483647,0,0,1,1,2,2,3,3,4,4,5,5,6,6,7,7,9,9,10,10,11,11,12,12,15,15,22,22,23,23,24,24,26,26,29,29,30,30,31,31],"right_children":[2,4,6,8,10,12,14,16,-1,18,20,22,24,-1,-1,26,-1,-1,-1,-1,-1,-1,28,30,32,-1,34,-1,-1,36,38,40,-1,-1,-1,-1,-1,-1,-1,-1,-1],"split_conditions":[1.2025E2,1.6183334E1,2.1825E2,1.7845E2,1.35E1,2.35E1,1.9195E3,8.105283E1,-7.660261E-2,1.934E3,2.4E1,1.35E1,1.9325E3,9.329686E-3,9.6047156E-2,4.5E0,8.240529E-2,-7.273959E-2,7.0390105E-2,3.4829397E-3,-1.02790296E-1,8.524891E-2,1.68741E2,1.45E1,1.6050995E1,4.6797846E-2,1.9305E3,1.279639E-2,-8.745917E-3,1.845E1,7.5286545E1,4.5E0,8.376734E-2,5.788239E-4,-8.2144886E-2,-9.235875E-2,-8.7610185E-3,4.7852736E-2,-5.292913E-2,6.404032E-2,-5.5564728E-2],"split_indices":[7,8,7,5,2,10,1,4,0,1,10,8,1,0,0,9,0,0,0,0,0,0,5,2,8,0,1,0,0,8,4,9,0,0,0,0,0,0,0,0,0],"split_type":[0,0,0,0,0,0,0,0,0,0,0,0,0,0,0,0,0,0,0,0,0,0,0,0,0,0,0,0,0,0,0,0,0,0,0,0,0,0,0,0,0],"sum_hessian":[6.3169353E1,3.1695755E1,3.1473598E1,1.0237454E1,2.14583E1,2.238184E1,9.091759E0,8.088508E0,2.1489472E0,3.4378133E0,1.8020487E1,6.007954E0,1.6373886E1,1.0001987E0,8.091559E0,5.9268417E0,2.161666E0,2.1867578E0,1.2510554E0,1.4804969E0,1.653999E1,3.8176215E0,2.1903324E0,1.1819297E1,4.5545883E0,1.9362197E0,3.990622E0,1.1807503E0,1.0095823E0,3.9622657E0,7.8570313E0,2.7857964E0,1.7687918E0,1.1773306E0,2.8132913E0,2.9459248E0,1.0163411E0,3.7544277E0,4.102604E0,1.4543127E0,1.3314837E0],"tree_param":{"num_deleted":"0","num_feature":"13","num_nodes":"41","size_leaf_vector":"0"}},{"base_weights":[-1.2953842E-1,-5.990969E-1,3.3986855E-1,-1.3261442E-1,-8.1131357E-1,7.860626E-1,6.600097E-2,9.316808E-2,-7.452277E-1,-1.1628842E-1,-9.17875E-1,2.3265116E-1,9.4867563E-1,-1.6033833E-1,6.365018E-1,-2.3924617E-1,7.987069E-1,4.6396506E-1,-6.462909E-1,1.3145171E-1,-9.998097E-1,-4.0545866E-1,5.855039E-1,-5.805082E-1,1.13577835E-1,2.624751E-1,8.081292E-1,4.3770072E-1,-6.0216993E-1,-7.8584504E-1,-6.8174995E-2,7.1416247E-1,-3.3608055E-1,6.587377E-1,-2.9729614E-1,5.475184E-3,-8.0058575E-1,9.322776E-1,2.1194778E-2,6.9705904E-1,-6.9910175E-1],"categories":[],"categories_nodes":[],"categories_segments":[],"categories_sizes":[],"default_left":[1,1,1,1,1,1,1,1,0,1,1,1,0,1,1,1,0,0,0,0,0,0,0,1,1,1,0,0,1,0,0,1,1,0,0,0,0,0,0,0,0],"id":24,"left_children":[1,3,5,7,9,11,13,15,-1,17,19,21,-1,23,25,27,-1,-1,-1,-1,-1,-1,-1,29,31,33,-1,-1,35,-1,-1,37,39,-1,-1,-1,-1,-1,-1,-1,-1],"loss_changes":[1.3602189E1,2.9366302E0,3.7407873E0,1.5647409E0,1.444171E0,8.3335924E-1,2.7264414E0,2.2522013E0,0E0,1.5081203E0,1.6799965E0,1.1346538E0,0E0,1.8325738E0,1.7138958E-1,1.9202449E0,0E0,0E0,0E0,0E0,0E0,0E0,0E0,6.0091853E-1,2.9753075E0,9.411708E-1,0E0,0E0,5.8439183E-1,0E0,0E0,6.840563E-1,2.9146607E0,0E0,0E0,0E0,0E0,0E0,0E0,0E0,0E0],"parents":[2147483647,0,0,1,1,2,2,3,3,4,4,5,5,6,6,7,7,9,9,10,10,11,11,13,13,14,14,15,15,23,23,24,24,25,25,28,28,31,31,32,32],"right_children":[2,4,6,8,10,12,14,16,-1,18,20,22,-1,24,26,28,-1,-1,-1,-1,-1,-1,-1,30,32,34,-1,-1,36,-1,-1,38,40,-1,-1,-1,-1,-1,-1,-1,-1],"split_conditions":[1.2025E2,1.6183334E1,2.35E1,1.7845E2,2.65E1,4.1725E1,1.9335E3,8.105283E1,-7.452277E-2,4.5E0,5.5E0,1.576E2,9.4867565E-2,5E-1,1.4619643E2,4.5E0,7.987069E-2,4.6396505E-2,-6.462909E-2,1.3145171E-2,-9.998097E-2,-4.0545866E-2,5.8550388E-2,1.55E1,7.6423836E1,1.3841666E2,8.081292E-2,4.377007E-2,1.9305E3,-7.858451E-2,-6.8174996E-3,1.8E1,4.5E0,6.587377E-2,-2.9729614E-2,5.4751843E-4,-8.0058575E-2,9.322777E-2,2.1194778E-3,6.97059E-2,-6.9910176E-2],"split_indices":[7,8,10,5,10,6,1,4,0,9,11,7,0,0,7,9,0,0,0,0,0,0,0,2,4,7,0,0,1,0,0,2,12,0,0,0,0,0,0,0,0],"split_type":[0,0,0,0,0,0,0,0,0,0,0,0,0,0,0,0,0,0,0,0,0,0,0,0,0,0,0,0,0,0,0,0,0,0,0,0,0,0,0,0,0],"sum_hessian":[5.978821E1,2.9751162E1,3.0037048E1,9.810715E0,1.9940447E1,1.0712943E1,1.9324106E1,7.7882304E0,2.0224843E0,2.9288564E0,1.7011591E1,2.9849932E0,7.72795E0,1.4349906E1,4.9742E0,5.7432184E0,2.0450115E0,1.4576266E0,1.4712298E0,1.1883392E0,1.5823252E1,1.0097829E0,1.9752103E0,5.2213693E0,9.128537E0,2.360124E0,2.6140757E0,1.9325225E0,3.8106961E0,3.3463411E0,1.8750283E0,3.6565053E0,5.4720316E0,1.2783681E0,1.0817561E0,1.1773838E0,2.6333122E0,2.5184648E0,1.1380405E0,1.1835496E0,4.2884817E0],"tree_param":{"num_deleted":"0","num_feature":"13","num_nodes":"41","size_leaf_vector":"0"}},{"base_weights":[-1.2190845E-1,-5.8039916E-1,3.2912096E-1,-6.476977E-1,6.0388523E-1,9.877413E-2,8.510422E-1,-1.3967694E-1,-7.5699985E-1,-3.0166227E-1,3.128999E-1,2.0030965E-1,9.2992866E-1,3.200771E-1,-6.2905556E-1,-8.665069E-1,4.615512E-2,2.4064752E-1,-8.6970836E-1,4.6979105E-1,-6.953783E-1,-2.1837237E-1,6.459131E-1,-2.2096415E-1,-1.0094509E0,-2.2295971E-1,3.732166E-1,-4.0593463E-1,6.3532287E-1,7.6563054E-1,-3.6277797E-2,-6.426174E-1,4.2293486E-1,1.2560545E-1,9.924686E-1,5.2192E-1,-7.640116E-1],"categories":[],"categories_nodes":[],"categories_segments":[],"categories_sizes":[],"default_left":[1,1,1,1,0,1,1,1,1,1,1,0,0,1,0,1,1,1,0,1,0,0,0,1,0,0,0,0,0,1,1,0,0,0,0,0,0],"id":25,"left_children":[1,3,5,7,-1,9,11,13,15,17,19,-1,-1,21,-1,23,25,27,-1,29,-1,-1,-1,31,-1,-1,-1,-1,-1,33,35,-1,-1,-1,-1,-1,-1],"loss_changes":[1.210635E1,2.697299E0,3.4846728E0,1.4413776E0,0E0,1.9572742E0,2.7358246E-1,1.5871854E0,2.036705E0,2.698079E0,2.6437225E0,0E0,0E0,8.145213E-1,0E0,1.6251612E0,4.0653613E-1,1.512513E0,0E0,2.014757E0,0E0,0E0,0E0,1.6052119E0,0E0,0E0,0E0,0E0,0E0,1.097887E0,2.7755284E0,0E0,0E0,0E0,0E0,0E0,0E0],"parents":[2147483647,0,0,1,1,2,2,3,3,5,5,6,6,7,7,8,8,9,9,10,10,13,13,15,15,16,16,17,17,19,19,23,23,29,29,30,30],"right_children":[2,4,6,8,-1,10,12,14,16,18,20,-1,-1,22,-1,24,26,28,-1,30,-1,-1,-1,32,-1,-1,-1,-1,-1,34,36,-1,-1,-1,-1,-1,-1],"split_conditions":[1.2025E2,6.4725E1,2.1825E2,4.5E0,6.0388524E-2,4.26875E1,1.9205E3,7.711895E1,1.9355E3,3.8642857E1,1.15E1,2.0030966E-2,9.2992865E-2,1.925E3,-6.290556E-2,1.5733334E1,8.496667E1,1.9295E3,-8.6970836E-2,1.6410713E1,-6.953783E-2,-2.1837238E-2,6.459131E-2,8.90742E1,-1.0094509E-1,-2.2295972E-2,3.732166E-2,-4.0593464E-2,6.3532285E-2,4.73E1,1.51875E2,-6.426174E-2,4.2293485E-2,1.25605455E-2,9.924686E-2,5.2192003E-2,-7.640117E-2],"split_indices":[7,6,7,9,0,6,1,4,1,6,11,0,0,1,0,8,7,1,0,8,0,0,0,4,0,0,0,0,0,6,7,0,0,0,0,0,0],"split_type":[0,0,0,0,0,0,0,0,0,0,0,0,0,0,0,0,0,0,0,0,0,0,0,0,0,0,0,0,0,0,0,0,0,0,0,0,0],"sum_hessian":[5.661965E1,2.7935345E1,2.8684307E1,2.6861967E1,1.0733778E0,2.0726181E1,7.9581256E0,5.1594553E0,2.1702513E1,7.0789795E0,1.3647202E1,1.2430935E0,6.715032E0,2.8386216E0,2.3208334E0,1.902909E1,2.6734211E0,3.9163888E0,3.1625907E0,1.2271747E1,1.375455E0,1.1944997E0,1.6441218E0,3.9112935E0,1.5117798E1,1.6412507E0,1.0321703E0,1.473644E0,2.4427447E0,7.420782E0,4.8509645E0,2.3647451E0,1.5465484E0,2.3484206E0,5.0723615E0,2.9053059E0,1.9456587E0],"tree_param":{"num_deleted":"0","num_feature":"13","num_nodes":"37","size_leaf_vector":"0"}},{"base_weights":[-1.1631807E-1,4.6461165E-1,-4.4675928E-1,7.000721E-1,-1.5250587E-1,-6.3524926E-1,2.50904E-1,-1.451351E-1,8.579551E-1,6.750671E-1,-4.95249E-1,-7.425795E-1,1.21551014E-1,4.632407E-1,-6.1202294E-1,3.1833154E-1,-5.6509334E-1,3.1107852E-1,9.323529E-1,-7.8507704E-1,3.440672E-1,5.117268E-2,-8.098125E-1,7.018362E-1,-3.419747E-1,7.01734E-1,-1.17354535E-1,1.015505E0,4.0955192E-1,-9.021419E-1,-1.4162527E-1,-5.658503E-1,6.3221544E-2,1.2507348E-1,9.14838E-1,-7.5807595E-3,6.145027E-1,-9.490117E-1,-1.4302559E-1,-6.5445787E-1,2.9869702E-1],"categories":[],"categories_nodes":[],"categories_segments":[],"categories_sizes":[],"default_left":[1,1,1,1,1,1,1,1,1,0,1,1,1,1,0,0,0,0,1,0,0,0,1,0,1,1,0,0,1,1,1,0,0,0,0,0,0,0,0,0,0],"id":26,"left_children":[1,3,5,7,9,11,13,15,17,-1,19,21,23,25,-1,-1,-1,-1,27,-1,-1,-1,29,-1,31,33,-1,-1,35,37,39,-1,-1,-1,-1,-1,-1,-1,-1,-1,-1],"loss_changes":[1.0707033E1,3.059599E0,4.8111343E0,2.1112318E0,2.1591203E0,2.3754158E0,1.7935362E0,8.0245817E-1,2.2625065E-1,0E0,1.51708E0,1.3638124E0,1.411028E0,1.0769492E0,0E0,0E0,0E0,0E0,4.7904015E-2,0E0,0E0,0E0,1.2852364E0,0E0,3.1632107E-1,5.288646E-1,0E0,0E0,2.7309805E-1,5.736103E-1,1.0912355E0,0E0,0E0,0E0,0E0,0E0,0E0,0E0,0E0,0E0,0E0],"parents":[2147483647,0,0,1,1,2,2,3,3,4,4,5,5,6,6,7,7,8,8,10,10,11,11,12,12,13,13,18,18,22,22,24,24,25,25,28,28,29,29,30,30],"right_children":[2,4,6,8,10,12,14,16,18,-1,20,22,24,26,-1,-1,-1,-1,28,-1,-1,-1,30,-1,32,34,-1,-1,36,38,40,-1,-1,-1,-1,-1,-1,-1,-1,-1,-1],"split_conditions":[4.5E0,1.6395832E1,4.6425E1,9.363333E1,2.4E1,1.9355E3,1.15E1,8.404167E1,1.9215E3,6.7506716E-2,1.933E3,1.1965909E1,1.35E1,1.6583332E1,-6.1202295E-2,3.1833153E-2,-5.6509335E-2,3.1107852E-2,2.85E1,-7.850771E-2,3.4406718E-2,5.1172683E-3,4.43E1,7.018363E-2,1.938E3,1.45E1,-1.1735453E-2,1.015505E-1,1.18E1,1.56125E2,1.6792065E1,-5.6585032E-2,6.3221543E-3,1.2507348E-2,9.14838E-2,-7.5807597E-4,6.1450273E-2,-9.490117E-2,-1.4302559E-2,-6.544579E-2,2.9869704E-2],"split_indices":[9,8,6,7,10,1,11,7,1,0,1,8,2,8,0,0,0,0,10,0,0,0,6,0,1,2,0,0,8,7,8,0,0,0,0,0,0,0,0,0,0],"split_type":[0,0,0,0,0,0,0,0,0,0,0,0,0,0,0,0,0,0,0,0,0,0,0,0,0,0,0,0,0,0,0,0,0,0,0,0,0,0,0,0,0],"sum_hessian":[5.369521E1,1.9321375E1,3.4373833E1,1.3888001E1,5.4333735E0,2.7132751E1,7.2410817E0,2.198633E0,1.1689369E1,1.307277E0,4.1260962E0,2.3779156E1,3.353596E0,6.1828656E0,1.0582162E0,1.1602125E0,1.0384204E0,2.0202663E0,9.669103E0,3.1150482E0,1.0110482E0,1.8755295E0,2.1903625E1,1.2609253E0,2.092671E0,4.2347116E0,1.9481541E0,7.5291524E0,2.13995E0,1.893682E1,2.9668057E0,1.0925434E0,1.0001274E0,1.5708625E0,2.6638489E0,1.0222977E0,1.1176522E0,1.7599998E1,1.3368211E0,1.1458945E0,1.820911E0],"tree_param":{"num_deleted":"0","num_feature":"13","num_nodes":"41","size_leaf_vector":"0"}},{"base_weights":[-1.0859586E-1,4.502963E-1,-4.263683E-1,6.7771703E-1,-1.3895641E-1,-6.0976493E-1,2.3644787E-1,-1.4129151E-1,8.355473E-1,6.547175E-1,-4.696571E-1,-7.1609205E-1,1.1616338E-1,4.412909E-1,-5.9381706E-1,2.4007939E-1,-4.3397075E-1,3.88178E-1,9.514335E-1,-7.5787055E-1,3.24482E-1,4.7845393E-2,-7.8482234E-1,6.732317E-1,-3.2994133E-1,6.73531E-1,-1.1001477E-1,-3.5709178E-1,7.50176E-1,1.0029241E0,2.9480436E-1,-8.782365E-1,-1.3884707E-1,-5.505249E-1,6.0047317E-2,1.1794998E-1,8.86679E-1,-9.2769486E-1,-1.3508964E-1,-6.3497066E-1,2.8030586E-1],"categories":[],"categories_nodes":[],"categories_segments":[],"categories_sizes":[],"default_left":[1,1,1,1,1,1,1,1,1,0,1,1,1,1,0,0,0,1,1,0,0,0,1,0,1,1,0,0,0,0,0,1,1,0,0,0,0,0,0,0,0],"id":27,"left_children":[1,3,5,7,9,11,13,15,17,-1,19,21,23,25,-1,-1,-1,27,29,-1,-1,-1,31,-1,33,35,-1,-1,-1,-1,-1,37,39,-1,-1,-1,-1,-1,-1,-1,-1],"loss_changes":[9.438503E0,2.6883445E0,4.2413297E0,1.9455557E0,1.9402027E0,2.1424923E0,1.6269575E0,4.5462987E-1,2.5270176E-1,0E0,1.3842095E0,1.2667532E0,1.2830155E0,9.717392E-1,0E0,0E0,0E0,1.38957E0,3.2291412E-3,0E0,0E0,0E0,1.1776075E0,0E0,2.947197E-1,4.9620032E-1,0E0,0E0,0E0,0E0,0E0,5.5932236E-1,9.907914E-1,0E0,0E0,0E0,0E0,0E0,0E0,0E0,0E0],"parents":[2147483647,0,0,1,1,2,2,3,3,4,4,5,5,6,6,7,7,8,8,10,10,11,11,12,12,13,13,17,17,18,18,22,22,24,24,25,25,31,31,32,32],"right_children":[2,4,6,8,10,12,14,16,18,-1,20,22,24,26,-1,-1,-1,28,30,-1,-1,-1,32,-1,34,36,-1,-1,-1,-1,-1,38,40,-1,-1,-1,-1,-1,-1,-1,-1],"split_conditions":[4.5E0,1.6395832E1,4.6425E1,9.363333E1,2.4E1,1.9355E3,1.15E1,1.4E1,1.9235E3,6.547175E-2,1.933E3,1.1965909E1,1.35E1,1.6583332E1,-5.9381705E-2,2.4007939E-2,-4.3397076E-2,4.5208336E1,8.679036E1,-7.578706E-2,3.24482E-2,4.7845393E-3,4.43E1,6.732317E-2,1.938E3,1.45E1,-1.1001477E-2,-3.570918E-2,7.50176E-2,1.0029241E-1,2.9480437E-2,1.56125E2,1.6792065E1,-5.505249E-2,6.0047316E-3,1.1794998E-2,8.86679E-2,-9.276949E-2,-1.3508963E-2,-6.349707E-2,2.8030587E-2],"split_indices":[9,8,6,7,10,1,11,2,1,0,1,8,2,8,0,0,0,6,4,0,0,0,6,0,1,2,0,0,0,0,0,7,8,0,0,0,0,0,0,0,0],"split_type":[0,0,0,0,0,0,0,0,0,0,0,0,0,0,0,0,0,0,0,0,0,0,0,0,0,0,0,0,0,0,0,0,0,0,0,0,0,0,0,0,0],"sum_hessian":[5.106354E1,1.8358288E1,3.2705254E1,1.3137695E1,5.220593E0,2.5679855E1,7.0253987E0,2.1396208E0,1.0998075E1,1.2473038E0,3.973289E0,2.2410872E1,3.2689836E0,6.0108867E0,1.0145124E0,1.00708E0,1.1325408E0,3.1576943E0,7.84038E0,2.9487736E0,1.0245154E0,1.8749266E0,2.0535944E1,1.2272877E0,2.0416958E0,4.073292E0,1.9375948E0,1.036773E0,2.1209211E0,6.781235E0,1.059145E0,1.7627317E1,2.9086266E0,1.0411577E0,1.0005381E0,1.5601231E0,2.5131686E0,1.629454E1,1.3327786E0,1.0962168E0,1.8124098E0],"tree_param":{"num_deleted":"0","num_feature":"13","num_nodes":"41","size_leaf_vector":"0"}},{"base_weights":[-1.0139447E-1,6.189449E-1,-3.309172E-1,-1.2681784E-1,7.56407E-1,-7.615133E-1,-5.1846724E-2,9.4182914E-1,1.8442813E-1,-8.2257235E-1,1.1008931E-2,6.927573E-1,-1.967227E-1,6.19333E-1,-2.4389113E-1,-1.9323017E-1,-9.3294543E-1,7.5053084E-1,-2.9684803E-1,-5.486496E-1,2.2547926E-1,-2.9353184E-1,-9.8518795E-1,-1.0194695E-1,-5.3087026E-1,3.535302E-1,-3.8195276E-1,-7.1550524E-1,1.861291E-1],"categories":[],"categories_nodes":[],"categories_segments":[],"categories_sizes":[],"default_left":[1,1,1,0,1,1,1,0,1,1,0,0,1,0,0,1,1,0,1,0,0,0,0,1,1,0,0,0,0],"id":28,"left_children":[1,3,5,-1,7,9,11,-1,13,15,-1,-1,17,-1,-1,19,21,-1,23,-1,-1,-1,-1,25,27,-1,-1,-1,-1],"loss_changes":[8.406308E0,1.3604331E0,4.559362E0,0E0,9.461374E-1,7.154894E-1,2.7570052E0,0E0,8.64203E-1,7.8474903E-1,0E0,0E0,2.2255135E0,0E0,0E0,6.1988986E-1,9.692383E-2,0E0,8.4961486E-1,0E0,0E0,0E0,0E0,1.6716168E0,1.2936044E0,0E0,0E0,0E0,0E0],"parents":[2147483647,0,0,1,1,2,2,4,4,5,5,6,6,8,8,9,9,12,12,15,15,16,16,18,18,23,23,24,24],"right_children":[2,4,6,-1,8,10,12,-1,14,16,-1,-1,18,-1,-1,20,22,-1,24,-1,-1,-1,-1,26,28,-1,-1,-1,-1],"split_conditions":[2.35E1,1.5E0,3.4642857E1,-1.2681784E-2,4.5E0,1.938E3,3.5E0,9.4182916E-2,1.3375E1,1.35E1,1.1008931E-3,6.927573E-2,5.5E0,6.1933305E-2,-2.4389114E-2,1.6167099E2,1.922E3,7.505309E-2,1.6979565E1,-5.486496E-2,2.2547927E-2,-2.9353185E-2,-9.8518796E-2,1.2944215E2,1.9335E3,3.535302E-2,-3.819528E-2,-7.1550526E-2,1.861291E-2],"split_indices":[10,3,6,0,9,1,9,0,8,2,0,0,11,0,0,5,1,0,8,0,0,0,0,7,1,0,0,0,0],"split_type":[0,0,0,0,0,0,0,0,0,0,0,0,0,0,0,0,0,0,0,0,0,0,0,0,0,0,0,0,0],"sum_hessian":[4.8605495E1,1.1334955E1,3.7270542E1,1.7761861E0,9.558769E0,1.3976514E1,2.3294027E1,6.7303376E0,2.828432E0,1.2892706E1,1.0838088E0,3.178108E0,2.011592E1,1.1821474E0,1.6462846E0,2.3341568E0,1.0558549E1,1.3020195E0,1.88139E1,1.0946411E0,1.2395155E0,1.2974354E0,9.261113E0,1.1048223E1,7.765678E0,4.1062026E0,6.9420195E0,6.177094E0,1.5885838E0],"tree_param":{"num_deleted":"0","num_feature":"13","num_nodes":"29","size_leaf_vector":"0"}},{"base_weights":[-9.4496764E-2,-5.146809E-1,2.8038442E-1,-1.0537845E-1,-7.262147E-1,7.1677697E-1,3.509196E-2,1.1931219E-1,-6.808111E-1,-3.938117E-2,-8.7020224E-1,9.0454406E-1,1.4738333E-1,-1.6981679E-1,5.89852E-1,-2.2244108E-1,7.567629E-1,-6.055576E-1,5.914977E-1,8.45361E-2,-9.7060084E-1,-3.0131367E-1,5.477872E-1,-5.636909E-1,1.09580256E-1,7.3744655E-1,2.4122372E-1,3.9550424E-1,-6.1529654E-1,6.6693784E-3,-7.0095134E-1,5.779146E-1,-2.631922E-1,-7.9511905E-1,-2.2798958E-1,8.159796E-1,-1.2701279E-2,6.324136E-1,-6.1058307E-1],"categories":[],"categories_nodes":[],"categories_segments":[],"categories_sizes":[],"default_left":[1,1,1,1,1,1,1,1,0,1,1,0,1,1,1,1,0,0,0,0,0,0,0,1,1,0,0,0,0,0,1,1,1,0,0,0,0,0,0],"id":29,"left_children":[1,3,5,7,9,11,13,15,-1,17,19,-1,21,23,25,27,-1,-1,-1,-1,-1,-1,-1,29,31,-1,-1,-1,-1,-1,33,35,37,-1,-1,-1,-1,-1,-1],"loss_changes":[7.640909E0,1.8968859E0,2.736478E0,1.2365674E0,1.4350076E0,8.536954E-1,2.0971222E0,1.7536958E0,0E0,1.6519983E0,1.2547989E0,0E0,7.9100007E-1,1.5589831E0,7.743418E-2,1.5810406E0,0E0,0E0,0E0,0E0,0E0,0E0,0E0,4.594258E-1,1.6878123E0,0E0,0E0,0E0,0E0,0E0,2.7664423E-2,6.025151E-1,2.1237874E0,0E0,0E0,0E0,0E0,0E0,0E0],"parents":[2147483647,0,0,1,1,2,2,3,3,4,4,5,5,6,6,7,7,9,9,10,10,12,12,13,13,14,14,15,15,23,23,24,24,30,30,31,31,32,32],"right_children":[2,4,6,8,10,12,14,16,-1,18,20,-1,22,24,26,28,-1,-1,-1,-1,-1,-1,-1,30,32,-1,-1,-1,-1,-1,34,36,38,-1,-1,-1,-1,-1,-1],"split_conditions":[1.1521213E2,1.6183334E1,2.35E1,1.7845E2,1.35E1,1.3541666E1,1.9335E3,8.105283E1,-6.808111E-2,1.934E3,2.4E1,9.045441E-2,1.56E1,5E-1,5.5E0,4.5E0,7.567629E-2,-6.0555764E-2,5.9149772E-2,8.45361E-3,-9.7060084E-2,-3.0131368E-2,5.477872E-2,4.5E0,7.6423836E1,7.3744655E-2,2.4122372E-2,3.9550424E-2,-6.1529655E-2,6.6693785E-4,1.6937899E1,1.6035713E1,4.5E0,-7.95119E-2,-2.279896E-2,8.159796E-2,-1.2701278E-3,6.324136E-2,-6.105831E-2],"split_indices":[7,8,10,5,2,8,1,4,0,1,10,0,8,0,12,9,0,0,0,0,0,0,0,9,4,0,0,0,0,0,8,8,12,0,0,0,0,0,0],"split_type":[0,0,0,0,0,0,0,0,0,0,0,0,0,0,0,0,0,0,0,0,0,0,0,0,0,0,0,0,0,0,0,0,0,0,0,0,0,0,0],"sum_hessian":[4.659168E1,2.1792604E1,2.4799076E1,7.935723E0,1.3856881E1,8.231869E0,1.6567207E1,6.2772756E0,1.6584471E0,2.6222088E0,1.1234672E1,5.74782E0,2.484049E0,1.2605187E1,3.9620194E0,4.510259E0,1.7670168E0,1.4031245E0,1.2190845E0,1.0840374E0,1.0150635E1,1.2880838E0,1.1959653E0,4.808699E0,7.796489E0,2.0000162E0,1.9620032E0,1.7503264E0,2.7599325E0,1.117315E0,3.691384E0,3.211452E0,4.5850368E0,2.510408E0,1.1809763E0,2.0169053E0,1.1945467E0,1.0521164E0,3.5329201E0],"tree_param":{"num_deleted":"0","num_feature":"13","num_nodes":"39","size_leaf_vector":"0"}},{"base_weights":[-8.772691E-2,-4.9605346E-1,2.7133483E-1,1.2309521E-2,-6.536224E-1,6.682229E-2,7.8044254E-1,4.636287E-1,-5.9762585E-1,1.793351E-1,-7.4623966E-1,4.928322E-1,-1.0177864E-1,1.235752E-1,8.7735164E-1,8.067802E-1,-5.8215477E-2,-8.981334E-1,3.869131E-2,7.8029215E-1,-5.1348254E-2,-2.7464712E-1,4.387943E-1,-9.6654236E-1,-6.832817E-2,2.1831444E-1,-1.3474075E-1,-6.6350883E-1,-8.895667E-3,8.052804E-2,6.59796E-1,-7.886526E-1,-2.029138E-1,-6.838995E-1,1.9136864E-1],"categories":[],"categories_nodes":[],"categories_segments":[],"categories_sizes":[],"default_left":[1,1,1,1,1,1,1,1,0,0,1,1,1,0,0,0,0,1,1,0,0,1,1,0,0,0,0,1,1,0,0,0,0,0,0],"id":30,"left_children":[1,3,5,7,9,11,13,15,-1,-1,17,19,21,-1,-1,-1,-1,23,25,-1,-1,27,29,-1,-1,-1,-1,31,33,-1,-1,-1,-1,-1,-1],"loss_changes":[6.7887754E0,1.7374148E0,2.5295844E0,1.953478E0,1.4067106E0,1.399298E0,3.3797312E-1,7.745682E-1,0E0,0E0,1.8281908E0,8.9999413E-1,1.4555408E0,0E0,0E0,0E0,0E0,6.5175056E-1,1.3525985E-1,0E0,0E0,1.1762869E0,2.514292E-1,0E0,0E0,0E0,0E0,1.0688043E-1,1.1865143E0,0E0,0E0,0E0,0E0,0E0,0E0],"parents":[2147483647,0,0,1,1,2,2,3,3,4,4,5,5,6,6,7,7,10,10,11,11,12,12,17,17,18,18,21,21,22,22,27,27,28,28],"right_children":[2,4,6,8,10,12,14,16,-1,-1,18,20,22,-1,-1,-1,-1,24,26,-1,-1,28,30,-1,-1,-1,-1,32,34,-1,-1,-1,-1,-1,-1],"split_conditions":[1.1521213E2,4.5E0,2.1825E2,7.711895E1,1.1715909E1,2.35E1,1.9205E3,2.65E1,-5.9762586E-2,1.793351E-2,1.9355E3,1.35E1,1.9335E3,1.2357521E-2,8.773517E-2,8.067802E-2,-5.821548E-3,9.728612E1,6.9325516E1,7.8029215E-2,-5.1348256E-3,4.3800003E1,1.6050995E1,-9.665424E-2,-6.832817E-3,2.1831444E-2,-1.3474076E-2,1.65E1,5.6162292E1,8.0528045E-3,6.59796E-2,-7.886526E-2,-2.029138E-2,-6.838995E-2,1.9136865E-2],"split_indices":[7,9,7,4,8,10,1,10,0,0,1,8,1,0,0,0,0,4,4,0,0,6,8,0,0,0,0,2,4,0,0,0,0,0,0],"split_type":[0,0,0,0,0,0,0,0,0,0,0,0,0,0,0,0,0,0,0,0,0,0,0,0,0,0,0,0,0,0,0,0,0,0,0],"sum_hessian":[4.438556E1,2.058953E1,2.379603E1,5.0899043E0,1.5499627E1,1.7783508E1,6.0125213E0,3.0631852E0,2.026719E0,1.4572728E0,1.4042354E1,4.497201E0,1.3286307E1,1.0655051E0,4.9470162E0,1.5185847E0,1.5446004E0,1.1644735E1,2.3976183E0,2.6588142E0,1.8383869E0,1.0439741E1,2.8465657E0,1.0605627E1,