{"learner":{"attributes":{"best_iteration":"50","best_score":"0.2606824917948983"},"feature_names":["AGE","PTGENDER","PTEDUCAT","PTMARRY","VSWEIGHT","BMI","MH14ALCH","MH16SMOK","MH4CARD","MHPSYCH","MH2NEURL","TRAASCOR","TRABSCOR","TRABERRCOM","CATANIMSC","CLOCKSCOR","BNTTOTAL","DSPANFOR","DSPANBAC"],"feature_types":[],"gradient_booster":{"model":{"cats":{"enc":[],"feature_segments":[],"sorted_idx":[]},"gbtree_model_param":{"num_parallel_tree":"1","num_trees":"71"},"iteration_indptr":[0,1,2,3,4,5,6,7,8,9,10,11,12,13,14,15,16,17,18,19,20,21,22,23,24,25,26,27,28,29,30,31,32,33,34,35,36,37,38,39,40,41,42,43,44,45,46,47,48,49,50,51,52,53,54,55,56,57,58,59,60,61,62,63,64,65,66,67,68,69,70,71],"tree_info":[0,0,0,0,0,0,0,0,0,0,0,0,0,0,0,0,0,0,0,0,0,0,0,0,0,0,0,0,0,0,0,0,0,0,0,0,0,0,0,0,0,0,0,0,0,0,0,0,0,0,0,0,0,0,0,0,0,0,0,0,0,0,0,0,0,0,0,0,0,0,0],"trees":[{"base_weights":[-3.66931E-2,-9.647495E-1,1.3573276E0,-1.1583827E0,9.051402E-1,-1.7260659E0,1.4926872E0,-1.4333141E0,-3.8242885E-1,-9.2559665E-2,1.1817057E0,-1.8666667E-1,9.775171E-3,8.0678815E-1,1.7870051E0,8.143676E-1,-1.4864596E0,-8.3093435E-1,2.2820858E-2,6.14848E-1,-9.0062934E-1,1.2901881E0,-5.783372E-1,2.4111119E-1,1.6546196E0,1.8013191E0,1.2824623E-1,-1.5892388E-1,1.2392197E0,-1.8658487E0,-1.243326E0,-6.25582E-1,-1.8095239E-1,7.7454436E-1,-1.045462E0,1.1623983E0,-1.1111112E-1,1.2824623E-1,-1.5E-1,1.4396864E0,5.5807346E-1,9.775171E-3,-1E-1,7.129107E-1,-6.685836E-1,-1.5892388E-1,1.7790046E-1,1.2515564E0,1.8453032E0,1.09319665E-1,-1E-1,5.2155744E-2,-1E-1,1.616816E-1,-1.2515016E-2,-1.9133674E-1,-7.366053E-2,-1.4789383E-1,-9.207719E-2,-9.0466775E-2,1.0559106E-2,1.0086204E-1,-1.1355489E-1,6.1484803E-2,-1.5078674E-1,1.3835596E-1,9.775171E-3,1.09319665E-1,-1E-1,2.7515037E-2,1.5527505E-1,-4.5375124E-2,9.179872E-2,1.139058E-1,-2.9802939E-2,9.772697E-2,-9.524363E-2,1.09319665E-1,-1.20000005E-1,1.464443E-1,-1.5892388E-2,1.8901546E-1,1.2162932E-1],"categories":[],"categories_nodes":[],"categories_segments":[],"categories_sizes":[],"default_left":[0,0,0,0,0,0,0,0,0,0,0,0,0,0,0,0,0,0,0,0,0,0,0,0,0,0,0,0,0,0,0,0,0,0,0,0,0,0,0,0,0,0,0,0,0,0,0,0,0,0,0,0,0,0,0,0,0,0,0,0,0,0,0,0,0,0,0,0,0,0,0,0,0,0,0,0,0,0,0,0,0,0,0],"id":0,"left_children":[1,3,5,7,9,11,13,15,17,19,21,-1,-1,23,25,27,29,31,33,35,37,39,41,43,45,47,49,51,53,55,57,59,-1,61,63,65,-1,67,-1,69,71,-1,-1,73,75,77,-1,79,81,-1,-1,-1,-1,-1,-1,-1,-1,-1,-1,-1,-1,-1,-1,-1,-1,-1,-1,-1,-1,-1,-1,-1,-1,-1,-1,-1,-1,-1,-1,-1,-1,-1,-1],"loss_changes":[1.2037639E3,2.0328894E2,1.5778888E2,1.07524475E2,1.4726688E1,4.3117104E0,7.058264E1,4.584955E1,2.4355637E1,7.656297E0,8.679424E0,0E0,0E0,5.1853157E1,5.677185E0,4.0333366E0,3.1386719E1,1.1645409E1,5.8078476E1,8.114266E0,4.019194E0,3.5140305E0,9.8229563E-1,2.9026281E1,1.00796585E1,3.6541138E0,4.583084E0,2.6423793E0,3.5882187E0,6.1416016E0,1.5790497E1,1.1131752E1,0E0,2.0117517E1,2.3867474E1,1.2703056E0,0E0,4.583084E0,0E0,3.8025436E0,3.4472296E0,0E0,0E0,1.9418283E1,1.1784921E1,6.142216E0,0E0,6.651863E0,4.0839233E0,0E0,0E0,0E0,0E0,0E0,0E0,0E0,0E0,0E0,0E0,0E0,0E0,0E0,0E0,0E0,0E0,0E0,0E0,0E0,0E0,0E0,0E0,0E0,0E0,0E0,0E0,0E0,0E0,0E0,0E0,0E0,0E0,0E0,0E0],"parents":[2147483647,0,0,1,1,2,2,3,3,4,4,5,5,6,6,7,7,8,8,9,9,10,10,13,13,14,14,15,15,16,16,17,17,18,18,19,19,20,20,21,21,22,22,23,23,24,24,25,25,26,26,27,27,28,28,29,29,30,30,31,31,33,33,34,34,35,35,37,37,39,39,40,40,43,43,44,44,45,45,47,47,48,48],"right_children":[2,4,6,8,10,12,14,16,18,20,22,-1,-1,24,26,28,30,32,34,36,38,40,42,44,46,48,50,52,54,56,58,60,-1,62,64,66,-1,68,-1,70,72,-1,-1,74,76,78,-1,80,82,-1,-1,-1,-1,-1,-1,-1,-1,-1,-1,-1,-1,-1,-1,-1,-1,-1,-1,-1,-1,-1,-1,-1,-1,-1,-1,-1,-1,-1,-1,-1,-1,-1,-1],"split_conditions":[-2.5038153E-1,-3.1706905E-1,-1.5307522E0,-3.0271277E-1,-3.3089113E-1,-2.568022E-1,-3.4709167E-1,-2.5274834E-1,1.0197169E0,5.139309E-2,9.967288E-1,-1.8666667E-1,9.775171E-3,-1.6584642E-1,2.0701053E0,2.8926232E-1,-3.5101855E-1,-1.7033145E-1,7.1078193E-1,6.62283E-1,-8.048235E-2,6.62283E-1,4.571646E-1,2.1605086E-1,-8.8840675E-1,-2.2220315E-1,-4.1850683E-1,2.7794895E-1,-3.4296757E-1,8.1559587E-1,1.0197169E0,1.0728804E0,-1.8095239E-1,1.4428506E0,-2.59698E-1,-1.8355687E-1,-1.1111112E-1,-3.6241673E-2,-1.5E-1,-6.9558454E-1,-4.1850683E-1,9.775171E-3,-1E-1,-1.9345562E-1,-2.3970394E-1,8.029577E-2,1.7790046E-1,1.003178E0,5.805219E0,1.09319665E-1,-1E-1,5.2155744E-2,-1E-1,1.616816E-1,-1.2515016E-2,-1.9133674E-1,-7.366053E-2,-1.4789383E-1,-9.207719E-2,-9.0466775E-2,1.0559106E-2,1.0086204E-1,-1.1355489E-1,6.1484803E-2,-1.5078674E-1,1.3835596E-1,9.775171E-3,1.09319665E-1,-1E-1,2.7515037E-2,1.5527505E-1,-4.5375124E-2,9.179872E-2,1.139058E-1,-2.9802939E-2,9.772697E-2,-9.524363E-2,1.09319665E-1,-1.20000005E-1,1.464443E-1,-1.5892388E-2,1.8901546E-1,1.2162932E-1],"split_indices":[11,13,4,11,11,9,13,5,10,2,4,0,0,11,0,7,11,5,16,16,0,16,0,3,2,11,2,0,11,0,10,9,0,0,0,2,0,4,0,4,2,0,0,5,5,16,0,3,17,0,0,0,0,0,0,0,0,0,0,0,0,0,0,0,0,0,0,0,0,0,0,0,0,0,0,0,0,0,0,0,0,0,0],"split_type":[0,0,0,0,0,0,0,0,0,0,0,0,0,0,0,0,0,0,0,0,0,0,0,0,0,0,0,0,0,0,0,0,0,0,0,0,0,0,0,0,0,0,0,0,0,0,0,0,0,0,0,0,0,0,0,0,0,0,0,0,0,0,0,0,0,0,0,0,0,0,0,0,0,0,0,0,0,0,0,0,0,0,0],"sum_hessian":[9.284478E2,5.5756323E2,3.7088464E2,5.0558838E2,5.197482E1,1.5102775E1,3.5578186E2,3.726914E2,1.3289697E2,1.1424974E1,4.0549847E1,1.4E1,1.1027749E0,1.0794964E2,2.4783221E2,8.277749E0,3.6441367E2,6.258325E1,7.031372E1,6.2194242E0,5.2055497E0,3.844707E1,2.1027749E0,6.551927E1,4.243037E1,2.4562666E2,2.2055497E0,2.7055497E0,5.5721993E0,1.3971942E2,2.2469424E2,5.308325E1,9.5E0,4.1433197E1,2.8880524E1,4.9694242E0,1.25E0,2.2055497E0,3E0,3.1124872E1,7.3221993E0,1.1027749E0,1E0,4.3285973E1,2.22333E1,2.7055497E0,3.972482E1,2.0377697E1,2.2524898E2,1.2055498E0,1E0,1.7055498E0,1E0,4.2194242E0,1.3527749E0,1.334111E2,6.308325E0,1.27774925E2,9.691932E1,3.8247173E1,1.4836074E1,3.733042E1,4.102775E0,6.2194242E0,2.26611E1,3.8666496E0,1.1027749E0,1.2055498E0,1E0,3.0583248E0,2.8066547E1,1.8527749E0,5.4694242E0,3.0360996E1,1.2924974E1,2.9110997E0,1.9322199E1,1.2055498E0,1.5E0,1.7672148E1,2.7055497E0,2.0838515E2,1.6863823E1],"tree_param":{"num_deleted":"0","num_feature":"19","num_nodes":"83","size_leaf_vector":"1"}},{"base_weights":[1.5538479E-2,1.4653367E0,-1.0547358E0,1.7317933E0,8.5272753E-1,-1.469047E0,5.887146E-1,1.7381237E-1,7.974887E-3,3.7231067E-1,1.4980983E0,-7.266969E-1,-1.6344932E0,-1.702507E-1,9.294217E-1,7.1169734E-1,-3.1002557E-1,1.5598248E0,7.429402E-3,-9.079049E-1,4.4500995E-1,-1.675607E0,4.752716E-1,7.804515E-2,1.4449048E0,-4.437677E-1,9.249889E-1,1.9209196E-1,-1.6486071E-1,-4.0396797E-3,1.6054883E0,-1.1989632E0,-1.0889818E-1,9.2441195E-1,-5.085887E-1,-1.7572653E0,-1.404421E0,-4.7239307E-1,1.4096348E-1,-4.5857248E-1,5.106246E-1,1.4996116E0,-3.2346006E-2,-1.0499585E-1,5.2361634E-2,1.2332835E-1,2.8623078E-2,9.820973E-2,-6.875871E-2,1.6341998E-1,5.15696E-2,-1.3236906E-1,-1.7144693E-2,5.4927815E-2,-5.6558967E-2,1.3774322E-1,-6.0174344E-3,1.011814E-1,-1.3826622E-1,-1.7659737E-1,-5.198306E-3,-6.1885186E-2,-1.5990305E-1,-1.3326322E-1,7.694436E-2,9.411994E-2,-7.133105E-2,7.0608005E-2,-1.2135418E-1,1.6984905E-1,8.0457136E-2],"categories":[],"categories_nodes":[],"categories_segments":[],"categories_sizes":[],"default_left":[0,0,0,0,0,0,0,0,0,0,0,0,0,0,0,0,0,0,0,0,0,0,0,0,0,0,0,0,0,0,0,0,0,0,0,0,0,0,0,0,0,0,0,0,0,0,0,0,0,0,0,0,0,0,0,0,0,0,0,0,0,0,0,0,0,0,0,0,0,0,0],"id":1,"left_children":[1,3,5,7,9,11,13,-1,-1,15,17,19,21,-1,23,25,27,29,-1,31,33,35,37,39,41,43,45,47,-1,-1,49,51,53,55,57,59,61,63,-1,65,67,69,-1,-1,-1,-1,-1,-1,-1,-1,-1,-1,-1,-1,-1,-1,-1,-1,-1,-1,-1,-1,-1,-1,-1,-1,-1,-1,-1,-1,-1],"loss_changes":[1.4422761E3,6.29599E1,3.649729E2,2.7282715E0,3.7151466E1,5.1300842E1,8.618758E1,0E0,0E0,1.6674854E1,4.416519E0,1.7323616E1,3.104071E1,0E0,4.157852E1,1.2179703E1,1.6648243E1,3.6730042E0,0E0,1.5995819E1,5.656324E0,5.110779E0,7.2572484E0,8.795848E0,6.2038116E0,5.3099527E0,7.649559E0,1.357757E1,0E0,0E0,6.601715E-1,6.2743683E0,6.206717E0,3.6084185E0,7.299899E0,3.755066E0,1.1880295E1,5.773521E0,0E0,6.729168E0,7.898207E0,6.583969E0,0E0,0E0,0E0,0E0,0E0,0E0,0E0,0E0,0E0,0E0,0E0,0E0,0E0,0E0,0E0,0E0,0E0,0E0,0E0,0E0,0E0,0E0,0E0,0E0,0E0,0E0,0E0,0E0,0E0],"parents":[2147483647,0,0,1,1,2,2,3,3,4,4,5,5,6,6,9,9,10,10,11,11,12,12,14,14,15,15,16,16,17,17,19,19,20,20,21,21,22,22,23,23,24,24,25,25,26,26,27,27,30,30,31,31,32,32,33,33,34,34,35,35,36,36,37,37,39,39,40,40,41,41],"right_children":[2,4,6,8,10,12,14,-1,-1,16,18,20,22,-1,24,26,28,30,-1,32,34,36,38,40,42,44,46,48,-1,-1,50,52,54,56,58,60,62,64,-1,66,68,70,-1,-1,-1,-1,-1,-1,-1,-1,-1,-1,-1,-1,-1,-1,-1,-1,-1,-1,-1,-1,-1,-1,-1,-1,-1,-1,-1,-1,-1],"split_conditions":[-3.8507465E-1,-5.4976636E-1,-2.3830508E-1,6.537752E0,-3.4709167E-1,-2.2038291E-1,-2.568022E-1,1.7381237E-1,7.974887E-3,6.137841E-1,1.7116741E0,-3.1706905E-1,-2.5702387E-1,-1.702507E-1,-1.0143872E-1,-3.3089113E-1,9.9481153E-1,-3.3089113E-1,7.429402E-3,1.0728804E0,7.2598803E-1,1.0728804E0,-2.8661084E-1,-3.7711427E-1,1.5324584E0,2.1605086E-1,2.1605086E-1,7.933202E-1,-1.6486071E-1,-4.0396797E-3,9.9119294E-1,9.9119294E-1,7.933202E-1,-4.8061322E-2,2.7429152E-1,9.3245924E-1,-1.10588424E-1,-1.4263579E-2,1.4096348E-1,-4.3891364E-1,1.0626631E0,5.805219E0,-3.2346006E-2,-1.0499585E-1,5.2361634E-2,1.2332835E-1,2.8623078E-2,9.820973E-2,-6.875871E-2,1.6341998E-1,5.15696E-2,-1.3236906E-1,-1.7144693E-2,5.4927815E-2,-5.6558967E-2,1.3774322E-1,-6.0174344E-3,1.011814E-1,-1.3826622E-1,-1.7659737E-1,-5.198306E-3,-6.1885186E-2,-1.5990305E-1,-1.3326322E-1,7.694436E-2,9.411994E-2,-7.133105E-2,7.0608005E-2,-1.2135418E-1,1.6984905E-1,8.0457136E-2],"split_indices":[14,14,11,8,13,14,9,0,0,16,0,13,13,0,11,11,0,11,0,9,0,9,11,13,0,3,3,1,0,0,2,2,1,15,16,14,14,4,0,0,4,17,0,0,0,0,0,0,0,0,0,0,0,0,0,0,0,0,0,0,0,0,0,0,0,0,0,0,0,0,0],"split_type":[0,0,0,0,0,0,0,0,0,0,0,0,0,0,0,0,0,0,0,0,0,0,0,0,0,0,0,0,0,0,0,0,0,0,0,0,0,0,0,0,0,0,0,0,0,0,0,0,0,0,0,0,0,0,0,0,0,0,0,0,0,0,0,0,0,0,0,0,0,0,0],"sum_hessian":[9.2749615E2,3.937507E2,5.337455E2,2.7312643E2,1.2062426E2,4.2636557E2,1.0737993E2,2.7203192E2,1.0944898E0,7.005322E1,5.057104E1,7.868808E1,3.476775E2,1.338308E1,9.399685E1,4.675484E1,2.3298382E1,4.8378155E1,2.192886E0,6.8343666E1,1.0344413E1,3.4123355E2,6.4439554E0,3.588321E1,5.811364E1,7.1173625E0,3.9637478E1,1.7565758E1,5.732624E0,1.3454046E0,4.703275E1,4.9728313E1,1.8615353E1,6.904117E0,3.4402952E0,2.5805048E2,8.318306E1,3.44467E0,2.9992857E0,1.5988849E1,1.989436E1,5.6517178E1,1.5964596E0,4.3230534E0,2.794309E0,2.6106504E1,1.35309725E1,9.193241E0,8.372517E0,4.5338715E1,1.6940333E0,4.408831E1,5.640001E0,7.542496E0,1.1072856E1,4.4552197E0,2.4488974E0,1.1983124E0,2.241983E0,2.56704E2,1.346484E0,1.7345491E1,6.583756E1,1.9918038E0,1.4528663E0,2.0468333E0,1.3942016E1,1.8399078E1,1.495281E0,4.282072E1,1.3696457E1],"tree_param":{"num_deleted":"0","num_feature":"19","num_nodes":"71","size_leaf_vector":"1"}},{"base_weights":[6.948877E-3,-1.1787785E0,1.1616979E0,5.1893014E-1,-1.473958E0,1.4829967E0,3.1834948E-1,-2.3374449E-1,9.2971486E-1,-8.694123E-1,-1.5374393E0,1.1257272E0,1.6441195E0,-4.0596884E-1,1.2249225E0,5.711008E-1,-7.790804E-1,-7.9575413E-1,1.0682245E0,-1.0568279E0,2.2850014E-1,-1.5692331E0,-8.008684E-1,1.2527902E0,-8.1090635E-1,1.6511877E-1,4.3656997E-2,-1.6112776E-1,-8.192994E-2,-1.158273E0,1.464681E0,9.454277E-1,-2.9748842E-1,-1.5111264E0,4.7547925E-1,-1.1878929E-1,9.525123E-3,1.1997403E-1,1.1770663E0,-1.6689354E-1,-5.4017186E-1,1.0510365E-1,-7.286218E-1,-1.6384517E-1,-1.3453133E0,1.0606686E-1,-1.017813E0,1.4828424E0,7.725032E-1,3.8280183E-1,-1.5234976E-1,-1.0420746E0,9.507385E-1,1.6797548E-2,-1.501263E-1,1.5249201E0,4.6261337E-2,1.22734204E-1,-2.1486478E-2,-1.14918366E-1,6.9755085E-2,-1.7145073E-1,5.6203306E-3,1.2911604E-1,-3.465042E-2,7.570553E-2,-1.09805085E-1,1.3546751E-1,5.1346947E-2,-2.7223542E-2,-1.3898814E-1,-1.151068E-1,1.2117572E-2,-2.2348827E-2,-1.4271592E-1,-1.5230498E-1,1.05637675E-2,7.7990904E-3,1.5050398E-1,1.0441863E-1,1.7876106E-3,9.304478E-2,-2.9517347E-2,-1.4477889E-1,-1.63915E-2,-5.8203753E-2,1.0766796E-1,3.7845854E-2,1.5562853E-1,1.1746867E-2,-4.7926097E-3],"categories":[],"categories_nodes":[],"categories_segments":[],"categories_sizes":[],"default_left":[0,0,0,0,0,0,0,0,0,0,0,0,0,0,0,0,0,0,0,0,0,0,0,0,0,0,0,0,0,0,0,0,0,0,0,0,0,0,0,0,0,0,0,0,0,0,0,0,0,0,0,0,0,0,0,0,0,0,0,0,0,0,0,0,0,0,0,0,0,0,0,0,0,0,0,0,0,0,0,0,0,0,0,0,0,0,0,0,0,0,0],"id":2,"left_children":[1,3,5,7,9,11,13,15,17,19,21,23,25,27,29,31,33,35,37,39,41,43,45,47,49,-1,-1,-1,51,53,55,57,59,61,63,-1,-1,65,67,-1,69,-1,71,-1,73,-1,75,77,79,81,-1,83,85,-1,-1,87,89,-1,-1,-1,-1,-1,-1,-1,-1,-1,-1,-1,-1,-1,-1,-1,-1,-1,-1,-1,-1,-1,-1,-1,-1,-1,-1,-1,-1,-1,-1,-1,-1,-1,-1],"loss_changes":[1.2512262E3,2.2670782E2,1.2497406E2,2.1093819E1,1.3413574E1,1.7431152E1,8.519984E1,1.1259134E1,1.1337559E1,8.230396E0,6.8582153E0,2.7415482E1,1.230957E0,2.816646E1,3.4572998E1,3.704469E0,1.4595609E1,1.4527013E0,4.095314E0,9.642818E0,5.8699713E0,2.9283447E0,7.6949778E0,1.0021851E1,6.718362E0,0E0,0E0,0E0,5.8653717E1,2.898632E0,4.434059E0,2.7487264E0,4.1334596E0,3.2143726E0,4.6905785E0,0E0,0E0,4.9749694E0,3.6308517E0,0E0,4.0746365E0,0E0,1.4272374E0,0E0,7.373596E0,0E0,8.777977E0,1.9797516E0,7.1201916E0,1.5724138E0,0E0,1.0669777E1,6.1365967E0,0E0,0E0,1.2284012E0,2.6951114E-2,0E0,0E0,0E0,0E0,0E0,0E0,0E0,0E0,0E0,0E0,0E0,0E0,0E0,0E0,0E0,0E0,0E0,0E0,0E0,0E0,0E0,0E0,0E0,0E0,0E0,0E0,0E0,0E0,0E0,0E0,0E0,0E0,0E0,0E0],"parents":[2147483647,0,0,1,1,2,2,3,3,4,4,5,5,6,6,7,7,8,8,9,9,10,10,11,11,12,12,13,13,14,14,15,15,16,16,17,17,18,18,19,19,20,20,21,21,22,22,23,23,24,24,28,28,29,29,30,30,31,31,32,32,33,33,34,34,37,37,38,38,40,40,42,42,44,44,46,46,47,47,48,48,49,49,51,51,52,52,55,55,56,56],"right_children":[2,4,6,8,10,12,14,16,18,20,22,24,26,28,30,32,34,36,38,40,42,44,46,48,50,-1,-1,-1,52,54,56,58,60,62,64,-1,-1,66,68,-1,70,-1,72,-1,74,-1,76,78,80,82,-1,84,86,-1,-1,88,90,-1,-1,-1,-1,-1,-1,-1,-1,-1,-1,-1,-1,-1,-1,-1,-1,-1,-1,-1,-1,-1,-1,-1,-1,-1,-1,-1,-1,-1,-1,-1,-1,-1,-1],"split_conditions":[-3.440072E-1,-3.8507465E-1,-3.301774E-1,-1.8355687E-1,-2.7528015E-1,1.6053638E-1,1.0728804E0,-4.318474E-1,2.5568232E-1,9.9119294E-1,-2.5038153E-1,1.5324584E0,2.4285367E0,-1.3988836E0,-2.7419615E-1,-4.9486914E-1,-2.785599E-1,9.052037E-1,-5.4074746E-1,-4.8045608E-1,-2.1242929E-1,1.0728804E0,-1.1131684E0,2.1605086E-1,-5.4976636E-1,1.6511877E-1,4.3656997E-2,-1.6112776E-1,5.8993015E-2,-8.494312E-1,1.5683036E0,1.003178E0,-2.2665954E-1,3.6804262E-1,-7.973449E-1,-1.1878929E-1,9.525123E-3,-5.629601E-1,2.1605086E-1,-1.6689354E-1,-1.7507488E-1,1.0510365E-1,1.787708E-1,-1.6384517E-1,-2.2038291E-1,1.0606686E-1,1.0728804E0,-2.0631566E0,-1.7270316E-1,2.5568232E-1,-1.5234976E-1,2.8634307E-1,-2.0631566E0,1.6797548E-2,-1.501263E-1,-1.1131684E0,-1.9805028E-1,1.22734204E-1,-2.1486478E-2,-1.14918366E-1,6.9755085E-2,-1.7145073E-1,5.6203306E-3,1.2911604E-1,-3.465042E-2,7.570553E-2,-1.09805085E-1,1.3546751E-1,5.1346947E-2,-2.7223542E-2,-1.3898814E-1,-1.151068E-1,1.2117572E-2,-2.2348827E-2,-1.4271592E-1,-1.5230498E-1,1.05637675E-2,7.7990904E-3,1.5050398E-1,1.0441863E-1,1.7876106E-3,9.304478E-2,-2.9517347E-2,-1.4477889E-1,-1.63915E-2,-5.8203753E-2,1.0766796E-1,3.7845854E-2,1.5562853E-1,1.1746867E-2,-4.7926097E-3],"split_indices":[12,14,14,2,14,12,9,4,6,2,11,0,0,4,12,14,11,0,12,12,5,9,4,3,14,0,0,0,12,4,6,3,5,18,0,0,0,12,3,0,5,0,17,0,14,0,9,2,5,6,0,2,2,0,0,4,11,0,0,0,0,0,0,0,0,0,0,0,0,0,0,0,0,0,0,0,0,0,0,0,0,0,0,0,0,0,0,0,0,0,0],"split_type":[0,0,0,0,0,0,0,0,0,0,0,0,0,0,0,0,0,0,0,0,0,0,0,0,0,0,0,0,0,0,0,0,0,0,0,0,0,0,0,0,0,0,0,0,0,0,0,0,0,0,0,0,0,0,0,0,0,0,0,0,0,0,0,0,0,0,0,0,0,0,0,0,0,0,0,0,0,0,0,0,0,0,0,0,0,0,0,0,0,0,0],"sum_hessian":[9.1182556E2,4.4986807E2,4.619575E2,6.6520584E1,3.833475E2,3.3396503E2,1.27992455E2,2.363871E1,4.2881874E1,3.7825245E1,3.4552225E2,1.0628286E2,2.2768216E2,7.145486E1,5.6537598E1,9.528553E0,1.4110157E1,2.8338919E0,4.0047985E1,3.2341854E1,5.483391E0,3.301414E2,1.5380855E1,1.0007033E2,6.212529E0,2.2599199E2,1.6901795E0,1.4298198E1,5.7156662E1,4.8177953E0,5.17198E1,6.5970335E0,2.9315195E0,8.781545E0,5.3286123E0,1.7364576E0,1.0974343E0,4.3399315E0,3.5708054E1,1.3782634E1,1.8559221E1,2.8962634E0,2.5871274E0,2.4735991E2,8.278148E1,1.1994667E0,1.4181388E1,6.624992E1,3.3820404E1,2.495297E0,3.7172322E0,2.9613651E1,2.7543009E1,1.0947927E0,3.7230024E0,4.954076E1,2.1790402E0,5.260992E0,1.3360411E0,1.4960638E0,1.4354558E0,7.689793E0,1.0917518E0,2.3880675E0,2.9405448E0,3.0979974E0,1.241934E0,2.7347265E1,8.360787E0,1.5113812E1,3.4454086E0,1.4912741E0,1.0958533E0,5.882553E0,7.6898926E1,9.536815E0,4.644573E0,1.1007073E0,6.5149216E1,2.458539E1,9.235015E0,1.1743248E0,1.3209722E0,1.9811823E1,9.801829E0,1.8162844E0,2.5726725E1,1.6672015E0,4.7873558E1,1.1001375E0,1.0789027E0],"tree_param":{"num_deleted":"0","num_feature":"19","num_nodes":"91","size_leaf_vector":"1"}},{"base_weights":[-4.2143725E-3,-1.0968051E0,1.0718129E0,4.6752918E-1,-1.3703377E0,1.3598155E0,2.9355526E-1,8.8875616E-1,-4.2623457E-1,-8.1291723E-1,-1.4297366E0,9.7876716E-1,1.5274618E0,-1.5117103E-1,5.213301E-1,1.257071E0,2.2476998E-1,-9.636948E-1,3.9812046E-1,-1.0546207E0,-8.086761E-2,-1.4679245E0,-5.350023E-1,1.113979E0,-1.0334574E0,1.5344357E-1,4.3140976E-3,-9.373066E-1,9.559961E-1,1.3578659E0,-1.0551934E-2,-1.2972674E-1,5.85546E-1,4.6702373E-1,-1.3252808E0,-1.9669352E-1,1.290543E-1,5.2883774E-2,-1.1704254E0,-5.675555E-1,7.61104E-1,-1.3083739E0,-1.5463809E0,-1.491125E-1,-2.3380317E-2,1.2448537E0,4.1487882E-1,6.866609E-2,-1.590128E-1,-1.3733863E0,9.881323E-4,1.7882122E-1,1.1809417E0,5.32114E-3,1.4106105E-1,8.554414E-3,-1.0329726E-2,-7.296618E-2,8.828371E-2,9.808236E-2,-2.1794602E-2,1.0185762E-2,-1.4866106E-1,-7.566087E-2,5.0284546E-2,-1.3971989E-1,-4.1831538E-2,-1.0534966E-1,8.551729E-2,1.3381548E-1,-1.641961E-2,-1.4708471E-1,-6.969559E-2,7.199281E-3,-1.5566607E-1,6.148678E-2,-1.350426E-1,9.180094E-2,1.5061529E-1,-4.6371084E-2,9.4830826E-2,-1.4926653E-1,2.4276817E-2,-9.7147785E-2,1.0266723E-1,1.1101111E-1,-4.0226627E-2,-7.542516E-2,1.2540619E-1],"categories":[],"categories_nodes":[],"categories_segments":[],"categories_sizes":[],"default_left":[0,0,0,0,0,0,0,0,0,0,0,0,0,0,0,0,0,0,0,0,0,0,0,0,0,0,0,0,0,0,0,0,0,0,0,0,0,0,0,0,0,0,0,0,0,0,0,0,0,0,0,0,0,0,0,0,0,0,0,0,0,0,0,0,0,0,0,0,0,0,0,0,0,0,0,0,0,0,0,0,0,0,0,0,0,0,0,0,0],"id":3,"left_children":[1,3,5,7,9,11,13,15,17,19,21,23,25,-1,27,29,31,33,35,37,39,41,43,45,47,-1,-1,49,51,53,55,-1,57,59,61,63,-1,-1,65,67,69,71,73,-1,75,77,79,-1,-1,81,83,85,87,-1,-1,-1,-1,-1,-1,-1,-1,-1,-1,-1,-1,-1,-1,-1,-1,-1,-1,-1,-1,-1,-1,-1,-1,-1,-1,-1,-1,-1,-1,-1,-1,-1,-1,-1,-1],"loss_changes":[1.0608698E3,1.9222424E2,1.0150165E2,2.5746807E1,1.1464355E1,1.9685242E1,5.180629E1,1.0996906E1,1.0246269E1,6.8226814E0,1.0944885E1,2.9470726E1,2.298767E0,0E0,7.121904E1,3.7769623E0,1.0464488E1,7.7411366E0,5.2929688E0,5.985832E0,4.846859E0,2.0911255E0,7.609129E0,8.451271E0,7.8640532E0,0E0,0E0,1.062718E1,1.48142395E1,1.8026581E0,3.70124E-2,0E0,6.499836E0,1.4514921E0,2.7417164E0,2.9514854E0,0E0,0E0,4.120266E0,6.01717E0,2.5550008E0,1.0383377E1,3.6861572E0,0E0,1.0312569E1,5.625496E0,8.386063E0,0E0,0E0,3.780243E0,1.0212876E1,1.1524621E1,1.0352348E1,0E0,0E0,0E0,0E0,0E0,0E0,0E0,0E0,0E0,0E0,0E0,0E0,0E0,0E0,0E0,0E0,0E0,0E0,0E0,0E0,0E0,0E0,0E0,0E0,0E0,0E0,0E0,0E0,0E0,0E0,0E0,0E0,0E0,0E0,0E0,0E0],"parents":[2147483647,0,0,1,1,2,2,3,3,4,4,5,5,6,6,7,7,8,8,9,9,10,10,11,11,12,12,14,14,15,15,16,16,17,17,18,18,19,19,20,20,21,21,22,22,23,23,24,24,27,27,28,28,29,29,30,30,32,32,33,33,34,34,35,35,38,38,39,39,40,40,41,41,42,42,44,44,45,45,46,46,49,49,50,50,51,51,52,52],"right_children":[2,4,6,8,10,12,14,16,18,20,22,24,26,-1,28,30,32,34,36,38,40,42,44,46,48,-1,-1,50,52,54,56,-1,58,60,62,64,-1,-1,66,68,70,72,74,-1,76,78,80,-1,-1,82,84,86,88,-1,-1,-1,-1,-1,-1,-1,-1,-1,-1,-1,-1,-1,-1,-1,-1,-1,-1,-1,-1,-1,-1,-1,-1,-1,-1,-1,-1,-1,-1,-1,-1,-1,-1,-1,-1],"split_conditions":[-3.440072E-1,-3.8507465E-1,-3.301774E-1,-1.9167684E-1,-2.7528015E-1,1.8274899E-1,-1.3988836E0,-4.9486914E-1,1.0728804E0,2.4103108E-1,-2.5038153E-1,1.4428506E0,2.338929E0,-1.5117103E-1,-2.3929061E-1,7.5928086E-1,-3.3089113E-1,-6.046636E-1,2.4103108E-1,-2.408898E-1,1.0728804E0,7.933202E-1,-4.6141672E-1,7.1078193E-1,-3.0271277E-1,1.5344357E-1,4.3140976E-3,1.0728804E0,-2.5843248E-1,-1.4245996E0,1.0728804E0,-1.2972674E-1,-2.2547369E-1,-4.3891364E-1,-1.2453841E0,2.8634307E-1,1.290543E-1,5.2883774E-2,-4.0429857E-1,-2.8258538E-1,2.8634307E-1,1.0728804E0,-4.0737528E-1,-1.491125E-1,-1.8396878E-1,-1.8355687E-1,-2.0438509E-1,6.866609E-2,-1.590128E-1,9.867674E-1,-2.7419615E-1,7.933202E-1,-2.0631566E0,5.32114E-3,1.4106105E-1,8.554414E-3,-1.0329726E-2,-7.296618E-2,8.828371E-2,9.808236E-2,-2.1794602E-2,1.0185762E-2,-1.4866106E-1,-7.566087E-2,5.0284546E-2,-1.3971989E-1,-4.1831538E-2,-1.0534966E-1,8.551729E-2,1.3381548E-1,-1.641961E-2,-1.4708471E-1,-6.969559E-2,7.199281E-3,-1.5566607E-1,6.148678E-2,-1.350426E-1,9.180094E-2,1.5061529E-1,-4.6371084E-2,9.4830826E-2,-1.4926653E-1,2.4276817E-2,-9.7147785E-2,1.0266723E-1,1.1101111E-1,-4.0226627E-2,-7.542516E-2,1.2540619E-1],"split_indices":[12,14,14,5,14,12,4,14,9,18,11,0,0,0,12,16,11,14,18,5,9,1,12,16,11,0,0,9,11,0,9,0,5,0,0,2,0,0,12,11,2,9,11,0,5,2,12,0,0,8,12,1,2,0,0,0,0,0,0,0,0,0,0,0,0,0,0,0,0,0,0,0,0,0,0,0,0,0,0,0,0,0,0,0,0,0,0,0,0],"split_type":[0,0,0,0,0,0,0,0,0,0,0,0,0,0,0,0,0,0,0,0,0,0,0,0,0,0,0,0,0,0,0,0,0,0,0,0,0,0,0,0,0,0,0,0,0,0,0,0,0,0,0,0,0,0,0,0,0,0,0,0,0,0,0,0,0,0,0,0,0,0,0,0,0,0,0,0,0,0,0,0,0,0,0,0,0,0,0,0,0],"sum_hessian":[9.0036316E2,4.4673358E2,4.5362958E2,6.638249E1,3.8035107E2,3.3055634E2,1.23073235E2,4.5122196E1,2.1260294E1,3.804153E1,3.4230954E2,1.030864E2,2.2746994E2,1.3157168E1,1.0991606E2,2.8448513E1,1.6673683E1,1.276729E1,8.493004E0,2.8267654E1,9.773876E0,3.276832E2,1.4626346E1,9.701392E1,6.072478E0,2.2637259E2,1.0973508E0,2.4969135E1,8.494693E1,2.6287106E1,2.1614075E0,2.6975453E0,1.3976139E1,2.5168905E0,1.02504E1,5.5640626E0,2.9289417E0,1.6833725E0,2.6584282E1,6.4002423E0,3.373634E0,1.1384413E2,2.1383907E2,4.431055E0,1.0195291E1,8.1058716E1,1.5955205E1,1.4276158E0,4.644862E0,1.6730024E1,8.239112E0,1.9470919E1,6.547601E1,1.0994992E0,2.5187607E1,1.0996616E0,1.0617459E0,2.3085976E0,1.16675415E1,1.1913382E0,1.3255525E0,1.0785034E0,9.171896E0,3.045136E0,2.5189266E0,1.9766617E1,6.8176646E0,4.964211E0,1.4360313E0,1.8030202E0,1.5706139E0,8.88328E1,2.5011333E1,1.3118134E0,2.1252725E2,7.2466483E0,2.948642E0,3.801774E1,4.3040977E1,6.076897E0,9.878308E0,1.5651301E1,1.078722E0,4.256403E0,3.9827085E0,7.1313443E0,1.2339574E1,2.0447402E0,6.343127E1],"tree_param":{"num_deleted":"0","num_feature":"19","num_nodes":"89","size_leaf_vector":"1"}},{"base_weights":[9.755066E-3,-9.3333626E-1,1.0983198E0,5.4091376E-1,-1.2619417E0,-1.302748E0,1.1875408E0,1.2614887E0,2.720058E-1,-6.6197646E-1,-1.3342421E0,-1.3985758E-1,-3.3236716E-2,7.31601E-1,1.3684124E0,1.3651801E0,6.101599E-3,3.560458E-1,-1.298158E-1,-1.0470923E0,-1.0425967E-1,-1.4110112E0,-1.0824683E0,8.51091E-1,-8.270998E-1,7.343731E-1,1.4033141E0,4.7707525E-1,1.483106E0,6.4615476E-1,-1.8582761E-1,4.0890327E-1,-1.3457733E0,-7.323832E-1,6.451657E-1,2.8415436E-2,-1.4191836E-1,-6.382006E-1,-1.3229742E0,1.327822E0,5.569334E-1,-1.4526682E-1,2.5555187E-1,1.0793678E0,-3.0329886E-1,1.4476435E-1,9.920868E-1,-3.1884436E-2,9.800174E-2,1.5304324E-1,5.178575E-2,7.5602545E-3,9.740149E-2,-6.361864E-2,5.8071017E-2,8.797184E-2,-2.8704185E-2,-3.825051E-3,-1.4442597E-1,-1.7254582E-2,-1.1076403E-1,1.1735796E-1,-6.281256E-2,-1.7289728E-2,-1.0171675E-1,-1.3630222E-1,3.5134885E-2,2.9446516E-2,1.3876043E-1,1.0830945E-2,9.838321E-2,1.0225457E-1,-4.247068E-2,1.2964469E-1,6.963641E-2,-1.21571414E-1,5.5945285E-2,1.1561572E-1,2.452655E-2],"categories":[],"categories_nodes":[],"categories_segments":[],"categories_sizes":[],"default_left":[0,0,0,0,0,0,0,0,0,0,0,0,0,0,0,0,0,0,0,0,0,0,0,0,0,0,0,0,0,0,0,0,0,0,0,0,0,0,0,0,0,0,0,0,0,0,0,0,0,0,0,0,0,0,0,0,0,0,0,0,0,0,0,0,0,0,0,0,0,0,0,0,0,0,0,0,0,0,0],"id":4,"left_children":[1,3,5,7,9,11,13,15,17,19,21,-1,-1,23,25,27,-1,29,-1,31,33,35,37,39,41,43,45,47,49,51,53,55,57,59,61,-1,-1,63,65,67,69,-1,71,73,75,-1,77,-1,-1,-1,-1,-1,-1,-1,-1,-1,-1,-1,-1,-1,-1,-1,-1,-1,-1,-1,-1,-1,-1,-1,-1,-1,-1,-1,-1,-1,-1,-1,-1],"loss_changes":[8.950392E2,2.2698508E2,8.824417E1,1.6290833E1,1.5699646E1,9.277954E-1,3.1220581E1,2.7865295E0,8.879691E0,9.147905E0,5.0480347E0,0E0,0E0,2.1773373E1,5.1345825E0,1.5101128E0,0E0,9.761894E0,0E0,1.1589237E1,9.282323E0,3.9692383E0,8.108116E0,1.4064049E1,6.169929E0,6.282056E0,3.357483E0,1.8961942E0,3.9707184E-2,7.4406757E0,8.0206585E0,1.9196007E0,2.68713E0,2.046246E0,6.836473E0,0E0,0E0,5.353854E0,4.0613174E0,2.0351791E0,1.2725952E1,0E0,2.513908E0,1.5332508E-1,4.561724E0,0E0,3.2412014E0,0E0,0E0,0E0,0E0,0E0,0E0,0E0,0E0,0E0,0E0,0E0,0E0,0E0,0E0,0E0,0E0,0E0,0E0,0E0,0E0,0E0,0E0,0E0,0E0,0E0,0E0,0E0,0E0,0E0,0E0,0E0,0E0],"parents":[2147483647,0,0,1,1,2,2,3,3,4,4,5,5,6,6,7,7,8,8,9,9,10,10,13,13,14,14,15,15,17,17,19,19,20,20,21,21,22,22,23,23,24,24,25,25,26,26,27,27,28,28,29,29,30,30,31,31,32,32,33,33,34,34,37,37,38,38,39,39,40,40,42,42,43,43,44,44,46,46],"right_children":[2,4,6,8,10,12,14,16,18,20,22,-1,-1,24,26,28,-1,30,-1,32,34,36,38,40,42,44,46,48,50,52,54,56,58,60,62,-1,-1,64,66,68,70,-1,72,74,76,-1,78,-1,-1,-1,-1,-1,-1,-1,-1,-1,-1,-1,-1,-1,-1,-1,-1,-1,-1,-1,-1,-1,-1,-1,-1,-1,-1,-1,-1,-1,-1,-1,-1],"split_conditions":[-2.8371584E-1,-3.8507465E-1,-2.568022E-1,-6.5956086E-1,-2.7528015E-1,1.0197169E0,1.1611116E-1,1.7903051E0,1.3264002E0,-4.2016473E-1,1.0728804E0,-1.3985758E-1,-3.3236716E-2,1.5324584E0,-1.8282067E0,-5.439207E-1,6.101599E-3,2.1605086E-1,-1.298158E-1,-4.0713686E-1,2.8634307E-1,-6.6450346E-1,-5.569118E-2,-5.4976636E-1,-1.314008E-1,-3.8507465E-1,2.4262226E0,-2.59698E-1,9.867674E-1,5.139309E-2,1.7752531E-1,4.571646E-1,-2.23107E0,-2.3404452E-1,-3.6241673E-2,2.8415436E-2,-1.4191836E-1,5.139309E-2,1.6806406E0,-8.933874E-1,-1.8355687E-1,-1.4526682E-1,-4.399719E-1,-6.5956086E-1,2.419876E0,1.4476435E-1,2.1605086E-1,-3.1884436E-2,9.800174E-2,1.5304324E-1,5.178575E-2,7.5602545E-3,9.740149E-2,-6.361864E-2,5.8071017E-2,8.797184E-2,-2.8704185E-2,-3.825051E-3,-1.4442597E-1,-1.7254582E-2,-1.1076403E-1,1.1735796E-1,-6.281256E-2,-1.7289728E-2,-1.0171675E-1,-1.3630222E-1,3.5134885E-2,2.9446516E-2,1.3876043E-1,1.0830945E-2,9.838321E-2,1.0225457E-1,-4.247068E-2,1.2964469E-1,6.963641E-2,-1.21571414E-1,5.5945285E-2,1.1561572E-1,2.452655E-2],"split_indices":[12,14,9,14,14,10,12,3,4,12,9,0,0,0,2,12,0,3,0,13,2,12,14,14,12,14,12,0,8,2,18,0,0,4,4,0,0,2,8,4,2,0,14,14,12,0,3,0,0,0,0,0,0,0,0,0,0,0,0,0,0,0,0,0,0,0,0,0,0,0,0,0,0,0,0,0,0,0,0],"split_type":[0,0,0,0,0,0,0,0,0,0,0,0,0,0,0,0,0,0,0,0,0,0,0,0,0,0,0,0,0,0,0,0,0,0,0,0,0,0,0,0,0,0,0,0,0,0,0,0,0,0,0,0,0,0,0,0,0,0,0,0,0,0,0,0,0,0,0,0,0,0,0,0,0,0,0,0,0,0,0],"sum_hessian":[8.6983606E2,4.6613602E2,4.0370004E2,8.484459E1,3.812914E2,1.397629E1,3.8972375E2,2.2054756E1,6.2789833E1,4.2099144E1,3.3919226E2,1.2318536E1,1.6577542E0,1.12124985E2,2.7759875E2,2.0174934E1,1.8798213E0,6.0333824E1,2.456009E0,2.4383995E1,1.771515E1,2.5640634E2,8.278593E1,1.0456315E2,7.561837E0,1.56336E1,2.6196515E2,2.9563205E0,1.7218615E1,3.917032E1,2.1163507E1,4.087827E0,2.0296167E1,9.649912E0,8.065239E0,1.0681676E0,2.5533818E2,3.0359247E1,5.242668E1,3.8558598E1,6.600455E1,4.5760026E0,2.9858344E0,1.17026415E1,3.9309585E0,2.3419885E2,2.7766308E1,1.2864771E0,1.6698433E0,1.5855677E1,1.3629377E0,1.4743618E1,2.44267E1,1.3438266E1,7.7252407E0,2.280786E0,1.8070414E0,1.5189312E0,1.8777235E1,4.4583735E0,5.191538E0,5.7551646E0,2.3100743E0,1.4280989E1,1.6078259E1,5.138357E1,1.043109E0,2.432781E0,3.6125816E1,3.279466E1,3.3209892E1,1.1669371E0,1.8188972E0,5.9470325E0,5.7556095E0,1.711658E0,2.2193005E0,2.2315647E1,5.4506617E0],"tree_param":{"num_deleted":"0","num_feature":"19","num_nodes":"79","size_leaf_vector":"1"}},{"base_weights":[2.7608884E-2,1.019514E0,-8.418048E-1,1.3177537E0,5.323531E-1,-1.1700431E0,4.0139055E-1,1.3880931E0,1.0998659E0,2.732672E-1,1.0064535E0,-1.2319454E0,-1.5563698E-1,-1.32967E-1,6.444566E-1,5.491677E-1,1.4010987E-1,1.1747627E0,5.626465E-2,-6.4407516E-1,3.9785454E-1,1.0589458E0,-4.928417E-2,-9.498638E-1,-1.3521227E0,-6.2754315E-1,6.8917173E-1,-1.7223164E-1,1.0836527E0,7.948729E-2,-1.3921182E-2,1.7109001E-2,1.1984569E0,-5.396647E-1,9.1171734E-2,-1.106047E0,3.1834885E-2,4.960886E-1,-6.175254E-1,1.2083362E0,4.5790273E-1,-1.1416386E0,-3.745241E-1,-1.3641315E0,-8.082483E-1,6.4564323E-1,-1.0295026E0,1.0101743E0,-4.483755E-2,1.14406995E-1,-3.1797147E-1,1.154579E0,-3.8551396E-1,8.5462935E-2,1.2767771E-1,-1.2640925E-1,2.7989848E-2,-1.3207236E-1,-5.229744E-2,4.60901E-2,-9.2285484E-2,5.878368E-2,-5.603316E-2,4.4416737E-2,-1.3855429E-1,1.245595E-1,3.2318454E-2,7.617432E-2,-1.0739473E-1,2.0657076E-2,-1.1915467E-1,-7.886969E-2,3.641105E-2,-1.3924016E-1,-1.12077214E-1,-1.3494782E-1,6.977571E-2,8.847438E-2,-1.6938699E-3,-1.3085453E-1,-6.2187538E-3,1.2867612E-1,-6.5232413E-3,3.0460071E-3,-8.8001244E-2,1.2143272E-1,-5.5719923E-2,7.8825735E-2,-1.3178216E-1],"categories":[],"categories_nodes":[],"categories_segments":[],"categories_sizes":[],"default_left":[0,0,0,0,0,0,0,0,0,0,0,0,0,0,0,0,0,0,0,0,0,0,0,0,0,0,0,0,0,0,0,0,0,0,0,0,0,0,0,0,0,0,0,0,0,0,0,0,0,0,0,0,0,0,0,0,0,0,0,0,0,0,0,0,0,0,0,0,0,0,0,0,0,0,0,0,0,0,0,0,0,0,0,0,0,0,0,0,0],"id":5,"left_children":[1,3,5,7,9,11,13,15,17,19,21,23,25,-1,27,29,-1,31,33,35,37,39,-1,41,43,45,47,49,51,-1,-1,-1,53,55,-1,57,59,61,63,65,67,69,71,73,75,77,79,81,-1,-1,83,85,87,-1,-1,-1,-1,-1,-1,-1,-1,-1,-1,-1,-1,-1,-1,-1,-1,-1,-1,-1,-1,-1,-1,-1,-1,-1,-1,-1,-1,-1,-1,-1,-1,-1,-1,-1,-1],"loss_changes":[7.3617145E2,5.7229706E1,1.8611203E2,2.2533264E0,1.8528915E1,2.2424408E1,4.115347E1,1.2232056E0,5.0149612E0,1.1726611E1,4.7499886E0,1.0218018E1,9.146976E0,0E0,3.055019E1,8.603934E-1,0E0,1.2361679E0,3.2465477E0,3.9016843E0,9.181654E0,4.135845E0,0E0,1.1127953E1,4.3606567E-1,8.109982E0,3.4876525E0,6.2084203E0,6.195587E0,0E0,0E0,0E0,4.9866486E-1,2.6175818E0,0E0,2.3347855E-1,2.8827899E0,8.246719E0,7.3788023E0,9.5677185E-1,6.406319E0,5.498543E0,8.752157E0,1.5106201E-2,7.0899706E0,6.653904E-1,3.0072536E0,2.103312E0,0E0,0E0,5.5516677E0,6.086418E0,4.640347E0,0E0,0E0,0E0,0E0,0E0,0E0,0E0,0E0,0E0,0E0,0E0,0E0,0E0,0E0,0E0,0E0,0E0,0E0,0E0,0E0,0E0,0E0,0E0,0E0,0E0,0E0,0E0,0E0,0E0,0E0,0E0,0E0,0E0,0E0,0E0,0E0],"parents":[2147483647,0,0,1,1,2,2,3,3,4,4,5,5,6,6,7,7,8,8,9,9,10,10,11,11,12,12,14,14,15,15,17,17,18,18,19,19,20,20,21,21,23,23,24,24,25,25,26,26,27,27,28,28,32,32,33,33,35,35,36,36,37,37,38,38,39,39,40,40,41,41,42,42,43,43,44,44,45,45,46,46,47,47,50,50,51,51,52,52],"right_children":[2,4,6,8,10,12,14,16,18,20,22,24,26,-1,28,30,-1,32,34,36,38,40,-1,42,44,46,48,50,52,-1,-1,-1,54,56,-1,58,60,62,64,66,68,70,72,74,76,78,80,82,-1,-1,84,86,88,-1,-1,-1,-1,-1,-1,-1,-1,-1,-1,-1,-1,-1,-1,-1,-1,-1,-1,-1,-1,-1,-1,-1,-1,-1,-1,-1,-1,-1,-1,-1,-1,-1,-1,-1,-1],"split_conditions":[-3.301774E-1,-5.4976636E-1,-2.3830508E-1,-6.5956086E-1,-3.4709167E-1,-3.1706905E-1,-2.568022E-1,-3.6712047E-1,7.1078193E-1,-3.4296757E-1,1.5324584E0,-1.10588424E-1,-2.8258538E-1,-1.32967E-1,-3.1706905E-1,-1.2085333E0,1.4010987E-1,-1.1571245E0,-2.2622864E-1,-8.048235E-2,8.20904E-1,-3.8507465E-1,-4.928417E-2,1.0728804E0,-2.54407E-1,-2.7528015E-1,-2.54407E-1,-7.973449E-1,1.7116741E0,7.948729E-2,-1.3921182E-2,1.7109001E-2,-2.59698E-1,1.7752531E-1,9.1171734E-2,3.1540784E-1,1.003178E0,1.5324584E0,-4.0713686E-1,2.5050554E0,8.4288216E-1,-3.791969E-1,-3.0673826E-1,7.2598803E-1,8.077798E-1,3.6755675E-1,7.2598803E-1,6.137841E-1,-4.483755E-2,1.14406995E-1,1.6156118E-1,1.3044221E0,-1.7792286E-1,8.5462935E-2,1.2767771E-1,-1.2640925E-1,2.7989848E-2,-1.3207236E-1,-5.229744E-2,4.60901E-2,-9.2285484E-2,5.878368E-2,-5.603316E-2,4.4416737E-2,-1.3855429E-1,1.245595E-1,3.2318454E-2,7.617432E-2,-1.0739473E-1,2.0657076E-2,-1.1915467E-1,-7.886969E-2,3.641105E-2,-1.3924016E-1,-1.12077214E-1,-1.3494782E-1,6.977571E-2,8.847438E-2,-1.6938699E-3,-1.3085453E-1,-6.2187538E-3,1.2867612E-1,-6.5232413E-3,3.0460071E-3,-8.8001244E-2,1.2143272E-1,-5.5719923E-2,7.8825735E-2,-1.3178216E-1],"split_indices":[14,14,11,14,13,13,9,11,16,11,0,14,11,0,13,14,0,4,11,0,4,14,0,9,11,14,11,0,0,0,0,0,0,18,0,4,3,0,13,13,4,11,11,0,16,0,0,16,0,0,4,4,11,0,0,0,0,0,0,0,0,0,0,0,0,0,0,0,0,0,0,0,0,0,0,0,0,0,0,0,0,0,0,0,0,0,0,0,0],"split_type":[0,0,0,0,0,0,0,0,0,0,0,0,0,0,0,0,0,0,0,0,0,0,0,0,0,0,0,0,0,0,0,0,0,0,0,0,0,0,0,0,0,0,0,0,0,0,0,0,0,0,0,0,0,0,0,0,0,0,0,0,0,0,0,0,0,0,0,0,0,0,0,0,0,0,0,0,0,0,0,0,0,0,0,0,0,0,0,0,0],"sum_hessian":[8.5165985E2,3.977259E2,4.53934E2,2.4564009E2,1.5208578E2,3.591636E2,9.477039E1,1.8163371E2,6.4006386E1,9.93626E1,5.2723183E1,3.3830472E2,2.0858883E1,1.1118266E1,8.365212E1,3.4326854E0,1.7820102E2,5.9603123E1,4.4032626E0,1.1382565E1,8.798004E1,5.1223484E1,1.499698E0,1.0373063E2,2.3457408E2,1.3548136E1,7.310747E0,2.9466604E1,5.418552E1,2.4157302E0,1.016955E0,1.5642173E0,5.8038906E1,2.812885E0,1.5903776E0,6.38331E0,4.999255E0,8.0685455E1,7.2945805E0,4.021706E1,1.1006425E1,7.7060265E1,2.6670362E1,2.2803096E2,6.543123E0,3.1054718E0,1.0442664E1,5.789102E0,1.5216451E0,2.2544692E0,2.7212135E1,5.1894363E1,2.2911568E0,1.2977852E1,4.506105E1,1.2051935E0,1.6076916E0,3.7408786E0,2.642431E0,3.805965E0,1.19329E0,7.464613E1,6.0393267E0,3.238882E0,4.055699E0,3.8201817E1,2.0152419E0,9.604178E0,1.4022464E0,2.6387355E0,7.442153E1,1.7044989E1,9.625374E0,2.0006827E2,2.796269E1,4.8897676E0,1.653355E0,2.0356033E0,1.0698686E0,7.830912E0,2.6117523E0,4.4484563E0,1.3406458E0,1.7382092E1,9.830044E0,5.042493E1,1.4694325E0,1.0826342E0,1.2085228E0],"tree_param":{"num_deleted":"0","num_feature":"19","num_nodes":"89","size_leaf_vector":"1"}},{"base_weights":[-6.1410367E-3,-8.4499866E-1,9.9297667E-1,2.9346657E-1,-1.1907712E0,-1.1471298E0,1.0599705E0,9.3679386E-1,-7.459954E-2,4.142305E-1,-1.2121793E0,-1.932377E-2,-1.2546796E-1,6.364956E-1,1.2410125E0,1.0840869E0,-3.4066042E-1,-9.320259E-1,8.328983E-2,1.293542E-1,-4.3333974E-1,-9.959726E-1,-1.3009347E0,7.821257E-1,-6.7537373E-1,1.3057635E0,7.256493E-1,1.8989766E-1,1.2038512E0,-1.2613048E-1,4.840622E-1,3.736839E-1,-1.4407304E-1,4.0288988E-1,-3.883745E-1,-8.857821E-2,3.0862657E-2,-1.1489999E0,-5.452157E-1,-1.3359697E-1,-1.0252695E0,3.912728E-1,1.1308364E0,-1.3077101E-1,-1.03553265E-1,1.3196969E0,1.2211711E-1,1.243977E0,3.848384E-1,-1.19424775E-1,9.200244E-2,1.24262884E-1,3.2940585E-2,-2.0551605E-2,9.011369E-2,-2.4111368E-2,9.310436E-2,7.620432E-4,9.2501186E-2,-7.204382E-3,-1.4078556E-1,-1.23948626E-1,-5.295211E-2,-1.1384306E-1,-2.7456177E-2,-1.0917782E-1,3.676157E-2,7.860225E-2,-3.63803E-2,1.2727241E-1,4.0595132E-4,7.8219764E-2,-8.647826E-2,7.3295936E-2,1.3506706E-1,8.4028415E-2,-5.238503E-2,3.0696759E-2,1.3227132E-1,-1.0768954E-1,6.0221344E-2],"categories":[],"categories_nodes":[],"categories_segments":[],"categories_sizes":[],"default_left":[0,0,0,0,0,0,0,0,0,0,0,0,0,0,0,0,0,0,0,0,0,0,0,0,0,0,0,0,0,0,0,0,0,0,0,0,0,0,0,0,0,0,0,0,0,0,0,0,0,0,0,0,0,0,0,0,0,0,0,0,0,0,0,0,0,0,0,0,0,0,0,0,0,0,0,0,0,0,0,0,0],"id":6,"left_children":[1,3,5,7,9,11,13,15,17,19,21,-1,-1,23,25,27,29,31,33,-1,35,37,39,41,43,45,47,49,51,-1,53,55,-1,57,59,-1,-1,61,63,-1,65,67,69,-1,71,73,75,77,79,-1,-1,-1,-1,-1,-1,-1,-1,-1,-1,-1,-1,-1,-1,-1,-1,-1,-1,-1,-1,-1,-1,-1,-1,-1,-1,-1,-1,-1,-1,-1,-1],"loss_changes":[6.7547394E2,1.7280887E2,5.3954132E1,2.4426785E1,1.2055298E1,9.522705E-1,2.6594818E1,7.4268303E0,9.060821E0,4.4144926E0,5.0765686E0,0E0,0E0,2.1357285E1,7.3671875E0,3.3985481E0,4.1324916E0,7.4468794E0,8.742124E0,0E0,1.4087582E0,6.334137E0,8.72406E-1,1.2995533E1,3.9975471E0,3.468872E0,4.831813E0,6.34156E0,5.971489E-1,0E0,1.0967345E0,1.495815E0,0E0,7.100891E0,7.4816694E0,0E0,0E0,3.515892E0,4.099251E0,0E0,3.2248268E0,1.4598354E1,8.240845E0,0E0,5.4557943E0,2.96167E0,2.1394012E0,4.4073486E-1,6.8714848E0,0E0,0E0,0E0,0E0,0E0,0E0,0E0,0E0,0E0,0E0,0E0,0E0,0E0,0E0,0E0,0E0,0E0,0E0,0E0,0E0,0E0,0E0,0E0,0E0,0E0,0E0,0E0,0E0,0E0,0E0,0E0,0E0],"parents":[2147483647,0,0,1,1,2,2,3,3,4,4,5,5,6,6,7,7,8,8,9,9,10,10,13,13,14,14,15,15,16,16,17,17,18,18,20,20,21,21,22,22,23,23,24,24,25,25,26,26,27,27,28,28,30,30,31,31,33,33,34,34,37,37,38,38,40,40,41,41,42,42,44,44,45,45,46,46,47,47,48,48],"right_children":[2,4,6,8,10,12,14,16,18,20,22,-1,-1,24,26,28,30,32,34,-1,36,38,40,42,44,46,48,50,52,-1,54,56,-1,58,60,-1,-1,62,64,-1,66,68,70,-1,72,74,76,78,80,-1,-1,-1,-1,-1,-1,-1,-1,-1,-1,-1,-1,-1,-1,-1,-1,-1,-1,-1,-1,-1,-1,-1,-1,-1,-1,-1,-1,-1,-1,-1,-1],"split_conditions":[-2.8371584E-1,-3.301774E-1,-2.568022E-1,-5.4976636E-1,-1.5307522E0,-4.8061322E-2,1.5101668E-1,6.62283E-1,-5.4074746E-1,-1.10588424E-1,-1.10588424E-1,-1.932377E-2,-1.2546796E-1,1.4428506E0,2.4262226E0,-5.439207E-1,-1.8355687E-1,-4.9486914E-1,2.1605086E-1,1.293542E-1,-5.534404E-1,1.0728804E0,7.2598803E-1,-1.8355687E-1,-1.6313308E-1,2.1597133E0,5.37386E-2,-3.493058E-1,1.3703564E0,-1.2613048E-1,3.0380297E-1,9.9119294E-1,-1.4407304E-1,1.787708E-1,5.132107E-1,-8.857821E-2,3.0862657E-2,7.56243E-1,-1.4613214E-1,-1.3359697E-1,1.0406849E0,-3.8507465E-1,-5.569118E-2,-1.3077101E-1,-7.4282646E-2,-1.8282067E0,1.1401955E-1,-2.2981064E0,-8.8695276E-1,-1.19424775E-1,9.200244E-2,1.24262884E-1,3.2940585E-2,-2.0551605E-2,9.011369E-2,-2.4111368E-2,9.310436E-2,7.620432E-4,9.2501186E-2,-7.204382E-3,-1.4078556E-1,-1.23948626E-1,-5.295211E-2,-1.1384306E-1,-2.7456177E-2,-1.0917782E-1,3.676157E-2,7.860225E-2,-3.63803E-2,1.2727241E-1,4.0595132E-4,7.8219764E-2,-8.647826E-2,7.3295936E-2,1.3506706E-1,8.4028415E-2,-5.238503E-2,3.0696759E-2,1.3227132E-1,-1.0768954E-1,6.0221344E-2],"split_indices":[12,14,9,14,4,15,12,16,12,14,14,0,0,0,12,12,2,14,3,0,12,9,0,2,12,0,17,0,4,0,17,2,0,17,4,0,0,2,4,0,4,14,14,0,12,2,18,2,0,0,0,0,0,0,0,0,0,0,0,0,0,0,0,0,0,0,0,0,0,0,0,0,0,0,0,0,0,0,0,0,0],"split_type":[0,0,0,0,0,0,0,0,0,0,0,0,0,0,0,0,0,0,0,0,0,0,0,0,0,0,0,0,0,0,0,0,0,0,0,0,0,0,0,0,0,0,0,0,0,0,0,0,0,0,0,0,0,0,0,0,0,0,0,0,0,0,0,0,0,0,0,0,0,0,0,0,0,0,0,0,0,0,0,0,0],"sum_hessian":[8.039406E2,4.371035E2,3.6683713E2,1.0186419E2,3.352393E2,1.0645495E1,3.5619162E2,3.6508076E1,6.535612E1,4.171156E0,3.3106815E2,1.3620229E0,9.283473E0,1.0802541E2,2.4816621E2,3.2869526E1,3.6385515E0,9.400917E0,5.5955196E1,1.788991E0,2.3821647E0,9.991021E1,2.3115793E2,9.7595215E1,1.0430201E1,2.1910399E2,2.9062235E1,4.1878247E0,2.86817E1,1.4691544E0,2.169397E0,2.7101357E0,6.6907816E0,3.344122E1,2.2513979E1,1.3593926E0,1.0227721E0,7.3431816E1,2.6478397E1,2.0167964E2,2.9478289E1,4.7017563E1,5.057765E1,4.3418865E0,6.0883136E0,2.1644118E2,2.6627994E0,1.0477426E1,1.858481E1,1.2266735E0,2.9611511E0,2.7060637E1,1.6210626E0,1.0087708E0,1.1606262E0,1.5584654E0,1.1516705E0,1.96101E1,1.383112E1,1.7999617E1,4.514362E0,6.319951E1,1.0232305E1,7.2912774E0,1.918712E1,2.8341206E1,1.1370823E0,3.0848925E1,1.6168638E1,4.4806E1,5.7716503E0,2.8012693E0,3.2870445E0,1.2089645E1,2.0435153E2,1.1184857E0,1.5443138E0,1.1918883E0,9.285537E0,1.8940724E0,1.6690739E1],"tree_param":{"num_deleted":"0","num_feature":"19","num_nodes":"81","size_leaf_vector":"1"}},{"base_weights":[2.2064602E-2,-7.675097E-1,9.391913E-1,3.949737E-1,-1.0569541E0,1.1763437E0,3.243163E-1,1.092263E0,1.588152E-1,-7.709955E-1,-1.2122521E0,8.67819E-1,1.2922231E0,-1.6655739E-1,1.0434211E0,1.1625156E0,9.042702E-3,4.2485923E-1,-4.586307E-1,-9.4770265E-1,-1.4512713E-1,4.3214628E-1,-1.2368685E0,9.4597137E-1,-2.9353896E-1,1.2996044E0,4.2694536E-1,-1.3052247E-1,7.6792434E-2,1.1888942E0,2.6647297E-1,7.3692304E-1,1.299458E-1,-1.1474103E-1,4.9336234E-1,2.4584214E-1,-9.872982E-1,-9.317496E-2,-1.0667326E0,7.883291E-1,-5.3473985E-1,-1.1769108E-2,8.2431614E-2,-9.982773E-1,-1.3081943E0,6.4154124E-1,1.2750572E0,-1.15432635E-1,8.408925E-2,8.430421E-1,1.3179788E-1,7.810402E-2,-1.4595049E-2,4.7321647E-1,-7.271611E-1,5.9785706E-1,1.2490201E0,-8.130749E-2,7.714525E-1,1.02865934E-1,-1.0894286E-2,-2.3669584E-2,6.621103E-2,5.8642056E-2,-9.7226016E-2,2.7114043E-2,-1.2896197E-1,9.042184E-2,-1.0062195E-1,-1.1626198E-1,-6.4704075E-2,1.2445815E-1,-8.578127E-2,3.0011509E-2,-1.13471866E-1,3.871331E-2,-1.0951302E-1,-1.3219891E-1,-7.206151E-2,3.461019E-2,1.14550404E-1,1.3543117E-1,7.575495E-2,9.926312E-2,-6.9823093E-3,-1.1772521E-1,6.389441E-2,-1.04998425E-1,4.04277E-2,1.02460854E-1,-3.9875556E-2,4.5171417E-2,1.2791404E-1,9.680017E-2,-5.6662303E-3],"categories":[],"categories_nodes":[],"categories_segments":[],"categories_sizes":[],"default_left":[0,0,0,0,0,0,0,0,0,0,0,0,0,0,0,0,0,0,0,0,0,0,0,0,0,0,0,0,0,0,0,0,0,0,0,0,0,0,0,0,0,0,0,0,0,0,0,0,0,0,0,0,0,0,0,0,0,0,0,0,0,0,0,0,0,0,0,0,0,0,0,0,0,0,0,0,0,0,0,0,0,0,0,0,0,0,0,0,0,0,0,0,0,0,0],"id":7,"left_children":[1,3,5,7,9,11,13,15,17,19,21,23,25,27,29,31,-1,33,35,37,39,41,43,45,47,49,51,-1,53,55,57,59,-1,-1,61,63,65,67,69,71,73,-1,-1,75,77,79,81,-1,-1,83,-1,-1,-1,85,87,89,91,-1,93,-1,-1,-1,-1,-1,-1,-1,-1,-1,-1,-1,-1,-1,-1,-1,-1,-1,-1,-1,-1,-1,-1,-1,-1,-1,-1,-1,-1,-1,-1,-1,-1,-1,-1,-1,-1],"loss_changes":[5.6912604E2,1.425278E2,5.2636444E1,1.3811107E1,1.4094452E1,8.245758E0,3.638387E1,1.3950882E0,1.0808039E1,1.3339058E1,9.341614E0,7.047043E0,6.485901E-1,1.723231E1,4.4023895E0,1.983757E-1,0E0,5.485265E0,7.667712E0,9.547684E0,1.060849E1,9.487606E-1,2.3464355E0,6.206604E0,6.3079596E0,4.5205688E-1,7.394127E-1,0E0,1.6880257E1,4.9277878E-1,4.9196177E0,1.8736115E0,0E0,0E0,5.6346188E0,4.4481544E0,4.758649E0,1.24677105E1,2.5940552E0,7.566147E0,1.0537624E1,0E0,0E0,7.6181145E0,3.6053467E-1,5.326254E0,3.144722E-1,0E0,0E0,1.432694E0,0E0,0E0,0E0,1.0423046E1,6.827132E0,2.5941362E0,1.6044235E-1,0E0,1.0115125E0,0E0,0E0,0E0,0E0,0E0,0E0,0E0,0E0,0E0,0E0,0E0,0E0,0E0,0E0,0E0,0E0,0E0,0E0,0E0,0E0,0E0,0E0,0E0,0E0,0E0,0E0,0E0,0E0,0E0,0E0,0E0,0E0,0E0,0E0,0E0,0E0],"parents":[2147483647,0,0,1,1,2,2,3,3,4,4,5,5,6,6,7,7,8,8,9,9,10,10,11,11,12,12,13,13,14,14,15,15,17,17,18,18,19,19,20,20,21,21,22,22,23,23,24,24,25,25,26,26,28,28,29,29,30,30,31,31,34,34,35,35,36,36,37,37,38,38,39,39,40,40,43,43,44,44,45,45,46,46,49,49,53,53,54,54,55,55,56,56,58,58],"right_children":[2,4,6,8,10,12,14,16,18,20,22,24,26,28,30,32,-1,34,36,38,40,42,44,46,48,50,52,-1,54,56,58,60,-1,-1,62,64,66,68,70,72,74,-1,-1,76,78,80,82,-1,-1,84,-1,-1,-1,86,88,90,92,-1,94,-1,-1,-1,-1,-1,-1,-1,-1,-1,-1,-1,-1,-1,-1,-1,-1,-1,-1,-1,-1,-1,-1,-1,-1,-1,-1,-1,-1,-1,-1,-1,-1,-1,-1,-1,-1],"split_conditions":[-2.8371584E-1,-3.8507465E-1,-3.301774E-1,-6.5956086E-1,7.933202E-1,1.8274899E-1,1.0728804E0,-3.1544814E-1,-1.8752635E-1,1.0728804E0,-1.5307522E0,1.5324584E0,2.1597133E0,-2.5274834E-1,6.231012E-1,-2.2191612E-1,9.042702E-3,-1.2230588E0,7.933202E-1,-2.7528015E-1,5.139309E-2,2.8634307E-1,-1.6548567E-1,-1.8355687E-1,-3.4709167E-1,-2.0631566E0,-7.144581E-1,-1.3052247E-1,2.1605086E-1,-1.0661684E0,-1.8355687E-1,-2.4148272E-1,1.299458E-1,-1.1474103E-1,-4.0713686E-1,1.4802469E0,-9.765606E-1,1.8353927E-1,7.2598803E-1,-7.939342E-4,-2.106505E-1,-1.1769108E-2,8.2431614E-2,-2.3970394E-1,3.3645594E0,1.0728804E0,-3.1706905E-1,-1.15432635E-1,8.408925E-2,-2.2981064E0,1.3179788E-1,7.810402E-2,-1.4595049E-2,-2.3294415E-1,3.8348678E-1,-2.0946465E-1,-4.0713686E-1,-8.130749E-2,1.4582688E0,1.02865934E-1,-1.0894286E-2,-2.3669584E-2,6.621103E-2,5.8642056E-2,-9.7226016E-2,2.7114043E-2,-1.2896197E-1,9.042184E-2,-1.0062195E-1,-1.1626198E-1,-6.4704075E-2,1.2445815E-1,-8.578127E-2,3.0011509E-2,-1.13471866E-1,3.871331E-2,-1.0951302E-1,-1.3219891E-1,-7.206151E-2,3.461019E-2,1.14550404E-1,1.3543117E-1,7.575495E-2,9.926312E-2,-6.9823093E-3,-1.1772521E-1,6.389441E-2,-1.04998425E-1,4.04277E-2,1.02460854E-1,-3.9875556E-2,4.5171417E-2,1.2791404E-1,9.680017E-2,-5.6662303E-3],"split_indices":[12,14,14,14,1,12,9,12,5,9,4,0,0,5,4,5,0,4,1,14,2,2,14,2,13,2,14,0,3,0,2,5,0,0,13,4,0,4,0,14,5,0,0,5,3,9,13,0,0,2,0,0,0,12,14,5,13,0,4,0,0,0,0,0,0,0,0,0,0,0,0,0,0,0,0,0,0,0,0,0,0,0,0,0,0,0,0,0,0,0,0,0,0,0,0],"split_type":[0,0,0,0,0,0,0,0,0,0,0,0,0,0,0,0,0,0,0,0,0,0,0,0,0,0,0,0,0,0,0,0,0,0,0,0,0,0,0,0,0,0,0,0,0,0,0,0,0,0,0,0,0,0,0,0,0,0,0,0,0,0,0,0,0,0,0,0,0,0,0,0,0,0,0,0,0,0,0,0,0,0,0,0,0,0,0,0,0,0,0,0,0,0,0],"sum_hessian":[7.8393854E2,4.2135123E2,3.625873E2,8.3924446E1,3.374268E2,2.6100616E2,1.0158115E2,2.0315401E1,6.3609047E1,1.2085483E2,2.1657196E2,7.358302E1,1.8742314E2,6.082756E1,4.0753582E1,1.8834284E1,1.4811175E0,4.4672535E1,1.8936514E1,9.38446E1,2.701023E1,2.9500422E0,2.1362192E2,6.911731E1,4.4657164E0,1.8534012E2,2.083019E0,9.942351E0,5.0885212E1,3.3879837E1,6.8737445E0,6.1384215E0,1.2695861E1,1.207541E0,4.3464993E1,8.347748E0,1.0588767E1,1.1691686E1,8.215291E1,7.6525207E0,1.9357708E1,1.5195177E0,1.4305247E0,5.261528E1,1.6100664E2,3.743576E1,3.1681547E1,2.529123E0,1.936593E0,8.984184E0,1.7635594E2,1.0628031E0,1.0202159E0,3.4355927E1,1.6529285E1,4.1388135E0,2.9741022E1,1.9961818E0,4.8775625E0,4.40355E0,1.7348714E0,8.084813E0,3.538018E1,6.9289966E0,1.4187517E0,2.0710368E0,8.51773E0,5.59236E0,6.099326E0,6.54332E1,1.6719713E1,6.1828055E0,1.4697151E0,8.303455E0,1.1054253E1,3.2421114E0,4.937317E1,1.560921E2,4.91453E0,2.4663801E1,1.2771961E1,2.6071758E1,5.60979E0,7.6441727E0,1.3400121E0,2.5780277E0,3.1777897E1,1.2916054E1,3.613231E0,2.8782501E0,1.2605634E0,1.6649725E0,2.807605E1,3.8054376E0,1.0721251E0],"tree_param":{"num_deleted":"0","num_feature":"19","num_nodes":"95","size_leaf_vector":"1"}},{"base_weights":[1.857173E-2,-8.232374E-1,8.1819415E-1,3.0988732E-1,-1.0515053E0,1.2235193E0,4.507498E-1,5.7604605E-1,-3.1624714E-1,-7.964715E-1,-1.2242866E0,8.273459E-1,1.2482636E0,-1.19411506E-1,5.407007E-1,4.731514E-2,1.1872375E0,-9.095275E-1,1.734865E-1,1.0214003E-1,-8.2200956E-1,-1.2366773E0,-2.8340927E-1,-4.4828743E-2,9.8689824E-1,1.2538562E0,3.56221E-2,1.781303E-1,9.1567665E-1,3.9440855E-1,-1.1036019E0,1.3036805E0,-1.6530559E-3,-1.3118044E0,6.806443E-2,-6.6196364E-1,5.158503E-1,-5.125698E-1,-1.002995E0,-2.0858804E-2,-1.245699E0,3.878289E-2,-7.688441E-2,1.1049069E0,3.079611E-2,3.4750488E-2,1.2584403E-1,4.5414928E-1,-2.6292184E-1,-2.708936E-1,9.934746E-1,-6.1844613E-2,6.3389115E-2,-1.3401294E-1,2.371947E-3,3.995077E-2,1.3435964E-1,-1.5208039E-1,-4.0365024E-3,-1.476172E-1,7.36769E-2,9.430777E-2,-2.5960222E-2,-2.997663E-2,-1.104955E-1,-3.0281639E-2,-1.05339125E-1,-1.2573138E-1,-6.0997423E-2,1.1826098E-1,2.6030922E-2,6.1181534E-2,-2.9966498E-2,-6.0285877E-2,1.4989403E-2,-1.04580835E-1,5.381266E-2,1.1222433E-1,5.498287E-2],"categories":[],"categories_nodes":[],"categories_segments":[],"categories_sizes":[],"default_left":[0,0,0,0,0,0,0,0,0,0,0,0,0,0,0,0,0,0,0,0,0,0,0,0,0,0,0,0,0,0,0,0,0,0,0,0,0,0,0,0,0,0,0,0,0,0,0,0,0,0,0,0,0,0,0,0,0,0,0,0,0,0,0,0,0,0,0,0,0,0,0,0,0,0,0,0,0,0,0],"id":8,"left_children":[1,3,5,7,9,11,13,15,17,19,21,23,25,-1,27,29,31,33,35,-1,37,39,41,-1,43,45,-1,47,49,51,53,55,-1,57,-1,59,61,63,65,-1,67,-1,-1,69,-1,-1,-1,71,73,75,77,-1,-1,-1,-1,-1,-1,-1,-1,-1,-1,-1,-1,-1,-1,-1,-1,-1,-1,-1,-1,-1,-1,-1,-1,-1,-1,-1,-1],"loss_changes":[5.0121585E2,9.415207E1,5.6320526E1,1.0447001E1,1.2339172E1,7.415161E-1,3.0514091E1,1.4025753E1,5.6835823E0,6.637657E0,1.7276611E0,3.2114801E0,3.9334106E-1,0E0,2.595301E1,1.0184784E1,2.8488579E0,6.4966993E0,3.5616336E0,0E0,6.414421E0,1.3693237E0,1.4758878E0,0E0,6.5362644E-1,2.5628662E-1,0E0,1.2159836E1,8.964043E0,5.1189585E0,1.6098242E0,1.274395E-1,0E0,1.88725E0,0E0,5.31331E0,3.07664E0,5.681978E0,2.3985596E0,0E0,5.172119E-1,0E0,0E0,3.603592E-1,0E0,0E0,0E0,7.4570017E0,5.5217423E0,4.6887646E0,4.444954E0,0E0,0E0,0E0,0E0,0E0,0E0,0E0,0E0,0E0,0E0,0E0,0E0,0E0,0E0,0E0,0E0,0E0,0E0,0E0,0E0,0E0,0E0,0E0,0E0,0E0,0E0,0E0,0E0],"parents":[2147483647,0,0,1,1,2,2,3,3,4,4,5,5,6,6,7,7,8,8,9,9,10,10,11,11,12,12,14,14,15,15,16,16,17,17,18,18,20,20,21,21,22,22,24,24,25,25,27,27,28,28,29,29,30,30,31,31,33,33,35,35,36,36,37,37,38,38,40,40,43,43,47,47,48,48,49,49,50,50],"right_children":[2,4,6,8,10,12,14,16,18,20,22,24,26,-1,28,30,32,34,36,-1,38,40,42,-1,44,46,-1,48,50,52,54,56,-1,58,-1,60,62,64,66,-1,68,-1,-1,70,-1,-1,-1,72,74,76,78,-1,-1,-1,-1,-1,-1,-1,-1,-1,-1,-1,-1,-1,-1,-1,-1,-1,-1,-1,-1,-1,-1,-1,-1,-1,-1,-1,-1],"split_conditions":[-3.440072E-1,-3.8507465E-1,-5.4976636E-1,5.6528515E-1,-5.569118E-2,-1.3583066E0,-1.5747083E0,5.0513778E-2,5.139309E-2,-1.8164674E0,2.227502E0,-1.3774724E-1,6.198425E0,-1.19411506E-1,1.8274899E-1,4.472764E-1,-3.7891275E-1,9.1199297E-1,-3.43935E-1,1.0214003E-1,7.933202E-1,-1.8164674E0,2.623108E0,-4.4828743E-2,2.4262226E0,-1.5966864E0,3.56221E-2,2.1605086E-1,-1.8282067E0,2.5568232E-1,-2.7050892E-1,-1.1369998E-1,-1.6530559E-3,4.315484E-1,6.806443E-2,7.56243E-1,2.2749546E-1,9.3079454E-1,-1.1131684E0,-2.0858804E-2,9.867674E-1,3.878289E-2,-7.688441E-2,1.7903051E0,3.079611E-2,3.4750488E-2,1.2584403E-1,-1.10588424E-1,1.003178E0,-5.313295E-2,2.4262226E0,-6.1844613E-2,6.3389115E-2,-1.3401294E-1,2.371947E-3,3.995077E-2,1.3435964E-1,-1.5208039E-1,-4.0365024E-3,-1.476172E-1,7.36769E-2,9.430777E-2,-2.5960222E-2,-2.997663E-2,-1.104955E-1,-3.0281639E-2,-1.05339125E-1,-1.2573138E-1,-6.0997423E-2,1.1826098E-1,2.6030922E-2,6.1181534E-2,-2.9966498E-2,-6.0285877E-2,1.4989403E-2,-1.04580835E-1,5.381266E-2,1.1222433E-1,5.498287E-2],"split_indices":[12,14,14,16,14,2,4,18,2,4,4,12,15,0,12,4,12,6,4,0,1,4,4,0,12,4,0,3,2,6,11,16,0,18,0,2,4,4,4,0,8,0,0,3,0,0,0,14,3,11,12,0,0,0,0,0,0,0,0,0,0,0,0,0,0,0,0,0,0,0,0,0,0,0,0,0,0,0,0],"split_type":[0,0,0,0,0,0,0,0,0,0,0,0,0,0,0,0,0,0,0,0,0,0,0,0,0,0,0,0,0,0,0,0,0,0,0,0,0,0,0,0,0,0,0,0,0,0,0,0,0,0,0,0,0,0,0,0,0,0,0,0,0,0,0,0,0,0,0,0,0,0,0,0,0,0,0,0,0,0,0],"sum_hessian":[7.4260474E2,3.617451E2,3.8085968E2,6.0594704E1,3.0115036E2,1.7998724E2,2.0087242E2,4.2576275E1,1.801843E1,1.2389083E2,1.7725954E2,1.2605183E1,1.6738206E2,9.778839E0,1.9109358E2,2.3405771E1,1.9170504E1,7.7602296E0,1.0258201E1,1.1761214E0,1.22714714E2,1.7464519E2,2.6143477E0,1.2001588E0,1.1405024E1,1.6593614E2,1.4459229E0,9.7903824E1,9.318976E1,1.8487595E1,4.9181767E0,1.740398E1,1.766523E0,6.333144E0,1.4270854E0,2.7104764E0,7.547724E0,4.6700542E1,7.601417E1,1.7290632E0,1.7291614E2,1.1815797E0,1.4327679E0,9.181709E0,2.2233145E0,1.2215515E0,1.647146E2,6.0199875E1,3.7703945E1,5.581344E0,8.760841E1,3.2327495E0,1.5254845E1,3.9092002E0,1.0089763E0,1.2012854E0,1.6202694E1,5.27063E0,1.0625143E0,1.6782156E0,1.0322607E0,4.7271733E0,2.8205504E0,3.5466053E1,1.1234492E1,5.574447E0,7.043972E1,1.6885344E2,4.0626945E0,8.041671E0,1.1400379E0,4.994241E1,1.0257467E1,2.0424692E1,1.7279255E1,2.7012675E0,2.880077E0,6.671479E1,2.0893623E1],"tree_param":{"num_deleted":"0","num_feature":"19","num_nodes":"79","size_leaf_vector":"1"}},{"base_weights":[1.2810093E-2,-7.643459E-1,7.530864E-1,5.296729E-1,-9.0416133E-1,1.0554383E0,2.010702E-1,6.7818767E-1,-9.115226E-1,-5.073768E-1,-1.0322767E0,1.1837709E0,7.134326E-1,-1.1761285E-1,3.2058555E-1,2.1575317E-1,9.6766955E-1,-1.17000595E-1,-2.0876806E-2,-7.7312845E-1,8.672904E-2,-1.0669755E0,-3.263049E-1,2.1799121E-2,1.1887815E0,7.6678765E-1,-1.0369096E-1,-5.9526663E-2,9.395902E-1,6.566964E-1,-6.397715E-1,1.2369484E0,2.2749875E-1,-8.503984E-1,1.03214554E-1,8.0201244E-1,-5.3002656E-1,-8.822356E-1,-1.1649164E0,7.178712E-1,-8.129597E-1,1.1940129E0,3.3927005E-2,9.0018606E-1,9.559459E-2,-3.9766538E-1,5.7387745E-1,-3.781829E-1,1.0257393E0,-6.150689E-4,8.953833E-2,-1.1408482E-1,8.778944E-3,1.287029E-1,4.251E-2,-8.560423E-2,1.037216E-1,-6.1873663E-2,-1.3641384E-1,-2.868611E-2,1.22041285E-1,7.926704E-2,-7.675153E-2,-1.0728319E-1,-6.1266404E-2,2.4205664E-2,-1.1772044E-1,1.1227238E-1,-5.602685E-3,3.41116E-2,-1.02809325E-1,3.6343247E-2,1.1991159E-1,9.4873905E-2,-2.800088E-2,-8.181666E-2,7.234645E-2,2.4088426E-2,-6.246544E-2,-3.4415334E-2,1.1561743E-1,-6.169339E-2,9.643555E-3,1.2113974E-1,5.484986E-2],"categories":[],"categories_nodes":[],"categories_segments":[],"categories_sizes":[],"default_left":[0,0,0,0,0,0,0,0,0,0,0,0,0,0,0,0,0,0,0,0,0,0,0,0,0,0,0,0,0,0,0,0,0,0,0,0,0,0,0,0,0,0,0,0,0,0,0,0,0,0,0,0,0,0,0,0,0,0,0,0,0,0,0,0,0,0,0,0,0,0,0,0,0,0,0,0,0,0,0,0,0,0,0,0,0],"id":9,"left_children":[1,3,5,7,9,11,13,15,17,19,21,23,25,-1,27,29,31,-1,-1,33,35,37,39,-1,41,43,-1,45,47,49,51,53,55,57,-1,59,61,63,65,67,69,71,-1,73,75,77,79,81,83,-1,-1,-1,-1,-1,-1,-1,-1,-1,-1,-1,-1,-1,-1,-1,-1,-1,-1,-1,-1,-1,-1,-1,-1,-1,-1,-1,-1,-1,-1,-1,-1,-1,-1,-1,-1],"loss_changes":[4.0545367E2,6.2684555E1,6.0028778E1,7.929159E0,1.52686615E1,9.380493E0,2.1604393E1,4.0133123E0,4.128902E-1,1.2349287E1,5.3808746E0,5.532837E-1,6.966503E0,0E0,2.816233E1,5.4862237E0,3.527483E0,0E0,0E0,8.389515E0,1.1428398E1,2.9976501E0,6.8831587E0,0E0,3.361969E-1,5.707165E0,0E0,1.6280493E1,5.5539284E0,1.4856524E0,1.9499605E0,1.3435364E-2,6.4355955E0,5.3671E0,0E0,5.792726E0,5.004754E0,3.5148468E0,2.7446747E0,1.464071E0,2.5665722E0,2.6513672E-1,0E0,3.3517265E0,7.388394E0,7.318469E0,1.4560972E1,4.5870358E-1,3.1439552E0,0E0,0E0,0E0,0E0,0E0,0E0,0E0,0E0,0E0,0E0,0E0,0E0,0E0,0E0,0E0,0E0,0E0,0E0,0E0,0E0,0E0,0E0,0E0,0E0,0E0,0E0,0E0,0E0,0E0,0E0,0E0,0E0,0E0,0E0,0E0,0E0],"parents":[2147483647,0,0,1,1,2,2,3,3,4,4,5,5,6,6,7,7,8,8,9,9,10,10,11,11,12,12,14,14,15,15,16,16,19,19,20,20,21,21,22,22,24,24,25,25,27,27,28,28,29,29,30,30,31,31,32,32,33,33,35,35,36,36,37,37,38,38,39,39,40,40,41,41,43,43,44,44,45,45,46,46,47,47,48,48],"right_children":[2,4,6,8,10,12,14,16,18,20,22,24,26,-1,28,30,32,-1,-1,34,36,38,40,-1,42,44,-1,46,48,50,52,54,56,58,-1,60,62,64,66,68,70,72,-1,74,76,78,80,82,84,-1,-1,-1,-1,-1,-1,-1,-1,-1,-1,-1,-1,-1,-1,-1,-1,-1,-1,-1,-1,-1,-1,-1,-1,-1,-1,-1,-1,-1,-1,-1,-1,-1,-1,-1,-1],"split_conditions":[-3.4718043E-1,-4.9486914E-1,-3.8507465E-1,7.5928086E-1,-2.2038291E-1,-5.4976636E-1,-2.5274834E-1,5.0513778E-2,8.562788E-1,1.0728804E0,-2.4635604E-1,-3.0029564E0,2.0701053E0,-1.1761285E-1,-1.6584642E-1,-2.017566E-1,5.167862E-1,-1.17000595E-1,-2.0876806E-2,-1.698719E-1,-4.8061322E-2,7.933202E-1,-2.2250906E-1,2.1799121E-2,6.198425E0,7.1078193E-1,-1.0369096E-1,2.8634307E-1,-2.0631566E0,-2.59698E-1,2.1605086E-1,-5.4976636E-1,-3.7711427E-1,2.7145165E-1,1.03214554E-1,-3.4296757E-1,-3.590695E-1,1.1401955E-1,-4.0737528E-1,-2.2220315E-1,-5.285215E-1,-2.1414623E0,3.3927005E-2,1.7903051E0,7.36488E-2,9.87333E-2,-2.3929061E-1,4.472764E-1,2.4262226E0,-6.150689E-4,8.953833E-2,-1.1408482E-1,8.778944E-3,1.287029E-1,4.251E-2,-8.560423E-2,1.037216E-1,-6.1873663E-2,-1.3641384E-1,-2.868611E-2,1.22041285E-1,7.926704E-2,-7.675153E-2,-1.0728319E-1,-6.1266404E-2,2.4205664E-2,-1.1772044E-1,1.1227238E-1,-5.602685E-3,3.41116E-2,-1.02809325E-1,3.6343247E-2,1.1991159E-1,9.4873905E-2,-2.800088E-2,-8.181666E-2,7.234645E-2,2.4088426E-2,-6.246544E-2,-3.4415334E-2,1.1561743E-1,-6.169339E-2,9.643555E-3,1.2113974E-1,5.484986E-2],"split_indices":[12,14,14,16,14,14,5,18,16,9,11,2,0,0,11,5,16,0,0,11,15,1,5,0,15,16,0,2,2,0,3,14,13,4,0,11,11,18,11,11,0,0,0,3,4,0,12,4,12,0,0,0,0,0,0,0,0,0,0,0,0,0,0,0,0,0,0,0,0,0,0,0,0,0,0,0,0,0,0,0,0,0,0,0,0],"split_type":[0,0,0,0,0,0,0,0,0,0,0,0,0,0,0,0,0,0,0,0,0,0,0,0,0,0,0,0,0,0,0,0,0,0,0,0,0,0,0,0,0,0,0,0,0,0,0,0,0,0,0,0,0,0,0,0,0,0,0,0,0,0,0,0,0,0,0,0,0,0,0,0,0,0,0,0,0,0,0,0,0,0,0,0,0],"sum_hessian":[7.0275616E2,3.4282233E2,3.5993384E2,3.3157246E1,3.0966507E2,2.3196779E2,1.2796604E2,3.053958E1,2.6176672E0,7.6792465E1,2.328726E2,1.668853E2,6.508249E1,9.512364E0,1.18453674E2,1.2429427E1,1.8110151E1,1.4276657E0,1.1900015E0,5.2850418E1,2.3942047E1,2.2147563E2,1.1396963E1,1.0910665E0,1.6579424E2,6.3702587E1,1.3799015E0,7.3948166E1,4.4505512E1,8.355402E0,4.0740256E0,1.2786996E1,5.3231554E0,5.1188374E1,1.662046E0,1.0946477E1,1.2995569E1,8.020249E1,1.4127315E2,3.4720817E0,7.924881E0,1.6437643E2,1.4177885E0,5.2856316E1,1.08462715E1,4.8453663E1,2.54945E1,2.522986E0,4.1982525E1,2.4700797E0,5.885322E0,2.0761328E0,1.9978929E0,1.1492736E1,1.2942601E0,2.2521627E0,3.070993E0,3.679893E1,1.4389443E1,3.125875E0,7.820602E0,1.6223195E0,1.137325E1,4.5237953E1,3.4964535E1,1.0612502E0,1.402119E2,1.9836355E0,1.4884462E0,1.1531659E0,6.771715E0,1.4447303E0,1.629317E2,5.0956112E1,1.9002072E0,4.2939916E0,6.5522795E0,1.2691006E1,3.5762657E1,1.0053477E1,1.5441022E1,1.4790938E0,1.0438923E0,2.9116985E1,1.2865541E1],"tree_param":{"num_deleted":"0","num_feature":"19","num_nodes":"85","size_leaf_vector":"1"}},{"base_weights":[3.0781403E-2,-6.377307E-1,8.081007E-1,2.1967334E-1,-9.452163E-1,1.0402179E0,3.5986394E-1,5.804982E-1,-1.1098528E-1,-6.7050046E-1,-1.1040701E0,2.900604E-1,1.113352E0,-1.1652684E-1,4.9996316E-1,7.8995234E-1,-4.3549284E-1,-9.84328E-1,1.0055156E-1,-9.039283E-1,3.501437E-2,2.5634302E-2,-1.1241145E0,7.543393E-1,-7.351763E-1,1.1257212E0,1.12998486E-1,4.0500622E-2,8.3111936E-1,9.114506E-1,-4.8095825E-1,-1.0648953E0,5.4191405E-1,1.4788982E-1,-1.3633358E-1,4.0961158E-1,-4.4252616E-1,-1.0252074E0,-3.9737058E-1,8.776385E-1,-3.4273666E-1,-8.5892075E-1,-1.1940804E0,9.379259E-1,-2.8438454E-2,-1.4553522E-1,6.426842E-2,6.201418E-1,1.1490626E0,-2.0007508E-2,3.706519E-2,-3.9133972E-1,8.96436E-1,9.1998214E-1,-1.2228731E-1,1.00163735E-1,1.6891403E-2,4.7684442E-2,-1.2707795E-1,-1.3691857E-1,1.1939665E-2,7.9207815E-2,1.0504603E-2,-7.374149E-2,1.01724766E-1,7.412816E-2,-1.20475525E-2,7.20058E-2,-7.3638305E-2,-1.1058879E-1,-4.490548E-2,-6.1786152E-2,9.240533E-2,1.4202735E-1,-8.192546E-2,5.0666865E-2,-7.308203E-2,-1.2438035E-1,-5.1915195E-2,-1.2116416E-1,-3.9085787E-2,6.787281E-3,1.12657465E-1,-1.03170864E-1,8.4894486E-2,7.763609E-2,-4.4036455E-2,-3.362563E-2,8.142584E-2,8.39824E-2,1.1888633E-1,8.847881E-2,-6.406942E-2,1.1918805E-1,3.160172E-2,1.8425671E-2,1.0854205E-1],"categories":[],"categories_nodes":[],"categories_segments":[],"categories_sizes":[],"default_left":[0,0,0,0,0,0,0,0,0,0,0,0,0,0,0,0,0,0,0,0,0,0,0,0,0,0,0,0,0,0,0,0,0,0,0,0,0,0,0,0,0,0,0,0,0,0,0,0,0,0,0,0,0,0,0,0,0,0,0,0,0,0,0,0,0,0,0,0,0,0,0,0,0,0,0,0,0,0,0,0,0,0,0,0,0,0,0,0,0,0,0,0,0,0,0,0,0],"id":10,"left_children":[1,3,5,7,9,11,13,15,17,19,21,23,25,-1,27,29,31,33,35,37,39,-1,41,43,45,47,49,51,53,55,57,59,61,63,-1,65,67,69,71,73,75,77,79,81,83,-1,85,87,89,-1,-1,91,93,95,-1,-1,-1,-1,-1,-1,-1,-1,-1,-1,-1,-1,-1,-1,-1,-1,-1,-1,-1,-1,-1,-1,-1,-1,-1,-1,-1,-1,-1,-1,-1,-1,-1,-1,-1,-1,-1,-1,-1,-1,-1,-1,-1],"loss_changes":[3.479811E2,9.5130325E1,3.1838486E1,1.1500275E1,1.083284E1,1.0838791E1,2.347919E1,1.013186E1,9.494183E0,1.6452744E1,4.8280334E0,9.800835E0,2.1622314E0,0E0,1.500569E1,6.3815346E0,5.809873E0,4.49658E0,7.204926E0,4.197735E0,8.497586E0,0E0,2.022049E0,2.0190191E0,3.87108E0,1.4429016E0,3.4611535E-1,1.6042353E1,1.160017E1,2.2065067E0,3.6417804E0,2.1496234E0,3.5336566E-1,3.3763895E0,0E0,4.8694367E0,5.8794956E0,2.2853317E0,5.2656E0,8.761871E0,6.468524E0,4.3041687E0,1.3235168E0,1.7716103E0,4.0486345E0,0E0,1.8034028E0,2.173585E0,1.1360016E0,0E0,0E0,9.767088E0,2.1166458E0,6.5652275E0,0E0,0E0,0E0,0E0,0E0,0E0,0E0,0E0,0E0,0E0,0E0,0E0,0E0,0E0,0E0,0E0,0E0,0E0,0E0,0E0,0E0,0E0,0E0,0E0,0E0,0E0,0E0,0E0,0E0,0E0,0E0,0E0,0E0,0E0,0E0,0E0,0E0,0E0,0E0,0E0,0E0,0E0,0E0],"parents":[2147483647,0,0,1,1,2,2,3,3,4,4,5,5,6,6,7,7,8,8,9,9,10,10,11,11,12,12,14,14,15,15,16,16,17,17,18,18,19,19,20,20,22,22,23,23,24,24,25,25,26,26,27,27,28,28,29,29,30,30,31,31,32,32,33,33,35,35,36,36,37,37,38,38,39,39,40,40,41,41,42,42,43,43,44,44,46,46,47,47,48,48,51,51,52,52,53,53],"right_children":[2,4,6,8,10,12,14,16,18,20,22,24,26,-1,28,30,32,34,36,38,40,-1,42,44,46,48,50,52,54,56,58,60,62,64,-1,66,68,70,72,74,76,78,80,82,84,-1,86,88,90,-1,-1,92,94,96,-1,-1,-1,-1,-1,-1,-1,-1,-1,-1,-1,-1,-1,-1,-1,-1,-1,-1,-1,-1,-1,-1,-1,-1,-1,-1,-1,-1,-1,-1,-1,-1,-1,-1,-1,-1,-1,-1,-1,-1,-1,-1,-1],"split_conditions":[-2.8371584E-1,-3.301774E-1,-3.8507465E-1,-4.9486914E-1,7.933202E-1,-1.9486539E-1,-2.5274834E-1,-1.7863244E-1,-5.1853484E-1,1.0728804E0,-2.563059E-1,2.1605086E-1,2.338929E0,-1.1652684E-1,5.139309E-2,7.5928086E-1,1.0728804E0,-7.077371E-1,2.1605086E-1,8.1559587E-1,5.139309E-2,2.5634302E-2,-1.6548567E-1,7.1078193E-1,9.9481153E-1,-2.0631566E0,4.750407E-2,-5.313295E-2,1.7116741E0,1.003178E0,-4.0713686E-1,-2.6245797E-1,-1.6736682E-1,-1.1557763E0,-1.3633358E-1,-1.952344E-1,-4.9632224E-1,-4.3603086E-1,-1.7626072E-1,-5.569118E-2,2.5568232E-1,-4.8997578E-1,3.3645594E0,-2.7102292E-1,1.0728804E0,-1.4553522E-1,-2.5833E-1,-1.3766806E-1,-4.0713686E-1,-2.0007508E-2,3.706519E-2,-4.3891364E-1,-1.9464147E-1,-1.9803862E-1,-1.2228731E-1,1.00163735E-1,1.6891403E-2,4.7684442E-2,-1.2707795E-1,-1.3691857E-1,1.1939665E-2,7.9207815E-2,1.0504603E-2,-7.374149E-2,1.01724766E-1,7.412816E-2,-1.20475525E-2,7.20058E-2,-7.3638305E-2,-1.1058879E-1,-4.490548E-2,-6.1786152E-2,9.240533E-2,1.4202735E-1,-8.192546E-2,5.0666865E-2,-7.308203E-2,-1.2438035E-1,-5.1915195E-2,-1.2116416E-1,-3.9085787E-2,6.787281E-3,1.12657465E-1,-1.03170864E-1,8.4894486E-2,7.763609E-2,-4.4036455E-2,-3.362563E-2,8.142584E-2,8.39824E-2,1.1888633E-1,8.847881E-2,-6.406942E-2,1.1918805E-1,3.160172E-2,1.8425671E-2,1.0854205E-1],"split_indices":[12,14,14,14,1,12,5,5,12,9,5,3,0,0,2,16,9,0,3,0,2,0,14,16,0,2,11,11,0,3,13,11,5,0,0,5,12,12,5,14,6,12,3,12,9,0,12,11,13,0,0,0,5,12,0,0,0,0,0,0,0,0,0,0,0,0,0,0,0,0,0,0,0,0,0,0,0,0,0,0,0,0,0,0,0,0,0,0,0,0,0,0,0,0,0,0,0],"split_type":[0,0,0,0,0,0,0,0,0,0,0,0,0,0,0,0,0,0,0,0,0,0,0,0,0,0,0,0,0,0,0,0,0,0,0,0,0,0,0,0,0,0,0,0,0,0,0,0,0,0,0,0,0,0,0,0,0,0,0,0,0,0,0,0,0,0,0,0,0,0,0,0,0,0,0,0,0,0,0,0,0,0,0,0,0,0,0,0,0,0,0,0,0,0,0,0,0],"sum_hessian":[6.676568E2,3.590475E2,3.0860934E2,9.484997E1,2.641975E2,2.0245059E2,1.06158745E2,4.499474E1,4.985523E1,9.871107E1,1.6548645E2,1.8425093E1,1.8402551E2,8.315714E0,9.784303E1,3.7488655E1,7.506083E0,9.008766E0,4.0846462E1,7.395948E1,2.4751589E1,2.2317162E0,1.6325473E2,1.2863899E1,5.561193E0,1.8165404E2,2.371462E0,4.145232E1,5.639071E1,3.4475643E1,3.0130138E0,4.5114307E0,2.9946523E0,2.412288E0,6.5964785E0,2.6188572E1,1.4657891E1,5.8846657E1,1.5112823E1,7.25191E0,1.749968E1,3.685153E1,1.264032E2,1.0259512E1,2.6043875E0,2.4940166E0,3.0671763E0,9.233007E0,1.7242104E2,1.1714771E0,1.1999849E0,2.791255E1,1.3539771E1,5.458143E1,1.8092793E0,3.0430664E1,4.044978E0,1.5407887E0,1.4722253E0,3.4650128E0,1.046418E0,1.3872099E0,1.6074425E0,1.2703779E0,1.1419102E0,1.5864134E1,1.0324437E1,2.6647975E0,1.19930935E1,5.0811867E1,8.034789E0,1.3408009E1,1.704814E0,5.618298E0,1.6336119E0,5.392173E0,1.2107507E1,1.6031103E1,2.0820423E1,1.2320113E2,3.2020636E0,2.070428E0,8.189084E0,1.1329683E0,1.4714191E0,1.0487742E0,2.0184023E0,1.4342622E0,7.798745E0,2.2181168E1,1.5023987E2,4.1460238E0,2.3766527E1,8.274439E0,5.265333E0,1.0408272E1,4.4173157E1],"tree_param":{"num_deleted":"0","num_feature":"19","num_nodes":"97","size_leaf_vector":"1"}},{"base_weights":[-2.471052E-3,-6.4645904E-1,7.4451876E-1,2.774494E-1,-8.917241E-1,1.1146412E0,4.187101E-1,4.600326E-1,-6.8875116E-1,-6.138586E-1,-1.0493059E0,6.7520195E-1,1.16078E0,1.2260096E-1,9.518978E-1,7.336447E-1,-3.0254165E-2,9.889019E-2,-1.4546967E-1,-7.217041E-1,4.987834E-2,-8.335236E-1,-1.1596708E0,1.0369527E0,-3.1135046E-1,1.1667157E0,2.8533349E-2,-1.10179044E-1,2.2891645E-1,1.1092871E0,4.1595057E-1,4.4469747E-1,1.1212248E0,4.0177634E-1,-1.0837752E0,9.195477E-2,-8.9749616E-1,9.537085E-2,-7.555143E-1,-7.760035E-1,6.361023E-1,-1.0068138E0,-4.354855E-1,3.1384414E-3,-1.1736335E-1,1.1762295E-1,3.7369728E-1,3.7886748E-1,-1.12381116E-1,1.17379665E-1,4.9346477E-2,5.099801E-1,-2.1731608E-1,1.1454492E0,1.8428862E-2,-5.7651347E-1,8.916203E-1,8.918299E-2,9.045415E-3,1.2152975E-1,1.8431414E-3,-5.6553464E-2,7.7248685E-2,6.1043245E-3,-1.369138E-1,-1.137455E-1,-3.0174473E-2,-7.9401165E-2,4.26057E-2,2.3507854E-2,-1.056051E-1,1.1291975E-1,-4.369876E-2,-1.0537183E-1,-8.383825E-3,-1.1048833E-1,-1.0318746E-2,7.0412114E-2,-1.1749708E-2,-9.721774E-3,6.895453E-2,-7.499721E-2,6.010151E-2,8.632835E-3,-1.1660516E-1,1.1644264E-1,2.0316675E-2,-1.2084699E-1,6.6924624E-2,1.1025262E-1,3.6845025E-2],"categories":[],"categories_nodes":[],"categories_segments":[],"categories_sizes":[],"default_left":[0,0,0,0,0,0,0,0,0,0,0,0,0,0,0,0,0,0,0,0,0,0,0,0,0,0,0,0,0,0,0,0,0,0,0,0,0,0,0,0,0,0,0,0,0,0,0,0,0,0,0,0,0,0,0,0,0,0,0,0,0,0,0,0,0,0,0,0,0,0,0,0,0,0,0,0,0,0,0,0,0,0,0,0,0,0,0,0,0,0,0],"id":11,"left_children":[1,3,5,7,9,11,13,15,17,19,21,23,25,27,29,31,33,35,-1,37,39,41,43,45,47,49,-1,-1,51,53,55,57,59,61,63,-1,65,-1,67,69,71,73,75,-1,-1,-1,77,79,-1,-1,-1,81,83,85,-1,87,89,-1,-1,-1,-1,-1,-1,-1,-1,-1,-1,-1,-1,-1,-1,-1,-1,-1,-1,-1,-1,-1,-1,-1,-1,-1,-1,-1,-1,-1,-1,-1,-1,-1,-1],"loss_changes":[3.083482E2,7.8249374E1,3.5319595E1,1.3190115E1,1.127681E1,2.020935E0,2.5054554E1,8.335947E0,7.382408E0,7.260906E0,3.1371002E0,5.866908E0,3.1037903E-1,1.3744831E1,4.3280144E0,3.9603996E0,1.0975987E1,6.4279485E0,0E0,5.6425247E0,7.776706E0,3.8288422E0,1.8903046E0,6.317787E-1,3.1943223E0,5.432129E-3,0E0,0E0,1.2176098E1,1.2369385E0,7.3540034E0,3.7948718E0,1.6736145E0,6.5877585E0,2.3721542E0,0E0,1.7151165E-1,0E0,4.2379074E0,2.1440744E0,5.4395666E0,1.7446022E0,4.451997E0,0E0,0E0,0E0,6.472778E-1,5.7246894E-1,0E0,0E0,0E0,7.254936E0,1.1012309E1,5.049782E-1,0E0,4.9825706E0,7.178259E-1,0E0,0E0,0E0,0E0,0E0,0E0,0E0,0E0,0E0,0E0,0E0,0E0,0E0,0E0,0E0,0E0,0E0,0E0,0E0,0E0,0E0,0E0,0E0,0E0,0E0,0E0,0E0,0E0,0E0,0E0,0E0,0E0,0E0,0E0],"parents":[2147483647,0,0,1,1,2,2,3,3,4,4,5,5,6,6,7,7,8,8,9,9,10,10,11,11,12,12,13,13,14,14,15,15,16,16,17,17,19,19,20,20,21,21,22,22,23,23,24,24,25,25,28,28,29,29,30,30,31,31,32,32,33,33,34,34,36,36,38,38,39,39,40,40,41,41,42,42,46,46,47,47,51,51,52,52,53,53,55,55,56,56],"right_children":[2,4,6,8,10,12,14,16,18,20,22,24,26,28,30,32,34,36,-1,38,40,42,44,46,48,50,-1,-1,52,54,56,58,60,62,64,-1,66,-1,68,70,72,74,76,-1,-1,-1,78,80,-1,-1,-1,82,84,86,-1,88,90,-1,-1,-1,-1,-1,-1,-1,-1,-1,-1,-1,-1,-1,-1,-1,-1,-1,-1,-1,-1,-1,-1,-1,-1,-1,-1,-1,-1,-1,-1,-1,-1,-1,-1],"split_conditions":[-2.8371584E-1,-3.8507465E-1,-5.4976636E-1,7.1078193E-1,-1.10588424E-1,-1.314008E-1,1.0728804E0,1.7691163E-2,7.933202E-1,3.6631906E-1,7.933202E-1,4.6828726E-1,2.338929E0,-2.563059E-1,-1.7626072E-1,1.0728804E0,4.472764E-1,7.2598803E-1,-1.4546967E-1,-1.8164674E0,-5.217081E-1,3.6755675E-1,-1.8164674E0,3.2279044E-1,2.1605086E-1,4.1057076E0,2.8533349E-2,-1.10179044E-1,2.1605086E-1,5.805219E0,1.8274899E-1,-6.046636E-1,7.549698E-1,-5.058419E-1,-6.046636E-1,9.195477E-2,-2.1302222E-1,9.537085E-2,-1.0155188E-1,-4.0713686E-1,8.077798E-1,2.227502E0,-2.1539393E-1,3.1384414E-3,-1.1736335E-1,1.1762295E-1,7.933202E-1,-2.1242929E-1,-1.12381116E-1,1.17379665E-1,4.9346477E-2,-2.5198352E-1,3.3738595E-1,6.32993E0,1.8428862E-2,-1.0155188E-1,7.7694786E-1,8.918299E-2,9.045415E-3,1.2152975E-1,1.8431414E-3,-5.6553464E-2,7.7248685E-2,6.1043245E-3,-1.369138E-1,-1.137455E-1,-3.0174473E-2,-7.9401165E-2,4.26057E-2,2.3507854E-2,-1.056051E-1,1.1291975E-1,-4.369876E-2,-1.0537183E-1,-8.383825E-3,-1.1048833E-1,-1.0318746E-2,7.0412114E-2,-1.1749708E-2,-9.721774E-3,6.895453E-2,-7.499721E-2,6.010151E-2,8.632835E-3,-1.1660516E-1,1.1644264E-1,2.0316675E-2,-1.2084699E-1,6.6924624E-2,1.1025262E-1,3.6845025E-2],"split_indices":[12,14,14,16,14,12,9,15,1,17,1,16,0,5,5,9,4,0,0,4,12,0,4,16,3,16,0,0,3,17,12,14,4,12,14,0,5,0,5,13,16,4,5,0,0,0,1,5,0,0,0,12,4,15,0,5,4,0,0,0,0,0,0,0,0,0,0,0,0,0,0,0,0,0,0,0,0,0,0,0,0,0,0,0,0,0,0,0,0,0,0],"split_type":[0,0,0,0,0,0,0,0,0,0,0,0,0,0,0,0,0,0,0,0,0,0,0,0,0,0,0,0,0,0,0,0,0,0,0,0,0,0,0,0,0,0,0,0,0,0,0,0,0,0,0,0,0,0,0,0,0,0,0,0,0,0,0,0,0,0,0,0,0,0,0,0,0,0,0,0,0,0,0,0,0,0,0,0,0,0,0,0,0,0,0],"sum_hessian":[6.3898615E2,3.432238E2,2.9576236E2,7.197275E1,2.7125104E2,1.3733127E2,1.5843108E2,6.0974297E1,1.0998456E1,9.993324E1,1.713178E2,1.4534515E1,1.2279675E2,1.02652374E2,5.5778706E1,3.8816044E1,2.2158253E1,5.8517957E0,5.14666E0,8.589026E1,1.4042988E1,6.0866245E1,1.10451546E2,1.0597513E1,3.9370015E0,1.216393E2,1.1574576E0,7.453229E0,9.519915E1,4.228985E1,1.3488855E1,2.3467789E1,1.5348252E1,1.6152876E1,6.0053773E0,3.2511532E0,2.6006424E0,1.1608002E0,8.4729454E1,5.6954346E0,8.347552E0,4.133929E1,1.9526953E1,1.2653551E0,1.09186195E2,8.119155E0,2.4783583E0,2.4171848E0,1.5198165E0,1.19637535E2,2.001758E0,5.832178E1,3.6877365E1,4.046941E1,1.8204414E0,4.301649E0,9.187206E0,9.702967E0,1.3764823E1,1.4047894E1,1.3003591E0,4.3296885E0,1.1823187E1,1.3550951E0,4.650282E0,1.2057202E0,1.3949223E0,8.2373604E1,2.355851E0,1.2701759E0,4.4252586E0,5.6835985E0,2.663954E0,3.920527E1,2.1340227E0,5.706506E0,1.3820446E1,1.2225008E0,1.2558575E0,1.2258148E0,1.1913701E0,3.4422133E0,5.4879566E1,2.862492E1,8.252447E0,3.9439365E1,1.0300442E0,2.8737628E0,1.4278862E0,5.758416E0,3.4287903E0],"tree_param":{"num_deleted":"0","num_feature":"19","num_nodes":"91","size_leaf_vector":"1"}},{"base_weights":[-1.2355028E-2,-6.8381166E-1,6.3359106E-1,1.9582608E-1,-8.907615E-1,1.0700017E0,3.1278476E-1,8.8619137E-1,-5.3581893E-2,-6.3379586E-1,-1.0432235E0,7.064701E-1,1.1291606E0,5.6669945E-1,-1.8970254E-1,4.5456806E-1,1.1552322E-1,-4.9727067E-1,2.932322E-1,-9.460823E-1,-3.5718685E-1,-7.6898134E-1,-1.1362436E0,8.820025E-1,-6.699177E-2,1.1364436E0,1.7121127E-2,-8.210874E-1,6.3996494E-1,1.011686E-3,-8.524857E-1,7.1077913E-1,-5.596832E-2,5.9576154E-1,-1.1711067E0,1.0384129E0,-1.0713957E-1,-1.0201607E0,-3.3067414E-1,-7.2150433E-1,1.372668E-2,-2.880399E-1,-9.352704E-1,1.943297E-2,-1.15087524E-1,1.0141219E0,-7.446804E-2,1.1439889E-1,3.04576E-2,-9.670573E-2,-9.186388E-3,6.924704E-1,-8.539389E-1,2.3303601E-1,-6.6676265E-1,-6.361604E-2,-1.2354226E0,8.971557E-2,-2.4567994E-3,1.199277E-1,-1.6090719E-2,-1.2723558E-1,-4.2602452E-3,2.7211517E-2,1.1111694E-1,-3.600588E-2,1.1061924E-1,-2.6052771E-2,-1.0718788E-1,-9.8441906E-2,7.5316794E-2,-9.996724E-2,6.04358E-2,5.5656284E-2,-5.348183E-2,-1.01844065E-1,2.6715029E-2,-1.1603866E-1,-3.85327E-2,4.0569466E-2,1.0961236E-1,3.0045558E-2,8.146026E-2,-1.0648393E-1,-9.097081E-3,3.8909968E-2,-6.335284E-2,-1.2420229E-1,-7.3266546E-3,4.0817086E-2,-7.799121E-2,-1.4432733E-1,-2.5874889E-2],"categories":[],"categories_nodes":[],"categories_segments":[],"categories_sizes":[],"default_left":[0,0,0,0,0,0,0,0,0,0,0,0,0,0,0,0,0,0,0,0,0,0,0,0,0,0,0,0,0,0,0,0,0,0,0,0,0,0,0,0,0,0,0,0,0,0,0,0,0,0,0,0,0,0,0,0,0,0,0,0,0,0,0,0,0,0,0,0,0,0,0,0,0,0,0,0,0,0,0,0,0,0,0,0,0,0,0,0,0,0,0,0,0],"id":12,"left_children":[1,3,5,7,9,11,13,15,17,19,21,23,25,27,29,31,-1,33,35,37,39,41,43,45,-1,47,-1,49,51,53,55,57,-1,59,61,63,65,67,69,71,73,75,77,-1,-1,79,-1,-1,-1,-1,-1,81,83,85,87,89,91,-1,-1,-1,-1,-1,-1,-1,-1,-1,-1,-1,-1,-1,-1,-1,-1,-1,-1,-1,-1,-1,-1,-1,-1,-1,-1,-1,-1,-1,-1,-1,-1,-1,-1,-1,-1],"loss_changes":[2.6600726E2,5.491548E1,4.3430702E1,1.0049928E1,8.883057E0,2.0416412E0,2.327469E1,1.2717943E0,6.8576303E0,7.7184296E0,2.9871979E0,5.7005806E0,5.859833E-1,1.2815617E1,7.8001647E0,2.3703055E0,0E0,1.5065266E1,7.6030016E0,1.6321182E0,6.9102325E0,3.043806E0,2.383133E0,4.879217E0,0E0,3.4735107E-1,0E0,6.0298395E-1,9.641144E0,7.7340636E0,4.0867624E0,9.129176E-1,0E0,3.8930025E0,1.3631763E0,1.9214916E-1,5.689104E0,1.2167778E0,5.0785713E0,1.0112098E1,8.124368E0,5.174234E0,3.3088722E0,0E0,0E0,4.6189117E-1,0E0,0E0,0E0,0E0,0E0,5.118023E0,6.055274E-1,5.2559977E0,4.303689E0,2.1973746E0,1.4999189E0,0E0,0E0,0E0,0E0,0E0,0E0,0E0,0E0,0E0,0E0,0E0,0E0,0E0,0E0,0E0,0E0,0E0,0E0,0E0,0E0,0E0,0E0,0E0,0E0,0E0,0E0,0E0,0E0,0E0,0E0,0E0,0E0,0E0,0E0,0E0,0E0],"parents":[2147483647,0,0,1,1,2,2,3,3,4,4,5,5,6,6,7,7,8,8,9,9,10,10,11,11,12,12,13,13,14,14,15,15,17,17,18,18,19,19,20,20,21,21,22,22,23,23,25,25,27,27,28,28,29,29,30,30,31,31,33,33,34,34,35,35,36,36,37,37,38,38,39,39,40,40,41,41,42,42,45,45,51,51,52,52,53,53,54,54,55,55,56,56],"right_children":[2,4,6,8,10,12,14,16,18,20,22,24,26,28,30,32,-1,34,36,38,40,42,44,46,-1,48,-1,50,52,54,56,58,-1,60,62,64,66,68,70,72,74,76,78,-1,-1,80,-1,-1,-1,-1,-1,82,84,86,88,90,92,-1,-1,-1,-1,-1,-1,-1,-1,-1,-1,-1,-1,-1,-1,-1,-1,-1,-1,-1,-1,-1,-1,-1,-1,-1,-1,-1,-1,-1,-1,-1,-1,-1,-1,-1,-1],"split_conditions":[-3.4718043E-1,-3.8507465E-1,-5.4976636E-1,-6.5956086E-1,7.933202E-1,-1.314008E-1,2.1605086E-1,-2.2191612E-1,5.0513778E-2,-5.2805454E-1,-1.6548567E-1,6.62283E-1,2.1597133E0,-1.2450368E0,3.3738595E-1,-2.278454E-1,1.1552322E-1,-2.780007E-1,4.6828726E-1,8.1559587E-1,5.0513778E-2,-4.3891364E-1,-4.0737528E-1,-1.6182093E-1,-6.699177E-2,5.95655E0,1.7121127E-2,-1.8164674E0,1.5324584E0,1.3532429E0,7.933202E-1,8.1559587E-1,-5.596832E-2,-4.9486914E-1,2.5774324E0,-4.0713686E-1,9.1199297E-1,-2.2665954E-1,1.7752531E-1,-2.5038153E-1,8.077798E-1,-5.3122777E-1,-3.7711427E-1,1.943297E-2,-1.15087524E-1,-2.59698E-1,-7.446804E-2,1.1439889E-1,3.04576E-2,-9.670573E-2,-9.186388E-3,-2.3294415E-1,-3.1706905E-1,2.4262226E0,-4.5723576E-2,6.137841E-1,-1.6584642E-1,8.971557E-2,-2.4567994E-3,1.199277E-1,-1.6090719E-2,-1.2723558E-1,-4.2602452E-3,2.7211517E-2,1.1111694E-1,-3.600588E-2,1.1061924E-1,-2.6052771E-2,-1.0718788E-1,-9.8441906E-2,7.5316794E-2,-9.996724E-2,6.04358E-2,5.5656284E-2,-5.348183E-2,-1.01844065E-1,2.6715029E-2,-1.1603866E-1,-3.85327E-2,4.0569466E-2,1.0961236E-1,3.0045558E-2,8.146026E-2,-1.0648393E-1,-9.097081E-3,3.8909968E-2,-6.335284E-2,-1.2420229E-1,-7.3266546E-3,4.0817086E-2,-7.799121E-2,-1.4432733E-1,-2.5874889E-2],"split_indices":[12,14,14,14,1,12,3,5,18,12,14,16,0,4,4,5,0,4,16,0,18,0,11,11,0,18,0,4,0,0,1,0,0,14,3,13,6,5,18,11,16,12,13,0,0,0,0,0,0,0,0,12,13,12,12,16,11,0,0,0,0,0,0,0,0,0,0,0,0,0,0,0,0,0,0,0,0,0,0,0,0,0,0,0,0,0,0,0,0,0,0,0,0],"split_type":[0,0,0,0,0,0,0,0,0,0,0,0,0,0,0,0,0,0,0,0,0,0,0,0,0,0,0,0,0,0,0,0,0,0,0,0,0,0,0,0,0,0,0,0,0,0,0,0,0,0,0,0,0,0,0,0,0,0,0,0,0,0,0,0,0,0,0,0,0,0,0,0,0,0,0,0,0,0,0,0,0,0,0,0,0,0,0,0,0,0,0,0,0],"sum_hessian":[6.1131E2,2.9970746E2,3.116025E2,5.7092064E1,2.426154E2,1.3102568E2,1.8057684E2,1.4474165E1,4.26179E1,9.226511E1,1.503503E2,2.0149422E1,1.1087626E2,1.19874565E2,6.070228E1,6.590532E0,7.8836327E0,1.8507246E1,2.4110655E1,4.2200844E1,5.0064266E1,4.0427795E1,1.0992249E2,1.8188953E1,1.9604683E0,1.0985473E2,1.0215267E0,5.499356E0,1.1437521E2,4.7913704E1,1.2788576E1,5.5003023E0,1.0902294E0,7.102354E0,1.1404893E1,7.8697257E0,1.6240929E1,3.707975E1,5.121093E0,2.4779861E1,2.5284403E1,1.1088829E1,2.9338966E1,1.0620252E0,1.08860466E2,1.71709E1,1.0180522E0,1.0849546E2,1.3592718E0,4.3103914E0,1.1889641E0,1.1101006E2,3.3651445E0,3.6041706E1,1.1871996E1,4.5602837E0,8.228292E0,4.2125673E0,1.2877351E0,3.6256278E0,3.4767263E0,1.0348921E1,1.0559719E0,1.0934275E0,6.776298E0,1.4021411E1,2.2195172E0,2.7484286E0,3.433132E1,3.251566E0,1.8695266E0,2.0685938E1,4.093923E0,1.2700984E1,1.2583418E1,4.4284368E0,6.660392E0,2.002985E1,9.309114E0,2.7457411E0,1.4425159E1,2.7191631E1,8.3818436E1,2.3264196E0,1.0387248E0,3.1008268E1,5.033439E0,5.4737306E0,6.3982654E0,3.0087447E0,1.5515387E0,6.390546E0,1.8377471E0],"tree_param":{"num_deleted":"0","num_feature":"19","num_nodes":"93","size_leaf_vector":"1"}},{"base_weights":[2.3333676E-2,-5.9926707E-1,6.3947E-1,2.9987597E-1,-7.7295625E-1,9.218994E-1,1.9110689E-1,-1.5108666E-1,5.940825E-1,-5.1005346E-1,-1.0073453E0,5.579637E-1,1.0326933E0,-1.14518285E-1,7.202383E-1,4.795964E-1,-1.0268044E0,-6.2412582E-2,8.758331E-1,-7.402216E-1,2.4975928E-2,-8.1687707E-1,-1.1137568E0,6.474581E-1,-7.344208E-1,5.835195E-1,1.0783219E0,-1.13151506E-1,6.356765E-2,-5.00222E-1,8.743209E-1,7.514651E-1,-8.951191E-2,-1.3754145E0,7.572186E-2,6.9493425E-1,-1.1096144E0,1.0290501E0,-7.731443E-2,-8.7483114E-1,3.1809855E-2,7.407584E-1,-4.8965108E-1,-1.0163515E0,-4.610443E-1,1.2423472E-3,-1.1325959E0,8.885623E-1,1.763845E-1,-2.070897E-2,-9.3579255E-2,-7.405727E-2,8.2914776E-1,5.3198165E-1,1.1142193E0,2.2033912E-1,-9.259443E-1,1.07479505E-1,-1.2093393E-1,1.0287896E0,2.7538705E-1,8.0513805E-3,9.354004E-2,-1.2399771E-1,6.310905E-2,-1.1363278E-2,-1.5577361E-1,1.3234419E-2,9.562538E-2,-1.8719207E-2,-1.3500755E-1,1.1069657E-1,4.5491382E-2,4.572388E-2,-5.0353903E-2,-9.987267E-2,-4.156489E-2,-4.3214478E-2,1.033077E-1,9.731124E-2,-6.913531E-2,-8.009224E-2,2.6790095E-2,-1.0882106E-1,3.899604E-2,-8.330835E-2,7.202171E-2,-1.1616422E-1,-6.91359E-2,9.7885184E-2,1.1351205E-2,-4.300837E-2,7.944619E-2,9.595987E-2,-1.3393921E-2,1.7523272E-2,9.3741916E-2,1.1222003E-1,1.573886E-2,6.524149E-2,-1.8965198E-2,-1.3291661E-1,3.0147836E-2,-2.3172463E-3,1.0745654E-1,-5.0168555E-2,8.904197E-2],"categories":[],"categories_nodes":[],"categories_segments":[],"categories_sizes":[],"default_left":[0,0,0,0,0,0,0,0,0,0,0,0,0,0,0,0,0,0,0,0,0,0,0,0,0,0,0,0,0,0,0,0,0,0,0,0,0,0,0,0,0,0,0,0,0,0,0,0,0,0,0,0,0,0,0,0,0,0,0,0,0,0,0,0,0,0,0,0,0,0,0,0,0,0,0,0,0,0,0,0,0,0,0,0,0,0,0,0,0,0,0,0,0,0,0,0,0,0,0,0,0,0,0,0,0,0,0],"id":13,"left_children":[1,3,5,7,9,11,13,15,17,19,21,23,25,27,29,31,33,35,37,39,41,43,45,47,49,51,53,-1,55,57,59,61,63,65,-1,67,69,71,73,75,77,79,81,83,85,-1,87,89,91,-1,-1,-1,93,95,97,99,101,-1,-1,103,105,-1,-1,-1,-1,-1,-1,-1,-1,-1,-1,-1,-1,-1,-1,-1,-1,-1,-1,-1,-1,-1,-1,-1,-1,-1,-1,-1,-1,-1,-1,-1,-1,-1,-1,-1,-1,-1,-1,-1,-1,-1,-1,-1,-1,-1,-1],"loss_changes":[2.258368E2,4.5965485E1,3.7291046E1,6.4756074E0,1.462735E1,6.7328796E0,1.8778341E1,1.1428162E1,5.4799213E0,1.4529757E1,1.7022095E0,5.620146E0,2.1947784E0,1.3500478E1,8.422899E0,1.9536695E0,6.395134E0,8.49695E0,3.0864086E0,8.593658E0,1.3775586E1,3.0764465E0,1.7098923E0,4.6284313E0,1.6185749E-1,5.455329E0,1.8372345E0,0E0,1.01388E1,7.326713E0,3.2386417E0,9.560566E-1,4.7908945E0,1.5612631E0,0E0,7.949319E-1,7.395153E-1,2.9305077E-1,1.0918106E0,3.579876E0,6.5796046E0,5.8729734E0,5.3514805E0,3.574627E0,9.288872E0,0E0,2.0458984E-1,1.8217163E0,6.155871E0,0E0,0E0,0E0,1.7653131E0,1.217442E0,7.042389E-1,1.0060226E1,4.8307905E0,0E0,0E0,1.4646034E0,4.829577E0,0E0,0E0,0E0,0E0,0E0,0E0,0E0,0E0,0E0,0E0,0E0,0E0,0E0,0E0,0E0,0E0,0E0,0E0,0E0,0E0,0E0,0E0,0E0,0E0,0E0,0E0,0E0,0E0,0E0,0E0,0E0,0E0,0E0,0E0,0E0,0E0,0E0,0E0,0E0,0E0,0E0,0E0,0E0,0E0,0E0,0E0],"parents":[2147483647,0,0,1,1,2,2,3,3,4,4,5,5,6,6,7,7,8,8,9,9,10,10,11,11,12,12,13,13,14,14,15,15,16,16,17,17,18,18,19,19,20,20,21,21,22,22,23,23,24,24,25,25,26,26,28,28,29,29,30,30,31,31,32,32,33,33,35,35,36,36,37,37,38,38,39,39,40,40,41,41,42,42,43,43,44,44,46,46,47,47,48,48,52,52,53,53,54,54,55,55,56,56,59,59,60,60],"right_children":[2,4,6,8,10,12,14,16,18,20,22,24,26,28,30,32,34,36,38,40,42,44,46,48,50,52,54,-1,56,58,60,62,64,66,-1,68,70,72,74,76,78,80,82,84,86,-1,88,90,92,-1,-1,-1,94,96,98,100,102,-1,-1,104,106,-1,-1,-1,-1,-1,-1,-1,-1,-1,-1,-1,-1,-1,-1,-1,-1,-1,-1,-1,-1,-1,-1,-1,-1,-1,-1,-1,-1,-1,-1,-1,-1,-1,-1,-1,-1,-1,-1,-1,-1,-1,-1,-1,-1,-1,-1],"split_conditions":[-3.3766073E-1,-4.399719E-1,-3.8507465E-1,-1.8355687E-1,-5.569118E-2,-1.0601495E-1,1.0728804E0,-1.4263579E-2,-4.93149E-1,1.0728804E0,7.933202E-1,1.5324584E0,-4.0713686E-1,-1.0692122E0,-2.7419615E-1,7.2598803E-1,9.1199297E-1,-4.8061322E-2,1.003178E0,7.56243E-1,7.933202E-1,1.7752531E-1,-1.8164674E0,2.1605086E-1,-4.0713686E-1,4.6300095E-2,-2.0631566E0,-1.13151506E-1,8.4288216E-1,-3.313143E-1,6.4507926E-1,-5.6930655E-1,1.0844194E0,-6.181293E-1,7.572186E-2,5.2129304E-1,-3.219569E-1,2.1605086E-1,-3.7711427E-1,-4.1064504E-1,-4.265112E-1,8.1559587E-1,2.4128689E-1,2.227502E0,1.0728804E0,1.2423472E-3,1.1285974E0,3.6631906E-1,2.4128689E-1,-2.070897E-2,-9.3579255E-2,-7.405727E-2,1.4428506E0,1.0728804E0,6.198425E0,7.933202E-1,5.2129304E-1,1.07479505E-1,-1.2093393E-1,-1.1131684E0,1.8274899E-1,8.0513805E-3,9.354004E-2,-1.2399771E-1,6.310905E-2,-1.1363278E-2,-1.5577361E-1,1.3234419E-2,9.562538E-2,-1.8719207E-2,-1.3500755E-1,1.1069657E-1,4.5491382E-2,4.572388E-2,-5.0353903E-2,-9.987267E-2,-4.156489E-2,-4.3214478E-2,1.033077E-1,9.731124E-2,-6.913531E-2,-8.009224E-2,2.6790095E-2,-1.0882106E-1,3.899604E-2,-8.330835E-2,7.202171E-2,-1.1616422E-1,-6.91359E-2,9.7885184E-2,1.1351205E-2,-4.300837E-2,7.944619E-2,9.595987E-2,-1.3393921E-2,1.7523272E-2,9.3741916E-2,1.1222003E-1,1.573886E-2,6.524149E-2,-1.8965198E-2,-1.3291661E-1,3.0147836E-2,-2.3172463E-3,1.0745654E-1,-5.0168555E-2,8.904197E-2],"split_indices":[12,14,14,2,14,12,9,4,12,9,1,0,13,4,12,0,6,15,3,2,1,18,4,3,13,12,2,0,4,12,4,12,0,0,0,2,4,3,13,12,12,0,17,4,9,0,4,17,17,0,0,0,0,9,15,1,2,0,0,4,12,0,0,0,0,0,0,0,0,0,0,0,0,0,0,0,0,0,0,0,0,0,0,0,0,0,0,0,0,0,0,0,0,0,0,0,0,0,0,0,0,0,0,0,0,0,0],"split_type":[0,0,0,0,0,0,0,0,0,0,0,0,0,0,0,0,0,0,0,0,0,0,0,0,0,0,0,0,0,0,0,0,0,0,0,0,0,0,0,0,0,0,0,0,0,0,0,0,0,0,0,0,0,0,0,0,0,0,0,0,0,0,0,0,0,0,0,0,0,0,0,0,0,0,0,0,0,0,0,0,0,0,0,0,0,0,0,0,0,0,0,0,0,0,0,0,0,0,0,0,0,0,0,0,0,0,0],"sum_hessian":[5.867204E2,2.918429E2,2.948775E2,4.713111E1,2.4471179E2,1.802682E2,1.146093E2,1.8800293E1,2.8330816E1,1.1683726E2,1.27874535E2,4.348028E1,1.3678792E2,7.314467E1,4.146463E1,1.1192156E1,7.6081376E0,8.741382E0,1.9589436E1,8.142495E1,3.5412308E1,4.8944393E1,7.893014E1,4.113108E1,2.3492033E0,1.3885527E1,1.2290239E2,1.0101903E1,6.3042767E1,4.3962526E0,3.706838E1,7.3571477E0,3.835008E0,6.556074E0,1.052063E0,5.2679424E0,3.4734392E0,1.680795E1,2.7814867E0,6.922236E1,1.2202593E1,1.4627649E1,2.0784657E1,3.0173393E1,1.8771002E1,1.3042561E0,7.7625885E1,2.6620144E1,1.4510936E1,1.2097176E0,1.1394856E0,1.8574853E0,1.2028042E1,8.552782E0,1.1434961E2,5.509174E1,7.95103E0,1.2047367E0,3.1915157E0,2.8897762E1,8.170614E0,1.8922844E0,5.4648633E0,1.1993906E0,2.6356173E0,1.03266E0,5.5234146E0,2.1486337E0,3.1193087E0,1.0859902E0,2.387449E0,1.3982362E1,2.8255868E0,1.2016554E0,1.5798314E0,5.3588272E1,1.5634084E1,8.727128E0,3.4754648E0,1.286144E1,1.7662091E0,1.4691006E1,6.0936513E0,2.8921757E1,1.2516363E0,1.4499214E1,4.271787E0,7.12996E1,6.326285E0,2.3607082E1,3.0130608E0,7.4777737E0,7.0331616E0,1.0596375E1,1.4316664E0,5.3114157E0,3.2413666E0,1.132323E2,1.1173133E0,2.6535538E1,2.8556202E1,5.922524E0,2.028506E0,1.2256291E0,2.7672134E1,3.691202E0,4.4794126E0],"tree_param":{"num_deleted":"0","num_feature":"19","num_nodes":"107","size_leaf_vector":"1"}},{"base_weights":[1.6325992E-2,6.278939E-1,-5.048354E-1,1.0198625E0,3.816058E-1,-7.568616E-1,3.437866E-1,1.0518966E0,5.627315E-1,1.7167372E-1,7.4228895E-1,-4.393652E-1,-9.5785785E-1,-3.236816E-2,8.973314E-1,1.6987896E-2,1.0610154E0,-1.5154137E-1,8.548881E-1,2.881173E-1,-2.754465E-1,7.7349627E-1,-4.7103282E-2,-6.8774176E-1,2.4374112E-1,2.4684049E-1,-9.7851634E-1,-9.995147E-2,1.573524E-1,1.2529293E-2,9.709784E-1,1.0701337E-1,2.8759306E-2,-3.5168573E-2,1.5953653E-2,9.570057E-2,2.0175893E-2,3.4540046E-2,5.619038E-1,1.9002035E-1,-1.0647358E0,5.3630364E-1,1.0171038E0,-9.2223424E-1,-2.3743644E-1,7.5964355E-1,-3.9373362E-1,1.03205815E-1,-7.322989E-2,-9.902782E-1,2.1431198E-2,-1.3739207E-1,6.4745986E-1,7.725237E-2,-7.912678E-2,1.082806E0,2.9693136E-1,-2.2586556E-2,7.593666E-2,1.8457716E-2,9.08194E-2,-1.2343378E-2,1.14541486E-1,-1.2443141E-1,-6.452262E-3,7.212293E-2,-2.0647041E-2,-2.1769342E-3,1.1152418E-1,-9.644132E-2,3.0358573E-2,-6.172728E-2,8.527193E-2,8.94888E-2,-1.9458218E-2,-8.920366E-2,6.0171813E-2,-8.373293E-2,-1.1076486E-1,-9.883722E-2,2.0596612E-2,1.1579762E-1,1.0791815E-2,4.1358102E-2,1.1599507E-1,6.258915E-2,-4.6336938E-2],"categories":[],"categories_nodes":[],"categories_segments":[],"categories_sizes":[],"default_left":[0,0,0,0,0,0,0,0,0,0,0,0,0,0,0,0,0,0,0,0,0,0,0,0,0,0,0,0,0,0,0,0,0,0,0,0,0,0,0,0,0,0,0,0,0,0,0,0,0,0,0,0,0,0,0,0,0,0,0,0,0,0,0,0,0,0,0,0,0,0,0,0,0,0,0,0,0,0,0,0,0,0,0,0,0,0,0],"id":14,"left_children":[1,3,5,7,9,11,13,15,17,19,21,23,25,27,29,-1,31,33,35,37,39,41,-1,43,45,47,49,-1,51,53,55,-1,-1,-1,-1,-1,-1,57,59,61,63,65,67,69,71,73,75,-1,-1,77,-1,79,81,-1,-1,83,85,-1,-1,-1,-1,-1,-1,-1,-1,-1,-1,-1,-1,-1,-1,-1,-1,-1,-1,-1,-1,-1,-1,-1,-1,-1,-1,-1,-1,-1,-1],"loss_changes":[1.8015967E2,2.4715897E1,6.553474E1,8.687973E-1,1.2086372E1,1.461586E1,1.472348E1,5.602646E-1,1.9414792E0,5.455551E0,2.60001E0,1.5978861E1,3.811325E0,8.044303E0,1.8507233E0,0E0,3.3353424E-1,2.659225E-1,2.2795773E-1,5.7022457E0,8.228632E0,2.8025055E0,0E0,7.02499E0,8.7140045E0,3.2289743E0,2.1935272E0,0E0,5.4047804E0,2.5720685E0,1.6668091E0,0E0,0E0,0E0,0E0,0E0,0E0,8.448422E0,5.001747E0,4.5110216E0,1.4025993E0,4.47196E0,2.8248138E0,2.607277E0,1.0811299E1,2.0432596E0,6.540586E0,0E0,0E0,1.5861359E0,0E0,7.1589646E0,3.7297554E0,0E0,0E0,6.688156E-1,1.5734272E0,0E0,0E0,0E0,0E0,0E0,0E0,0E0,0E0,0E0,0E0,0E0,0E0,0E0,0E0,0E0,0E0,0E0,0E0,0E0,0E0,0E0,0E0,0E0,0E0,0E0,0E0,0E0,0E0,0E0,0E0],"parents":[2147483647,0,0,1,1,2,2,3,3,4,4,5,5,6,6,7,7,8,8,9,9,10,10,11,11,12,12,13,13,14,14,16,16,17,17,18,18,19,19,20,20,21,21,23,23,24,24,25,25,26,26,28,28,29,29,30,30,37,37,38,38,39,39,40,40,41,41,42,42,43,43,44,44,45,45,46,46,49,49,51,51,52,52,55,55,56,56],"right_children":[2,4,6,8,10,12,14,16,18,20,22,24,26,28,30,-1,32,34,36,38,40,42,-1,44,46,48,50,-1,52,54,56,-1,-1,-1,-1,-1,-1,58,60,62,64,66,68,70,72,74,76,-1,-1,78,-1,80,82,-1,-1,84,86,-1,-1,-1,-1,-1,-1,-1,-1,-1,-1,-1,-1,-1,-1,-1,-1,-1,-1,-1,-1,-1,-1,-1,-1,-1,-1,-1,-1,-1,-1],"split_conditions":[-3.301774E-1,-6.5956086E-1,-2.3830508E-1,1.4428506E0,-3.4709167E-1,7.933202E-1,1.0728804E0,-2.7680066E0,-3.7711427E-1,7.1078193E-1,2.0701053E0,1.0728804E0,-1.5307522E0,-2.568022E-1,-2.1817768E-1,1.6987896E-2,6.198425E0,2.0701053E0,4.1978833E-1,5.139309E-2,8.1559587E-1,-2.0610122E-1,-4.7103282E-2,-3.7711427E-1,-5.569118E-2,9.125473E-3,8.77562E-1,-9.995147E-2,2.8634307E-1,-8.048235E-2,6.231012E-1,1.0701337E-1,2.8759306E-2,-3.5168573E-2,1.5953653E-2,9.570057E-2,2.0175893E-2,1.0728804E0,-1.1369998E-1,5.467724E-1,1.5143011E0,4.912326E-1,-2.0631566E0,-2.4635604E-1,3.0380297E-1,2.4128689E-1,3.8348678E-1,1.03205815E-1,-7.322989E-2,-5.569118E-2,2.1431198E-2,-2.2038291E-1,7.933202E-1,7.725237E-2,-7.912678E-2,-1.0661684E0,1.7752531E-1,-2.2586556E-2,7.593666E-2,1.8457716E-2,9.08194E-2,-1.2343378E-2,1.14541486E-1,-1.2443141E-1,-6.452262E-3,7.212293E-2,-2.0647041E-2,-2.1769342E-3,1.1152418E-1,-9.644132E-2,3.0358573E-2,-6.172728E-2,8.527193E-2,8.94888E-2,-1.9458218E-2,-8.920366E-2,6.0171813E-2,-8.373293E-2,-1.1076486E-1,-9.883722E-2,2.0596612E-2,1.1579762E-1,1.0791815E-2,4.1358102E-2,1.1599507E-1,6.258915E-2,-4.6336938E-2],"split_indices":[14,14,11,0,13,1,9,2,13,16,0,9,4,9,11,0,15,0,16,2,0,11,0,13,14,0,14,0,2,0,4,0,0,0,0,0,0,9,16,0,10,4,2,11,17,17,14,0,0,14,0,14,1,0,0,0,18,0,0,0,0,0,0,0,0,0,0,0,0,0,0,0,0,0,0,0,0,0,0,0,0,0,0,0,0,0,0],"split_type":[0,0,0,0,0,0,0,0,0,0,0,0,0,0,0,0,0,0,0,0,0,0,0,0,0,0,0,0,0,0,0,0,0,0,0,0,0,0,0,0,0,0,0,0,0,0,0,0,0,0,0,0,0,0,0,0,0,0,0,0,0,0,0,0,0,0,0,0,0,0,0,0,0,0,0,0,0,0,0,0,0,0,0,0,0,0,0],"sum_hessian":[5.632555E2,2.5905597E2,3.0419952E2,9.8751526E1,1.6030444E2,2.3462735E2,6.9572174E1,9.10687E1,7.682828E0,1.0226063E2,5.8043823E1,9.218948E1,1.4243787E2,4.1983986E1,2.7588186E1,1.1327549E0,8.993594E1,2.3699663E0,5.312862E0,8.1413666E1,2.0846958E1,5.6941746E1,1.1020759E0,6.7602516E1,2.4586967E1,2.2168043E0,1.4022105E2,6.18518E0,3.5798805E1,2.2097807E0,2.5378407E1,8.8508835E1,1.427114E0,1.3626877E0,1.0072787E0,4.192151E0,1.120711E0,4.2851425E1,3.856224E1,1.3591126E1,7.2558317E0,3.0472845E1,2.6468903E1,4.376451E1,2.3838001E1,1.3483362E1,1.1103606E1,1.2002342E0,1.0165701E0,1.3902007E2,1.2009951E0,2.2804272E1,1.2994534E1,1.1558373E0,1.0539433E0,2.1247004E1,4.131402E0,3.2031853E1,1.0819572E1,1.918777E1,1.937447E1,1.088928E1,2.7018464E0,5.944505E0,1.3113261E0,2.4421675E1,6.0511694E0,2.3517566E0,2.4117146E1,4.251488E1,1.249632E0,1.8000109E1,5.8378925E0,1.1864033E1,1.6193291E0,7.4687757E0,3.6348305E0,6.389311E1,7.512695E1,6.0158997E0,1.6788372E1,6.0879097E0,6.906624E0,2.8535745E0,1.839343E1,3.0071008E0,1.1243014E0],"tree_param":{"num_deleted":"0","num_feature":"19","num_nodes":"87","size_leaf_vector":"1"}},{"base_weights":[9.948685E-3,-4.9624163E-1,6.662621E-1,-8.688788E-1,-2.549161E-1,-8.4122413E-1,7.186539E-1,3.6496186E-1,-9.2050546E-1,9.70398E-2,-5.206405E-1,8.707761E-3,-9.932515E-2,8.341261E-1,2.6220512E-1,3.3249162E-2,7.479941E-2,-9.845034E-1,-2.7841005E-1,-1.0809974E-1,5.173303E-1,-5.7388455E-1,9.6687116E-2,-8.81337E-2,8.8143927E-1,-1.3344938E-1,8.5935324E-1,1.9217974E-2,-1.7297618E-2,-1.0312823E0,-5.2412933E-1,-6.576135E-1,1.322727E-1,-2.8355175E-1,5.176262E-1,9.26545E-1,-4.9636965E-3,-4.0990064E-1,-1.052605E0,-5.1733863E-1,5.1837295E-1,6.309896E-1,1.0278139E0,4.9448875E-1,-5.774335E-1,-3.5769217E-2,9.580283E-1,-1.0784457E-1,-5.1974304E-2,-1.0232349E-1,4.6907336E-2,1.0576644E-2,-9.55274E-2,9.059958E-2,-4.4388894E-2,9.959253E-2,-6.474771E-2,4.956844E-3,1.0912223E-1,6.2188156E-2,-6.38792E-2,-2.6555443E-2,-8.964363E-2,-1.1163014E-1,1.8518725E-2,-1.0979737E-1,2.5020933E-2,8.8357046E-2,-3.833547E-2,9.819224E-2,3.0302433E-2,1.0484685E-1,1.465965E-2,-9.667684E-2,7.48508E-2,1.4964175E-2,-1.1942923E-1,1.8777844E-2,1.0459274E-1],"categories":[],"categories_nodes":[],"categories_segments":[],"categories_sizes":[],"default_left":[0,0,0,0,0,0,0,0,0,0,0,0,0,0,0,0,0,0,0,0,0,0,0,0,0,0,0,0,0,0,0,0,0,0,0,0,0,0,0,0,0,0,0,0,0,0,0,0,0,0,0,0,0,0,0,0,0,0,0,0,0,0,0,0,0,0,0,0,0,0,0,0,0,0,0,0,0,0,0],"id":15,"left_children":[1,3,5,7,9,11,13,15,17,19,21,-1,-1,23,25,27,-1,29,31,33,35,37,-1,39,41,43,45,-1,-1,47,49,51,-1,53,55,57,59,61,63,65,67,69,71,73,75,-1,77,-1,-1,-1,-1,-1,-1,-1,-1,-1,-1,-1,-1,-1,-1,-1,-1,-1,-1,-1,-1,-1,-1,-1,-1,-1,-1,-1,-1,-1,-1,-1,-1],"loss_changes":[1.7909262E2,2.7148521E1,1.9143158E1,7.9299393E0,1.7459126E1,1.2641215E0,1.1765884E1,6.744549E-1,4.4397736E0,7.032757E0,8.967722E0,0E0,0E0,7.976219E0,1.1305862E1,1.6421796E-1,0E0,1.6975021E0,8.029111E0,6.2075615E0,5.7143254E0,7.668274E0,0E0,2.8042207E0,5.6668396E0,8.469794E0,2.6257896E0,0E0,0E0,1.6904831E0,6.239654E0,2.4191065E0,0E0,8.74891E0,7.5792723E0,2.10989E0,5.4552317E0,5.27429E0,2.2320232E0,3.040287E0,1.8327034E0,7.31419E0,1.7963104E0,5.4368706E0,8.098448E0,0E0,1.0126152E0,0E0,0E0,0E0,0E0,0E0,0E0,0E0,0E0,0E0,0E0,0E0,0E0,0E0,0E0,0E0,0E0,0E0,0E0,0E0,0E0,0E0,0E0,0E0,0E0,0E0,0E0,0E0,0E0,0E0,0E0,0E0,0E0],"parents":[2147483647,0,0,1,1,2,2,3,3,4,4,5,5,6,6,7,7,8,8,9,9,10,10,13,13,14,14,15,15,17,17,18,18,19,19,20,20,21,21,23,23,24,24,25,25,26,26,29,29,30,30,31,31,33,33,34,34,35,35,36,36,37,37,38,38,39,39,40,40,41,41,42,42,43,43,44,44,46,46],"right_children":[2,4,6,8,10,12,14,16,18,20,22,-1,-1,24,26,28,-1,30,32,34,36,38,-1,40,42,44,46,-1,-1,48,50,52,-1,54,56,58,60,62,64,66,68,70,72,74,76,-1,78,-1,-1,-1,-1,-1,-1,-1,-1,-1,-1,-1,-1,-1,-1,-1,-1,-1,-1,-1,-1,-1,-1,-1,-1,-1,-1,-1,-1,-1,-1,-1,-1],"split_conditions":[-2.6467645E-1,-5.1853484E-1,-1.5747083E0,-1.8164674E0,7.933202E-1,-6.534568E-1,7.1078193E-1,2.5568232E-1,-3.0673826E-1,1.0728804E0,-1.698719E-1,8.707761E-3,-9.932515E-2,-2.0631566E0,1.0728804E0,2.7794895E-1,7.479941E-2,2.5774324E0,4.315484E-1,9.9119294E-1,4.472764E-1,2.7145165E-1,9.6687116E-2,-5.313295E-2,2.1130806E-1,-2.1183637E-1,-1.9803862E-1,1.9217974E-2,-1.7297618E-2,8.1559587E-1,-5.5978686E-1,-2.9868728E-1,1.322727E-1,-9.765606E-1,-2.017566E-1,-2.2310197E-1,9.87333E-2,7.1078193E-1,4.2883515E-1,-1.756678E-1,-2.5330565E0,7.933202E-1,3.0453685E-1,-2.0121185E-1,7.933202E-1,-3.5769217E-2,-1.0661684E0,-1.0784457E-1,-5.1974304E-2,-1.0232349E-1,4.6907336E-2,1.0576644E-2,-9.55274E-2,9.059958E-2,-4.4388894E-2,9.959253E-2,-6.474771E-2,4.956844E-3,1.0912223E-1,6.2188156E-2,-6.38792E-2,-2.6555443E-2,-8.964363E-2,-1.1163014E-1,1.8518725E-2,-1.0979737E-1,2.5020933E-2,8.8357046E-2,-3.833547E-2,9.819224E-2,3.0302433E-2,1.0484685E-1,1.465965E-2,-9.667684E-2,7.48508E-2,1.4964175E-2,-1.1942923E-1,1.8777844E-2,1.0459274E-1],"split_indices":[12,12,4,4,1,2,16,6,11,9,11,0,0,2,9,0,0,3,18,2,4,4,0,11,12,5,12,0,0,0,12,11,0,0,5,5,0,16,17,5,2,1,18,12,1,0,0,0,0,0,0,0,0,0,0,0,0,0,0,0,0,0,0,0,0,0,0,0,0,0,0,0,0,0,0,0,0,0,0],"split_type":[0,0,0,0,0,0,0,0,0,0,0,0,0,0,0,0,0,0,0,0,0,0,0,0,0,0,0,0,0,0,0,0,0,0,0,0,0,0,0,0,0,0,0,0,0,0,0,0,0,0,0,0,0,0,0,0,0,0,0,0,0,0,0,0,0,0,0,0,0,0,0,0,0,0,0,0,0,0,0],"sum_hessian":[5.37084E2,3.033586E2,2.337254E2,1.1821665E2,1.8514195E2,7.344466E0,2.2638094E2,4.504041E0,1.13712616E2,7.992066E1,1.0522129E2,1.0936569E0,6.2508097E0,1.8001373E2,4.636721E1,2.9961376E0,1.5079037E0,1.0292115E2,1.0791463E1,5.4206036E1,2.571462E1,1.02178116E2,3.0431697E0,8.742196E0,1.7127153E2,2.835588E1,1.801133E1,1.7305626E0,1.2655752E0,9.230216E1,1.0618987E1,9.201516E0,1.589947E0,4.276241E1,1.1443629E1,1.3984133E1,1.1730489E1,7.749033E1,2.4687784E1,5.2054725E0,3.536724E0,6.513507E1,1.0613647E2,1.1697729E1,1.6658152E1,1.1539315E0,1.6857397E1,8.349573E1,8.806434E0,7.047321E0,3.5716665E0,2.762215E0,6.439301E0,4.526865E0,3.8235542E1,8.215997E0,3.227632E0,2.4164596E0,1.1567673E1,5.907209E0,5.82328E0,6.0952618E1,1.6537718E1,2.3572884E1,1.1149006E0,2.7184916E0,2.486981E0,2.5315773E0,1.0051466E0,3.0502493E1,3.4632576E1,1.03520294E2,2.6161728E0,1.3168132E0,1.0380916E1,7.9936543E0,8.664496E0,2.0479276E0,1.480947E1],"tree_param":{"num_deleted":"0","num_feature":"19","num_nodes":"79","size_leaf_vector":"1"}},{"base_weights":[2.3215665E-2,-4.341808E-1,6.617179E-1,2.1577033E-1,-7.4649006E-1,8.800257E-1,3.115581E-1,4.3706793E-1,-1.7695434E-1,-9.0794414E-1,-3.5196263E-1,4.8513195E-1,1.0362059E0,-9.043575E-1,4.6500173E-1,-1.3844699E-1,6.0861105E-1,1.1838497E-1,-1.001923E0,-6.941703E-1,-1.0191128E0,2.7598882E-1,-8.0255663E-1,8.8686126E-1,-2.2678617E-1,1.0547507E0,4.2516536E-1,-9.752084E-1,-2.1218924E-2,1.18197426E-1,7.346513E-1,4.9034065E-1,-6.969E-1,-9.273235E-2,6.836518E-1,-1.1581725E-1,2.9510483E-1,-1.1756998E0,1.2321845E-2,1.5209799E-1,-8.4994596E-1,-1.0432844E0,1.9048965E-2,4.2144412E-1,-7.503037E-1,2.8124083E-2,-8.5704434E-1,9.9282026E-1,-2.6423682E-2,-1.2710121E0,1.6352092E-1,1.0728503E0,3.956543E-1,-2.49385E-2,7.705441E-2,-1.06932364E-1,-3.3212826E-2,-5.1784307E-1,5.28843E-1,8.0269855E-1,-4.7349483E-2,-4.169577E-2,7.915749E-2,6.0418554E-2,-1.05245434E-1,4.0461045E-2,9.638268E-2,5.7856973E-2,-4.935914E-2,-1.3341147E-1,-1.9641861E-2,-9.152993E-2,1.0447321E-1,-9.613702E-2,-1.9379224E-3,-1.06561266E-1,-2.2988608E-2,-1.7929053E-2,6.23157E-2,-8.795985E-2,-2.104277E-2,1.797374E-2,-9.0921775E-2,1.0291245E-1,9.916802E-3,-3.1458735E-2,-1.6132009E-1,-6.1735727E-2,5.997295E-2,1.08011104E-1,2.3653338E-2,-2.5212867E-2,7.598855E-2,-1.133822E-1,5.3842045E-2,9.623673E-2,-5.7481485E-3,8.721293E-2,-4.4920787E-2],"categories":[],"categories_nodes":[],"categories_segments":[],"categories_sizes":[],"default_left":[0,0,0,0,0,0,0,0,0,0,0,0,0,0,0,0,0,0,0,0,0,0,0,0,0,0,0,0,0,0,0,0,0,0,0,0,0,0,0,0,0,0,0,0,0,0,0,0,0,0,0,0,0,0,0,0,0,0,0,0,0,0,0,0,0,0,0,0,0,0,0,0,0,0,0,0,0,0,0,0,0,0,0,0,0,0,0,0,0,0,0,0,0,0,0,0,0,0,0],"id":16,"left_children":[1,3,5,7,9,11,13,15,17,19,21,23,25,27,29,31,33,35,37,39,41,43,45,47,49,51,53,55,-1,57,59,61,63,-1,65,-1,67,69,-1,71,73,75,-1,77,79,-1,81,83,-1,85,87,89,91,-1,-1,-1,-1,93,95,97,-1,-1,-1,-1,-1,-1,-1,-1,-1,-1,-1,-1,-1,-1,-1,-1,-1,-1,-1,-1,-1,-1,-1,-1,-1,-1,-1,-1,-1,-1,-1,-1,-1,-1,-1,-1,-1,-1,-1],"loss_changes":[1.4882484E2,6.0434048E1,1.5983124E1,8.5203285E0,1.24700165E1,7.542923E0,1.5947391E1,6.247014E0,8.8227E0,2.663498E0,1.7181538E1,1.131274E1,6.008835E-1,2.670431E-1,6.8853054E0,5.661112E0,6.1979733E0,6.47812E0,2.0069275E0,6.940031E0,2.864685E0,4.1654963E0,2.3170109E0,3.3165016E0,6.244566E0,6.395874E-1,1.2179334E0,1.5865421E-1,0E0,9.103029E0,3.8125305E0,2.4379663E0,4.5384297E0,0E0,3.2533436E0,0E0,5.8055077E0,1.0324154E0,0E0,9.416857E0,4.0333805E0,1.3814087E0,0E0,2.9260526E0,6.344867E-2,0E0,1.9873314E0,6.4868355E-1,0E0,8.487177E-1,4.3445487E0,2.6812744E-1,1.1278737E0,0E0,0E0,0E0,0E0,9.568138E0,5.4024854E0,3.8596153E0,0E0,0E0,0E0,0E0,0E0,0E0,0E0,0E0,0E0,0E0,0E0,0E0,0E0,0E0,0E0,0E0,0E0,0E0,0E0,0E0,0E0,0E0,0E0,0E0,0E0,0E0,0E0,0E0,0E0,0E0,0E0,0E0,0E0,0E0,0E0,0E0,0E0,0E0,0E0],"parents":[2147483647,0,0,1,1,2,2,3,3,4,4,5,5,6,6,7,7,8,8,9,9,10,10,11,11,12,12,13,13,14,14,15,15,16,16,17,17,18,18,19,19,20,20,21,21,22,22,23,23,24,24,25,25,26,26,27,27,29,29,30,30,31,31,32,32,34,34,36,36,37,37,39,39,40,40,41,41,43,43,44,44,46,46,47,47,49,49,50,50,51,51,52,52,57,57,58,58,59,59],"right_children":[2,4,6,8,10,12,14,16,18,20,22,24,26,28,30,32,34,36,38,40,42,44,46,48,50,52,54,56,-1,58,60,62,64,-1,66,-1,68,70,-1,72,74,76,-1,78,80,-1,82,84,-1,86,88,90,92,-1,-1,-1,-1,94,96,98,-1,-1,-1,-1,-1,-1,-1,-1,-1,-1,-1,-1,-1,-1,-1,-1,-1,-1,-1,-1,-1,-1,-1,-1,-1,-1,-1,-1,-1,-1,-1,-1,-1,-1,-1,-1,-1,-1,-1],"split_conditions":[-2.5198352E-1,-3.301774E-1,-3.8507465E-1,2.1605086E-1,1.0728804E0,1.4467023E-1,-1.1351464E0,-4.8045608E-1,6.62283E-1,-1.10588424E-1,7.933202E-1,2.1605086E-1,9.6823096E-1,3.0380297E-1,-1.8355687E-1,-4.9486914E-1,-8.8840675E-1,2.5568232E-1,9.6823096E-1,-7.973449E-1,2.227502E0,8.1559587E-1,-2.23107E0,1.1740272E0,-1.7265278E-1,4.9135128E-1,-1.7009017E-1,1.003178E0,-2.1218924E-2,-2.2038291E-1,1.7116741E0,1.0197169E0,-7.077371E-1,-9.273235E-2,1.787708E-1,-1.1581725E-1,2.7145165E-1,1.0728804E0,1.2321845E-2,-1.1557763E0,9.9119294E-1,9.867674E-1,1.9048965E-2,-3.4296757E-1,-2.6245797E-1,2.8124083E-2,-1.1571245E0,1.22457616E-1,-2.6423682E-2,-2.1390477E-1,-6.516283E-1,2.249321E0,-4.318474E-1,-2.49385E-2,7.705441E-2,-1.06932364E-1,-3.3212826E-2,2.1130806E-1,6.137841E-1,1.3703564E0,-4.7349483E-2,-4.169577E-2,7.915749E-2,6.0418554E-2,-1.05245434E-1,4.0461045E-2,9.638268E-2,5.7856973E-2,-4.935914E-2,-1.3341147E-1,-1.9641861E-2,-9.152993E-2,1.0447321E-1,-9.613702E-2,-1.9379224E-3,-1.06561266E-1,-2.2988608E-2,-1.7929053E-2,6.23157E-2,-8.795985E-2,-2.104277E-2,1.797374E-2,-9.0921775E-2,1.0291245E-1,9.916802E-3,-3.1458735E-2,-1.6132009E-1,-6.1735727E-2,5.997295E-2,1.08011104E-1,2.3653338E-2,-2.5212867E-2,7.598855E-2,-1.133822E-1,5.3842045E-2,9.623673E-2,-5.7481485E-3,8.721293E-2,-4.4920787E-2],"split_indices":[12,14,14,3,9,12,4,12,16,14,1,3,7,17,2,14,2,6,7,0,4,0,0,0,12,17,0,3,0,14,0,10,0,0,17,0,4,9,0,0,2,8,0,11,11,0,4,12,0,12,4,0,4,0,0,0,0,12,16,4,0,0,0,0,0,0,0,0,0,0,0,0,0,0,0,0,0,0,0,0,0,0,0,0,0,0,0,0,0,0,0,0,0,0,0,0,0,0,0],"split_type":[0,0,0,0,0,0,0,0,0,0,0,0,0,0,0,0,0,0,0,0,0,0,0,0,0,0,0,0,0,0,0,0,0,0,0,0,0,0,0,0,0,0,0,0,0,0,0,0,0,0,0,0,0,0,0,0,0,0,0,0,0,0,0,0,0,0,0,0,0,0,0,0,0,0,0,0,0,0,0,0,0,0,0,0,0,0,0,0,0,0,0,0,0,0,0,0,0,0,0],"sum_hessian":[5.0760544E2,2.9593204E2,2.116734E2,9.614742E1,1.997846E2,1.2945268E2,8.2220726E1,6.1423054E1,3.472437E1,1.4084479E2,5.893982E1,3.7852013E1,9.160066E1,8.664879E0,7.355585E1,1.4148564E1,4.727449E1,2.6200918E1,8.52345E0,5.0663933E1,9.0180855E1,2.4785728E1,3.415409E1,2.4040455E1,1.3811558E1,8.819775E1,3.402917E0,7.489345E0,1.1755335E0,3.2803997E1,4.075185E1,6.7125573E0,7.436007E0,1.6730429E0,4.5601444E1,2.510718E0,2.36902E1,7.3442087E0,1.1792411E0,7.879782E0,4.2784153E1,8.8548874E1,1.6319801E0,2.2225138E1,2.5605915E0,1.435691E0,3.2718403E1,2.2139965E1,1.90049E0,3.143911E0,1.0667647E1,8.522948E1,2.96827E0,1.2464483E0,2.1564686E0,5.9550095E0,1.5343359E0,1.2767551E1,2.0036446E1,3.8896645E1,1.8552068E0,1.5773909E0,5.135166E0,1.4458623E0,5.9901447E0,2.407149E1,2.1529957E1,1.7622816E1,6.0673842E0,6.0097003E0,1.3345083E0,3.577033E0,4.3027487E0,3.7584534E1,5.199619E0,8.58813E1,2.6675708E0,5.6147194E0,1.6610418E1,1.5581664E0,1.0024251E0,1.4504412E0,3.126796E1,2.1129974E1,1.0099897E0,1.3341824E0,1.8097285E0,3.6744878E0,6.9931593E0,8.42069E1,1.022572E0,1.1790738E0,1.7891963E0,8.01818E0,4.749372E0,1.1150493E1,8.885953E0,3.714021E1,1.7564354E0],"tree_param":{"num_deleted":"0","num_feature":"19","num_nodes":"99","size_leaf_vector":"1"}},{"base_weights":[2.0738633E-2,-3.909292E-1,6.049899E-1,-7.648821E-1,-1.7830156E-1,7.0681906E-1,-1.2908629E-1,3.9930442E-1,-8.176248E-1,-3.1403905E-1,2.9041034E-1,3.077604E-1,9.27835E-1,-4.3917406E-1,8.6621314E-1,5.670838E-1,-9.231287E-3,-8.4757173E-1,1.6439946E-1,1.2864287E-1,-4.2174166E-1,7.690178E-1,-1.8805958E-1,4.930265E-2,8.918543E-1,9.6817505E-1,1.9091201E-1,-6.848499E-1,4.0402165E-1,1.2895048E-2,9.802633E-2,2.1595389E-2,6.783955E-2,-9.6713436E-1,-4.9518323E-1,1.2678081E-1,-7.239579E-2,-4.1750792E-1,7.73994E-1,-2.784826E-1,-9.044712E-1,9.988734E-1,-7.4659035E-2,1.7526715E-1,-3.6947125E-1,3.168015E-1,-5.993279E-1,-5.722686E-3,9.8166794E-1,3.4907E-1,1.0087439E0,8.493205E-1,-1.15367554E-1,-8.073883E-1,3.5356294E-2,8.846299E-2,-6.1027735E-2,-9.960011E-2,-2.1025122E-4,-9.778118E-2,9.031861E-3,-1.2988982E-2,-1.007558E-1,1.0088308E-1,1.5367741E-2,-4.2966407E-2,1.9601591E-2,-1.1007726E-1,-1.8268656E-2,3.224366E-2,1.270477E-1,-7.0728E-2,2.0212008E-2,5.1330514E-2,-4.1376237E-2,5.175516E-2,-1.1034149E-1,1.134383E-1,3.864538E-2,-5.5929847E-2,8.356489E-2,1.0169834E-1,1.2175061E-2,2.548197E-2,9.568414E-2,-9.881113E-2,3.960807E-2],"categories":[],"categories_nodes":[],"categories_segments":[],"categories_sizes":[],"default_left":[0,0,0,0,0,0,0,0,0,0,0,0,0,0,0,0,0,0,0,0,0,0,0,0,0,0,0,0,0,0,0,0,0,0,0,0,0,0,0,0,0,0,0,0,0,0,0,0,0,0,0,0,0,0,0,0,0,0,0,0,0,0,0,0,0,0,0,0,0,0,0,0,0,0,0,0,0,0,0,0,0,0,0,0,0,0,0],"id":17,"left_children":[1,3,5,7,9,11,13,15,17,19,21,23,25,27,29,31,-1,33,35,37,39,41,43,45,47,49,51,53,55,-1,-1,-1,-1,57,59,-1,-1,61,63,65,67,69,-1,-1,71,73,75,-1,77,79,81,83,-1,85,-1,-1,-1,-1,-1,-1,-1,-1,-1,-1,-1,-1,-1,-1,-1,-1,-1,-1,-1,-1,-1,-1,-1,-1,-1,-1,-1,-1,-1,-1,-1,-1,-1],"loss_changes":[1.168994E2,2.2537434E1,1.5107834E1,6.654766E0,1.1740152E1,1.5287827E1,8.194253E0,4.76205E-1,3.0485458E0,6.846484E0,9.679352E0,9.683031E0,3.1785126E0,4.4129677E0,4.0757847E-1,8.710623E-3,0E0,3.5725098E0,4.60834E0,1.0418915E1,7.6883106E0,8.065637E0,8.261016E0,8.123717E0,1.73598E0,2.3358917E0,7.2809453E0,2.3001657E0,3.0426192E0,0E0,0E0,0E0,0E0,1.9687881E0,7.551202E0,0E0,0E0,2.6122873E0,1.8086271E0,6.5393615E0,3.4588604E0,3.0209122E0,0E0,0E0,4.1209755E0,4.9539566E0,8.28271E0,0E0,1.2030544E0,4.052303E0,6.06369E-1,9.840727E-2,0E0,3.5377665E0,0E0,0E0,0E0,0E0,0E0,0E0,0E0,0E0,0E0,0E0,0E0,0E0,0E0,0E0,0E0,0E0,0E0,0E0,0E0,0E0,0E0,0E0,0E0,0E0,0E0,0E0,0E0,0E0,0E0,0E0,0E0,0E0,0E0],"parents":[2147483647,0,0,1,1,2,2,3,3,4,4,5,5,6,6,7,7,8,8,9,9,10,10,11,11,12,12,13,13,14,14,15,15,17,17,18,18,19,19,20,20,21,21,22,22,23,23,24,24,25,25,26,26,27,27,28,28,33,33,34,34,37,37,38,38,39,39,40,40,41,41,44,44,45,45,46,46,48,48,49,49,50,50,51,51,53,53],"right_children":[2,4,6,8,10,12,14,16,18,20,22,24,26,28,30,