{"learner":{"attributes":{"best_iteration":"54","best_score":"0.06413321860993938"},"feature_names":[],"feature_types":[],"gradient_booster":{"model":{"cats":{"enc":[],"feature_segments":[],"sorted_idx":[]},"gbtree_model_param":{"num_parallel_tree":"1","num_trees":"75"},"iteration_indptr":[0,1,2,3,4,5,6,7,8,9,10,11,12,13,14,15,16,17,18,19,20,21,22,23,24,25,26,27,28,29,30,31,32,33,34,35,36,37,38,39,40,41,42,43,44,45,46,47,48,49,50,51,52,53,54,55,56,57,58,59,60,61,62,63,64,65,66,67,68,69,70,71,72,73,74,75],"tree_info":[0,0,0,0,0,0,0,0,0,0,0,0,0,0,0,0,0,0,0,0,0,0,0,0,0,0,0,0,0,0,0,0,0,0,0,0,0,0,0,0,0,0,0,0,0,0,0,0,0,0,0,0,0,0,0,0,0,0,0,0,0,0,0,0,0,0,0,0,0,0,0,0,0,0,0],"trees":[{"base_weights":[4.505969E-2,-1.9478687E0,1.8596896E0,5.7380777E-2,-1.9805352E-1,1.8938363E0,-1E-1,1.9347203E-1,9.708935E-1,-1E-1,1.4829384E-1],"categories":[],"categories_nodes":[],"categories_segments":[],"categories_sizes":[],"default_left":[0,0,0,0,0,0,0,0,0,0,0],"id":0,"left_children":[1,3,5,-1,-1,7,-1,-1,9,-1,-1],"loss_changes":[7.879765E2,9.691315E0,1.3029022E1,0E0,0E0,2.3866882E0,0E0,0E0,8.347441E0,0E0,0E0],"parents":[2147483647,0,0,1,1,2,2,5,5,8,8],"right_children":[2,4,6,-1,-1,8,-1,-1,10,-1,-1],"split_conditions":[2.6067752E-1,1.6065224E-1,6.5464956E-1,5.7380777E-2,-1.9805352E-1,2.4165E-1,-1E-1,1.9347203E-1,2.8793442E-1,-1E-1,1.4829384E-1],"split_indices":[27,18,18,0,0,18,0,0,18,0,0],"split_type":[0,0,0,0,0,0,0,0,0,0,0],"sum_hessian":[2.1588641E2,1.028535E2,1.1303291E2,1.1035032E0,1.0175E2,1.1203291E2,1E0,1.06230896E2,5.802017E0,1E0,4.802017E0],"tree_param":{"num_deleted":"0","num_feature":"30","num_nodes":"11","size_leaf_vector":"1"}},{"base_weights":[7.300096E-3,-1.7715213E0,1.642564E0,2.6754174E-2,-1.8019913E-1,1.6917244E0,-1.1417597E-1,1.737537E0,7.8576714E-1,8.533709E-1,1.784224E-1,-1.05706744E-1,1.3666238E-1,1.5091346E-1,-1.2245885E-1],"categories":[],"categories_nodes":[],"categories_segments":[],"categories_sizes":[],"default_left":[0,0,0,0,0,0,0,0,0,0,0,0,0,0,0],"id":1,"left_children":[1,3,5,-1,-1,7,-1,9,11,13,-1,-1,-1,-1,-1],"loss_changes":[6.111519E2,6.734619E0,1.691504E1,0E0,0E0,3.1158752E0,0E0,2.685669E0,8.961758E0,1.1427385E1,0E0,0E0,0E0,0E0,0E0],"parents":[2147483647,0,0,1,1,2,2,5,5,7,7,8,8,9,9],"right_children":[2,4,6,-1,-1,8,-1,10,12,14,-1,-1,-1,-1,-1],"split_conditions":[2.6067752E-1,1.4487346E-1,6.3684785E-1,2.6754174E-2,-1.8019913E-1,2.4165E-1,-1.1417597E-1,-6.099598E-1,2.8793442E-1,-6.2910277E-1,1.784224E-1,-1.05706744E-1,1.3666238E-1,1.5091346E-1,-1.2245885E-1],"split_indices":[27,18,18,0,0,18,0,19,18,19,0,0,0,0,0],"split_type":[0,0,0,0,0,0,0,0,0,0,0,0,0,0,0],"sum_hessian":[2.0810107E2,9.9635445E1,1.0846562E2,1.3523898E0,9.828306E1,1.0696937E2,1.4962564E0,1.0094678E2,6.022594E0,6.0299144E0,9.491686E1,1.2468803E0,4.7757134E0,4.791539E0,1.2383752E0],"tree_param":{"num_deleted":"0","num_feature":"30","num_nodes":"15","size_leaf_vector":"1"}},{"base_weights":[-1.7388582E-2,-1.6405038E0,1.572353E-1,-2.116149E-2,-1.6601555E-1],"categories":[],"categories_nodes":[],"categories_segments":[],"categories_sizes":[],"default_left":[0,0,0,0,0],"id":2,"left_children":[1,3,-1,-1,-1],"loss_changes":[5.331691E2,2.5194702E0,0E0,0E0,0E0],"parents":[2147483647,0,0,1,1],"right_children":[2,4,-1,-1,-1],"split_conditions":[2.6067752E-1,-1.8604218E0,1.572353E-1,-2.116149E-2,-1.6601555E-1],"split_indices":[27,2,0,0,0],"split_type":[0,0,0,0,0],"sum_hessian":[2.0462834E2,1.0123557E2,1.0339276E2,1.5330637E0,9.970251E1],"tree_param":{"num_deleted":"0","num_feature":"30","num_nodes":"5","size_leaf_vector":"1"}},{"base_weights":[-3.0233698E-2,1.4386488E0,-1.4595793E0,1.4943113E0,5.703764E-1,1.0955461E-1,-1.5183336E0,6.6571003E-1,1.5409952E-1,-5.791205E-2,9.253691E-1,-1.5697366E-1,1.017152E-1,1.3159782E-1,-1.24630846E-1,1.252207E-1,-4.4998755E-3],"categories":[],"categories_nodes":[],"categories_segments":[],"categories_sizes":[],"default_left":[0,0,0,0,0,0,0,0,0,0,0,0,0,0,0,0,0],"id":3,"left_children":[1,3,5,7,9,-1,11,13,-1,-1,15,-1,-1,-1,-1,-1,-1],"loss_changes":[4.28947E2,4.017914E0,1.7206604E1,2.6134033E0,3.6731675E0,0E0,1.4841934E1,1.0067932E1,0E0,0E0,2.0414238E0,0E0,0E0,0E0,0E0,0E0,0E0],"parents":[2147483647,0,0,1,1,2,2,3,3,4,4,6,6,7,7,10,10],"right_children":[2,4,6,8,10,-1,12,14,-1,-1,16,-1,-1,-1,-1,-1,-1],"split_conditions":[2.4165E-1,1.02796696E-1,3.5414023E-3,-6.099598E-1,-6.1106986E-1,1.0955461E-1,3.2774067E-1,1.6073674E0,1.5409952E-1,-5.791205E-2,6.525055E-1,-1.5697366E-1,1.017152E-1,1.3159782E-1,-1.24630846E-1,1.252207E-1,-4.4998755E-3],"split_indices":[18,18,0,19,20,0,0,15,0,0,6,0,0,0,0,0,0],"split_type":[0,0,0,0,0,0,0,0,0,0,0,0,0,0,0,0,0],"sum_hessian":[2.02305E2,9.9769394E1,1.025356E2,9.30812E1,6.688192E0,1.9081206E0,1.0062748E2,5.7784514E0,8.730275E1,1.4291434E0,5.2590485E0,9.9001274E1,1.6262081E0,4.5445914E0,1.2338599E0,3.7167368E0,1.5423118E0],"tree_param":{"num_deleted":"0","num_feature":"30","num_nodes":"17","size_leaf_vector":"1"}},{"base_weights":[3.3944856E-2,-1.13151E0,1.032872E0,-1.228602E0,1.1737325E-1,1.4011587E0,3.4762582E-1,1.12834536E-1,-1.3157989E0,-1.4141748E-2,1.4391487E0,7.7110404E-1,-3.379526E-1,7.724235E-2,-1.3511349E0,1.4497977E-1,3.7430402E-2,-3.681521E-1,1.1055994E0,-1.2212715E0,3.3764333E-1,-1.4875361E-1,-1.4238971E0,6.382512E-2,-8.3193094E-1,1.1961914E0,-1.2086535E-2,-2.349505E-2,-1.433538E-1,-7.4947304E-1,1.13252215E-1,6.3010305E-2,-1.0603958E-1,-1.45236E-1,-6.8214047E-3,-9.020429E-3,-1.0608188E-1,1.3166684E-1,4.4938944E-2,-1.14011526E-1,6.221299E-3],"categories":[],"categories_nodes":[],"categories_segments":[],"categories_sizes":[],"default_left":[0,0,0,0,0,0,0,0,0,0,0,0,0,0,0,0,0,0,0,0,0,0,0,0,0,0,0,0,0,0,0,0,0,0,0,0,0,0,0,0,0],"id":4,"left_children":[1,3,5,7,-1,9,11,-1,13,-1,15,17,19,-1,21,-1,-1,23,25,27,29,31,33,-1,35,37,-1,-1,-1,39,-1,-1,-1,-1,-1,-1,-1,-1,-1,-1,-1],"loss_changes":[2.2526744E2,2.1433174E1,2.5802834E1,1.9199585E1,0E0,4.154907E0,1.1219345E1,0E0,7.2111816E0,0E0,2.0455933E-1,9.4149065E0,9.428387E0,0E0,7.0108185E0,0E0,0E0,3.38528E0,2.2026005E0,1.0793381E0,8.923226E0,4.8058724E0,2.9001923E0,0E0,6.8870926E-1,9.684658E-1,0E0,0E0,0E0,1.5131044E0,0E0,0E0,0E0,0E0,0E0,0E0,0E0,0E0,0E0,0E0,0E0],"parents":[2147483647,0,0,1,1,2,2,3,3,5,5,6,6,8,8,10,10,11,11,12,12,14,14,17,17,18,18,19,19,20,20,21,21,22,22,24,24,25,25,29,29],"right_children":[2,4,6,8,-1,10,12,-1,14,-1,16,18,20,-1,22,-1,-1,24,26,28,30,32,34,-1,36,38,-1,-1,-1,40,-1,-1,-1,-1,-1,-1,-1,-1,-1,-1,-1],"split_conditions":[-3.1790605E-1,3.2774067E-1,-4.3961358E-1,3.5414023E-3,1.1737325E-1,-6.099598E-1,1.9178408E-1,1.12834536E-1,-1.2951373E0,-1.4141748E-2,4.0152097E0,-5.98026E-1,-1.6823432E-1,7.724235E-2,-1.7444988E-1,1.4497977E-1,3.7430402E-2,-3.5101395E-2,8.79923E-1,-1.4028656E-1,4.1577393E-1,1.1739587E-1,5.432785E0,6.382512E-2,1.0312732E0,1.1408247E0,-1.2086535E-2,-2.349505E-2,-1.433538E-1,9.387099E-1,1.13252215E-1,6.3010305E-2,-1.0603958E-1,-1.45236E-1,-6.8214047E-3,-9.020429E-3,-1.0608188E-1,1.3166684E-1,4.4938944E-2,-1.14011526E-1,6.221299E-3],"split_indices":[20,0,22,0,0,19,8,0,22,0,21,8,21,0,24,0,0,20,22,20,8,8,9,0,1,2,0,0,0,6,0,0,0,0,0,0,0,0,0,0,0],"split_type":[0,0,0,0,0,0,0,0,0,0,0,0,0,0,0,0,0,0,0,0,0,0,0,0,0,0,0,0,0,0,0,0,0,0,0,0,0,0,0,0,0],"sum_hessian":[1.9149086E2,8.831752E1,1.0317335E2,8.5196266E1,3.121253E0,6.642719E1,3.6746155E1,2.6134684E0,8.2582794E1,1.5311844E0,6.489601E1,2.263802E1,1.4108137E1,1.0270774E0,8.155572E1,6.3895504E1,1.0005034E0,5.1152825E0,1.7522738E1,5.7640896E0,8.344048E0,4.827449E0,7.672827E1,1.4949763E0,3.6203065E0,1.6340445E1,1.182292E0,1.3939242E0,4.3701653E0,3.548315E0,4.7957325E0,2.76986E0,2.0575886E0,7.508063E1,1.647646E0,1.1824841E0,2.4378223E0,1.3413457E1,2.9269881E0,2.1222894E0,1.4260257E0],"tree_param":{"num_deleted":"0","num_feature":"30","num_nodes":"41","size_leaf_vector":"1"}},{"base_weights":[3.133408E-2,1.2941107E0,-1.2921914E0,1.3417494E0,2.5175068E-1,-9.0457267E-1,-1.4196579E-1,1.3712118E0,-1.541272E-2,1.07985094E-1,-9.534667E-2,-3.3628756E-1,-1.2499158E0,4.261914E-1,1.4244856E-1,-9.193533E-1,5.941601E-1,-1.3388707E-1,-2.7425954E-2,-1.16207734E-1,1.0480628E-1,2.5592556E-2,-1.1924111E-1,-4.873921E-2,1.1227999E-1],"categories":[],"categories_nodes":[],"categories_segments":[],"categories_sizes":[],"default_left":[0,0,0,0,0,0,0,0,0,0,0,0,0,0,0,0,0,0,0,0,0,0,0,0,0],"id":5,"left_children":[1,3,5,7,9,11,-1,13,-1,-1,-1,15,17,19,-1,21,23,-1,-1,-1,-1,-1,-1,-1,-1],"loss_changes":[3.186332E2,4.5062714E0,3.3155975E0,4.3125305E0,6.5132875E0,4.6419296E0,0E0,3.9923706E0,0E0,0E0,0E0,6.5779867E0,9.9334335E-1,7.44272E0,0E0,2.6246347E0,3.3434482E0,0E0,0E0,0E0,0E0,0E0,0E0,0E0,0E0],"parents":[2147483647,0,0,1,1,2,2,3,3,4,4,5,5,7,7,11,11,12,12,13,13,15,15,16,16],"right_children":[2,4,6,8,10,12,-1,14,-1,-1,-1,16,18,20,-1,22,24,-1,-1,-1,-1,-1,-1,-1,-1],"split_conditions":[2.4165E-1,2.1850778E-1,6.5464956E-1,8.79923E-1,1.0312732E0,-3.265268E-1,-1.4196579E-1,-6.099598E-1,-1.541272E-2,1.07985094E-1,-9.534667E-2,-5.238162E-1,8.0735284E-1,-1.5047725E0,1.4244856E-1,4.885003E-1,-3.042199E-1,-1.3388707E-1,-2.7425954E-2,-1.16207734E-1,1.0480628E-1,2.5592556E-2,-1.1924111E-1,-4.873921E-2,1.1227999E-1],"split_indices":[18,18,18,22,1,21,0,19,0,0,0,19,2,6,0,18,2,0,0,0,0,0,0,0,0],"split_type":[0,0,0,0,0,0,0,0,0,0,0,0,0,0,0,0,0,0,0,0,0,0,0,0,0],"sum_hessian":[1.8864742E2,9.655063E1,9.2096794E1,9.2056175E1,4.4944515E0,2.4794521E1,6.730227E1,9.035982E1,1.696362E0,2.7256722E0,1.7687792E0,1.0118173E1,1.4676349E1,5.302316E0,8.50575E1,6.227579E0,3.8905935E0,1.3108878E1,1.5674701E0,1.2475015E0,4.054815E0,1.1859267E0,5.0416527E0,1.3029319E0,2.5876617E0],"tree_param":{"num_deleted":"0","num_feature":"30","num_nodes":"25","size_leaf_vector":"1"}},{"base_weights":[3.806231E-3,-1.3415302E0,1.2544434E0,1.7944915E-2,-1.3677965E-1,1.2997805E0,-1.5978889E-1,1.3251234E0,5.74125E-1,-1.0387653E-1,8.5840546E-2,7.825737E-1,1.3622767E0,1.0903796E-1,-5.189528E-2,-5.427587E-2,1.1752951E-1,1.3729781E-1,3.875113E-2],"categories":[],"categories_nodes":[],"categories_segments":[],"categories_sizes":[],"default_left":[0,0,0,0,0,0,0,0,0,0,0,0,0,0,0,0,0,0,0],"id":6,"left_children":[1,3,5,-1,-1,7,9,11,13,-1,-1,15,17,-1,-1,-1,-1,-1,-1],"loss_changes":[2.9531747E2,3.6236572E0,6.039795E0,0E0,0E0,8.620453E-1,4.217312E0,6.372528E-1,3.241984E0,0E0,0E0,4.679838E0,2.788391E-1,0E0,0E0,0E0,0E0,0E0,0E0],"parents":[2147483647,0,0,1,1,2,2,5,5,6,6,7,7,8,8,11,11,12,12],"right_children":[2,4,6,-1,-1,8,10,12,14,-1,-1,16,18,-1,-1,-1,-1,-1,-1],"split_conditions":[2.6067752E-1,1.4487346E-1,5.424988E-1,1.7944915E-2,-1.3677965E-1,2.4165E-1,9.387099E-1,-8.073933E-1,2.0848082E-1,-1.0387653E-1,8.5840546E-2,-7.130071E-1,8.79923E-1,1.0903796E-1,-5.189528E-2,-5.427587E-2,1.1752951E-1,1.3729781E-1,3.875113E-2],"split_indices":[27,18,18,0,0,18,6,7,8,0,0,21,22,0,0,0,0,0,0],"split_type":[0,0,0,0,0,0,0,0,0,0,0,0,0,0,0,0,0,0,0],"sum_hessian":[1.7351993E2,8.3560005E1,8.9959915E1,1.3195255E0,8.224048E1,8.7243996E1,2.7159178E0,8.350167E1,3.7423315E0,1.4467654E0,1.2691524E0,6.7656918E0,7.673598E1,2.5435128E0,1.1988187E0,1.4592061E0,5.3064857E0,7.5498604E1,1.2373729E0],"tree_param":{"num_deleted":"0","num_feature":"30","num_nodes":"19","size_leaf_vector":"1"}},{"base_weights":[2.0131087E-2,1.1592079E0,-1.2426169E0,1.2705054E0,2.5043494E-1,9.565587E-2,-1.3051645E-1,1.2924341E0,7.4276426E-3,9.851941E-2,-3.4938085E-1,4.9420288E-1,1.3218561E-1,-1.068212E-1,4.3061376E-1,9.4818264E-2,-3.6523834E-2,-3.012826E-2,8.895804E-2],"categories":[],"categories_nodes":[],"categories_segments":[],"categories_sizes":[],"default_left":[0,0,0,0,0,0,0,0,0,0,0,0,0,0,0,0,0,0,0],"id":7,"left_children":[1,3,5,7,9,-1,-1,11,-1,-1,13,15,-1,-1,17,-1,-1,-1,-1],"loss_changes":[2.3817757E2,8.486259E0,1.2051758E1,1.9318542E0,5.0789337E0,0E0,0E0,1.1281662E0,0E0,0E0,4.190179E0,2.0215282E0,0E0,0E0,1.5792354E0,0E0,0E0,0E0,0E0],"parents":[2147483647,0,0,1,1,2,2,3,3,4,4,7,7,10,10,11,11,14,14],"right_children":[2,4,6,8,10,-1,-1,12,-1,-1,14,16,-1,-1,18,-1,-1,-1,-1],"split_conditions":[3.727892E-1,1.02796696E-1,3.5414023E-3,8.79923E-1,1.6931842E-1,9.565587E-2,-1.3051645E-1,-6.099598E-1,7.4276426E-3,9.851941E-2,3.4816924E-1,5.699189E-1,1.3218561E-1,-1.068212E-1,1.6065224E-1,9.4818264E-2,-3.6523834E-2,-3.012826E-2,8.895804E-2],"split_indices":[18,18,0,22,6,0,0,19,0,0,6,24,0,0,18,0,0,0,0],"split_type":[0,0,0,0,0,0,0,0,0,0,0,0,0,0,0,0,0,0,0],"sum_hessian":[1.6358742E2,8.604841E1,7.7539E1,7.630525E1,9.743157E0,1.7490556E0,7.578995E1,7.485267E1,1.4525844E0,4.090232E0,5.6529255E0,3.2935643E0,7.1559105E1,2.7495081E0,2.903417E0,2.0875893E0,1.205975E0,1.2514081E0,1.652009E0],"tree_param":{"num_deleted":"0","num_feature":"30","num_nodes":"19","size_leaf_vector":"1"}},{"base_weights":[1.8623848E-2,-1.2495846E0,1.1418264E0,3.801965E-2,-1.2783103E-1,1.1838952E0,-1.8726979E-1,6.0429823E-1,1.2268273E0,-9.288323E-2,7.759418E-2,1.0994871E-1,-1.0478967E-1,1.2446826E-1,6.2217146E-1,9.837675E-2,-1.6512534E-2],"categories":[],"categories_nodes":[],"categories_segments":[],"categories_sizes":[],"default_left":[0,0,0,0,0,0,0,0,0,0,0,0,0,0,0,0,0],"id":8,"left_children":[1,3,5,-1,-1,7,9,11,13,-1,-1,-1,-1,-1,15,-1,-1],"loss_changes":[2.2254607E2,3.9217148E0,4.853836E0,0E0,0E0,1.2602158E0,3.1529756E0,7.303069E0,2.3658752E-2,0E0,0E0,0E0,0E0,0E0,1.3352574E0,0E0,0E0],"parents":[2147483647,0,0,1,1,2,2,5,5,6,6,7,7,8,8,14,14],"right_children":[2,4,6,-1,-1,8,10,12,14,-1,-1,-1,-1,-1,16,-1,-1],"split_conditions":[2.6067752E-1,1.4487346E-1,5.424988E-1,3.801965E-2,-1.2783103E-1,-1.5047725E0,9.387099E-1,-1.5075203E0,2.4165E-1,-9.288323E-2,7.759418E-2,1.0994871E-1,-1.0478967E-1,1.2446826E-1,-1.2133575E-1,9.837675E-2,-1.6512534E-2],"split_indices":[27,18,18,0,0,6,6,6,18,0,0,0,0,0,8,0,0],"split_type":[0,0,0,0,0,0,0,0,0,0,0,0,0,0,0,0,0],"sum_hessian":[1.542308E2,7.238657E1,8.184423E1,1.0418329E0,7.134474E1,7.943905E1,2.4051774E0,6.5180964E0,7.292095E1,1.3791118E0,1.0260656E0,5.2724032E0,1.2456931E0,6.980125E1,3.1197088E0,1.9668206E0,1.1528882E0],"tree_param":{"num_deleted":"0","num_feature":"30","num_nodes":"17","size_leaf_vector":"1"}},{"base_weights":[7.3385745E-4,-1.213329E0,1.0923722E0,3.6222618E-2,-1.2429793E-1,1.1287878E0,-7.500651E-2,1.1618524E0,-1.1395403E-2,1.2051736E0,3.291063E-1,5.155191E-1,1.2441944E-1,-8.032488E-2,8.672413E-2,-6.90234E-2,1.0210066E-1],"categories":[],"categories_nodes":[],"categories_segments":[],"categories_sizes":[],"default_left":[0,0,0,0,0,0,0,0,0,0,0,0,0,0,0,0,0],"id":9,"left_children":[1,3,5,-1,-1,7,-1,9,-1,11,13,15,-1,-1,-1,-1,-1],"loss_changes":[1.9088933E2,3.6359177E0,5.935005E0,0E0,0E0,3.2047272E0,0E0,2.2340317E0,0E0,1.2138062E0,3.7321777E0,3.9955044E0,0E0,0E0,0E0,0E0,0E0],"parents":[2147483647,0,0,1,1,2,2,5,5,7,7,9,9,10,10,11,11],"right_children":[2,4,6,-1,-1,8,-1,10,-1,12,14,16,-1,-1,-1,-1,-1],"split_conditions":[2.6067752E-1,1.4487346E-1,6.3684785E-1,3.6222618E-2,-1.2429793E-1,8.79923E-1,-7.500651E-2,2.4165E-1,-1.1395403E-2,-6.099598E-1,2.8793442E-1,-1.0152345E0,1.2441944E-1,-8.032488E-2,8.672413E-2,-6.90234E-2,1.0210066E-1],"split_indices":[27,18,18,0,0,22,0,18,0,19,18,6,0,0,0,0,0],"split_type":[0,0,0,0,0,0,0,0,0,0,0,0,0,0,0,0,0],"sum_hessian":[1.4203284E2,6.7192924E1,7.483991E1,1.0339597E0,6.6158966E1,7.376922E1,1.0706983E0,7.192077E1,1.8484495E0,6.79392E1,3.981567E0,4.399193E0,6.3540005E1,1.1239257E0,2.8576412E0,1.1915278E0,3.2076652E0],"tree_param":{"num_deleted":"0","num_feature":"30","num_nodes":"17","size_leaf_vector":"1"}},{"base_weights":[2.1407786E-3,-1.1811286E0,1.0728494E0,3.452536E-2,-1.2108594E-1,1.1092495E0,-7.227422E-2,1.1486087E0,4.353854E-1,1.1728679E0,8.773113E-4,-7.7216454E-2,9.066523E-2,5.1597035E-1,1.216503E-1,9.664239E-2,-6.9658145E-2],"categories":[],"categories_nodes":[],"categories_segments":[],"categories_sizes":[],"default_left":[0,0,0,0,0,0,0,0,0,0,0,0,0,0,0,0,0],"id":10,"left_children":[1,3,5,-1,-1,7,-1,9,11,13,-1,-1,-1,15,-1,-1,-1],"loss_changes":[1.7417714E2,3.3817596E0,5.518791E0,0E0,0E0,1.3865204E0,0E0,1.8311844E0,3.8504162E0,1.2412186E0,0E0,0E0,0E0,3.8399298E0,0E0,0E0,0E0],"parents":[2147483647,0,0,1,1,2,2,5,5,7,7,8,8,9,9,13,13],"right_children":[2,4,6,-1,-1,8,-1,10,12,14,-1,-1,-1,16,-1,-1,-1],"split_conditions":[2.6067752E-1,1.4487346E-1,6.3684785E-1,3.452536E-2,-1.2108594E-1,2.4165E-1,-7.227422E-2,8.79923E-1,2.8793442E-1,-1.5047725E0,8.773113E-4,-7.7216454E-2,9.066523E-2,-8.1568766E-1,1.216503E-1,9.664239E-2,-6.9658145E-2],"split_indices":[27,18,18,0,0,18,0,22,18,6,0,0,0,8,0,0,0],"split_type":[0,0,0,0,0,0,0,0,0,0,0,0,0,0,0,0,0],"sum_hessian":[1.3547878E2,6.430759E1,7.1171196E1,1.0258882E0,6.3281696E1,7.013173E1,1.039469E0,6.559588E1,4.5358486E0,6.4200516E1,1.3953654E0,1.094043E0,3.4418058E0,4.79778E0,5.9402737E1,3.646221E0,1.1515591E0],"tree_param":{"num_deleted":"0","num_feature":"30","num_nodes":"17","size_leaf_vector":"1"}},{"base_weights":[2.333882E-3,-1.1542332E0,1.0300896E0,7.1404553E-3,-1.18311815E-1,1.1214807E0,3.9570153E-2,1.1651845E-1,-4.1075613E-2,1.00126915E-1,-8.0096143E-1,-3.095725E-2,-9.614227E-2],"categories":[],"categories_nodes":[],"categories_segments":[],"categories_sizes":[],"default_left":[0,0,0,0,0,0,0,0,0,0,0,0,0],"id":11,"left_children":[1,3,5,-1,-1,7,9,-1,-1,-1,11,-1,-1],"loss_changes":[1.4533707E2,2.1211853E0,5.8160324E0,0E0,0E0,4.4451294E0,6.0603395E0,0E0,0E0,0E0,1.9880772E-2,0E0,0E0],"parents":[2147483647,0,0,1,1,2,2,5,5,6,6,10,10],"right_children":[2,4,6,-1,-1,8,10,-1,-1,-1,12,-1,-1],"split_conditions":[2.6067752E-1,1.4487346E-1,2.4165E-1,7.1404553E-3,-1.18311815E-1,8.79923E-1,-3.265268E-1,1.1651845E-1,-4.1075613E-2,1.00126915E-1,-2.9410008E-1,-3.095725E-2,-9.614227E-2],"split_indices":[27,18,18,0,0,22,21,0,0,0,19,0,0],"split_type":[0,0,0,0,0,0,0,0,0,0,0,0,0],"sum_hessian":[1.2026855E2,5.65302E1,6.3738346E1,1.2676923E0,5.526251E1,5.8233196E1,5.5051494E0,5.6851192E1,1.3820056E0,2.4783256E0,3.0268235E0,1.4661676E0,1.560656E0],"tree_param":{"num_deleted":"0","num_feature":"30","num_nodes":"13","size_leaf_vector":"1"}},{"base_weights":[4.3951682E-4,-1.1327498E0,1.050381E0,6.746804E-3,-1.1611599E-1,1.0896678E0,-1.9185368E-2,1.1158729E0,4.3264425E-1,4.984305E-1,1.1474705E-1,8.713361E-2,-3.900162E-2,9.064041E-2,-4.01451E-2],"categories":[],"categories_nodes":[],"categories_segments":[],"categories_sizes":[],"default_left":[0,0,0,0,0,0,0,0,0,0,0,0,0,0,0],"id":12,"left_children":[1,3,5,-1,-1,7,-1,9,11,13,-1,-1,-1,-1,-1],"loss_changes":[1.4131183E2,2.0260925E0,3.217781E0,0E0,0E0,5.4870605E-1,0E0,5.3970337E-1,1.7585311E0,2.0313225E0,0E0,0E0,0E0,0E0,0E0],"parents":[2147483647,0,0,1,1,2,2,5,5,7,7,8,8,9,9],"right_children":[2,4,6,-1,-1,8,-1,10,12,14,-1,-1,-1,-1,-1],"split_conditions":[2.6067752E-1,1.4487346E-1,5.235643E-1,6.746804E-3,-1.1611599E-1,2.4165E-1,-1.9185368E-2,-6.099598E-1,-1.2133575E-1,-6.647784E-1,1.1474705E-1,8.713361E-2,-3.900162E-2,9.064041E-2,-4.01451E-2],"split_indices":[27,18,18,0,0,18,0,19,8,19,0,0,0,0,0],"split_type":[0,0,0,0,0,0,0,0,0,0,0,0,0,0,0],"sum_hessian":[1.1677112E2,5.6121254E1,6.0649868E1,1.265928E0,5.4855324E1,5.8909615E1,1.740254E0,5.5978558E1,2.9310555E0,3.5418665E0,5.243669E1,1.8730595E0,1.0579962E0,2.432026E0,1.1098405E0],"tree_param":{"num_deleted":"0","num_feature":"30","num_nodes":"15","size_leaf_vector":"1"}},{"base_weights":[6.643487E-3,9.3074167E-1,-1.0188754E0,5.293343E-1,1.1219839E0,7.558668E-2,-1.0782223E0,7.414371E-1,-6.967082E-2,2.403443E-2,1.13976516E-1,-1.13137655E-1,6.952324E-2,-1.4359841E-1,8.954982E-1,7.2447896E-2,-9.6475296E-2,1.0928543E-1,-1.486746E-2,-6.39322E-2,6.6931866E-2],"categories":[],"categories_nodes":[],"categories_segments":[],"categories_sizes":[],"default_left":[0,0,0,0,0,0,0,0,0,0,0,0,0,0,0,0,0,0,0,0,0],"id":13,"left_children":[1,3,5,7,9,-1,11,13,-1,-1,-1,-1,-1,15,17,-1,-1,-1,19,-1,-1],"loss_changes":[1.02584816E2,3.7768478E0,6.219429E0,5.786639E0,3.1660843E-1,0E0,5.5058823E0,2.550355E0,0E0,0E0,0E0,0E0,0E0,3.190407E0,2.7590723E0,0E0,0E0,0E0,2.0114741E0,0E0,0E0],"parents":[2147483647,0,0,1,1,2,2,3,3,4,4,6,6,7,7,13,13,14,14,18,18],"right_children":[2,4,6,8,10,-1,12,14,-1,-1,-1,-1,-1,16,18,-1,-1,-1,20,-1,-1],"split_conditions":[3.727892E-1,-1.6823432E-1,-6.4485717E-1,-2.561746E-1,-7.7267534E-1,7.558668E-2,3.2774067E-1,-1.5047725E0,-6.967082E-2,2.403443E-2,1.13976516E-1,-1.13137655E-1,6.952324E-2,-1.5075203E0,6.422634E-2,7.2447896E-2,-9.6475296E-2,1.0928543E-1,-5.4812454E-2,-6.39322E-2,6.6931866E-2],"split_indices":[18,21,0,21,19,0,0,6,0,0,0,0,0,6,18,0,0,0,19,0,0],"split_type":[0,0,0,0,0,0,0,0,0,0,0,0,0,0,0,0,0,0,0,0,0],"sum_hessian":[1.06247696E2,5.593601E1,5.031169E1,1.9265856E1,3.667015E1,1.2482088E0,4.906348E1,1.6761425E1,2.5044308E0,1.011949E0,3.5658203E1,4.798725E1,1.0762314E0,2.495193E0,1.4266232E1,1.2701718E0,1.2250211E0,1.1559762E1,2.7064698E0,1.4492848E0,1.257185E0],"tree_param":{"num_deleted":"0","num_feature":"30","num_nodes":"21","size_leaf_vector":"1"}},{"base_weights":[2.2053333E-2,-1.0836416E0,9.6058613E-1,1.18579585E-2,-1.1184235E-1,1.002544E0,-1.7622745E-2,1.0334939E0,-2.8521707E-2,4.7335675E-1,1.0936657E0,9.250097E-2,-5.881694E-2,1.1234876E-1,5.8673406E-1,9.358955E-2,-2.2081897E-2],"categories":[],"categories_nodes":[],"categories_segments":[],"categories_sizes":[],"default_left":[0,0,0,0,0,0,0,0,0,0,0,0,0,0,0,0,0],"id":14,"left_children":[1,3,5,-1,-1,7,-1,9,-1,11,13,-1,-1,-1,15,-1,-1],"loss_changes":[1.0379249E2,2.0531807E0,2.7564964E0,0E0,0E0,2.3796654E0,0E0,1.2113152E0,0E0,3.7751489E0,2.9571533E-2,0E0,0E0,0E0,1.5105916E0,0E0,0E0],"parents":[2147483647,0,0,1,1,2,2,5,5,7,7,9,9,10,10,14,14],"right_children":[2,4,6,-1,-1,8,-1,10,-1,12,14,-1,-1,-1,16,-1,-1],"split_conditions":[2.6067752E-1,1.6065224E-1,1.2018319E0,1.18579585E-2,-1.1184235E-1,6.3684785E-1,-1.7622745E-2,-1.2315814E0,-2.8521707E-2,-2.5576126E-2,2.4165E-1,9.250097E-2,-5.881694E-2,1.1234876E-1,1.7635771E0,9.358955E-2,-2.2081897E-2],"split_indices":[27,18,22,0,0,18,0,6,0,24,18,0,0,0,10,0,0],"split_type":[0,0,0,0,0,0,0,0,0,0,0,0,0,0,0,0,0],"sum_hessian":[9.80156E1,4.4929314E1,5.308629E1,1.1955707E0,4.373374E1,5.131061E1,1.775677E0,5.029918E1,1.0114336E0,5.739273E0,4.4559906E1,4.116436E0,1.622837E0,4.0935493E1,3.6244104E0,2.4194055E0,1.205005E0],"tree_param":{"num_deleted":"0","num_feature":"30","num_nodes":"17","size_leaf_vector":"1"}},{"base_weights":[-2.1593293E-2,-1.0718709E0,9.1010875E-1,2.5322537E-3,-1.10415675E-1,1.0018525E0,5.8184203E-4,3.1522688E-1,1.0678612E0,7.768537E-2,-4.5721748E-1,8.514542E-2,-6.495217E-2,1.1052158E-1,8.67014E-3,1.6407955E-2,-8.429434E-2],"categories":[],"categories_nodes":[],"categories_segments":[],"categories_sizes":[],"default_left":[0,0,0,0,0,0,0,0,0,0,0,0,0,0,0,0,0],"id":15,"left_children":[1,3,5,-1,-1,7,9,11,13,-1,15,-1,-1,-1,-1,-1,-1],"loss_changes":[9.136613E1,1.5824432E0,4.1290474E0,0E0,0E0,1.700882E0,2.322285E0,3.3266916E0,1.3919601E0,0E0,1.1235969E0,0E0,0E0,0E0,0E0,0E0,0E0],"parents":[2147483647,0,0,1,1,2,2,5,5,6,6,7,7,8,8,10,10],"right_children":[2,4,6,-1,-1,8,10,12,14,-1,16,-1,-1,-1,-1,-1,-1],"split_conditions":[2.6067752E-1,1.4487346E-1,2.4165E-1,2.5322537E-3,-1.10415675E-1,-8.073933E-1,-3.5535774E-1,-5.459499E-1,8.79923E-1,7.768537E-2,-5.052182E-1,8.514542E-2,-6.495217E-2,1.1052158E-1,8.67014E-3,1.6407955E-2,-8.429434E-2],"split_indices":[27,18,18,0,0,7,19,22,22,0,20,0,0,0,0,0,0],"split_type":[0,0,0,0,0,0,0,0,0,0,0,0,0,0,0,0,0],"sum_hessian":[9.137239E1,4.2882214E1,4.8490177E1,1.2319419E0,4.165027E1,4.395494E1,4.5352354E0,4.3615346E0,3.9593407E1,1.4238833E0,3.1113522E0,2.8788462E0,1.4826885E0,3.8019493E1,1.573914E0,1.4118601E0,1.699492E0],"tree_param":{"num_deleted":"0","num_feature":"30","num_nodes":"17","size_leaf_vector":"1"}},{"base_weights":[-5.124701E-3,-1.0534518E0,9.118884E-1,-1.0832342E-1,-1.4274257E-2,1.0967237E-1,5.736035E-1,-4.3683967E-1,7.372905E-1,-6.211694E-2,-3.7513764E-3,8.253307E-1,-2.806285E-2,7.567809E-3,9.150645E-1,1.0287845E-1,3.9140962E-2],"categories":[],"categories_nodes":[],"categories_segments":[],"categories_sizes":[],"default_left":[0,0,0,0,0,0,0,0,0,0,0,0,0,0,0,0,0],"id":16,"left_children":[1,3,5,-1,-1,-1,7,9,11,-1,-1,13,-1,-1,15,-1,-1],"loss_changes":[8.2233734E1,9.2788696E-1,2.224121E0,0E0,0E0,0E0,3.3355346E0,2.0988399E-1,1.670124E0,0E0,0E0,9.416437E-1,0E0,0E0,3.9118004E-1,0E0,0E0],"parents":[2147483647,0,0,1,1,2,2,6,6,7,7,8,8,11,11,14,14],"right_children":[2,4,6,-1,-1,-1,8,10,12,-1,-1,14,-1,-1,16,-1,-1],"split_conditions":[2.6067752E-1,8.2682955E-1,2.7217138E-1,-1.0832342E-1,-1.4274257E-2,1.0967237E-1,-1.2315814E0,-7.6586914E-1,8.190213E-1,-6.211694E-2,-3.7513764E-3,-8.600063E-1,-2.806285E-2,7.567809E-3,1.6073674E0,1.0287845E-1,3.9140962E-2],"split_indices":[27,19,24,0,0,0,6,21,22,0,0,2,0,0,15,0,0],"split_type":[0,0,0,0,0,0,0,0,0,0,0,0,0,0,0,0,0],"sum_hessian":[8.354238E1,3.8910835E1,4.463155E1,3.749521E1,1.4156249E0,2.7411947E1,1.7219604E1,2.1679645E0,1.50516405E1,1.1031864E0,1.0647781E0,1.4027587E1,1.0240536E0,1.696669E0,1.2330917E1,9.338328E0,2.9925897E0],"tree_param":{"num_deleted":"0","num_feature":"30","num_nodes":"17","size_leaf_vector":"1"}},{"base_weights":[5.2642957E-3,-1.0453193E0,9.248155E-1,-7.548628E-3,-1.078284E-1,1.0191493E0,1.566239E-1,3.5607025E-1,1.08195044E-1,8.2263425E-2,-3.6890563E-1,8.079516E-2,-5.4917034E-2,-8.0708735E-2,1.3610099E-2],"categories":[],"categories_nodes":[],"categories_segments":[],"categories_sizes":[],"default_left":[0,0,0,0,0,0,0,0,0,0,0,0,0,0,0],"id":17,"left_children":[1,3,5,-1,-1,7,9,11,-1,-1,13,-1,-1,-1,-1],"loss_changes":[7.557398E1,1.0860062E0,2.8631516E0,0E0,0E0,1.1542206E0,2.3138103E0,2.3617892E0,0E0,0E0,9.7303814E-1,0E0,0E0,0E0,0E0],"parents":[2147483647,0,0,1,1,2,2,5,5,6,6,7,7,10,10],"right_children":[2,4,6,-1,-1,8,10,12,-1,-1,14,-1,-1,-1,-1],"split_conditions":[2.6067752E-1,-6.2107116E-1,2.4165E-1,-7.548628E-3,-1.078284E-1,-8.073933E-1,2.7217138E-1,5.699189E-1,1.08195044E-1,8.2263425E-2,-2.2500764E-1,8.079516E-2,-5.4917034E-2,-8.0708735E-2,1.3610099E-2],"split_indices":[27,24,18,0,0,7,24,24,0,0,22,0,0,0,0],"split_type":[0,0,0,0,0,0,0,0,0,0,0,0,0,0,0],"sum_hessian":[7.622796E1,3.551521E1,4.0712753E1,1.2756318E0,3.4239574E1,3.596907E1,4.7436852E0,3.6889944E0,3.2280075E1,1.8428607E0,2.9008245E0,2.5323563E0,1.156638E0,1.2328978E0,1.6679268E0],"tree_param":{"num_deleted":"0","num_feature":"30","num_nodes":"15","size_leaf_vector":"1"}},{"base_weights":[-4.6650246E-3,-1.0180635E0,8.416894E-1,8.994246E-3,-1.06229186E-1,8.9842665E-1,-6.720062E-2,2.7486452E-1,9.71585E-1,8.2741395E-2,-4.656974E-2,1.0177035E0,-2.9897833E-2,1.06365934E-1,4.6663117E-1,-4.95564E-2,9.091812E-2],"categories":[],"categories_nodes":[],"categories_segments":[],"categories_sizes":[],"default_left":[0,0,0,0,0,0,0,0,0,0,0,0,0,0,0,0,0],"id":18,"left_children":[1,3,5,-1,-1,7,-1,9,11,-1,-1,13,-1,-1,15,-1,-1],"loss_changes":[6.515599E1,1.7896385E0,4.1591225E0,0E0,0E0,1.5727577E0,0E0,2.6888328E0,2.3962173E0,0E0,0E0,3.8186646E-1,0E0,0E0,2.3458204E0,0E0,0E0],"parents":[2147483647,0,0,1,1,2,2,5,5,7,7,8,8,11,11,14,14],"right_children":[2,4,6,-1,-1,8,-1,10,12,-1,-1,14,-1,-1,16,-1,-1],"split_conditions":[2.6067752E-1,1.4487346E-1,6.5464956E-1,8.994246E-3,-1.06229186E-1,-1.2315814E0,-6.720062E-2,-1.5075203E0,1.2018319E0,8.2741395E-2,-4.656974E-2,2.4165E-1,-2.9897833E-2,1.06365934E-1,2.956485E-1,-4.95564E-2,9.091812E-2],"split_indices":[27,18,18,0,0,6,0,6,22,0,0,18,0,0,18,0,0],"split_type":[0,0,0,0,0,0,0,0,0,0,0,0,0,0,0,0,0],"sum_hessian":[7.396739E1,3.3569473E1,4.0397923E1,1.2488867E0,3.2320583E1,3.9330193E1,1.0677295E0,4.629337E0,3.4700855E1,2.5840454E0,2.0452914E0,3.3677452E1,1.0234015E0,3.0226595E1,3.4508588E0,1.0494174E0,2.4014416E0],"tree_param":{"num_deleted":"0","num_feature":"30","num_nodes":"17","size_leaf_vector":"1"}},{"base_weights":[4.2009246E-2,-9.996399E-1,8.7188077E-1,8.502613E-3,-1.0486219E-1,9.3310165E-1,-1.3412299E-2,9.729984E-1,-1.6176818E-3,1.0188353E0,3.5128823E-1,3.277404E-2,1.0514647E-1,7.962708E-2,-4.2408165E-2],"categories":[],"categories_nodes":[],"categories_segments":[],"categories_sizes":[],"default_left":[0,0,0,0,0,0,0,0,0,0,0,0,0,0,0],"id":19,"left_children":[1,3,5,-1,-1,7,-1,9,-1,11,13,-1,-1,-1,-1],"loss_changes":[5.9606754E1,1.7146301E0,2.4871693E0,0E0,0E0,1.3896751E0,0E0,6.3467026E-1,0E0,3.7501907E-1,1.6894486E0,0E0,0E0,0E0,0E0],"parents":[2147483647,0,0,1,1,2,2,5,5,7,7,9,9,10,10],"right_children":[2,4,6,-1,-1,8,-1,10,-1,12,14,-1,-1,-1,-1],"split_conditions":[2.6067752E-1,1.4487346E-1,5.424988E-1,8.502613E-3,-1.0486219E-1,8.79923E-1,-1.3412299E-2,2.4165E-1,-1.6176818E-3,-6.099598E-1,2.496191E-1,3.277404E-2,1.0514647E-1,7.962708E-2,-4.2408165E-2],"split_indices":[27,18,18,0,0,22,0,18,0,19,8,0,0,0,0],"split_type":[0,0,0,0,0,0,0,0,0,0,0,0,0,0,0],"sum_hessian":[6.694634E1,2.95947E1,3.7351643E1,1.246916E0,2.8347784E1,3.527729E1,2.0743506E0,3.383046E1,1.44683E0,3.0912598E1,2.917863E0,1.8916407E0,2.9020956E1,1.8367826E0,1.0810804E0],"tree_param":{"num_deleted":"0","num_feature":"30","num_nodes":"15","size_leaf_vector":"1"}},{"base_weights":[-1.07464995E-2,-9.892468E-1,8.029704E-1,8.037916E-3,-1.0391102E-1,8.661275E-1,-3.9746728E-2,9.3409055E-1,-3.2212373E-2,2.9616907E-1,9.9733627E-1,-5.8499455E-2,7.562374E-2,1.04108475E-1,3.7295848E-1,7.1755715E-2,-2.2014922E-2],"categories":[],"categories_nodes":[],"categories_segments":[],"categories_sizes":[],"default_left":[0,0,0,0,0,0,0,0,0,0,0,0,0,0,0,0,0],"id":20,"left_children":[1,3,5,-1,-1,7,-1,9,-1,11,13,-1,-1,-1,15,-1,-1],"loss_changes":[5.185459E1,1.6603279E0,3.040594E0,0E0,0E0,3.0548038E0,0E0,1.0163689E0,0E0,2.207913E0,4.081745E-1,0E0,0E0,0E0,8.6665875E-1,0E0,0E0],"parents":[2147483647,0,0,1,1,2,2,5,5,7,7,9,9,10,10,14,14],"right_children":[2,4,6,-1,-1,8,-1,10,-1,12,14,-1,-1,-1,16,-1,-1],"split_conditions":[2.6067752E-1,1.4487346E-1,8.79923E-1,8.037916E-3,-1.0391102E-1,5.235643E-1,-3.9746728E-2,-1.5047725E0,-3.2212373E-2,-5.1350844E-1,2.4165E-1,-5.8499455E-2,7.562374E-2,1.04108475E-1,1.7635771E0,7.1755715E-2,-2.2014922E-2],"split_indices":[27,18,22,0,0,18,0,6,0,19,18,0,0,0,10,0,0],"split_type":[0,0,0,0,0,0,0,0,0,0,0,0,0,0,0,0,0],"sum_hessian":[6.3128143E1,2.856401E1,3.4564137E1,1.245017E0,2.7318993E1,3.310112E1,1.4630158E0,3.151262E1,1.5884976E0,3.3550515E0,2.815757E1,1.0577041E0,2.2973473E0,2.5690132E1,2.467438E0,1.4279598E0,1.0394782E0],"tree_param":{"num_deleted":"0","num_feature":"30","num_nodes":"17","size_leaf_vector":"1"}},{"base_weights":[-4.1148994E-2,7.7403903E-1,-9.4232047E-1,8.92274E-1,1.4346558E-2,-9.7964615E-1,-1.134688E-3,9.489516E-1,-2.4329914E-2,5.9839126E-2,-4.014264E-1,-1.9303275E-2,-1.0232937E-1,-9.941992E-3,1.033769E-1,-4.5816265E-3,-5.7082344E-2],"categories":[],"categories_nodes":[],"categories_segments":[],"categories_sizes":[],"default_left":[0,0,0,0,0,0,0,0,0,0,0,0,0,0,0,0,0],"id":21,"left_children":[1,3,5,7,9,11,-1,13,-1,-1,15,-1,-1,-1,-1,-1,-1],"loss_changes":[4.3386696E1,2.7750034E0,9.6290207E-1,1.9583836E0,1.5020131E0,7.273426E-1,0E0,2.394144E0,0E0,0E0,1.9274992E-1,0E0,0E0,0E0,0E0,0E0,0E0],"parents":[2147483647,0,0,1,1,2,2,3,3,4,4,5,5,7,7,10,10],"right_children":[2,4,6,8,10,12,-1,14,-1,-1,16,-1,-1,-1,-1,-1,-1],"split_conditions":[3.727892E-1,1.02796696E-1,2.1707911E0,8.79923E-1,2.7213332E-1,-2.5576126E-2,-1.134688E-3,-6.099598E-1,-2.4329914E-2,5.9839126E-2,2.1850778E-1,-1.9303275E-2,-1.0232937E-1,-9.941992E-3,1.033769E-1,-4.5816265E-3,-5.7082344E-2],"split_indices":[18,18,6,22,8,24,0,19,0,0,18,0,0,0,0,0,0],"split_type":[0,0,0,0,0,0,0,0,0,0,0,0,0,0,0,0,0],"sum_hessian":[5.7066833E1,3.003691E1,2.7029922E1,2.5840668E1,4.1962404E0,2.5937716E1,1.0922071E0,2.4768776E1,1.0718931E0,1.56235E0,2.6338904E0,1.6486347E0,2.4289082E1,1.8410176E0,2.2927757E1,1.2597663E0,1.374124E0],"tree_param":{"num_deleted":"0","num_feature":"30","num_nodes":"17","size_leaf_vector":"1"}},{"base_weights":[4.6379454E-2,-9.4144917E-1,8.192104E-1,1.5575245E-2,-1.0136676E-1,1.0261827E-1,3.9959693E-1,9.079263E-2,3.337224E-3,-7.7383554E-1,8.364437E-2,-1.0866421E-2,-9.737074E-2],"categories":[],"categories_nodes":[],"categories_segments":[],"categories_sizes":[],"default_left":[0,0,0,0,0,0,0,0,0,0,0,0,0],"id":22,"left_children":[1,3,5,-1,-1,-1,7,-1,9,11,-1,-1,-1],"loss_changes":[4.1091377E1,2.0317078E0,2.2098732E0,0E0,0E0,0E0,2.3340373E0,0E0,5.5185404E0,4.8074937E-1,0E0,0E0,0E0],"parents":[2147483647,0,0,1,1,2,2,6,6,8,8,9,9],"right_children":[2,4,6,-1,-1,-1,8,-1,10,12,-1,-1,-1],"split_conditions":[2.6067752E-1,2.3136456E-1,4.2104512E-1,1.5575245E-2,-1.0136676E-1,1.0261827E-1,-9.1040775E-2,9.079263E-2,3.281593E-1,1.4040919E-1,8.364437E-2,-1.0866421E-2,-9.737074E-2],"split_indices":[27,18,24,0,0,0,20,0,20,2,0,0,0],"split_type":[0,0,0,0,0,0,0,0,0,0,0,0,0],"sum_hessian":[5.1814827E1,2.2648037E1,2.9166788E1,1.3272145E0,2.1320824E1,1.8564434E1,1.0602353E1,4.0787787E0,6.5235744E0,3.4118943E0,3.1116798E0,1.1450036E0,2.266891E0],"tree_param":{"num_deleted":"0","num_feature":"30","num_nodes":"13","size_leaf_vector":"1"}},{"base_weights":[-5.5118813E-3,-9.5558125E-1,7.761852E-1,3.5334427E-3,-1.0108489E-1,8.484572E-1,-2.4249686E-2,9.050234E-1,-2.8992793E-2,2.1051735E-1,9.808878E-2,6.7269176E-2,-4.72885E-2],"categories":[],"categories_nodes":[],"categories_segments":[],"categories_sizes":[],"default_left":[0,0,0,0,0,0,0,0,0,0,0,0,0],"id":23,"left_children":[1,3,5,-1,-1,7,-1,9,-1,11,-1,-1,-1],"loss_changes":[3.8775043E1,1.3262444E0,2.3148212E0,0E0,0E0,1.999218E0,0E0,1.1601124E0,0E0,1.5270405E0,0E0,0E0,0E0],"parents":[2147483647,0,0,1,1,2,2,5,5,7,7,9,9],"right_children":[2,4,6,-1,-1,8,-1,10,-1,12,-1,-1,-1],"split_conditions":[2.6067752E-1,1.4487346E-1,1.2018319E0,3.5334427E-3,-1.0108489E-1,6.3684785E-1,-2.4249686E-2,-1.2315814E0,-2.8992793E-2,-5.336142E-1,9.808878E-2,6.7269176E-2,-4.72885E-2],"split_indices":[27,18,22,0,0,18,0,6,0,18,0,0,0],"split_type":[0,0,0,0,0,0,0,0,0,0,0,0,0],"sum_hessian":[5.0211864E1,2.256458E1,2.7647284E1,1.2110933E0,2.1353489E1,2.5971779E1,1.6755055E0,2.4937624E1,1.0341532E0,2.8275468E0,2.2110079E1,1.6961435E0,1.1314032E0],"tree_param":{"num_deleted":"0","num_feature":"30","num_nodes":"13","size_leaf_vector":"1"}},{"base_weights":[1.0701506E-4,-9.3238807E-1,6.981248E-1,3.3413495E-3,-9.95467E-2,9.998074E-2,2.3259768E-1,8.649025E-2,-2.572812E-1,2.2444592E-1,-6.949011E-1,-3.9149437E-2,7.34326E-2,-7.3490026E-3,-9.42794E-2],"categories":[],"categories_nodes":[],"categories_segments":[],"categories_sizes":[],"default_left":[0,0,0,0,0,0,0,0,0,0,0,0,0,0,0],"id":24,"left_children":[1,3,5,-1,-1,-1,7,-1,9,11,13,-1,-1,-1,-1],"loss_changes":[3.0817844E1,1.2680855E0,3.570262E0,0E0,0E0,0E0,3.9242663E0,0E0,1.7380018E0,1.6467361E0,5.7405615E-1,0E0,0E0,0E0,0E0],"parents":[2147483647,0,0,1,1,2,2,6,6,8,8,9,9,10,10],"right_children":[2,4,6,-1,-1,-1,8,-1,10,12,14,-1,-1,-1,-1],"split_conditions":[2.6067752E-1,1.4487346E-1,2.7217138E-1,3.3413495E-3,-9.95467E-2,9.998074E-2,-5.073163E-1,8.649025E-2,1.6931842E-1,-2.2500764E-1,2.274049E-1,-3.9149437E-2,7.34326E-2,-7.3490026E-3,-9.42794E-2],"split_indices":[27,18,24,0,0,0,18,0,6,22,22,0,0,0,0],"split_type":[0,0,0,0,0,0,0,0,0,0,0,0,0,0,0],"sum_hessian":[4.5346603E1,1.9269009E1,2.6077595E1,1.2101833E0,1.8058826E1,1.5126956E1,1.0950638E1,4.4462085E0,6.5044293E0,3.3280594E0,3.17637E0,1.6124215E0,1.715638E0,1.2754831E0,1.9008867E0],"tree_param":{"num_deleted":"0","num_feature":"30","num_nodes":"15","size_leaf_vector":"1"}},{"base_weights":[3.813689E-2,-9.451786E-1,7.6628995E-1,-1.0008132E-1,2.547114E-3,4.3996245E-1,9.93971E-2,8.8770574E-1,-2.1681504E-1,9.4660155E-2,2.749735E-2,3.3295903E-1,-7.398537E-1,-2.1760529E-2,6.45084E-2,-9.17729E-2,-2.1070195E-2],"categories":[],"categories_nodes":[],"categories_segments":[],"categories_sizes":[],"default_left":[0,0,0,0,0,0,0,0,0,0,0,0,0,0,0,0,0],"id":25,"left_children":[1,3,5,-1,-1,7,-1,9,11,-1,-1,13,15,-1,-1,-1,-1],"loss_changes":[3.2334682E1,1.0639915E0,1.4883223E0,0E0,0E0,3.8522732E0,0E0,1.3854504E-2,1.9281688E0,0E0,0E0,7.489003E-1,1.17955804E-1,0E0,0E0,0E0,0E0],"parents":[2147483647,0,0,1,1,2,2,5,5,7,7,8,8,11,11,12,12],"right_children":[2,4,6,-1,-1,8,-1,10,12,-1,-1,14,16,-1,-1,-1,-1],"split_conditions":[2.6067752E-1,6.267376E0,3.281593E-1,-1.0008132E-1,2.547114E-3,-4.8775468E-2,9.93971E-2,7.700518E-1,1.6931842E-1,9.4660155E-2,2.749735E-2,-1.0478576E0,6.336073E-2,-2.1760529E-2,6.45084E-2,-9.17729E-2,-2.1070195E-2],"split_indices":[27,16,20,0,0,20,0,5,6,0,0,6,7,0,0,0,0],"split_type":[0,0,0,0,0,0,0,0,0,0,0,0,0,0,0,0,0],"sum_hessian":[4.314835E1,1.8230879E1,2.4917469E1,1.7213198E1,1.0176817E0,1.1445452E1,1.3472016E1,6.5966954E0,4.848757E0,5.5211196E0,1.0755758E0,2.5411396E0,2.3076174E0,1.02896E0,1.5121795E0,1.1774691E0,1.1301482E0],"tree_param":{"num_deleted":"0","num_feature":"30","num_nodes":"17","size_leaf_vector":"1"}},{"base_weights":[2.9362964E-2,-8.9311457E-1,7.484819E-1,2.0231625E-2,-9.7830884E-2,9.781288E-2,3.8834253E-1,8.2235776E-2,3.6103442E-2,-5.990113E-2,3.3404097E-1,5.7100505E-1,-3.153382E-2,3.6453977E-3,7.4327804E-2],"categories":[],"categories_nodes":[],"categories_segments":[],"categories_sizes":[],"default_left":[0,0,0,0,0,0,0,0,0,0,0,0,0,0,0],"id":26,"left_children":[1,3,5,-1,-1,-1,7,-1,9,-1,11,13,-1,-1,-1],"loss_changes":[2.651789E1,1.8335094E0,1.4761314E0,0E0,0E0,0E0,1.5596765E0,0E0,1.4839351E0,0E0,9.895073E-1,3.6057115E-1,0E0,0E0,0E0],"parents":[2147483647,0,0,1,1,2,2,6,6,8,8,10,10,11,11],"right_children":[2,4,6,-1,-1,-1,8,-1,10,-1,12,14,-1,-1,-1],"split_conditions":[2.6067752E-1,1.6065224E-1,2.7217138E-1,2.0231625E-2,-9.7830884E-2,9.781288E-2,-5.073163E-1,8.2235776E-2,-3.9861798E-1,-5.990113E-2,5.077855E-1,-2.448939E-1,-3.153382E-2,3.6453977E-3,7.4327804E-2],"split_indices":[27,18,24,0,0,0,18,0,18,0,18,22,0,0,0],"split_type":[0,0,0,0,0,0,0,0,0,0,0,0,0,0,0],"sum_hessian":[3.796674E1,1.6525747E1,2.1440994E1,1.0932996E0,1.5432447E1,1.2044628E1,9.396365E0,3.6116157E0,5.78475E0,1.5244808E0,4.260269E0,3.2097092E0,1.0505598E0,1.0775994E0,2.1321099E0],"tree_param":{"num_deleted":"0","num_feature":"30","num_nodes":"15","size_leaf_vector":"1"}},{"base_weights":[-1.0045626E-2,-9.3606436E-1,7.135476E-1,-1.0219436E-2,-9.847673E-2,9.710904E-2,3.20919E-1,7.975521E-2,-2.0737665E-2,4.6542466E-1,-4.0416685E-1,6.5480486E-2,1.9060805E-3,-9.8271154E-2,1.6079631E-1,5.482116E-2,-3.105121E-2],"categories":[],"categories_nodes":[],"categories_segments":[],"categories_sizes":[],"default_left":[0,0,0,0,0,0,0,0,0,0,0,0,0,0,0,0,0],"id":27,"left_children":[1,3,5,-1,-1,-1,7,-1,9,11,13,-1,-1,-1,15,-1,-1],"loss_changes":[2.568811E1,5.821142E-1,1.8652964E0,0E0,0E0,0E0,1.6484697E0,0E0,1.4578996E0,2.807055E-1,1.5777259E0,0E0,0E0,0E0,7.2839946E-1,0E0,0E0],"parents":[2147483647,0,0,1,1,2,2,6,6,8,8,9,9,10,10,14,14],"right_children":[2,4,6,-1,-1,-1,8,-1,10,12,14,-1,-1,-1,16,-1,-1],"split_conditions":[2.6067752E-1,-6.2107116E-1,2.7217138E-1,-1.0219436E-2,-9.847673E-2,9.710904E-2,-5.073163E-1,7.975521E-2,-9.1040775E-2,1.4487346E-1,-3.9861798E-1,6.5480486E-2,1.9060805E-3,-9.8271154E-2,1.6931842E-1,5.482116E-2,-3.105121E-2],"split_indices":[27,24,24,0,0,0,18,0,20,18,18,0,0,0,6,0,0],"split_type":[0,0,0,0,0,0,0,0,0,0,0,0,0,0,0,0,0],"sum_hessian":[3.6340164E1,1.5811613E1,2.0528551E1,1.0435053E0,1.4768107E1,1.1507172E1,9.021379E0,3.2095225E0,5.8118577E0,2.4683318E0,3.3435256E0,1.4051772E0,1.0631546E0,1.2865853E0,2.0569403E0,1.0393915E0,1.0175488E0],"tree_param":{"num_deleted":"0","num_feature":"30","num_nodes":"17","size_leaf_vector":"1"}},{"base_weights":[-1.3437252E-2,-8.7595904E-1,6.366562E-1,-9.8765306E-2,6.5749325E-3,9.521393E-2,2.408791E-1,-3.6948845E-2,7.600751E-2,4.8604888E-1,-3.9301622E-1,-1.9044196E-3,7.013323E-2,1.7383538E-2,-6.949915E-2],"categories":[],"categories_nodes":[],"categories_segments":[],"categories_sizes":[],"default_left":[0,0,0,0,0,0,0,0,0,0,0,0,0,0,0],"id":28,"left_children":[1,3,5,-1,-1,-1,7,9,-1,11,13,-1,-1,-1,-1],"loss_changes":[2.0132303E1,1.6873322E0,2.3284683E0,0E0,0E0,0E0,1.5318661E0,1.6332625E0,0E0,4.0308422E-1,1.0041821E0,0E0,0E0,0E0,0E0],"parents":[2147483647,0,0,1,1,2,2,6,6,7,7,9,9,10,10],"right_children":[2,4,6,-1,-1,-1,8,10,-1,12,14,-1,-1,-1,-1],"split_conditions":[2.6067752E-1,9.833164E-2,2.7217138E-1,-9.8765306E-2,6.5749325E-3,9.521393E-2,1.3453976E0,-1.4028656E-1,7.600751E-2,-1.3524849E-2,1.4040919E-1,-1.9044196E-3,7.013323E-2,1.7383538E-2,-6.949915E-2],"split_indices":[27,19,24,0,0,0,27,20,0,22,2,0,0,0,0],"split_type":[0,0,0,0,0,0,0,0,0,0,0,0,0,0,0],"sum_hessian":[3.3909805E1,1.4424473E1,1.9485334E1,1.2851407E1,1.5730662E0,1.0060294E1,9.425039E0,6.7447033E0,2.6803365E0,2.5840945E0,4.160609E0,1.0446649E0,1.5394295E0,1.5935749E0,2.5670338E0],"tree_param":{"num_deleted":"0","num_feature":"30","num_nodes":"15","size_leaf_vector":"1"}},{"base_weights":[2.3393022E-2,7.5193316E-1,-6.713102E-1,8.7692815E-1,-4.3388616E-2,-2.5278112E-1,-9.3930125E-2,-5.233468E-3,9.831262E-2,-4.4291982E-1,3.0746048E-2,8.667067E-3,-6.43406E-1,-6.169749E-3,-8.480263E-2],"categories":[],"categories_nodes":[],"categories_segments":[],"categories_sizes":[],"default_left":[0,0,0,0,0,0,0,0,0,0,0,0,0,0,0],"id":29,"left_children":[1,3,5,7,-1,9,-1,-1,-1,11,-1,-1,13,-1,-1],"loss_changes":[1.723623E1,2.8421307E0,1.719842E0,1.5667925E0,0E0,1.0075641E0,0E0,0E0,0E0,7.4772716E-1,0E0,0E0,5.245187E-1,0E0,0E0],"parents":[2147483647,0,0,1,1,2,2,3,3,5,5,9,9,12,12],"right_children":[2,4,6,8,-1,10,-1,-1,-1,12,-1,-1,14,-1,-1],"split_conditions":[1.02796696E-1,8.79923E-1,6.5464956E-1,-6.099598E-1,-4.3388616E-2,8.0735284E-1,-9.3930125E-2,-5.233468E-3,9.831262E-2,-4.3961358E-1,3.0746048E-2,8.667067E-3,-5.052182E-1,-6.169749E-3,-8.480263E-2],"split_indices":[18,22,18,19,0,2,0,0,0,22,0,0,20,0,0],"split_type":[0,0,0,0,0,0,0,0,0,0,0,0,0,0,0],"sum_hessian":[3.2058327E1,1.5607867E1,1.645046E1,1.4355199E1,1.2526677E0,7.180195E0,9.270265E0,1.5243038E0,1.2830895E1,5.5171566E0,1.6630381E0,1.6709602E0,3.8461964E0,1.3395512E0,2.5066452E0],"tree_param":{"num_deleted":"0","num_feature":"30","num_nodes":"15","size_leaf_vector":"1"}},{"base_weights":[-6.0858945E-3,7.4242836E-1,-6.7448866E-1,9.682292E-2,8.124325E-2,-8.167855E-1,6.165532E-2,6.564414E-2,-4.2554315E-2,-8.8141605E-2,-4.7823954E-3],"categories":[],"categories_nodes":[],"categories_segments":[],"categories_sizes":[],"default_left":[0,0,0,0,0,0,0,0,0,0,0],"id":30,"left_children":[1,3,5,-1,7,9,-1,-1,-1,-1,-1],"loss_changes":[1.5970063E1,2.1699896E0,3.6005569E0,0E0,1.715246E0,7.338562E-1,0E0,0E0,0E0,0E0,0E0],"parents":[2147483647,0,0,1,1,2,2,4,4,5,5],"right_children":[2,4,6,-1,8,10,-1,-1,-1,-1,-1],"split_conditions":[1.02796696E-1,5.699189E-1,3.2774067E-1,9.682292E-2,3.6272374E-1,2.2284131E-1,6.165532E-2,6.564414E-2,-4.2554315E-2,-8.8141605E-2,-4.7823954E-3],"split_indices":[18,24,0,0,2,20,0,0,0,0,0],"split_type":[0,0,0,0,0,0,0,0,0,0,0],"sum_hessian":[2.9919497E1,1.4061691E1,1.5857806E1,1.0135828E1,3.9258633E0,1.4614374E1,1.2434318E0,1.700504E0,2.2253594E0,1.3346381E1,1.2679933E0],"tree_param":{"num_deleted":"0","num_feature":"30","num_nodes":"11","size_leaf_vector":"1"}},{"base_weights":[2.269466E-2,-8.288576E-1,6.353132E-1,-8.055445E-4,-9.339484E-2,9.356849E-2,2.3894545E-1,7.677759E-2,-1.421585E-1,6.23416E-2,-4.3373987E-1,-8.395636E-2,-6.33392E-2,5.2919574E-2,-4.961473E-2],"categories":[],"categories_nodes":[],"categories_segments":[],"categories_sizes":[],"default_left":[0,0,0,0,0,0,0,0,0,0,0,0,0,0,0],"id":31,"left_children":[1,3,5,-1,-1,-1,7,-1,9,-1,11,-1,13,-1,-1],"loss_changes":[1.5631775E1,1.0749283E0,1.848762E0,0E0,0E0,0E0,1.8921514E0,0E0,1.6065006E0,0E0,6.870192E-1,0E0,1.2001723E0,0E0,0E0],"parents":[2147483647,0,0,1,1,2,2,6,6,8,8,10,10,12,12],"right_children":[2,4,6,-1,-1,-1,8,-1,10,-1,12,-1,14,-1,-1],"split_conditions":[2.6067752E-1,2.3136456E-1,2.7217138E-1,-8.055445E-4,-9.339484E-2,9.356849E-2,-5.073163E-1,7.677759E-2,3.5414023E-3,6.23416E-2,-3.9861798E-1,-8.395636E-2,1.4487346E-1,5.2919574E-2,-4.961473E-2],"split_indices":[27,18,24,0,0,0,18,0,0,0,18,0,18,0,0],"split_type":[0,0,0,0,0,0,0,0,0,0,0,0,0,0,0],"sum_hessian":[2.7955078E1,1.1548899E1,1.640618E1,1.4330255E0,1.0115873E1,8.559245E0,7.8469343E0,2.8615532E0,4.985381E0,1.0611582E0,3.924223E0,1.2681535E0,2.6560693E0,1.0271497E0,1.6289197E0],"tree_param":{"num_deleted":"0","num_feature":"30","num_nodes":"15","size_leaf_vector":"1"}},{"base_weights":[4.914154E-2,7.6036644E-1,-6.419224E-1,9.517207E-2,2.1468501E-1,6.19437E-2,-7.8572726E-1,6.349557E-2,-1.7896624E-1,-8.6489E-1,-2.725479E-4,-6.3822167E-3,-2.213531E-2,-2.794665E-2,-9.07915E-2],"categories":[],"categories_nodes":[],"categories_segments":[],"categories_sizes":[],"default_left":[0,0,0,0,0,0,0,0,0,0,0,0,0,0,0],"id":32,"left_children":[1,3,5,-1,7,-1,9,-1,11,13,-1,-1,-1,-1,-1],"loss_changes":[1.3875298E1,1.2450733E0,3.0908637E0,0E0,9.234758E-1,0E0,8.2378864E-1,0E0,2.016306E-3,5.1074028E-2,0E0,0E0,0E0,0E0,0E0],"parents":[2147483647,0,0,1,1,2,2,4,4,6,6,8,8,9,9],"right_children":[2,4,6,-1,8,-1,10,-1,12,14,-1,-1,-1,-1,-1],"split_conditions":[1.02796696E-1,5.699189E-1,3.5414023E-3,9.517207E-2,-5.073163E-1,6.19437E-2,8.876013E-2,6.349557E-2,-1.9072783E-1,2.4165E-1,-2.725479E-4,-6.3822167E-3,-2.213531E-2,-2.794665E-2,-9.07915E-2],"split_indices":[18,24,0,0,18,0,19,0,19,18,0,0,0,0,0],"split_type":[0,0,0,0,0,0,0,0,0,0,0,0,0,0,0],"sum_hessian":[2.6237331E1,1.2880635E1,1.3356696E1,8.985568E0,3.895067E0,1.0284386E0,1.2328258E1,1.5873679E0,2.307699E0,1.1101315E1,1.2269423E0,1.2951432E0,1.0125558E0,1.2731763E0,9.828138E0],"tree_param":{"num_deleted":"0","num_feature":"30","num_nodes":"15","size_leaf_vector":"1"}},{"base_weights":[3.872591E-2,-8.204896E-1,6.2815964E-1,-1.5000268E-2,-9.1542944E-2,9.149539E-2,2.8672764E-1,3.5518195E-2,7.393833E-2,5.702427E-1,-5.3294486E-1,3.7759193E-3,7.4590676E-2,-3.6485132E-4,-7.5434536E-2],"categories":[],"categories_nodes":[],"categories_segments":[],"categories_sizes":[],"default_left":[0,0,0,0,0,0,0,0,0,0,0,0,0,0,0],"id":33,"left_children":[1,3,5,-1,-1,-1,7,9,-1,11,13,-1,-1,-1,-1],"loss_changes":[1.3790606E1,5.6919956E-1,1.3154802E0,0E0,0E0,0E0,9.758017E-1,2.345888E0,0E0,3.4081125E-1,4.393947E-1,0E0,0E0,0E0,0E0],"parents":[2147483647,0,0,1,1,2,2,6,6,7,7,9,9,10,10],"right_children":[2,4,6,-1,-1,-1,8,10,-1,12,14,-1,-1,-1,-1],"split_conditions":[2.6067752E-1,-4.2233515E-1,2.7217138E-1,-1.5000268E-2,-9.1542944E-2,9.149539E-2,3.281593E-1,-9.1040775E-2,7.393833E-2,2.4011266E-1,1.3773598E-1,3.7759193E-3,7.4590676E-2,-3.6485132E-4,-7.5434536E-2],"split_indices":[27,26,24,0,0,0,20,20,0,26,8,0,0,0,0],"split_type":[0,0,0,0,0,0,0,0,0,0,0,0,0,0,0],"sum_hessian":[2.5212244E1,1.0098989E1,1.5113256E1,1.572637E0,8.526351E0,7.300917E0,7.81234E0,5.7176776E0,2.0946622E0,2.9446568E0,2.7730207E0,1.0318378E0,1.9128189E0,1.1176246E0,1.6553961E0],"tree_param":{"num_deleted":"0","num_feature":"30","num_nodes":"15","size_leaf_vector":"1"}},{"base_weights":[4.5103937E-2,-8.0070394E-1,6.0939384E-1,-9.381523E-2,1.0622049E-2,2.7861205E-1,9.0627134E-2,6.99801E-1,-3.4248456E-1,7.934743E-3,8.412679E-2,1.6782017E-2,-6.829088E-2],"categories":[],"categories_nodes":[],"categories_segments":[],"categories_sizes":[],"default_left":[0,0,0,0,0,0,0,0,0,0,0,0,0],"id":34,"left_children":[1,3,5,-1,-1,7,-1,9,11,-1,-1,-1,-1],"loss_changes":[1.2170627E1,1.3745685E0,1.2450814E0,0E0,0E0,2.5043411E0,0E0,4.1488767E-1,8.3897084E-1,0E0,0E0,0E0,0E0],"parents":[2147483647,0,0,1,1,2,2,5,5,7,7,8,8],"right_children":[2,4,6,-1,-1,8,-1,10,12,-1,-1,-1,-1],"split_conditions":[2.6067752E-1,9.833164E-2,3.281593E-1,-9.381523E-2,1.0622049E-2,-4.8775468E-2,9.0627134E-2,-4.2233515E-1,1.4040919E-1,7.934743E-3,8.412679E-2,1.6782017E-2,-6.829088E-2],"split_indices":[27,19,20,0,0,20,0,26,2,0,0,0,0],"split_type":[0,0,0,0,0,0,0,0,0,0,0,0,0],"sum_hessian":[2.3477585E1,9.227551E0,1.4250033E1,7.9832263E0,1.2443253E0,7.6570263E0,6.593007E0,4.4873004E0,3.1697257E0,1.1229763E0,3.3643243E0,1.4712739E0,1.6984518E0],"tree_param":{"num_deleted":"0","num_feature":"30","num_nodes":"13","size_leaf_vector":"1"}},{"base_weights":[-7.995339E-3,-7.9060864E-1,4.961258E-1,-9.294567E-2,7.4233525E-3,8.914771E-2,1.267821E-1,6.9274314E-2,-1.3622232E-1,4.5684844E-1,-5.0597864E-1,6.1473694E-2,6.7469515E-3,-9.2866234E-2,-2.0470224E-2,1.0585262E-2,-1.5090482E-2],"categories":[],"categories_nodes":[],"categories_segments":[],"categories_sizes":[],"default_left":[0,0,0,0,0,0,0,0,0,0,0,0,0,0,0,0,0],"id":35,"left_children":[1,3,5,-1,-1,-1,7,-1,9,11,13,-1,-1,-1,15,-1,-1],"loss_changes":[1.0005137E1,1.2615881E0,2.1406307E0,0E0,0E0,0E0,1.4556268E0,0E0,1.7836013E0,1.5797335E-1,9.732423E-1,0E0,0E0,0E0,6.990043E-2,0E0,0E0],"parents":[2147483647,0,0,1,1,2,2,6,6,8,8,9,9,10,10,14,14],"right_children":[2,4,6,-1,-1,-1,8,-1,10,12,14,-1,-1,-1,16,-1,-1],"split_conditions":[2.6067752E-1,9.833164E-2,2.7217138E-1,-9.294567E-2,7.4233525E-3,8.914771E-2,-5.073163E-1,6.9274314E-2,-9.1040775E-2,1.02796696E-1,-3.9861798E-1,6.1473694E-2,6.7469515E-3,-9.2866234E-2,7.187926E-1,1.0585262E-2,-1.5090482E-2],"split_indices":[27,19,24,0,0,0,18,0,20,18,18,0,0,0,24,0,0],"split_type":[0,0,0,0,0,0,0,0,0,0,0,0,0,0,0,0,0],"sum_hessian":[2.3365322E1,8.931498E0,1.4433825E1,7.6315584E0,1.2999386E0,6.2886624E0,8.145163E0,2.0657978E0,6.079365E0,2.2442155E0,3.835149E0,1.1849643E0,1.0592513E0,1.5622723E0,2.2728767E0,1.2503774E0,1.0224993E0],"tree_param":{"num_deleted":"0","num_feature":"30","num_nodes":"17","size_leaf_vector":"1"}},{"base_weights":[7.38857E-2,-7.3739094E-1,5.859209E-1,-8.920573E-2,9.514311E-3,6.9549894E-1,-2.1646291E-2,8.090811E-1,1.730699E-1,3.5386186E-3,9.031844E-2,6.1674237E-2,-2.9607713E-2],"categories":[],"categories_nodes":[],"categories_segments":[],"categories_sizes":[],"default_left":[0,0,0,0,0,0,0,0,0,0,0,0,0],"id":36,"left_children":[1,3,5,-1,-1,7,-1,9,11,-1,-1,-1,-1],"loss_changes":[9.186378E0,1.1918855E0,1.3355122E0,0E0,0E0,5.77682E-1,0E0,6.7157936E-1,8.969941E-1,0E0,0E0,0E0,0E0],"parents":[2147483647,0,0,1,1,2,2,5,5,7,7,8,8],"right_children":[2,4,6,-1,-1,8,-1,10,12,-1,-1,-1,-1],"split_conditions":[2.6067752E-1,9.833164E-2,1.2018319E0,-8.920573E-2,9.514311E-3,2.4165E-1,-2.1646291E-2,-6.099598E-1,-3.5535774E-1,3.5386186E-3,9.031844E-2,6.1674237E-2,-2.9607713E-2],"split_indices":[27,19,22,0,0,18,0,19,19,0,0,0,0],"split_type":[0,0,0,0,0,0,0,0,0,0,0,0,0],"sum_hessian":[2.0074333E1,7.597158E0,1.2477175E1,6.346604E0,1.2505543E0,1.1095165E1,1.3820091E0,8.663032E0,2.4321344E0,1.0886282E0,7.574403E0,1.088313E0,1.3438215E0],"tree_param":{"num_deleted":"0","num_feature":"30","num_nodes":"13","size_leaf_vector":"1"}},{"base_weights":[-2.2888687E-3,-7.94809E-1,4.7993395E-1,-1.440381E-2,-8.717012E-2,1.4807571E-1,8.653162E-2,6.5524536E-1,-4.459723E-1,7.967587E-2,6.403683E-3,2.3187455E-2,-7.427567E-2],"categories":[],"categories_nodes":[],"categories_segments":[],"categories_sizes":[],"default_left":[0,0,0,0,0,0,0,0,0,0,0,0,0],"id":37,"left_children":[1,3,5,-1,-1,7,-1,9,11,-1,-1,-1,-1],"loss_changes":[8.187693E0,2.799325E-1,1.5757194E0,0E0,0E0,2.812403E0,0E0,3.6038303E-1,1.0669432E0,0E0,0E0,0E0,0E0],"parents":[2147483647,0,0,1,1,2,2,5,5,7,7,8,8],"right_children":[2,4,6,-1,-1,8,-1,10,12,-1,-1,-1,-1],"split_conditions":[2.6067752E-1,4.1686964E-1,3.281593E-1,-1.440381E-2,-8.717012E-2,-4.8775468E-2,8.653162E-2,3.727892E-1,5.699189E-1,7.967587E-2,6.403683E-3,2.3187455E-2,-7.427567E-2],"split_indices":[27,18,20,0,0,20,0,18,24,0,0,0,0],"split_type":[0,0,0,0,0,0,0,0,0,0,0,0,0],"sum_hessian":[1.9426016E1,7.103458E0,1.2322558E1,1.054239E0,6.0492187E0,7.3648286E0,4.9577303E0,3.9173586E0,3.4474697E0,2.8802547E0,1.0371039E0,1.1163865E0,2.3310833E0],"tree_param":{"num_deleted":"0","num_feature":"30","num_nodes":"13","size_leaf_vector":"1"}},{"base_weights":[3.9015353E-2,6.795046E-1,-5.7438797E-1,8.983531E-2,1.5407817E-1,-9.03823E-2,1.7736544E-1,5.886537E-2,-2.0977382E-2,4.3830615E-2,-2.3812603E-2],"categories":[],"categories_nodes":[],"categories_segments":[],"categories_sizes":[],"default_left":[0,0,0,0,0,0,0,0,0,0,0],"id":38,"left_children":[1,3,5,-1,7,-1,9,-1,-1,-1,-1],"loss_changes":[7.8759413E0,9.860549E-1,2.7047963E0,0E0,7.690059E-1,0E0,5.344175E-1,0E0,0E0,0E0,0E0],"parents":[2147483647,0,0,1,1,2,2,4,4,6,6],"right_children":[2,4,6,-1,8,-1,10,-1,-1,-1,-1],"split_conditions":[1.02796696E-1,5.699189E-1,2.6067752E-1,8.983531E-2,-9.1040775E-2,-9.03823E-2,5.424988E-1,5.886537E-2,-2.0977382E-2,4.3830615E-2,-2.3812603E-2],"split_indices":[18,24,27,0,20,0,18,0,0,0,0],"split_type":[0,0,0,0,0,0,0,0,0,0,0],"sum_hessian":[1.805334E1,8.778964E0,9.274376E0,5.696514E0,3.0824502E0,6.30785E0,2.9665263E0,1.12315E0,1.9593002E0,1.78843E0,1.1780963E0],"tree_param":{"num_deleted":"0","num_feature":"30","num_nodes":"11","size_leaf_vector":"1"}},{"base_weights":[-1.5986668E-2,5.519936E-1,-5.420527E-1,7.307133E-1,-3.889445E-2,-1.9407775E-1,-8.1910595E-2,-1.2540265E-2,8.813444E-2,-3.8489625E-1,3.2736145E-2,-1.7132678E-3,-5.324149E-2],"categories":[],"categories_nodes":[],"categories_segments":[],"categories_sizes":[],"default_left":[0,0,0,0,0,0,0,0,0,0,0,0,0],"id":39,"left_children":[1,3,5,7,-1,9,-1,-1,-1,11,-1,-1,-1],"loss_changes":[5.467593E0,1.7662079E0,7.5541687E-1,1.1103964E0,0E0,6.747143E-1,0E0,0E0,0E0,2.3484337E-1,0E0,0E0,0E0],"parents":[2147483647,0,0,1,1,2,2,3,3,5,5,9,9],"right_children":[2,4,6,8,-1,10,-1,-1,-1,12,-1,-1,-1],"split_conditions":[1.02796696E-1,8.79923E-1,6.5464956E-1,-1.5047725E0,-3.889445E-2,8.0735284E-1,-8.1910595E-2,-1.2540265E-2,8.813444E-2,-3.265268E-1,3.2736145E-2,-1.7132678E-3,-5.324149E-2],"split_indices":[18,22,18,6,0,2,0,0,0,21,0,0,0],"split_type":[0,0,0,0,0,0,0,0,0,0,0,0,0],"sum_hessian":[1.6297417E1,7.812823E0,8.484594E0,6.7534986E0,1.0593244E0,4.514701E0,3.9698935E0,1.0355284E0,5.71797E0,3.4968872E0,1.0178136E0,1.3206497E0,2.1762376E0],"tree_param":{"num_deleted":"0","num_feature":"30","num_nodes":"13","size_leaf_vector":"1"}},{"base_weights":[8.515728E-2,-6.885932E-1,5.6905246E-1,-8.547517E-2,1.0409438E-2,8.416696E-2,2.4940524E-1,4.618821E-1,-1.7412666E-2,6.490969E-2,1.1695653E-2],"categories":[],"categories_nodes":[],"categories_segments":[],"categories_sizes":[],"default_left":[0,0,0,0,0,0,0,0,0,0,0],"id":40,"left_children":[1,3,5,-1,-1,-1,7,9,-1,-1,-1],"loss_changes":[6.7041E0,1.0029483E0,7.416508E-1,0E0,0E0,0E0,6.606375E-1,2.1901673E-1,0E0,0E0,0E0],"parents":[2147483647,0,0,1,1,2,2,6,6,7,7],"right_children":[2,4,6,-1,-1,-1,8,10,-1,-1,-1],"split_conditions":[2.6067752E-1,9.833164E-2,2.7217138E-1,-8.547517E-2,1.0409438E-2,8.416696E-2,1.4487346E-1,3.6272374E-1,-1.7412666E-2,6.490969E-2,1.1695653E-2],"split_indices":[27,19,24,0,0,0,18,2,0,0,0],"split_type":[0,0,0,0,0,0,0,0,0,0,0],"sum_hessian":[1.5859019E1,5.9391966E0,9.919823E0,4.845265E0,1.0939318E0,4.4723635E0,5.4474587E0,3.5672815E0,1.8801774E0,1.7406601E0,1.8266213E0],"tree_param":{"num_deleted":"0","num_feature":"30","num_nodes":"11","size_leaf_vector":"1"}},{"base_weights":[2.942815E-2,4.191197E-1,-7.198479E-1,6.881302E-1,-9.997694E-2,-8.2581304E-2,-1.0506324E-2,-1.1379323E-2,8.279539E-2,5.1808953E-2,-3.9958772E-1,9.739804E-3,-6.305961E-2],"categories":[],"categories_nodes":[],"categories_segments":[],"categories_sizes":[],"default_left":[0,0,0,0,0,0,0,0,0,0,0,0,0],"id":41,"left_children":[1,3,5,7,9,-1,-1,-1,-1,-1,11,-1,-1],"loss_changes":[5.2722864E0,1.7208946E0,3.166473E-1,9.822049E-1,1.1165264E0,0E0,0E0,0E0,0E0,0E0,5.060128E-1,0E0,0E0],"parents":[2147483647,0,0,1,1,2,2,3,3,4,4,10,10],"right_children":[2,4,6,8,10,-1,-1,-1,-1,-1,12,-1,-1],"split_conditions":[5.077855E-1,3.1373903E-1,9.387099E-1,-6.781357E-1,-5.073163E-1,-8.2581304E-2,-1.0506324E-2,-1.1379323E-2,8.279539E-2,5.1808953E-2,-4.8775468E-2,9.739804E-3,-6.305961E-2],"split_indices":[18,8,6,7,18,0,0,0,0,0,20,0,0],"split_type":[0,0,0,0,0,0,0,0,0,0,0,0,0],"sum_hessian":[1.602333E1,1.083091E1,5.192422E0,6.9194336E0,3.911476E0,4.1362386E0,1.0561832E0,1.0549872E0,5.8644466E0,1.0389726E0,2.8725033E0,1.0950401E0,1.7774632E0],"tree_param":{"num_deleted":"0","num_feature":"30","num_nodes":"13","size_leaf_vector":"1"}},{"base_weights":[4.271197E-3,-2.8407183E-1,6.531548E-1,-4.390308E-1,5.9596963E-2,1.0055776E-2,7.648683E-2,-3.256118E-2,-7.667055E-2,-2.7618408E-1,4.772695E-2,-4.2631138E-2,8.2377475E-3],"categories":[],"categories_nodes":[],"categories_segments":[],"categories_sizes":[],"default_left":[0,0,0,0,0,0,0,0,0,0,0,0,0],"id":42,"left_children":[1,3,5,7,-1,-1,-1,9,-1,11,-1,-1,-1],"loss_changes":[3.0870864E0,1.8208672E0,2.3632932E-1,1.346581E0,0E0,0E0,0E0,8.324098E-1,0E0,2.7467132E-1,0E0,0E0,0E0],"parents":[2147483647,0,0,1,1,2,2,3,3,7,7,9,9],"right_children":[2,4,6,8,-1,-1,-1,10,-1,12,-1,-1,-1],"split_conditions":[3.281593E-1,3.2774067E-1,-1.8438661E-1,2.564057E-1,5.9596963E-2,1.0055776E-2,7.648683E-2,1.5572958E0,-7.667055E-2,3.4044387E-3,4.772695E-2,-4.2631138E-2,8.2377475E-3],"split_indices":[20,0,21,22,0,0,0,14,0,7,0,0,0],"split_type":[0,0,0,0,0,0,0,0,0,0,0,0,0],"sum_hessian":[1.4507896E1,1.0433706E1,4.0741897E0,9.297682E0,1.1360244E0,1.0046707E0,3.0695188E0,4.640574E0,4.6571083E0,3.4501839E0,1.1903899E0,2.29876E0,1.151424E0],"tree_param":{"num_deleted":"0","num_feature":"30","num_nodes":"13","size_leaf_vector":"1"}},{"base_weights":[-1.7518334E-2,-6.703929E-1,3.5869825E-1,-8.3725035E-2,7.721136E-3,8.021412E-2,1.6783291E-2,6.0226083E-2,-2.0432408E-1,-4.6475998E-1,5.1713597E-2,-6.5761104E-2,9.32931E-3],"categories":[],"categories_nodes":[],"categories_segments":[],"categories_sizes":[],"default_left":[0,0,0,0,0,0,0,0,0,0,0,0,0],"id":43,"left_children":[1,3,5,-1,-1,-1,7,-1,9,11,-1,-1,-1],"loss_changes":[4.1105676E0,8.26674E-1,1.6009145E0,0E0,0E0,0E0,1.0335505E0,0E0,1.3399022E0,5.807847E-1,0E0,0E0,0E0],"parents":[2147483647,0,0,1,1,2,2,6,6,8,8,9,9],"right_children":[2,4,6,-1,-1,-1,8,-1,10,12,-1,-1,-1],"split_conditions":[2.6067752E-1,7.918862E-2,2.7217138E-1,-8.3725035E-2,7.721136E-3,8.021412E-2,3.5414023E-3,6.0226083E-2,1.3453976E0,6.336073E-2,5.1713597E-2,-6.5761104E-2,9.32931E-3],"split_indices":[27,19,24,0,0,0,0,0,27,7,0,0,0],"split_type":[0,0,0,0,0,0,0,0,0,0,0,0,0],"sum_hessian":[1.4756307E1,5.1087713E0,9.647536E0,4.0785666E0,1.0302045E0,3.614162E0,6.033374E0,1.1813636E0,4.8520103E0,3.826507E0,1.0255033E0,2.7111797E0,1.1153272E0],"tree_param":{"num_deleted":"0","num_feature":"30","num_nodes":"13","size_leaf_vector":"1"}},{"base_weights":[6.0408257E-2,7.1986936E-2,-5.0933343E-1,-8.428288E-2,1.0930005E-1,3.5243753E-2,-2.4722595E-2],"categories":[],"categories_nodes":[],"categories_segments":[],"categories_sizes":[],"default_left":[0,0,0,0,0,0,0],"id":44,"left_children":[1,-1,3,-1,5,-1,-1],"loss_changes":[5.513108E0,0E0,1.7290518E0,0E0,4.0476966E-1,0E0,0E0],"parents":[2147483647,0,0,2,2,4,4],"right_children":[2,-1,4,-1,6,-1,-1],"split_conditions":[1.02796696E-1,7.1986936E-2,2.6067752E-1,-8.428288E-2,1.7635771E0,3.5243753E-2,-2.4722595E-2],"split_indices":[18,0,27,0,10,0,0],"split_type":[0,0,0,0,0,0,0],"sum_hessian":[1.2697487E1,5.763215E0,6.9342723E0,4.269987E0,2.664285E0,1.5908511E0,1.073434E0],"tree_param":{"num_deleted":"0","num_feature":"30","num_nodes":"7","size_leaf_vector":"1"}},{"base_weights":[4.7479894E-2,-6.1127895E-1,4.1760176E-1,-7.813155E-2,4.586873E-3,7.761408E-2,1.04883924E-1,-1.0658842E-1,5.6243118E-2,3.8106587E-2,-4.9490776E-2],"categories":[],"categories_nodes":[],"categories_segments":[],"categories_sizes":[],"default_left":[0,0,0,0,0,0,0,0,0,0,0],"id":45,"left_children":[1,3,5,-1,-1,-1,7,9,-1,-1,-1],"loss_changes":[3.552089E0,6.2470186E-1,9.558848E-1,0E0,0E0,0E0,6.499581E-1,1.1374983E0,0E0,0E0,0E0],"parents":[2147483647,0,0,1,1,2,2,6,6,7,7],"right_children":[2,4,6,-1,-1,-1,8,10,-1,-1,-1],"split_conditions":[2.6067752E-1,-1.652643E-2,2.7217138E-1,-7.813155E-2,4.586873E-3,7.761408E-2,3.281593E-1,-9.1040775E-2,5.6243118E-2,3.8106587E-2,-4.9490776E-2],"split_indices":[27,19,24,0,0,0,20,20,0,0,0],"split_type":[0,0,0,0,0,0,0,0,0,0,0],"sum_hessian":[1.2521463E1,4.26999E0,8.251473E0,3.242139E0,1.027851E0,3.153726E0,5.0977473E0,4.0109725E0,1.0867751E0,1.7863456E0,2.2246268E0],"tree_param":{"num_deleted":"0","num_feature":"30","num_nodes":"11","size_leaf_vector":"1"}},{"base_weights":[-8.553071E-3,3.7734884E-1,-7.2640955E-2,6.820189E-2,-1.4451429E-1,2.4127398E-1,-6.6541515E-2,5.2479655E-2,-1.5861677E-2],"categories":[],"categories_nodes":[],"categories_segments":[],"categories_sizes":[],"default_left":[0,0,0,0,0,0,0,0,0],"id":46,"left_children":[1,3,-1,-1,5,7,-1,-1,-1],"loss_changes":[3.877755E0,1.5483716E0,0E0,0E0,1.0018265E0,4.3913448E-1,0E0,0E0,0E0],"parents":[2147483647,0,0,1,1,4,4,5,5],"right_children":[2,4,-1,-1,6,8,-1,-1,-1],"split_conditions":[4.885003E-1,3.1373903E-1,-7.2640955E-2,6.820189E-2,4.362107E-1,6.422634E-2,-6.6541515E-2,5.2479655E-2,-1.5861677E-2],"split_indices":[18,8,0,0,22,18,0,0,0],"split_type":[0,0,0,0,0,0,0,0,0],"sum_hessian":[1.2008508E1,8.118527E0,3.8899803E0,4.932173E0,3.1863546E0,2.1389933E0,1.0473615E0,1.0688374E0,1.0701557E0],"tree_param":{"num_deleted":"0","num_feature":"30","num_nodes":"9","size_leaf_vector":"1"}},{"base_weights":[-4.1413486E-2,-6.0421497E-1,3.1391916E-1,-7.668025E-2,2.117536E-3,7.337431E-2,-1.5835626E-2,2.3709518E-1,-3.1182438E-2,-3.1228706E-2,6.0748708E-2],"categories":[],"categories_nodes":[],"categories_segments":[],"categories_sizes":[],"default_left":[0,0,0,0,0,0,0,0,0,0,0],"id":47,"left_children":[1,3,5,-1,-1,-1,7,9,-1,-1,-1],"loss_changes":[2.609493E0,5.271704E-1,1.1295575E0,0E0,0E0,0E0,4.8581472E-1,9.0897435E-1,0E0,0E0,0E0],"parents":[2147483647,0,0,1,1,2,2,6,6,7,7],"right_children":[2,4,6,-1,-1,-1,8,10,-1,-1,-1],"split_conditions":[2.6067752E-1,7.918862E-2,2.7217138E-1,-7.668025E-2,2.117536E-3,7.337431E-2,3.1373903E-1,-1.2315814E0,-3.1182438E-2,-3.1228706E-2,6.0748708E-2],"split_indices":[27,19,24,0,0,0,8,6,0,0,0],"split_type":[0,0,0,0,0,0,0,0,0,0,0],"sum_hessian":[1.1100197E1,4.0248804E0,7.0753164E0,3.0149438E0,1.0099366E0,2.5736206E0,4.5016956E0,2.5346973E0,1.9669985E0,1.0838925E0,1.450805E0],"tree_param":{"num_deleted":"0","num_feature":"30","num_nodes":"11","size_leaf_vector":"1"}},{"base_weights":[4.9894452E-2,-5.658532E-1,3.6742464E-1,-7.370942E-2,5.461699E-4,8.0073945E-2,7.531256E-2,5.543425E-1,-4.4931006E-1,1.4597897E-2,6.5335296E-2,-6.0790915E-2,-3.3442897E-3],"categories":[],"categories_nodes":[],"categories_segments":[],"categories_sizes":[],"default_left":[0,0,0,0,0,0,0,0,0,0,0,0,0],"id":48,"left_children":[1,3,5,-1,-1,7,-1,9,11,-1,-1,-1,-1],"loss_changes":[2.6275573E0,4.544704E-1,9.1183126E-1,0E0,0E0,1.7920197E0,0E0,5.3785086E-2,2.0763588E-1,0E0,0E0,0E0,0E0],"parents":[2147483647,0,0,1,1,2,2,5,5,7,7,8,8],"right_children":[2,4,6,-1,-1,8,-1,10,12,-1,-1,-1,-1],"split_conditions":[2.6067752E-1,1.5572958E0,3.281593E-1,-7.370942E-2,5.461699E-4,-4.8775468E-2,7.531256E-2,-9.405468E-1,-1.12241484E-1,1.4597897E-2,6.5335296E-2,-6.0790915E-2,-3.3442897E-3],"split_indices":[27,14,20,0,0,20,0,6,19,0,0,0,0],"split_type":[0,0,0,0,0,0,0,0,0,0,0,0,0],"sum_hessian":[1.1375551E1,3.604241E0,7.7713103E0,2.5498106E0,1.0544302E0,5.145484E0,2.6258261E0,2.689156E0,2.456328E0,1.007627E0,1.6815292E0,1.4438868E0,1.0124413E0],"tree_param":{"num_deleted":"0","num_feature":"30","num_nodes":"13","size_leaf_vector":"1"}},{"base_weights":[-5.498964E-2,4.0103713E-1,-5.080763E-1,7.67658E-2,-6.1687846E-2,-7.8577615E-2,-5.752582E-3,1.2389822E-2,-2.8906424E-2,2.3211075E-2,-2.7443001E-2],"categories":[],"categories_nodes":[],"categories_segments":[],"categories_sizes":[],"default_left":[0,0,0,0,0,0,0,0,0,0,0],"id":49,"left_children":[1,3,5,-1,7,-1,9,-1,-1,-1,-1],"loss_changes":[2.699885E0,1.1635705E0,9.0234625E-1,0E0,1.9761199E-1,0E0,2.7599242E-1,0E0,0E0,0E0,0E0],"parents":[2147483647,0,0,1,1,2,2,4,4,6,6],"right_children":[2,4,6,-1,8,-1,10,-1,-1,-1,-1],"split_conditions":[1.02796696E-1,6.5818113E-1,2.6067752E-1,7.67658E-2,2.564057E-1,-7.8577615E-2,5.077855E-1,1.2389822E-2,-2.8906424E-2,2.3211075E-2,-2.7443001E-2],"split_indices":[18,23,27,0,22,0,18,0,0,0,0],"split_type":[0,0,0,0,0,0,0,0,0,0,0],"sum_hessian":[1.1080785E1,5.5797276E0,5.501057E0,2.7454727E0,2.834255E0,3.1792104E0,2.3218467E0,1.811111E0,1.023144E0,1.3037342E0,1.0181125E0],"tree_param":{"num_deleted":"0","num_feature":"30","num_nodes":"11","size_leaf_vector":"1"}},{"base_weights":[-3.494105E-2,3.0095726E-1,-7.149384E-2,-2.2743398E-2,6.1228156E-1,4.822817E-2,-4.3082142E-1,6.980279E-2,1.799213E-2,-5.8569916E-2,-6.620226E-3],"categories":[],"categories_nodes":[],"categories_segments":[],"categories_sizes":[],"default_left":[0,0,0,0,0,0,0,0,0,0,0],"id":50,"left_children":[1,3,-1,5,7,-1,9,-1,-1,-1,-1],"loss_changes":[2.715059E0,8.2312673E-1,0E0,1.21778E0,2.748251E-2,0E0,1.441217E-1,0E0,0E0,0E0,0E0],"parents":[2147483647,0,0,1,1,3,3,4,4,6,6],"right_children":[2,4,-1,6,8,-1,10,-1,-1,-1,-1],"split_conditions":[5.235643E-1,-5.5168275E-2,-7.149384E-2,-4.8775468E-2,1.0227833E-2,4.822817E-2,7.918862E-2,6.980279E-2,1.799213E-2,-5.8569916E-2,-6.620226E-3],"split_indices":[18,21,0,20,18,0,19,0,0,0,0],"split_type":[0,0,0,0,0,0,0,0,0,0,0],"sum_hessian":[9.944765E0,7.0297117E0,2.915053E0,3.9007933E0,3.1289186E0,1.6620514E0,2.2387419E0,2.098318E0,1.0306007E0,1.1457397E0,1.0930022E0],"tree_param":{"num_deleted":"0","num_feature":"30","num_nodes":"11","size_leaf_vector":"1"}},{"base_weights":[7.2066836E-2,-5.261551E-1,3.5930544E-1,-3.7822847E-3,-6.749793E-2,-1.6217465E-2,5.2031934E-1,6.802986E-2,7.796339E-3],"categories":[],"categories_nodes":[],"categories_segments":[],"categories_sizes":[],"default_left":[0,0,0,0,0,0,0,0,0],"id":51,"left_children":[1,3,5,-1,-1,-1,7,-1,-1],"loss_changes":[2.1153784E0,2.6825535E-1,7.702209E-1,0E0,0E0,0E0,4.0544474E-1,0E0,0E0],"parents":[2147483647,0,0,1,1,2,2,6,6],"right_children":[2,4,6,-1,-1,-1,8,-1,-1],"split_conditions":[2.6067752E-1,4.6646008E-1,-1.2315814E0,-3.7822847E-3,-6.749793E-2,-1.6217465E-2,7.187926E-1,6.802986E-2,7.796339E-3],"split_indices":[27,18,6,0,0,0,24,0,0],"split_type":[0,0,0,0,0,0,0,0,0],"sum_hessian":[1.0210503E1,3.04241E0,7.1680927E0,1.0035704E0,2.0388396E0,1.6893952E0,5.478698E0,3.6285315E0,1.8501662E0],"tree_param":{"num_deleted":"0","num_feature":"30","num_nodes":"9","size_leaf_vector":"1"}},{"base_weights":[2.4299974E-2,-1.4197862E-1,6.458078E-2,5.674044E-2,-3.007555E-1,3.2685634E-2,-4.9428985E-1,-6.912822E-2,1.2512038E-2],"categories":[],"categories_nodes":[],"categories_segments":[],"categories_sizes":[],"default_left":[0,0,0,0,0,0,0,0,0],"id":52,"left_children":[1,3,-1,-1,5,-1,7,-1,-1],"loss_changes":[1.2303425E0,1.2420552E0,0E0,0E0,1.1850431E0,0E0,9.208938E-1,0E0,0E0],"parents":[2147483647,0,0,1,1,4,4,6,6],"right_children":[2,4,-1,-1,6,-1,8,-1,-1],"split_conditions":[3.2774067E-1,3.5414023E-3,6.458078E-2,5.674044E-2,-5.2081585E-1,3.2685634E-2,1.5572958E0,-6.912822E-2,1.2512038E-2],"split_indices":[0,0,0,0,22,0,14,0,0],"split_type":[0,0,0,0,0,0,0,0,0],"sum_hessian":[1.0018131E1,8.512302E0,1.5058289E0,1.0861241E0,7.426179E0,1.5879009E0,5.838278E0,4.3415065E0,1.4967716E0],"tree_param":{"num_deleted":"0","num_feature":"30","num_nodes":"9","size_leaf_vector":"1"}},{"base_weights":[-5.516694E-3,6.661592E-2,-2.4206918E-1,-4.263975E-1,5.458656E-2,1.03058135E-2,-6.0144293E-1,-6.691594E-2,-1.9996636E-2],"categories":[],"categories_nodes":[],"categories_segments":[],"categories_sizes":[],"default_left":[0,0,0,0,0,0,0,0,0],"id":53,"left_children":[1,-1,3,5,-1,-1,7,-1,-1],"loss_changes":[1.7920707E0,0E0,1.4417477E0,7.3922944E-1,0E0,0E0,1.947093E-2,0E0,0E0],"parents":[2147483647,0,0,2,2,3,3,6,6],"right_children":[2,-1,4,6,-1,-1,8,-1,-1],"split_conditions":[-5.073163E-1,6.661592E-2,3.2774067E-1,2.7217138E-1,5.458656E-2,1.03058135E-2,1.5028809E-1,-6.691594E-2,-1.9996636E-2],"split_indices":[18,0,0,24,0,0,7,0,0],"split_type":[0,0,0,0,0,0,0,0,0],"sum_hessian":[9.264012E0,1.939841E0,7.3241715E0,6.307456E0,1.0167155E0,1.6693779E0,4.638078E0,3.3981686E0,1.2399096E0],"tree_param":{"num_deleted":"0","num_feature":"30","num_nodes":"9","size_leaf_vector":"1"}},{"base_weights":[4.545632E-2,4.5109442E-1,-4.1388312E-1,6.783377E-2,3.1058425E-2,-6.935497E-2,2.9394752E-3,9.5043395E-4,3.6973413E-3],"categories":[],"categories_nodes":[],"categories_segments":[],"categories_sizes":[],"default_left":[0,0,0,0,0,0,0,0,0],"id":54,"left_children":[1,3,5,-1,7,-1,-1,-1,-1],"loss_changes":[2.0194955E0,5.2319896E-1,6.569012E-1,0E0,3.7423102E-5,0E0,0E0,0E0,0E0],"parents":[2147483647,0,0,1,1,2,2,4,4],"right_children":[2,4,6,-1,8,-1,-1,-1,-1],"split_conditions":[2.1850778E-1,5.699189E-1,2.6067752E-1,6.783377E-2,1.0312732E0,-6.935497E-2,2.9394752E-3,9.5043395E-4,3.6973413E-3],"split_indices":[18,24,27,0,1,0,0,0,0],"split_type":[0,0,0,0,0,0,0,0,0],"sum_hessian":[8.836519E0,4.7020955E0,4.134424E0,2.652252E0,2.0498433E0,2.188864E0,1.9455602E0,1.0027324E0,1.0471109E0],"tree_param":{"num_deleted":"0","num_feature":"30","num_nodes":"9","size_leaf_vector":"1"}},{"base_weights":[7.2380185E-2,-5.097953E-1,3.806139E-1,-6.531511E-2,-6.1625275E-3,1.3129649E-1,6.8183176E-2,5.8868594E-2,-3.6650237E-2],"categories":[],"categories_nodes":[],"categories_segments":[],"categories_sizes":[],"default_left":[0,0,0,0,0,0,0,0,0],"id":55,"left_children":[1,3,5,-1,-1,7,-1,-1,-1],"loss_changes":[1.9180149E0,2.0088428E-1,4.2520738E-1,0E0,0E0,1.3515935E0,0E0,0E0,0E0],"parents":[2147483647,0,0,1,1,2,2,5,5],"right_children":[2,4,6,-1,-1,8,-1,-1,-1],"split_conditions":[2.6067752E-1,-1.2181299E-1,3.281593E-1,-6.531511E-2,-6.1625275E-3,-4.8775468E-2,6.8183176E-2,5.8868594E-2,-3.6650237E-2],"split_indices":[27,19,20,0,0,20,0,0,0],"split_type":[0,0,0,0,0,0,0,0,0],"sum_hessian":[8.607229E0,2.7532022E0,5.854027E0,1.7394364E0,1.0137658E0,3.988576E0,1.8654507E0,1.9835057E0,2.0050702E0],"tree_param":{"num_deleted":"0","num_feature":"30","num_nodes":"9","size_leaf_vector":"1"}},{"base_weights":[6.4499035E-2,-5.8220763E-2,4.0225208E-1,6.743901E-2,1.3458647E-1,3.5967477E-2,-1.5935183E-2],"categories":[],"categories_nodes":[],"categories_segments":[],"categories_sizes":[],"default_left":[0,0,0,0,0,0,0],"id":56,"left_children":[1,-1,3,-1,5,-1,-1],"loss_changes":[2.197536E0,0E0,3.824259E-1,0E0,3.5665128E-1,0E0,0E0],"parents":[2147483647,0,0,2,2,4,4],"right_children":[2,-1,4,-1,6,-1,-1],"split_conditions":[2.6067752E-1,-5.8220763E-2,4.2104512E-1,6.743901E-2,-2.561746E-1,3.5967477E-2,-1.5935183E-2],"split_indices":[27,0,24,0,21,0,0],"split_type":[0,0,0,0,0,0,0],"sum_hessian":[7.988544E0,2.4924335E0,5.4961104E0,1.9718194E0,3.5242908E0,1.8692446E0,1.6550462E0],"tree_param":{"num_deleted":"0","num_feature":"30","num_nodes":"7","size_leaf_vector":"1"}},{"base_weights":[1.3714928E-2,3.918013E-1,-4.0532482E-1,7.050172E-2,-5.7373594E-2,-7.032894E-2,1.2983461E-2,-1.305744E-2,4.396172E-3],"categories":[],"categories_nodes":[],"categories_segments":[],"categories_sizes":[],"default_left":[0,0,0,0,0,0,0,0,0],"id":57,"left_children":[1,3,5,-1,7,-1,-1,-1,-1],"loss_changes":[1.5401601E0,7.5681823E-1,8.291206E-1,0E0,2.8117314E-2,0E0,0E0,0E0,0E0],"parents":[2147483647,0,0,1,1,2,2,4,4],"right_children":[2,4,6,-1,8,-1,-1,-1,-1],"split_conditions":[1.02796696E-1,5.699189E-1,2.6067752E-1,7.050172E-2,-6.260313E-2,-7.032894E-2,1.2983461E-2,-1.305744E-2,4.396172E-3],"split_indices":[18,24,27,0,22,0,0,0,0],"split_type":[0,0,0,0,0,0,0,0,0],"sum_hessian":[7.718836E0,4.0918713E0,3.6269646E0,2.0752132E0,2.016658E0,2.1279833E0,1.4989811E0,1.0033431E0,1.013315E0],"tree_param":{"num_deleted":"0","num_feature":"30","num_nodes":"9","size_leaf_vector":"1"}},{"base_weights":[1.993783E-2,3.7871072E-1,-3.3797932E-1,6.646573E-2,1.7109862E-2,-6.8283334E-2,1.02981046E-1,-1.1599462E-2,1.3130389E-2,-1.478173E-2,2.9895503E-2],"categories":[],"categories_nodes":[],"categories_segments":[],"categories_sizes":[],"default_left":[0,0,0,0,0,0,0,0,0,0,0],"id":58,"left_children":[1,3,5,-1,7,-1,9,-1,-1,-1,-1],"loss_changes":[1.2824408E0,5.0162226E-1,8.350482E-1,0E0,6.413217E-2,0E0,1.9536999E-1,0E0,0E0,0E0,0E0],"parents":[2147483647,0,0,1,1,2,2,4,4,6,6],"right_children":[2,4,6,-1,8,-1,10,-1,-1,-1,-1],"split_conditions":[1.02796696E-1,5.699189E-1,2.6067752E-1,6.646573E-2,-1.6410595E-1,-6.8283334E-2,-2.2500764E-1,-1.1599462E-2,1.3130389E-2,-1.478173E-2,2.9895503E-2],"split_indices":[18,24,27,0,22,0,22,0,0,0,0],"split_type":[0,0,0,0,0,0,0,0,0,0,0],"sum_hessian":[7.990232E0,3.9613326E0,4.028899E0,1.7440648E0,2.2172678E0,1.9530212E0,2.0758781E0,1.0165777E0,1.2006899E0,1.0183594E0,1.0575187E0],"tree_param":{"num_deleted":"0","num_feature":"30","num_nodes":"11","size_leaf_vector":"1"}},{"base_weights":[1.4509444E-2,3.4751695E-1,-3.4311908E-1,5.4147834E-1,-2.1625577E-2,-6.716457E-2,9.886519E-3,3.0219664E-3,7.000571E-2],"categories":[],"categories_nodes":[],"categories_segments":[],"categories_sizes":[],"default_left":[0,0,0,0,0,0,0,0,0],"id":59,"left_children":[1,3,5,7,-1,-1,-1,-1,-1],"loss_changes":[1.1768079E0,6.742584E-1,7.6119995E-1,3.0933344E-1,0E0,0E0,0E0,0E0,0E0],"parents":[2147483647,0,0,1,1,2,2,3,3],"right_children":[2,4,6,8,-1,-1,-1,-1,-1],"split_conditions":[1.02796696E-1,7.149757E-1,2.6067752E-1,-1.238112E0,-2.1625577E-2,-6.716457E-2,9.886519E-3,3.0219664E-3,7.000571E-2],"split_indices":[18,8,27,6,0,0,0,0,0],"split_type":[0,0,0,0,0,0,0,0,0],"sum_hessian":[7.880187E0,4.0951977E0,3.7849889E0,3.07635E0,1.018848E0,1.8731004E0,1.9118886E0,1.0101588E0,2.0661912E0],"tree_param":{"num_deleted":"0","num_feature":"30","num_nodes":"9","size_leaf_vector":"1"}},{"base_weights":[6.0340147E-2,-5.1097423E-2,3.385566E-1,9.491102E-2,6.261636E-2,4.9740657E-2,-3.2760456E-2],"categories":[],"categories_nodes":[],"categories_segments":[],"categories_sizes":[],"default_left":[0,0,0,0,0,0,0],"id":60,"left_children":[1,-1,3,5,-1,-1,-1],"loss_changes":[1.4081243E0,0E0,3.489104E-1,8.998914E-1,0E0,0E0,0E0],"parents":[2147483647,0,0,2,2,3,3],"right_children":[2,-1,4,6,-1,-1,-1],"split_conditions":[2.6067752E-1,-5.1097423E-2,3.281593E-1,-4.8775468E-2,6.261636E-2,4.9740657E-2,-3.2760456E-2],"split_indices":[27,0,20,20,0,0,0],"split_type":[0,0,0,0,0,0,0],"sum_hessian":[6.770607E0,1.9433508E0,4.827256E0,3.3333876E0,1.4938686E0,1.6163627E0,1.7170248E0],"tree_param":{"num_deleted":"0","num_feature":"30","num_nodes":"7","size_leaf_vector":"1"}},{"base_weights":[3.557512E-4,3.2200405E-1,-3.4849942E-1,6.640767E-2,-1.1033568E-2,-4.886972E-2,5.483733E-3],"categories":[],"categories_nodes":[],"categories_segments":[],"categories_sizes":[],"default_left":[0,0,0,0,0,0,0],"id":61,"left_children":[1,3,5,-1,-1,-1,-1],"loss_changes":[1.041775E0,7.87576E-1,2.7867347E-1,0E0,0E0,0E0,0E0],"parents":[2147483647,0,0,1,1,2,2],"right_children":[2,4,6,-1,-1,-1,-1],"split_conditions":[1.02796696E-1,8.0735284E-1,8.0735284E-1,6.640767E-2,-1.1033568E-2,-4.886972E-2,5.483733E-3],"split_indices":[18,2,2,0,0,0,0],"split_type":[0,0,0,0,0,0,0],"sum_hessian":[7.2841797E0,3.8299205E0,3.4542594E0,1.8389295E0,1.990991E0,2.4062304E0,1.0480291E0],"tree_param":{"num_deleted":"0","num_feature":"30","num_nodes":"7","size_leaf_vector":"1"}},{"base_weights":[1.4017041E-2,2.3560093E-1,-4.7381874E-2,-6.6470854E-2,6.1437156E-2,4.9994852E-2,-5.1834524E-2],"categories":[],"categories_nodes":[],"categories_segments":[],"categories_sizes":[],"default_left":[0,0,0,0,0,0,0],"id":62,"left_children":[1,3,-1,5,-1,-1,-1],"loss_changes":[1.0024283E0,7.6562643E-1,0E0,1.392116E0,0E0,0E0,0E0],"parents":[2147483647,0,0,1,1,3,3],"right_children":[2,4,-1,6,-1,-1,-1],"split_conditions":[5.424988E-1,-5.5168275E-2,-4.7381874E-2,-4.8775468E-2,6.1437156E-2,4.9994852E-2,-5.1834524E-2],"split_indices":[18,21,0,20,0,0,0],"split_type":[0,0,0,0,0,0,0],"sum_hessian":[7.2407446E0,5.334683E0,1.9060615E0,3.4265213E0,1.9081618E0,1.4733304E0,1.9531909E0],"tree_param":{"num_deleted":"0","num_feature":"30","num_nodes":"7","size_leaf_vector":"1"}},{"base_weights":[2.7969854E-2,4.8191383E-2,-2.1888848E-1,1.7145688E-2,-3.7065855E-1,-1.3894404E-3,-5.1618215E-2],"categories":[],"categories_nodes":[],"categories_segments":[],"categories_sizes":[],"default_left":[0,0,0,0,0,0,0],"id":63,"left_children":[1,-1,3,-1,5,-1,-1],"loss_changes":[9.7479117E-1,0E0,4.0198097E-1,0E0,2.2280031E-1,0E0,0E0],"parents":[2147483647,0,0,2,2,4,4],"right_children":[2,-1,4,-1,6,-1,-1],"split_conditions":[2.7217138E-1,4.8191383E-2,-4.5922855E-1,1.7145688E-2,-3.1360495E-1,-1.3894404E-3,-5.1618215E-2],"split_indices":[24,0,18,0,21,0,0],"split_type":[0,0,0,0,0,0,0],"sum_hessian":[6.7575126E0,2.0449314E0,4.712581E0,1.2830145E0,3.4295666E0,1.3110032E0,2.1185634E0],"tree_param":{"num_deleted":"0","num_feature":"30","num_nodes":"7","size_leaf_vector":"1"}},{"base_weights":[5.1490124E-2,2.6766843E-1,-4.833419E-2,4.1032675E-1,-1.3645467E-2,6.015539E-2,-4.860387E-3],"categories":[],"categories_nodes":[],"categories_segments":[],"categories_sizes":[],"default_left":[0,0,0,0,0,0,0],"id":64,"left_children":[1,3,-1,5,-1,-1,-1],"loss_changes":[1.0238603E0,4.1072807E-1,0E0,4.502489E-1,0E0,0E0,0E0],"parents":[2147483647,0,0,1,1,3,3],"right_children":[2,4,-1,6,-1,-1,-1],"split_conditions":[5.424988E-1,7.149757E-1,-4.833419E-2,1.6073674E0,-1.3645467E-2,6.015539E-2,-4.860387E-3],"split_indices":[18,8,0,15,0,0,0],"split_type":[0,0,0,0,0,0,0],"sum_hessian":[6.736483E0,5.1531253E0,1.5833577E0,3.7973006E0,1.3558251E0,2.4610553E0,1.3362452E0],"tree_param":{"num_deleted":"0","num_feature":"30","num_nodes":"7","size_leaf_vector":"1"}},{"base_weights":[5.2972898E-2,4.7256213E-2,-1.9137841E-1,-5.2818704E-2,1.340619E-2,2.9649034E-2,-3.4553435E-2],"categories":[],"categories_nodes":[],"categories_segments":[],"categories_sizes":[],"default_left":[0,0,0,0,0,0,0],"id":65,"left_children":[1,-1,3,-1,5,-1,-1],"loss_changes":[8.6943203E-1,0E0,3.873579E-1,0E0,5.4993427E-1,0E0,0E0],"parents":[2147483647,0,0,2,2,4,4],"right_children":[2,-1,4,-1,6,-1,-1],"split_conditions":[2.4011266E-1,4.7256213E-2,2.6067752E-1,-5.2818704E-2,3.1373903E-1,2.9649034E-2,-3.4553435E-2],"split_indices":[26,0,27,0,8,0,0],"split_type":[0,0,0,0,0,0,0],"sum_hessian":[6.597925E0,2.0845253E0,4.5133996E0,1.1094532E0,3.4039466E0,2.0003352E0,1.4036113E0],"tree_param":{"num_deleted":"0","num_feature":"30","num_nodes":"7","size_leaf_vector":"1"}},{"base_weights":[1.0671831E-2,2.3982719E-1,-4.9594194E-2,5.3946633E-2,4.035687E-2,3.2232508E-2,-2.0689135E-2],"categories":[],"categories_nodes":[],"categories_segments":[],"categories_sizes":[],"default_left":[0,0,0,0,0,0,0],"id":66,"left_children":[1,3,-1,-1,5,-1,-1],"loss_changes":[9.474079E-1,3.1220022E-1,0E0,0E0,3.7590626E-1,0E0,0E0],"parents":[2147483647,0,0,1,1,4,4],"right_children":[2,4,-1,-1,6,-1,-1],"split_conditions":[5.235643E-1,-5.073163E-1,-4.9594194E-2,5.3946633E-2,-4.8775468E-2,3.2232508E-2,-2.0689135E-2],"split_indices":[18,18,0,0,20,0,0],"split_type":[0,0,0,0,0,0,0],"sum_hessian":[6.1362243E0,4.5876923E0,1.5485321E0,1.1522772E0,3.435415E0,1.4631507E0,1.9722644E0],"tree_param":{"num_deleted":"0","num_feature":"30","num_nodes":"7","size_leaf_vector":"1"}},{"base_weights":[3.207324E-2,-1.626017E-1,4.9950436E-2,8.7643385E-2,-4.001499E-1,-1.3533361E-2,3.4955233E-2,-5.9726924E-2,1.087576E-3],"categories":[],"categories_nodes":[],"categories_segments":[],"categories_sizes":[],"default_left":[0,0,0,0,0,0,0,0,0],"id":67,"left_children":[1,3,-1,5,7,-1,-1,-1,-1],"loss_changes":[7.6782966E-1,3.9657432E-1,0E0,2.681635E-1,2.738219E-1,0E0,0E0,0E0,0E0],"parents":[2147483647,0,0,1,1,3,3,4,4],"right_children":[2,4,-1,6,8,-1,-1,-1,-1],"split_conditions":[3.281593E-1,-2.561746E-1,4.9950436E-2,-2.749571E-1,-4.245923E-2,-1.3533361E-2,3.4955233E-2,-5.9726924E-2,1.087576E-3],"split_indices":[20,21,0,19,21,0,0,0,0],"split_type":[0,0,0,0,0,0,0,0,0],"sum_hessian":[6.545397E0,5.081288E0,1.4641088E0,2.7818253E0,2.2994626E0,1.7636318E0,1.0181935E0,1.2478843E0,1.0515784E0],"tree_param":{"num_deleted":"0","num_feature":"30","num_nodes":"9","size_leaf_vector":"1"}},{"base_weights":[1.0863468E-1,-3.814541E-2,3.3960068E-1,4.9254864E-2,1.5745886E-3],"categories":[],"categories_nodes":[],"categories_segments":[],"categories_sizes":[],"default_left":[0,0,0,0,0],"id":68,"left_children":[1,-1,3,-1,-1],"loss_changes":[8.960057E-1,0E0,2.4641389E-1,0E0,0E0],"parents":[2147483647,0,0,2,2],"right_children":[2,-1,4,-1,-1],"split_conditions":[2.6067752E-1,-3.814541E-2,9.3524057E-1,4.9254864E-2,1.5745886E-3],"split_indices":[27,0,6,0,0],"split_type":[0,0,0,0,0],"sum_hessian":[5.7712474E0,1.6399224E0,4.1313252E0,2.4522839E0,1.6790413E0],"tree_param":{"num_deleted":"0","num_feature":"30","num_nodes":"5","size_leaf_vector":"1"}},{"base_weights":[9.1405E-3,-4.0452987E-2,2.0440051E-1,9.265497E-3,5.4660685E-2,4.1008055E-2,-3.6116622E-2],"categories":[],"categories_nodes":[],"categories_segments":[],"categories_sizes":[],"default_left":[0,0,0,0,0,0,0],"id":69,"left_children":[1,-1,3,5,-1,-1,-1],"loss_changes":[6.878366E-1,0E0,3.791613E-1,8.432102E-1,0E0,0E0,0E0],"parents":[2147483647,0,0,2,2,3,3],"right_children":[2,-1,4,6,-1,-1,-1],"split_conditions":[2.6067752E-1,-4.0452987E-2,3.281593E-1,-4.8775468E-2,5.4660685E-2,4.1008055E-2,-3.6116622E-2],"split_indices":[27,0,20,20,0,0,0],"split_type":[0,0,0,0,0,0,0],"sum_hessian":[6.491964E0,1.7380494E0,4.7539144E0,3.681629E0,1.0722855E0,1.7168866E0,1.9647424E0],"tree_param":{"num_deleted":"0","num_feature":"30","num_nodes":"7","size_leaf_vector":"1"}},{"base_weights":[5.763437E-2,3.415735E-1,-2.420676E-1,5.9103083E-2,-1.2101115E-3,-5.7974555E-2,1.3543933E-2],"categories":[],"categories_nodes":[],"categories_segments":[],"categories_sizes":[],"default_left":[0,0,0,0,0,0,0],"id":70,"left_children":[1,3,5,-1,-1,-1,-1],"loss_changes":[6.793002E-1,3.613766E-1,5.879227E-1,0E0,0E0,0E0,0E0],"parents":[2147483647,0,0,1,1,2,2],"right_children":[2,4,6,-1,-1,-1,-1],"split_conditions":[6.422634E-2,8.0735284E-1,2.6067752E-1,5.9103083E-2,-1.2101115E-3,-5.7974555E-2,1.3543933E-2],"split_indices":[18,2,27,0,0,0,0],"split_type":[0,0,0,0,0,0,0],"sum_hessian":[6.011006E0,3.0149329E0,2.9960728E0,1.3744073E0,1.6405257E0,1.2986847E0,1.6973882E0],"tree_param":{"num_deleted":"0","num_feature":"30","num_nodes":"7","size_leaf_vector":"1"}},{"base_weights":[2.4917502E-2,-3.8472917E-2,2.2433487E-1,-2.2994574E-2,3.9892396E-1,5.3687353E-2,2.2355171E-3],"categories":[],"categories_nodes":[],"categories_segments":[],"categories_sizes":[],"default_left":[0,0,0,0,0,0,0],"id":71,"left_children":[1,-1,3,-1,5,-1,-1],"loss_changes":[6.6005737E-1,0E0,5.1649046E-1,0E0,2.0796227E-1,0E0,0E0],"parents":[2147483647,0,0,2,2,4,4],"right_children":[2,-1,4,-1,6,-1,-1],"split_conditions":[2.6067752E-1,-3.8472917E-2,-1.2315814E0,-2.2994574E-2,2.564057E-1,5.3687353E-2,2.2355171E-3],"split_indices":[27,0,6,0,22,0,0],"split_type":[0,0,0,0,0,0,0],"sum_hessian":[6.0234365E0,1.6679133E0,4.3555236E0,1.1211706E0,3.2343528E0,2.0556147E0,1.1787381E0],"tree_param":{"num_deleted":"0","num_feature":"30","num_nodes":"7","size_leaf_vector":"1"}},{"base_weights":[-2.2825293E-2,1.9053106E-1,-4.7400516E-2,4.6448216E-2,-1.7402261E-2],"categories":[],"categories_nodes":[],"categories_segments":[],"categories_sizes":[],"default_left":[0,0,0,0,0],"id":72,"left_children":[1,3,-1,-1,-1],"loss_changes":[6.8694603E-1,5.7232606E-1,0E0,0E0,0E0],"parents":[2147483647,0,0,1,1],"right_children":[2,4,-1,-1,-1],"split_conditions":[5.424988E-1,3.1373903E-1,-4.7400516E-2,4.6448216E-2,-1.7402261E-2],"split_indices":[18,8,0,0,0],"split_type":[0,0,0,0,0],"sum_hessian":[5.1980095E0,3.9213603E0,1.2766491E0,2.082393E0,1.8389672E0],"tree_param":{"num_deleted":"0","num_feature":"30","num_nodes":"5","size_leaf_vector":"1"}},{"base_weights":[-1.5191075E-2,3.7004486E-2,-2.1249963E-1,-3.7171882E-1,1.2876955E-2,-1.2254074E-2,-4.8319753E-2],"categories":[],"categories_nodes":[],"categories_segments":[],"categories_sizes":[],"default_left":[0,0,0,0,0,0,0],"id":73,"left_children":[1,-1,3,5,-1,-1,-1],"loss_changes":[5.388547E-1,0E0,2.9994395E-1,3.5806894E-2,0E0,0E0,0E0],"parents":[2147483647,0,0,2,2,3,3],"right_children":[2,-1,4,6,-1,-1,-1],"split_conditions":[2.7217138E-1,3.7004486E-2,8.565929E-2,-2.8452037E-2,1.2876955E-2,-1.2254074E-2,-4.8319753E-2],"split_indices":[24,0,7,6,0,0,0],"split_type":[0,0,0,0,0,0,0],"sum_hessian":[5.054706E0,1.4155151E0,3.6391912E0,2.420624E0,1.2185671E0,1.3970829E0,1.0235411E0],"tree_param":{"num_deleted":"0","num_feature":"30","num_nodes":"7","size_leaf_vector":"1"}},{"base_weights":[-2.5978113E-2,-4.4453517E-2,1.6351275E-1,-2.4070181E-2,3.4520918E-1,5.2210785E-2,-2.5025888E-3],"categories":[],"categories_nodes":[],"categories_segments":[],"categories_sizes":[],"default_left":[0,0,0,0,0,0,0],"id":74,"left_children":[1,-1,3,-1,5,-1,-1],"loss_changes":[6.1098117E-1,0E0,4.7991112E-1,0E0,2.8409946E-1,0E0,0E0],"parents":[2147483647,0,0,2,2,4,4],"right_children":[2,-1,4,-1,6,-1,-1],"split_conditions":[2.6067752E-1,-4.4453517E-2,-1.2315814E0,-2.4070181E-2,7.187926E-1,5.2210785E-2,-2.5025888E-3],"split_indices":[27,0,6,0,24,0,0],"split_type":[0,0,0,0,0,0,0],"sum_hessian":[5.78698E0,1.3839955E0,4.4029846E0,1.2646992E0,3.1382854E0,1.8460395E0,1.2922457E0],"tree_param":{"num_deleted":"0","num_feature":"30","num_nodes":"7","size_leaf_vector":"1"}}]},"name":"gbtree"},"learner_model_param":{"base_score":"[5E-1]","boost_from_average":"1","num_class":"0","num_feature":"30","num_target":"1"},"objective":{"name":"binary:logistic","reg_loss_param":{"scale_pos_weight":"1.1380043"}}},"version":[3,1,1]}