{"learner":{"attributes":{"best_iteration":"43","best_score":"0.42332137473042786"},"feature_names":["AGE","PTGENDER","PTEDUCAT","PTMARRY","VSWEIGHT","BMI","MH14ALCH","MH17MALI","MH16SMOK","MH15DRUG","MH4CARD","MHPSYCH","MH2NEURL","MH6HEPAT","MH12RENA","TRAASCOR","TRABSCOR","TRABERRCOM","CATANIMSC","CLOCKSCOR","BNTTOTAL","DSPANFOR","DSPANBAC","BCDEPRES"],"feature_types":[],"gradient_booster":{"model":{"cats":{"enc":[],"feature_segments":[],"sorted_idx":[]},"gbtree_model_param":{"num_parallel_tree":"1","num_trees":"64"},"iteration_indptr":[0,1,2,3,4,5,6,7,8,9,10,11,12,13,14,15,16,17,18,19,20,21,22,23,24,25,26,27,28,29,30,31,32,33,34,35,36,37,38,39,40,41,42,43,44,45,46,47,48,49,50,51,52,53,54,55,56,57,58,59,60,61,62,63,64],"tree_info":[0,0,0,0,0,0,0,0,0,0,0,0,0,0,0,0,0,0,0,0,0,0,0,0,0,0,0,0,0,0,0,0,0,0,0,0,0,0,0,0,0,0,0,0,0,0,0,0,0,0,0,0,0,0,0,0,0,0,0,0,0,0,0,0],"trees":[{"base_weights":[1.9993557E-2,-6.2612563E-1,1.527327E0,1.2339456E0,-8.350131E-1,1.5944846E0,1.1156578E-2,1.7278233E-1,6.2690955E-1,-1.0979203E0,5.797362E-2,1.3456904E0,1.8438904E-1,6.3774146E-2,-5.890991E-2,-1.800542E-1,1.3218935E-1,-1.6175456E0,-7.880288E-1,-8.193883E-1,4.3816015E-1,1.4647517E0,-1.8597996E-1,6.3774146E-2,-6.589327E-1,1.263029E-2,-1.6795161E0,7.094595E-1,-9.1451657E-1,6.3774146E-2,-1.1173494E0,2.2441718E-1,1.2694822E-1,1.5021875E0,5.5576563E-2,-4.1848686E-2,1.263029E-2,-9.659714E-3,-1E-1,-1.7077051E-1,-4.1848686E-2,-3.236532E-3,1.13590956E-1,-9.9653035E-2,1.2269163E-1,3.6882844E-2,-1.5021425E-1,6.911583E-2,-5.8300537E-3,1.5446508E-1,5.5576563E-2],"categories":[],"categories_nodes":[],"categories_segments":[],"categories_sizes":[],"default_left":[0,0,0,0,0,0,0,0,0,0,0,0,0,0,0,0,0,0,0,0,0,0,0,0,0,0,0,0,0,0,0,0,0,0,0,0,0,0,0,0,0,0,0,0,0,0,0,0,0,0,0],"id":0,"left_children":[1,3,5,7,9,11,13,-1,15,17,19,21,-1,-1,-1,23,-1,25,27,29,31,33,35,-1,37,-1,39,41,43,-1,45,47,-1,49,-1,-1,-1,-1,-1,-1,-1,-1,-1,-1,-1,-1,-1,-1,-1,-1,-1],"loss_changes":[1.9229594E2,5.4737625E1,6.0139313E0,3.2217503E0,2.9379044E1,1.0380707E0,1.6994663E0,0E0,4.7308674E0,1.4267128E1,1.0149305E1,6.125332E0,0E0,0E0,0E0,2.2166278E0,0E0,4.0059967E0,1.2470081E1,4.7164173E0,3.469489E0,1.823349E-1,2.8536302E-1,0E0,5.525913E-1,0E0,4.9295807E-1,1.7526796E0,1.1406502E1,0E0,5.1402273E0,2.4184387E0,0E0,2.7175522E-1,0E0,0E0,0E0,0E0,0E0,0E0,0E0,0E0,0E0,0E0,0E0,0E0,0E0,0E0,0E0,0E0,0E0],"parents":[2147483647,0,0,1,1,2,2,3,3,4,4,5,5,6,6,8,8,9,9,10,10,11,11,15,15,17,17,18,18,19,19,20,20,21,21,22,22,24,24,26,26,27,27,28,28,30,30,31,31,33,33],"right_children":[2,4,6,8,10,12,14,-1,16,18,20,22,-1,-1,-1,24,-1,26,28,30,32,34,36,-1,38,-1,40,42,44,-1,46,48,-1,50,-1,-1,-1,-1,-1,-1,-1,-1,-1,-1,-1,-1,-1,-1,-1,-1,-1],"split_conditions":[-5.4849416E-2,2.2080567E-1,2.0350983E0,9.5819706E-1,5.0568444E-1,1.1380618E0,2.2080567E-1,1.7278233E-1,8.412343E-2,-2.601126E-1,-7.470324E-1,1.0791526E0,1.8438904E-1,6.3774146E-2,-5.890991E-2,-4.7526017E-1,1.3218935E-1,-4.8874408E-2,5.8373797E-1,-9.4858474E-1,1.7018244E-1,1.6331856E0,9.5819706E-1,6.3774146E-2,-5.1139563E-1,1.263029E-2,-1.726678E-1,-3.3466807E-1,4.4409394E0,6.3774146E-2,5.8373797E-1,-5.8503217E-1,1.2694822E-1,9.6133417E-1,5.5576563E-2,-4.1848686E-2,1.263029E-2,-9.659714E-3,-1E-1,-1.7077051E-1,-4.1848686E-2,-3.236532E-3,1.13590956E-1,-9.9653035E-2,1.2269163E-1,3.6882844E-2,-1.5021425E-1,6.911583E-2,-5.8300537E-3,1.5446508E-1,5.5576563E-2],"split_indices":[16,20,22,1,20,16,20,0,15,15,16,16,0,0,0,15,0,22,19,15,15,15,1,0,16,0,16,16,0,0,19,16,0,16,0,0,0,0,0,0,0,0,0,0,0,0,0,0,0,0,0],"split_type":[0,0,0,0,0,0,0,0,0,0,0,0,0,0,0,0,0,0,0,0,0,0,0,0,0,0,0,0,0,0,0,0,0,0,0,0,0,0,0,0,0,0,0,0,0,0,0,0,0,0,0],"sum_hessian":[1.95464E2,1.3722644E2,5.8237568E1,1.3359293E1,1.2386715E2,5.5717934E1,2.5196335E0,6.3481674E0,7.0111256E0,9.5516365E1,2.8350786E1,3.1094896E1,2.4623037E1,1.2022252E0,1.3174083E0,3.5870419E0,3.4240837E0,3.4106674E1,6.1409687E1,8.221859E0,2.0128927E1,2.889267E1,2.2022252E0,1.2022252E0,2.3848166E0,1.1348168E0,3.297186E1,4.4240837E0,5.6985603E1,1.2022252E0,7.0196333E0,1.7022251E1,3.1066754E0,2.7123037E1,1.7696335E0,1.0674083E0,1.1348168E0,1.3848168E0,1E0,3.190445E1,1.0674083E0,1.9522252E0,2.4718587E0,5.539856E1,1.5870419E0,1.4522252E0,5.5674086E0,5.876309E0,1.1145943E1,2.5353403E1,1.7696335E0],"tree_param":{"num_deleted":"0","num_feature":"24","num_nodes":"51","size_leaf_vector":"1"}},{"base_weights":[-2.8869348E-2,1.1427045E0,-7.01808E-1,1.4659041E0,4.6374983E-1,-9.4128835E-1,5.2681893E-1,6.8533754E-1,1.5464264E-1,1.5055375E-1,1.8134417E-1,-1.0719063E0,2.1776088E-1,1.0230201E0,-3.3967122E-1,1.2163184E-1,1.801756E-1,-3.0101404E-1,5.6460214E-1,-1.2570992E0,-2.501378E-1,7.973183E-1,-6.1471575E-1,1.15468934E-1,5.763597E-1,1.0605231E-1,-1.0562446E-1,-2.6462141E-2,5.3739335E-2,4.170573E-2,-4.773098E-1,-3.6836307E-2,7.5078166E-1,1.1100833E-1,-1.3219091E0,-1.177751E0,1.8919997E-1,-1.17704086E-1,1.224588E0,-1.3351892E-1,3.647749E-2,-2.990786E-3,9.6146986E-2,6.353437E-1,-5.970056E-2,-1.19210854E-1,-1.0408414E-2,1.17494546E-1,4.30581E-2,6.30379E-2,-6.278862E-2,-2.8898075E-2,-1.3915712E-1,1.4269218E-2,-1.5063873E-1,4.034813E-2,-3.6765527E-2,1.7946875E-2,-3.6754858E-2,1.5035662E-1,1.4642948E-2,6.4701363E-3,1.0336696E-1],"categories":[],"categories_nodes":[],"categories_segments":[],"categories_sizes":[],"default_left":[0,0,0,0,0,0,0,0,0,0,0,0,0,0,0,0,0,0,0,0,0,0,0,0,0,0,0,0,0,0,0,0,0,0,0,0,0,0,0,0,0,0,0,0,0,0,0,0,0,0,0,0,0,0,0,0,0,0,0,0,0,0,0],"id":1,"left_children":[1,3,5,7,9,11,13,15,-1,-1,17,19,21,23,25,-1,27,29,31,33,35,37,39,-1,41,43,-1,-1,-1,-1,45,-1,47,49,51,53,55,57,59,-1,-1,-1,-1,61,-1,-1,-1,-1,-1,-1,-1,-1,-1,-1,-1,-1,-1,-1,-1,-1,-1,-1,-1],"loss_changes":[1.5478223E2,1.5039673E1,3.7178604E1,1.9615021E0,6.954304E0,1.6083427E1,9.367057E0,1.4682934E0,0E0,0E0,3.9529788E0,1.4030579E1,6.006986E0,1.3364124E-1,2.7915778E0,0E0,8.409654E-1,1.4286106E0,2.3176692E0,6.945389E0,7.7964764E0,2.9499702E0,4.1975436E0,0E0,1.2172387E0,2.6421888E0,0E0,0E0,0E0,0E0,2.0807014E0,0E0,8.692608E-1,2.080721E0,4.8711853E0,2.8669243E0,1.7559547E0,3.033138E-1,1.2777243E0,0E0,0E0,0E0,0E0,8.3179855E-1,0E0,0E0,0E0,0E0,0E0,0E0,0E0,0E0,0E0,0E0,0E0,0E0,0E0,0E0,0E0,0E0,0E0,0E0,0E0],"parents":[2147483647,0,0,1,1,2,2,3,3,4,4,5,5,6,6,7,7,10,10,11,11,12,12,13,13,14,14,16,16,17,17,18,18,19,19,20,20,21,21,22,22,24,24,25,25,30,30,32,32,33,33,34,34,35,35,36,36,37,37,38,38,43,43],"right_children":[2,4,6,8,10,12,14,16,-1,-1,18,20,22,24,26,-1,28,30,32,34,36,38,40,-1,42,44,-1,-1,-1,-1,46,-1,48,50,52,54,56,58,60,-1,-1,-1,-1,62,-1,-1,-1,-1,-1,-1,-1,-1,-1,-1,-1,-1,-1,-1,-1,-1,-1,-1,-1],"split_conditions":[-7.137403E-2,5.8373797E-1,-2.31577E-1,-5.408502E-1,-6.3383055E-1,1.9513462E0,6.258798E-1,-6.3383055E-1,1.5464264E-1,1.5055375E-1,-3.0521348E-1,5.0568444E-1,-1.2801325E0,9.5819706E-1,9.5819706E-1,1.2163184E-1,5.0568444E-1,-9.4294137E-1,-6.407308E-2,2.2080567E-1,-7.028505E-1,2.504589E0,1.6436479E0,1.15468934E-1,3.351437E-2,1.1488203E0,-1.0562446E-1,-2.6462141E-2,5.3739335E-2,4.170573E-2,-8.0594164E-1,-3.6836307E-2,-7.686279E-1,5.8373797E-1,-1.5941081E0,4.5156637E-1,2.3473208E-1,-1.575907E0,1.6154702E0,-1.3351892E-1,3.647749E-2,-2.990786E-3,9.6146986E-2,8.001933E-1,-5.970056E-2,-1.19210854E-1,-1.0408414E-2,1.17494546E-1,4.30581E-2,6.30379E-2,-6.278862E-2,-2.8898075E-2,-1.3915712E-1,1.4269218E-2,-1.5063873E-1,4.034813E-2,-3.6765527E-2,1.7946875E-2,-3.6754858E-2,1.5035662E-1,1.4642948E-2,6.4701363E-3,1.0336696E-1],"split_indices":[18,19,16,16,20,0,18,20,0,0,16,20,5,1,1,0,20,18,20,20,16,0,5,0,16,18,0,0,0,0,16,0,18,19,5,18,17,5,3,0,0,0,0,18,0,0,0,0,0,0,0,0,0,0,0,0,0,0,0,0,0,0,0],"split_type":[0,0,0,0,0,0,0,0,0,0,0,0,0,0,0,0,0,0,0,0,0,0,0,0,0,0,0,0,0,0,0,0,0,0,0,0,0,0,0,0,0,0,0,0,0,0,0,0,0,0,0,0,0,0,0,0,0,0,0,0,0,0,0],"sum_hessian":[1.9430797E2,7.063524E1,1.2367274E2,4.7069775E1,2.3565462E1,1.0369473E2,1.9978006E1,5.2910047E0,4.1778767E1,4.102035E0,1.9463427E1,9.326006E1,1.0434669E1,1.2588483E1,7.3895245E0,1.8932309E0,3.3977737E0,8.712589E0,1.0750838E1,7.567605E1,1.7584013E1,6.1767464E0,4.257922E0,8.4981785E0,4.0903044E0,5.081023E0,2.3085012E0,1.6288246E0,1.768949E0,1.4482095E0,7.2643795E0,1.6257076E0,9.125131E0,3.3905413E0,7.228551E1,5.1113086E0,1.2472705E1,2.1967669E0,3.9799798E0,2.2441044E0,2.013818E0,1.9472091E0,2.143095E0,2.9536822E0,2.1273413E0,1.7392718E0,5.5251074E0,2.7770374E0,6.348094E0,2.0772789E0,1.3132623E0,4.892294E0,6.739321E1,1.1313617E0,3.9799469E0,9.205717E0,3.2669883E0,1.132004E0,1.0647627E0,2.8483806E0,1.1315992E0,1.6920632E0,1.2616189E0],"tree_param":{"num_deleted":"0","num_feature":"24","num_nodes":"63","size_leaf_vector":"1"}},{"base_weights":[-2.718692E-2,1.0518702E0,-6.3878584E-1,1.4218782E0,2.9681972E-1,-1.4155126E-1,-1.0797362E0,1.5730794E-1,1.1518843E0,1.2166045E0,-1.8250586E-2,1.6096517E-1,-1.1786617E0,-1.2043767E0,-2.779627E-2,1.2681016E-1,3.220466E-1,1.4129184E-1,3.3952083E-2,1.2955073E-1,-3.2418227E-1,3.77956E-1,-9.8798764E-1,-2.2991902E-1,-1.5249117E-1,-1.2814182E0,3.3653772E-1,1.1783611E-1,-5.9747535E-1,-5.2447926E-2,8.2603015E-2,-8.135548E-1,4.7823063E-1,5.874769E-1,-6.892696E-1,-1.1715627E0,4.4930666E-3,-1.165295E-1,8.332344E-2,-1.4071628E0,-2.0421347E-1,7.732666E-2,-3.6077756E-2,-9.423181E-1,2.9848633E-2,-1.0011523E-1,8.53428E-4,8.619091E-2,-2.2284014E-2,8.1825696E-2,1.0640354E-2,-1.23200335E-1,7.734423E-2,-3.1869378E-2,-1.2771851E-1,-5.721694E-2,-1.5211354E-1,1.7459814E-2,-1.084791E-1,2.018773E-2,-1.369941E-1],"categories":[],"categories_nodes":[],"categories_segments":[],"categories_sizes":[],"default_left":[0,0,0,0,0,0,0,0,0,0,0,0,0,0,0,0,0,0,0,0,0,0,0,0,0,0,0,0,0,0,0,0,0,0,0,0,0,0,0,0,0,0,0,0,0,0,0,0,0,0,0,0,0,0,0,0,0,0,0,0,0],"id":2,"left_children":[1,3,5,7,9,11,13,-1,15,17,19,21,23,25,27,-1,29,-1,-1,-1,31,33,35,37,-1,39,41,-1,43,-1,-1,45,47,49,51,53,-1,-1,-1,55,57,-1,-1,59,-1,-1,-1,-1,-1,-1,-1,-1,-1,-1,-1,-1,-1,-1,-1,-1,-1],"loss_changes":[1.2751586E2,1.910833E1,2.6880272E1,9.250641E-2,7.0512013E0,1.8731897E1,8.5145035E0,0E0,1.5669441E0,5.8840275E-1,8.077182E0,1.1999771E1,4.073061E0,7.3481216E0,6.152935E0,0E0,2.0785646E0,0E0,0E0,0E0,6.7712326E0,9.337743E0,1.5098209E0,5.722513E0,0E0,7.2571564E0,1.3650728E0,0E0,2.1504076E0,0E0,0E0,1.6226215E0,2.0176587E0,3.6802397E0,6.5225964E0,1.8409634E-1,0E0,0E0,0E0,3.8600464E0,2.521725E0,0E0,0E0,2.5316243E0,0E0,0E0,0E0,0E0,0E0,0E0,0E0,0E0,0E0,0E0,0E0,0E0,0E0,0E0,0E0,0E0,0E0],"parents":[2147483647,0,0,1,1,2,2,3,3,4,4,5,5,6,6,8,8,9,9,10,10,11,11,12,12,13,13,14,14,16,16,20,20,21,21,22,22,23,23,25,25,26,26,28,28,31,31,32,32,33,33,34,34,35,35,39,39,40,40,43,43],"right_children":[2,4,6,8,10,12,14,-1,16,18,20,22,24,26,28,-1,30,-1,-1,-1,32,34,36,38,-1,40,42,-1,44,-1,-1,46,48,50,52,54,-1,-1,-1,56,58,-1,-1,60,-1,-1,-1,-1,-1,-1,-1,-1,-1,-1,-1,-1,-1,-1,-1,-1,-1],"split_conditions":[-7.137403E-2,5.8373797E-1,9.5819706E-1,-7.686279E-1,-7.453105E-2,9.745068E-1,-4.496509E-2,1.5730794E-1,5.525161E-1,7.9056317E-1,-6.3383055E-1,1.2064153E0,-2.503483E-1,3.057832E0,2.772529E-1,1.2681016E-1,9.394387E-1,1.4129184E-1,3.3952083E-2,1.2955073E-1,-1.9355833E-3,1.603416E0,2.3473208E-1,-1.0609511E0,-1.5249117E-1,7.9056317E-1,-1.4022931E0,1.1783611E-1,6.8653655E-1,-5.2447926E-2,8.2603015E-2,7.537159E-1,-4.2000097E-1,4.5156637E-1,1.9513462E0,-9.741396E-1,4.4930666E-3,-1.165295E-1,8.332344E-2,-1.6045774E0,4.790008E-1,7.732666E-2,-3.6077756E-2,-1.9355833E-3,2.9848633E-2,-1.0011523E-1,8.53428E-4,8.619091E-2,-2.2284014E-2,8.1825696E-2,1.0640354E-2,-1.23200335E-1,7.734423E-2,-3.1869378E-2,-1.2771851E-1,-5.721694E-2,-1.5211354E-1,1.7459814E-2,-1.084791E-1,2.018773E-2,-1.369941E-1],"split_indices":[18,19,1,18,21,18,15,0,4,20,20,4,4,0,18,0,4,0,0,0,15,2,17,4,0,20,5,0,15,0,0,4,18,18,0,2,0,0,0,4,4,0,0,15,0,0,0,0,0,0,0,0,0,0,0,0,0,0,0,0,0],"split_type":[0,0,0,0,0,0,0,0,0,0,0,0,0,0,0,0,0,0,0,0,0,0,0,0,0,0,0,0,0,0,0,0,0,0,0,0,0,0,0,0,0,0,0,0,0,0,0,0,0,0,0,0,0,0,0,0,0,0,0,0,0],"sum_hessian":[1.9120229E2,6.890747E1,1.2229481E2,4.5652557E1,2.3254913E1,5.809989E1,6.4194916E1,2.617036E1,1.9482197E1,5.203363E0,1.805155E1,4.5633713E1,1.2466177E1,5.72649E1,6.930016E0,1.6625671E1,2.8565254E0,3.7525237E0,1.4508393E0,2.7986634E0,1.5252887E1,3.8948883E1,6.6848297E0,3.778077E0,8.688101E0,5.469853E1,2.5663743E0,1.8803554E0,5.0496607E0,1.0508227E0,1.8057027E0,9.465945E0,5.7869415E0,3.2932922E1,6.0159607E0,5.5620847E0,1.122745E0,1.9587072E0,1.8193697E0,4.8706585E1,5.9919405E0,1.5110705E0,1.0553039E0,3.6089058E0,1.4407549E0,7.5298495E0,1.9360962E0,3.5918136E0,2.195128E0,2.1782532E1,1.1150392E1,4.502902E0,1.5130585E0,1.0556147E0,4.5064697E0,6.5727916E0,4.2133797E1,4.750198E0,1.2417426E0,1.1254456E0,2.4834602E0],"tree_param":{"num_deleted":"0","num_feature":"24","num_nodes":"61","size_leaf_vector":"1"}},{"base_weights":[1.0366615E-2,-5.6754816E-1,1.0367122E0,1.3493197E-1,-6.748512E-1,1.2277495E0,-1.103948E-1,-8.528824E-1,-4.2508524E-2,1.3781408E0,8.1196004E-1,-8.882971E-1,5.2353853E-1,6.655113E-1,-9.433994E-1,-6.564975E-1,3.6833802E-1,6.52382E-1,1.409973E0,1.2829614E-1,1.2370671E0,-1.1981054E-1,1.1804835E-2,-1.1131662E-2,8.165607E-1,-3.6163207E-2,1.1594369E-1,-1.0785452E0,2.944325E-1,5.466469E-2,-1.2619389E0,1.4594416E-1,1.2452527E-1,9.90222E-2,-6.3995235E-3,1.427665E-1,4.4392947E-2,-5.8051E-1,8.8091385E-1,1.8517831E-3,1.3738948E0,1.22400165E-1,7.3961304E-3,-1.1157166E-1,7.087452E-2,-1.7220935E-2,9.412685E-2,6.484239E-2,-6.036986E-2,-1.4036511E-1,-3.087978E-2,9.0272106E-2,-1.1048158E-2,-1.0780032E-1,-9.325383E-3,1.2106504E-1,-3.522286E-3,1.5302229E-1,2.7033692E-2],"categories":[],"categories_nodes":[],"categories_segments":[],"categories_sizes":[],"default_left":[0,0,0,0,0,0,0,0,0,0,0,0,0,0,0,0,0,0,0,0,0,0,0,0,0,0,0,0,0,0,0,0,0,0,0,0,0,0,0,0,0,0,0,0,0,0,0,0,0,0,0,0,0,0,0,0,0,0,0],"id":3,"left_children":[1,3,5,-1,7,9,11,13,15,17,19,21,23,25,27,29,31,33,35,37,39,-1,-1,-1,41,-1,-1,43,45,47,49,51,-1,-1,-1,-1,-1,53,55,-1,57,-1,-1,-1,-1,-1,-1,-1,-1,-1,-1,-1,-1,-1,-1,-1,-1,-1,-1],"loss_changes":[1.12253845E2,2.5816845E1,1.5074898E1,0E0,1.2947941E1,2.5404892E0,5.716989E0,1.2990021E1,6.8990145E0,3.992462E-2,5.0665665E0,1.747952E0,1.2995483E0,3.2840383E0,1.4587036E1,4.7790427E0,3.026649E0,9.3626463E-1,3.1700134E-2,4.7838473E0,1.8036251E0,0E0,0E0,0E0,1.2907913E0,0E0,0E0,5.914116E0,2.9335227E0,2.7325625E0,3.702755E-1,2.86623E0,0E0,0E0,0E0,0E0,0E0,1.045404E0,1.3360634E0,0E0,1.2854519E0,0E0,0E0,0E0,0E0,0E0,0E0,0E0,0E0,0E0,0E0,0E0,0E0,0E0,0E0,0E0,0E0,0E0,0E0],"parents":[2147483647,0,0,1,1,2,2,4,4,5,5,6,6,7,7,8,8,9,9,10,10,11,11,12,12,13,13,14,14,15,15,16,16,17,17,18,18,19,19,20,20,24,24,27,27,28,28,29,29,30,30,31,31,37,37,38,38,40,40],"right_children":[2,4,6,-1,8,10,12,14,16,18,20,22,24,26,28,30,32,34,36,38,40,-1,-1,-1,42,-1,-1,44,46,48,50,52,-1,-1,-1,-1,-1,54,56,-1,58,-1,-1,-1,-1,-1,-1,-1,-1,-1,-1,-1,-1,-1,-1,-1,-1,-1,-1],"split_conditions":[-2.0212239E-1,-3.4895182E-1,4.5156637E-1,1.3493197E-1,5.0568444E-1,5.8373797E-1,2.3969655E-1,-7.686279E-1,-6.7339593E-1,-1.5446044E0,1.7526656E-1,8.870164E-1,-1.2459845E-1,-2.601126E-1,1.9513462E0,8.001933E-1,1.7018244E-1,-4.2000097E-1,2.765839E0,2.5442383E-1,-5.613192E-1,-1.1981054E-1,1.1804835E-2,-1.1131662E-2,8.8769764E-1,-3.6163207E-2,1.1594369E-1,2.0557466E0,3.3344536E0,6.3556147E-1,2.0203876E0,-4.3413654E-1,1.2452527E-1,9.90222E-2,-6.3995235E-3,1.427665E-1,4.4392947E-2,-4.012212E-2,1.005516E0,1.8517831E-3,2.765839E0,1.22400165E-1,7.3961304E-3,-1.1157166E-1,7.087452E-2,-1.7220935E-2,9.412685E-2,6.484239E-2,-6.036986E-2,-1.4036511E-1,-3.087978E-2,9.0272106E-2,-1.1048158E-2,-1.0780032E-1,-9.325383E-3,1.2106504E-1,-3.522286E-3,1.5302229E-1,2.7033692E-2],"split_indices":[16,20,18,0,20,19,16,18,16,4,4,17,4,15,0,18,15,18,21,16,15,0,0,0,16,0,0,21,0,21,18,4,0,0,0,0,0,16,16,0,21,0,0,0,0,0,0,0,0,0,0,0,0,0,0,0,0,0,0],"split_type":[0,0,0,0,0,0,0,0,0,0,0,0,0,0,0,0,0,0,0,0,0,0,0,0,0,0,0,0,0,0,0,0,0,0,0,0,0,0,0,0,0,0,0,0,0,0,0,0,0,0,0,0,0,0,0,0,0,0,0],"sum_hessian":[1.8726147E2,1.2008885E2,6.717263E1,5.752421E0,1.1433643E2,5.7522606E1,9.650021E0,8.8945694E1,2.539074E1,4.0543484E1,1.6979122E1,4.152825E0,5.4971957E0,4.646689E0,8.4299E1,9.939201E0,1.5451538E1,2.6066935E0,3.793679E1,7.0089746E0,9.970147E0,3.0295975E0,1.1232271E0,1.9318349E0,3.5653608E0,1.5958595E0,3.0508296E0,7.611725E1,8.181755E0,4.988883E0,4.950319E0,1.3256096E1,2.195442E0,1.5115776E0,1.0951159E0,3.6785263E1,1.1515272E0,3.7273142E0,3.2816603E0,1.1211181E0,8.84903E0,1.8836143E0,1.6817465E0,7.493454E1,1.1827073E0,5.17916E0,3.0025945E0,2.631082E0,2.357801E0,3.898095E0,1.0522237E0,2.717037E0,1.0539059E1,1.2443879E0,2.4829264E0,2.1767347E0,1.1049256E0,7.412378E0,1.4366516E0],"tree_param":{"num_deleted":"0","num_feature":"24","num_nodes":"59","size_leaf_vector":"1"}},{"base_weights":[4.459747E-2,-4.3869987E-1,1.1482961E0,8.4772485E-1,-6.176955E-1,1.2514883E0,1.8087748E-2,4.9422048E-2,1.1900871E0,1.0247407E0,-6.950106E-1,1.3050009E0,4.3000255E-2,5.760653E-1,-1.1073718E-1,3.869935E-1,-6.548771E-2,1.3150752E0,1.6214199E-3,-1.243383E-2,1.4375788E-1,-5.548856E-1,-1.0492154E0,1.3379505E0,-8.385039E-3,-5.3777363E-2,5.622962E-2,1.07716076E-1,-5.4813363E-3,7.4244714E-1,-4.268776E-2,3.2663304E-2,1.4384888E-1,-6.687478E-1,1.0894226E-1,-1.1584089E0,1.1615372E-1,6.317677E-1,1.3776914E0,1.4524542E-2,9.4904E-2,-8.643173E-2,-3.2613646E-2,-1.5511053E-2,1.08245075E-1,1.928968E-2,-1.22224644E-1,6.955158E-2,-4.8601847E-2,9.919255E-2,1.0905973E-2,8.3127886E-2,1.4552018E-1],"categories":[],"categories_nodes":[],"categories_segments":[],"categories_sizes":[],"default_left":[0,0,0,0,0,0,0,0,0,0,0,0,0,0,0,0,0,0,0,0,0,0,0,0,0,0,0,0,0,0,0,0,0,0,0,0,0,0,0,0,0,0,0,0,0,0,0,0,0,0,0,0,0],"id":4,"left_children":[1,3,5,7,9,11,13,15,17,19,21,23,25,27,-1,29,-1,31,-1,-1,-1,33,35,37,-1,-1,-1,-1,-1,39,-1,-1,-1,41,43,45,47,49,51,-1,-1,-1,-1,-1,-1,-1,-1,-1,-1,-1,-1,-1,-1],"loss_changes":[9.892013E1,3.0236599E1,6.5626907E0,4.3641605E0,1.5170147E1,3.2889175E0,4.2417274E0,1.6562989E0,1.6340475E0,2.7986474E0,4.844307E0,2.3773193E0,1.2757449E0,1.4798653E0,0E0,1.6526908E0,0E0,7.72501E-1,0E0,0E0,0E0,6.1546593E0,3.9354591E0,4.882126E-1,0E0,0E0,0E0,0E0,0E0,3.0369902E-1,0E0,0E0,0E0,4.329525E0,3.4172602E0,2.599537E0,1.5478718E0,7.2507E-1,6.954956E-1,0E0,0E0,0E0,0E0,0E0,0E0,0E0,0E0,0E0,0E0,0E0,0E0,0E0,0E0],"parents":[2147483647,0,0,1,1,2,2,3,3,4,4,5,5,6,6,7,7,8,8,9,9,10,10,11,11,12,12,13,13,15,15,17,17,21,21,22,22,23,23,29,29,33,33,34,34,35,35,36,36,37,37,38,38],"right_children":[2,4,6,8,10,12,14,16,18,20,22,24,26,28,-1,30,-1,32,-1,-1,-1,34,36,38,-1,-1,-1,-1,-1,40,-1,-1,-1,42,44,46,48,50,52,-1,-1,-1,-1,-1,-1,-1,-1,-1,-1,-1,-1,-1,-1],"split_conditions":[-5.4849416E-2,-5.9431446E-1,6.258798E-1,-3.0314213E-1,-7.43532E-1,2.0350983E0,6.457832E-1,-3.8920113E-1,-7.686279E-1,-1.4381895E0,8.001933E-1,1.5004765E0,2.765839E0,1.7018244E-1,-1.1073718E-1,8.504465E-1,-6.548771E-2,-6.5866864E-1,1.6214199E-3,-1.243383E-2,1.4375788E-1,6.457832E-1,2.7297559E0,-4.7526017E-1,-8.385039E-3,-5.3777363E-2,5.622962E-2,1.07716076E-1,-5.4813363E-3,-6.469439E-1,-4.268776E-2,3.2663304E-2,1.4384888E-1,4.4030854E-1,-2.610316E-1,-4.3457353E-1,-6.656006E-2,1.21878155E-1,1.8078735E-1,1.4524542E-2,9.4904E-2,-8.643173E-2,-3.2613646E-2,-1.5511053E-2,1.08245075E-1,1.928968E-2,-1.22224644E-1,6.955158E-2,-4.8601847E-2,9.919255E-2,1.0905973E-2,8.3127886E-2,1.4552018E-1],"split_indices":[16,18,18,15,22,22,22,15,18,22,18,4,21,15,0,4,0,16,0,0,0,22,22,15,0,0,0,0,0,4,0,0,0,4,16,19,4,16,16,0,0,0,0,0,0,0,0,0,0,0,0,0,0],"split_type":[0,0,0,0,0,0,0,0,0,0,0,0,0,0,0,0,0,0,0,0,0,0,0,0,0,0,0,0,0,0,0,0,0,0,0,0,0,0,0,0,0,0,0,0,0,0,0,0,0,0,0,0,0],"sum_hessian":[1.8350255E2,1.2803845E2,5.5464092E1,1.5183081E1,1.1285538E2,5.0725372E1,4.738721E0,4.90056E0,1.028252E1,4.522748E0,1.0833263E2,4.8497993E1,2.2273798E0,3.494418E0,1.2443027E0,3.617307E0,1.2832528E0,9.184332E0,1.098189E0,1.3801391E0,3.142609E0,7.9463196E1,2.8869432E1,4.7409874E1,1.0881175E0,1.0346541E0,1.1927257E0,1.5532789E0,1.941139E0,2.578792E0,1.0385147E0,1.4242128E0,7.7601185E0,6.78226E1,1.1640593E1,2.6401611E1,2.4678197E0,3.4261165E0,4.3983757E1,1.1005278E0,1.4782645E0,4.220717E1,2.5615437E1,9.818192E0,1.8224012E0,1.0997863E0,2.5301826E1,1.178729E0,1.2890908E0,1.4969895E0,1.929127E0,6.920707E0,3.7063053E1],"tree_param":{"num_deleted":"0","num_feature":"24","num_nodes":"53","size_leaf_vector":"1"}},{"base_weights":[-1.3572237E-2,8.7071216E-1,-5.1268995E-1,1.2060676E0,2.5413463E-1,-8.9538485E-2,-8.6695504E-1,1.4155647E-1,9.860361E-1,3.84596E-1,-6.6719884E-1,1.350535E-1,-8.9913505E-1,1.1127815E-1,-9.4253755E-1,1.2671718E-1,5.976697E-1,5.750699E-2,7.5868535E-1,-1.0845556E-1,8.514429E-3,3.497711E-1,-7.46371E-1,-2.7730435E-1,-1.114393E-1,4.3799445E-1,-5.183186E-2,-1.0625217E0,-1.6533752E-1,-4.6422794E-2,7.450093E-1,1.0785841E-1,-2.419638E-1,9.5100254E-1,-2.9730484E-2,4.6988636E-1,-7.088491E-1,-1.0652347E0,2.8721943E-2,2.3682727E-2,-5.182222E-1,9.023069E-2,-6.2145023E-3,-2.6626712E-1,-1.1333923E0,3.4159702E-1,-7.977077E-1,4.578906E-2,-5.5483174E-2,3.711508E-2,9.1853455E-2,1.04212895E-1,-5.2531064E-2,1.2001809E-1,3.670464E-2,-3.4314783E-3,7.9818696E-2,-3.0989908E-3,-1.0389167E-1,-1.2969367E-1,-4.7609564E-2,-9.271028E-2,1.5548813E-2,-8.772894E-2,6.6763334E-2,-1.17377E-1,-3.7491497E-2,-2.5743598E-2,6.8782575E-2,1.679446E-2,-1.1929317E-1],"categories":[],"categories_nodes":[],"categories_segments":[],"categories_sizes":[],"default_left":[0,0,0,0,0,0,0,0,0,0,0,0,0,0,0,0,0,0,0,0,0,0,0,0,0,0,0,0,0,0,0,0,0,0,0,0,0,0,0,0,0,0,0,0,0,0,0,0,0,0,0,0,0,0,0,0,0,0,0,0,0,0,0,0,0,0,0,0,0,0,0],"id":5,"left_children":[1,3,5,7,9,11,13,-1,15,17,19,21,23,25,27,-1,29,31,33,-1,-1,35,37,39,-1,41,-1,43,45,47,49,-1,51,53,-1,55,57,59,-1,-1,61,-1,-1,63,65,67,69,-1,-1,-1,-1,-1,-1,-1,-1,-1,-1,-1,-1,-1,-1,-1,-1,-1,-1,-1,-1,-1,-1,-1,-1],"loss_changes":[7.962822E1,1.3153889E1,1.7207611E1,5.35511E-1,3.1654172E0,9.878277E0,4.736786E0,0E0,1.8336372E0,2.6278358E0,1.1496809E0,8.375621E0,1.2682667E0,1.3352408E0,5.2570534E0,0E0,1.1598744E0,4.153629E0,2.3344307E0,0E0,0E0,4.8036456E0,3.1791258E0,6.629541E-1,0E0,1.0056132E0,0E0,2.5357475E0,3.1497629E0,1.0614096E0,2.8892803E-1,0E0,4.4260073E0,8.376837E-1,0E0,5.3535833E0,8.585777E-1,3.2097864E-1,0E0,0E0,1.0486438E0,0E0,0E0,3.6766872E0,9.646263E-1,1.3555311E0,1.8389449E0,0E0,0E0,0E0,0E0,0E0,0E0,0E0,0E0,0E0,0E0,0E0,0E0,0E0,0E0,0E0,0E0,0E0,0E0,0E0,0E0,0E0,0E0,0E0,0E0],"parents":[2147483647,0,0,1,1,2,2,3,3,4,4,5,5,6,6,8,8,9,9,10,10,11,11,12,12,13,13,14,14,16,16,17,17,18,18,21,21,22,22,23,23,25,25,27,27,28,28,29,29,30,30,32,32,33,33,35,35,36,36,37,37,40,40,43,43,44,44,45,45,46,46],"right_children":[2,4,6,8,10,12,14,-1,16,18,20,22,24,26,28,-1,30,32,34,-1,-1,36,38,40,-1,42,-1,44,46,48,50,-1,52,54,-1,56,58,60,-1,-1,62,-1,-1,64,66,68,70,-1,-1,-1,-1,-1,-1,-1,-1,-1,-1,-1,-1,-1,-1,-1,-1,-1,-1,-1,-1,-1,-1,-1,-1],"split_conditions":[-7.137403E-2,5.8373797E-1,9.5819706E-1,-1.1172549E0,2.0350983E0,9.745068E-1,2.2080567E-1,1.4155647E-1,9.5819706E-1,-8.79946E-2,3.4244134E0,1.5629408E0,5.8373797E-1,6.258798E-1,7.9056317E-1,1.2671718E-1,-1.7405361E-1,2.2080567E-1,1.0738021E0,-1.0845556E-1,8.514429E-3,1.603416E0,2.5185907E0,-9.1585517E-1,-1.114393E-1,1.3404408E0,-5.183186E-2,-1.610993E0,1.075442E0,-7.0498234E-1,-3.9544427E-1,1.0785841E-1,-7.43532E-1,-5.9431446E-1,-2.9730484E-2,-2.601126E-1,-1.3425074E0,9.123541E-1,2.8721943E-2,2.3682727E-2,1.6717607E0,9.023069E-2,-6.2145023E-3,-1.6245847E0,-4.496509E-2,-6.473782E-1,1.3404408E0,4.578906E-2,-5.5483174E-2,3.711508E-2,9.1853455E-2,1.04212895E-1,-5.2531064E-2,1.2001809E-1,3.670464E-2,-3.4314783E-3,7.9818696E-2,-3.0989908E-3,-1.0389167E-1,-1.2969367E-1,-4.7609564E-2,-9.271028E-2,1.5548813E-2,-8.772894E-2,6.6763334E-2,-1.17377E-1,-3.7491497E-2,-2.5743598E-2,6.8782575E-2,1.679446E-2,-1.1929317E-1],"split_indices":[18,19,1,18,22,18,20,0,1,15,22,5,19,18,20,0,15,20,15,0,0,2,5,4,0,22,0,5,20,4,4,0,22,18,0,15,5,4,0,0,18,0,0,5,15,15,22,0,0,0,0,0,0,0,0,0,0,0,0,0,0,0,0,0,0,0,0,0,0,0,0],"split_type":[0,0,0,0,0,0,0,0,0,0,0,0,0,0,0,0,0,0,0,0,0,0,0,0,0,0,0,0,0,0,0,0,0,0,0,0,0,0,0,0,0,0,0,0,0,0,0,0,0,0,0,0,0,0,0,0,0,0,0,0,0,0,0,0,0,0,0,0,0,0,0],"sum_hessian":[1.7840335E2,6.409755E1,1.1430581E2,4.0897438E1,2.320011E1,5.265949E1,6.1646317E1,1.8166868E1,2.2730568E1,2.0832747E1,2.3673637E0,4.1875813E1,1.0783678E1,4.3875675E0,5.7258747E1,1.187298E1,1.0857589E1,1.1730118E1,9.102629E0,1.2386571E0,1.1287066E0,3.4157997E1,7.717814E0,3.3614542E0,7.422224E0,3.0889475E0,1.2986202E0,4.928328E1,7.9754677E0,2.1488507E0,8.708737E0,2.0701365E0,9.659982E0,7.78436E0,1.3182684E0,3.1176699E1,2.9812996E0,5.874812E0,1.8430018E0,1.0779756E0,2.2834785E0,1.1848565E0,1.9040909E0,4.416747E0,4.4866535E1,4.681997E0,3.2934709E0,1.1286542E0,1.0201964E0,3.755796E0,4.952942E0,1.2621495E0,8.397832E0,4.7165256E0,3.0678341E0,1.2647799E1,1.85289E1,1.3345097E0,1.6467899E0,3.354223E0,2.520589E0,1.186977E0,1.0965015E0,2.7065516E0,1.7101954E0,4.207892E1,2.7876155E0,1.8088477E0,2.873149E0,1.1234951E0,2.1699758E0],"tree_param":{"num_deleted":"0","num_feature":"24","num_nodes":"71","size_leaf_vector":"1"}},{"base_weights":[6.743948E-2,8.6492366E-1,-3.790883E-1,1.1741148E0,2.7879536E-1,9.30778E-1,-4.4996125E-1,3.782731E-2,1.1902684E-1,1.1983079E-1,3.1204745E-2,-9.955143E-3,1.1662141E-1,-6.207131E-1,1.3709465E-1,1.799972E-1,-6.76317E-1,-3.7603304E-1,-1.0349522E0,5.676025E-1,-4.3074268E-1,5.914332E-2,9.454365E-2,-1.0443405E-1,6.506726E-3,-4.6364802E-1,6.7914075E-1,5.087756E-1,-1.1762042E0,7.13429E-1,-5.31075E-2,2.9001564E-1,-1.0278543E0,6.59753E-2,-6.2912665E-3,-3.2099888E-2,-9.749322E-2,9.5484756E-2,7.44192E-4,7.33309E-2,3.286672E-3,-1.23972595E-1,2.1821812E-2,-1.8592877E-2,1.01353884E-1,7.6243825E-2,-3.600287E-3,-4.5927055E-2,-1.2256884E-1],"categories":[],"categories_nodes":[],"categories_segments":[],"categories_sizes":[],"default_left":[0,0,0,0,0,0,0,0,0,0,0,0,0,0,0,0,0,0,0,0,0,0,0,0,0,0,0,0,0,0,0,0,0,0,0,0,0,0,0,0,0,0,0,0,0,0,0,0,0],"id":6,"left_children":[1,3,5,7,9,11,13,-1,-1,-1,15,-1,-1,17,19,21,23,25,27,29,31,33,-1,-1,-1,35,37,39,41,43,-1,45,47,-1,-1,-1,-1,-1,-1,-1,-1,-1,-1,-1,-1,-1,-1,-1,-1],"loss_changes":[6.323716E1,1.1219685E1,1.0996901E1,8.198929E-2,5.270624E0,1.6139388E0,1.0988445E1,0E0,0E0,0E0,2.1636147E0,0E0,0E0,8.169689E0,6.436098E0,1.4996206E0,1.0448562E0,5.3679047E0,7.311512E0,2.7560759E0,5.2432785E0,1.1843245E0,0E0,0E0,0E0,3.4111595E0,8.440683E-1,3.2626992E-1,2.795597E0,3.8390713E0,0E0,9.494247E-1,1.6871738E-1,0E0,0E0,0E0,0E0,0E0,0E0,0E0,0E0,0E0,0E0,0E0,0E0,0E0,0E0,0E0,0E0],"parents":[2147483647,0,0,1,1,2,2,3,3,4,4,5,5,6,6,10,10,13,13,14,14,15,15,16,16,17,17,18,18,19,19,20,20,21,21,25,25,26,26,27,27,28,28,29,29,31,31,32,32],"right_children":[2,4,6,8,10,12,14,-1,-1,-1,16,-1,-1,18,20,22,24,26,28,30,32,34,-1,-1,-1,36,38,40,42,44,-1,46,48,-1,-1,-1,-1,-1,-1,-1,-1,-1,-1,-1,-1,-1,-1,-1,-1],"split_conditions":[-7.137403E-2,5.8373797E-1,-3.4895182E-1,-2.132847E0,-3.4895182E-1,-7.43532E-1,5.0568444E-1,3.782731E-2,1.1902684E-1,1.1983079E-1,2.0350983E0,-9.955143E-3,1.1662141E-1,2.772529E-1,8.001933E-1,2.765839E0,3.4244134E0,2.3473208E-1,-4.8874408E-2,1.268323E0,6.457832E-1,-1.2915683E0,9.454365E-2,-1.0443405E-1,6.506726E-3,1.6154702E0,5.8373797E-1,5.0415075E-1,2.7297559E0,6.886285E-2,-5.31075E-2,-4.3413654E-1,-6.656006E-2,6.59753E-2,-6.2912665E-3,-3.2099888E-2,-9.749322E-2,9.5484756E-2,7.44192E-4,7.33309E-2,3.286672E-3,-1.23972595E-1,2.1821812E-2,-1.8592877E-2,1.01353884E-1,7.6243825E-2,-3.600287E-3,-4.5927055E-2,-1.2256884E-1],"split_indices":[18,19,20,22,20,22,20,0,0,0,22,0,0,18,18,21,22,17,22,4,22,18,0,0,0,3,19,4,22,4,0,4,4,0,0,0,0,0,0,0,0,0,0,0,0,0,0,0,0],"split_type":[0,0,0,0,0,0,0,0,0,0,0,0,0,0,0,0,0,0,0,0,0,0,0,0,0,0,0,0,0,0,0,0,0,0,0,0,0,0,0,0,0,0,0,0,0,0,0,0,0],"sum_hessian":[1.7566241E2,6.271624E1,1.1294617E2,4.040097E1,2.231527E1,5.174707E0,1.0777146E2,1.2894703E0,3.91115E1,3.9193916E0,1.8395878E1,1.0698643E0,4.1048427E0,8.344361E1,2.4327852E1,1.5815466E1,2.580412E0,5.3657383E1,2.9786228E1,1.3837396E1,1.0490457E1,1.458926E1,1.2262058E0,1.4513335E0,1.1290784E0,5.006121E1,3.5961723E0,2.2788658E0,2.7507362E1,1.252554E1,1.3118558E0,4.9861293E0,5.5043273E0,1.7200339E0,1.2869226E1,4.041358E1,9.64763E0,2.250774E0,1.3453984E0,1.1808714E0,1.0979946E0,2.6414988E1,1.0923735E0,3.2291152E0,9.296425E0,1.4893405E0,3.4967887E0,2.2781925E0,3.2261348E0],"tree_param":{"num_deleted":"0","num_feature":"24","num_nodes":"49","size_leaf_vector":"1"}},{"base_weights":[-2.2966214E-2,-4.4653276E-1,8.765328E-1,6.4750105E-1,-5.669067E-1,9.9695826E-1,-1.9870403E-1,1.6943064E-1,1.0806912E-1,-2.0714839E-1,-8.29604E-1,1.062014E0,-3.052051E-1,2.0066594E-1,-1.0349106E-1,4.3978557E-1,-3.0992723E-1,-5.76259E-2,-1.112207E0,4.8680258E-1,-8.955388E-1,3.8796204E-1,1.1384897E0,-5.4560404E-2,7.2385157E-3,8.080925E-2,-9.668638E-2,9.261164E-2,-1.4414921E-1,-6.893447E-3,-4.0282167E-2,9.555826E-2,-1.3540109E-1,-9.019404E-4,-1.3272782E-1,-1.804777E-2,9.866576E-2,7.1385555E-2,-9.414107E-1,8.1432194E-1,-3.504496E-1,1.21562935E-1,7.288207E-1,2.61897E-2,-4.7816705E-2,-7.400067E-2,1.2418521E-3,-9.9498354E-2,1.8334026E-2,1.0798251E-1,-1.6263846E-4,-9.73474E-3,-4.2774342E-2,1.0155087E-1,-1.6224977E-2],"categories":[],"categories_nodes":[],"categories_segments":[],"categories_sizes":[],"default_left":[0,0,0,0,0,0,0,0,0,0,0,0,0,0,0,0,0,0,0,0,0,0,0,0,0,0,0,0,0,0,0,0,0,0,0,0,0,0,0,0,0,0,0,0,0,0,0,0,0,0,0,0,0,0,0],"id":7,"left_children":[1,3,5,7,9,11,13,15,-1,17,19,21,23,25,-1,27,29,31,33,35,37,39,41,-1,-1,-1,-1,-1,43,-1,-1,-1,45,-1,-1,-1,-1,-1,47,49,51,-1,53,-1,-1,-1,-1,-1,-1,-1,-1,-1,-1,-1,-1],"loss_changes":[6.542685E1,1.5737381E1,7.3178444E0,2.309414E0,9.815468E0,4.527008E0,2.33557E0,1.0314713E0,0E0,6.1517644E0,5.7084503E0,2.0055962E0,3.242899E-1,4.4335394E0,0E0,1.5051126E0,4.1126728E-2,3.3188734E0,1.5202308E0,1.3605673E0,4.9687004E0,2.285952E0,4.4512177E-1,0E0,0E0,0E0,0E0,0E0,5.4025066E-1,0E0,0E0,0E0,3.4469008E0,0E0,0E0,0E0,0E0,0E0,3.6181183E0,9.3964624E-1,1.7542124E-2,0E0,2.507741E0,0E0,0E0,0E0,0E0,0E0,0E0,0E0,0E0,0E0,0E0,0E0,0E0],"parents":[2147483647,0,0,1,1,2,2,3,3,4,4,5,5,6,6,7,7,9,9,10,10,11,11,12,12,13,13,15,15,16,16,17,17,18,18,19,19,20,20,21,21,22,22,28,28,32,32,38,38,39,39,40,40,42,42],"right_children":[2,4,6,8,10,12,14,16,-1,18,20,22,24,26,-1,28,30,32,34,36,38,40,42,-1,-1,-1,-1,-1,44,-1,-1,-1,46,-1,-1,-1,-1,-1,48,50,52,-1,54,-1,-1,-1,-1,-1,-1,-1,-1,-1,-1,-1,-1],"split_conditions":[-1.726678E-1,-5.9431446E-1,6.258798E-1,-4.5248646E-1,9.5819706E-1,2.0350983E0,6.457832E-1,5.0568444E-1,1.0806912E-1,2.3473208E-1,-7.43532E-1,-5.4849416E-2,9.5819706E-1,9.5819706E-1,-1.0349106E-1,-7.028505E-1,-1.1172549E0,-1.8333248E0,5.8373797E-1,6.3556147E-1,-7.8462356E-1,9.5819706E-1,-7.137403E-2,-5.4560404E-2,7.2385157E-3,8.080925E-2,-9.668638E-2,9.261164E-2,-6.407308E-2,-6.893447E-3,-4.0282167E-2,9.555826E-2,1.4995629E-2,-9.019404E-4,-1.3272782E-1,-1.804777E-2,9.866576E-2,7.1385555E-2,2.0557466E0,-9.9031314E-2,-1.4321321E-1,1.21562935E-1,8.870164E-1,2.61897E-2,-4.7816705E-2,-7.400067E-2,1.2418521E-3,-9.9498354E-2,1.8334026E-2,1.0798251E-1,-1.6263846E-4,-9.73474E-3,-4.2774342E-2,1.0155087E-1,-1.6224977E-2],"split_indices":[16,18,18,16,1,22,22,20,0,17,22,16,1,1,0,16,18,2,19,21,21,1,18,0,0,0,0,0,20,0,0,0,0,0,0,0,0,0,21,16,16,0,17,0,0,0,0,0,0,0,0,0,0,0,0],"split_type":[0,0,0,0,0,0,0,0,0,0,0,0,0,0,0,0,0,0,0,0,0,0,0,0,0,0,0,0,0,0,0,0,0,0,0,0,0,0,0,0,0,0,0,0,0,0,0,0,0,0,0,0,0,0,0],"sum_hessian":[1.6969775E2,1.15713036E2,5.3984722E1,1.1035592E1,1.04677444E2,4.8612923E1,5.371798E0,5.9073453E0,5.128247E0,4.4932247E1,5.9745197E1,4.6475445E1,2.137479E0,4.1498632E0,1.221935E0,3.8298728E0,2.0774722E0,3.9474445E1,5.457803E0,2.5452592E0,5.7199936E1,5.354474E0,4.112097E1,1.0341239E0,1.1033552E0,2.9321992E0,1.2176638E0,1.7698544E0,2.0600183E0,1.0626777E0,1.0147946E0,2.0094936E0,3.746495E1,1.0604182E0,4.3973846E0,1.3637133E0,1.1815461E0,1.181615E0,5.6018322E1,3.329319E0,2.0251553E0,3.294935E1,8.171623E0,1.0272135E0,1.0328048E0,6.573234E0,3.0891716E1,5.3581566E1,2.4367573E0,2.2679477E0,1.0613712E0,1.0023521E0,1.0228032E0,6.0768437E0,2.0947793E0],"tree_param":{"num_deleted":"0","num_feature":"24","num_nodes":"55","size_leaf_vector":"1"}},{"base_weights":[2.2811666E-2,-3.6828813E-1,7.740611E-1,7.9415834E-1,-4.700592E-1,9.0070504E-1,-3.0666056E-1,1.0966201E0,-3.149508E-2,-1.0230087E0,-3.0155063E-1,9.4986814E-1,-2.2622116E-1,3.6223796E-1,-7.046404E-1,4.6510175E-1,1.2538683E-1,-3.057196E-2,-1.122397E0,-1.0635547E-1,-9.361995E-1,9.928766E-1,-4.831356E-3,-6.1963554E-2,2.7252918E-2,5.8845967E-2,-4.7621834E-3,-1.9506457E-1,-1.03085116E-1,8.071147E-2,-1.2956721E-2,-7.952205E-2,7.339796E-2,-3.8775754E-1,-1.199452E0,1.3206883E-1,-5.5759555E-1,-1.1147015E0,4.1453116E-2,5.204937E-1,1.1338385E0,4.75247E-2,-5.0934017E-2,1.0755417E-2,-4.0473547E-2,-7.1237735E-2,1.7188892E-2,-3.9237376E-2,-1.2316253E-1,5.148671E-2,-2.2090895E-2,-1.0774847E-1,1.5254143E-2,-8.825996E-3,-1.2248101E-1,-4.4889253E-2,8.878495E-2,1.7346226E-2,1.1709956E-1],"categories":[],"categories_nodes":[],"categories_segments":[],"categories_sizes":[],"default_left":[0,0,0,0,0,0,0,0,0,0,0,0,0,0,0,0,0,0,0,0,0,0,0,0,0,0,0,0,0,0,0,0,0,0,0,0,0,0,0,0,0,0,0,0,0,0,0,0,0,0,0,0,0,0,0,0,0,0,0],"id":8,"left_children":[1,3,5,7,9,11,13,15,-1,17,19,21,23,25,27,29,-1,31,33,35,37,39,41,-1,-1,-1,-1,43,-1,-1,-1,-1,-1,45,47,49,51,53,-1,55,57,-1,-1,-1,-1,-1,-1,-1,-1,-1,-1,-1,-1,-1,-1,-1,-1,-1,-1],"loss_changes":[5.099016E1,1.3879948E1,8.406952E0,3.5532837E0,9.53162E0,3.1750145E0,2.1126592E0,1.8511868E-1,0E0,2.3574486E0,1.0103052E1,2.114788E0,7.655787E-1,3.3058694E-1,5.825329E-1,7.4158514E-1,0E0,2.4750798E0,7.810116E-1,6.9715014E0,5.102005E0,2.684475E0,1.0196202E0,0E0,0E0,0E0,0E0,2.3853353E-1,0E0,0E0,0E0,0E0,0E0,7.705533E-1,2.1673203E-2,5.8911595E0,8.418235E0,1.8436317E0,0E0,5.081685E0,1.1181641E0,0E0,0E0,0E0,0E0,0E0,0E0,0E0,0E0,0E0,0E0,0E0,0E0,0E0,0E0,0E0,0E0,0E0,0E0],"parents":[2147483647,0,0,1,1,2,2,3,3,4,4,5,5,6,6,7,7,9,9,10,10,11,11,12,12,13,13,14,14,15,15,17,17,18,18,19,19,20,20,21,21,22,22,27,27,33,33,34,34,35,35,36,36,37,37,39,39,40,40],"right_children":[2,4,6,8,10,12,14,16,-1,18,20,22,24,26,28,30,-1,32,34,36,38,40,42,-1,-1,-1,-1,44,-1,-1,-1,-1,-1,46,48,50,52,54,-1,56,58,-1,-1,-1,-1,-1,-1,-1,-1,-1,-1,-1,-1,-1,-1,-1,-1,-1,-1],"split_conditions":[-2.0212239E-1,2.2080567E-1,6.258798E-1,2.772529E-1,-7.470324E-1,1.4811304E0,-4.8874408E-2,-6.4394134E-1,-3.149508E-2,-9.916142E-1,1.603416E0,2.0350983E0,3.4230047E-1,4.0169683E-1,9.745068E-1,1.3404408E0,1.2538683E-1,-1.0563056E0,-2.456875E-1,1.0293944E-1,3.057832E0,9.2423566E-2,-6.407308E-2,-6.1963554E-2,2.7252918E-2,5.8845967E-2,-4.7621834E-3,6.07879E-1,-1.03085116E-1,8.071147E-2,-1.2956721E-2,-7.952205E-2,7.339796E-2,-3.0314213E-1,-7.453105E-2,9.5819706E-1,7.9056317E-1,-1.6239235E0,4.1453116E-2,-9.1585517E-1,-4.7526017E-1,4.75247E-2,-5.0934017E-2,1.0755417E-2,-4.0473547E-2,-7.1237735E-2,1.7188892E-2,-3.9237376E-2,-1.2316253E-1,5.148671E-2,-2.2090895E-2,-1.0774847E-1,1.5254143E-2,-8.825996E-3,-1.2248101E-1,-4.4889253E-2,8.878495E-2,1.7346226E-2,1.1709956E-1],"split_indices":[16,20,18,18,16,4,22,16,0,15,2,22,15,16,18,22,0,16,18,18,0,16,20,0,0,0,0,16,0,0,0,0,0,15,21,1,20,4,0,4,15,0,0,0,0,0,0,0,0,0,0,0,0,0,0,0,0,0,0],"split_type":[0,0,0,0,0,0,0,0,0,0,0,0,0,0,0,0,0,0,0,0,0,0,0,0,0,0,0,0,0,0,0,0,0,0,0,0,0,0,0,0,0,0,0,0,0,0,0,0,0,0,0,0,0,0,0,0,0,0,0],"sum_hessian":[1.7157574E2,1.1316955E2,5.84062E1,8.562607E0,1.0460694E2,5.242891E1,5.9772916E0,6.736717E0,1.8258893E0,2.3248287E1,8.135865E1,5.0387817E1,2.041094E0,2.2632227E0,3.714069E0,2.1320457E0,4.6046715E0,2.2353091E0,2.101298E1,6.3114487E1,1.8244164E1,4.817747E1,2.2103453E0,1.0055443E0,1.0355496E0,1.1775285E0,1.0856941E0,2.07331E0,1.640759E0,1.1267601E0,1.0052857E0,1.0975281E0,1.1377809E0,2.567431E0,1.8445547E1,4.175793E1,2.1356556E1,1.626893E1,1.9752336E0,1.21508255E1,3.6026646E1,1.1623151E0,1.0480303E0,1.0479022E0,1.0254078E0,1.45219E0,1.1152409E0,1.2129862E0,1.7232561E1,1.981273E1,2.1945202E1,1.2031234E1,9.325322E0,1.7506639E0,1.4518267E1,3.2782233E0,8.8726015E0,1.5530937E0,3.4473553E1],"tree_param":{"num_deleted":"0","num_feature":"24","num_nodes":"59","size_leaf_vector":"1"}},{"base_weights":[2.7896198E-2,-3.4647855E-1,9.095196E-1,-4.5807132E-1,6.378875E-1,9.6569204E-1,-1.4117698E-1,-5.161813E-1,9.368765E-1,-5.750189E-2,8.8540274E-1,1.0094657E0,5.2460495E-2,-4.6658784E-2,2.8341174E-2,-2.1830806E-1,-7.5530887E-1,1.3706538E-1,-4.8152497E-3,2.3240335E-2,-4.1907188E-2,1.1082312E0,-1.1644236E-2,1.1797111E0,7.476072E-1,5.3537685E-2,-4.786455E-2,1.1688671E-1,-3.1109786E-1,-7.547378E-2,-8.9084953E-1,1.2226019E-1,1.9761786E-2,1.2080281E0,2.549842E-2,8.2138634E-1,-2.1398148E-2,-4.3537047E-2,6.4899154E-2,1.22803606E-1,-4.4369407E-2,4.4712692E-2,-9.603979E-2,3.170025E-2,1.24095954E-1,9.225193E-2,1.0443525E-2],"categories":[],"categories_nodes":[],"categories_segments":[],"categories_sizes":[],"default_left":[0,0,0,0,0,0,0,0,0,0,0,0,0,0,0,0,0,0,0,0,0,0,0,0,0,0,0,0,0,0,0,0,0,0,0,0,0,0,0,0,0,0,0,0,0,0,0],"id":9,"left_children":[1,3,5,7,9,11,13,15,17,19,21,23,25,-1,-1,27,29,-1,-1,-1,-1,31,-1,33,35,-1,-1,-1,37,39,41,-1,-1,43,-1,45,-1,-1,-1,-1,-1,-1,-1,-1,-1,-1,-1],"loss_changes":[5.4509693E1,1.3032302E1,3.041195E0,8.974836E0,2.1554532E0,1.819809E0,5.9788555E-1,7.0441E0,2.007759E0,5.3226423E-1,2.1557288E0,1.1085548E0,1.0763879E0,0E0,0E0,6.3456283E0,5.0683136E0,0E0,0E0,0E0,0E0,5.417652E-1,0E0,3.551979E-1,1.6175079E0,0E0,0E0,0E0,5.5741305E0,5.5160747E0,4.7448883E0,0E0,0E0,3.1988144E-1,0E0,1.2871361E0,0E0,0E0,0E0,0E0,0E0,0E0,0E0,0E0,0E0,0E0,0E0],"parents":[2147483647,0,0,1,1,2,2,3,3,4,4,5,5,6,6,7,7,8,8,9,9,10,10,11,11,12,12,15,15,16,16,21,21,23,23,24,24,28,28,29,29,30,30,33,33,35,35],"right_children":[2,4,6,8,10,12,14,16,18,20,22,24,26,-1,-1,28,30,-1,-1,-1,-1,32,-1,34,36,-1,-1,-1,38,40,42,-1,-1,44,-1,46,-1,-1,-1,-1,-1,-1,-1,-1,-1,-1,-1],"split_conditions":[-4.012212E-2,8.412343E-2,9.745068E-1,3.3344536E0,-4.3775916E-1,2.0350983E0,1.3850892E-1,9.5819706E-1,-1.2459845E-1,-2.456875E-1,-1.4321321E-1,9.5819706E-1,1.0202433E0,-4.6658784E-2,2.8341174E-2,-1.8333248E0,-1.571689E0,1.3706538E-1,-4.8152497E-3,2.3240335E-2,-4.1907188E-2,2.772529E-1,-1.1644236E-2,1.2509114E0,2.772529E-1,5.3537685E-2,-4.786455E-2,1.1688671E-1,-2.904862E-1,-7.137403E-2,-7.8462356E-1,1.2226019E-1,1.9761786E-2,-1.4091815E0,2.549842E-2,3.3970866E-1,-2.1398148E-2,-4.3537047E-2,6.4899154E-2,1.22803606E-1,-4.4369407E-2,4.4712692E-2,-9.603979E-2,3.170025E-2,1.24095954E-1,9.225193E-2,1.0443525E-2],"split_indices":[16,15,18,0,16,22,4,1,4,18,16,1,16,0,0,2,4,0,0,0,0,18,0,4,18,0,0,0,16,18,21,0,0,4,0,4,0,0,0,0,0,0,0,0,0,0,0],"split_type":[0,0,0,0,0,0,0,0,0,0,0,0,0,0,0,0,0,0,0,0,0,0,0,0,0,0,0,0,0,0,0,0,0,0,0,0,0,0,0,0,0,0,0,0,0,0,0],"sum_hessian":[1.6319733E2,1.1497925E2,4.8218075E1,1.0375204E2,1.1227209E1,4.5847855E1,2.3702202E0,1.0020761E2,3.5444303E0,3.1486948E0,8.078514E0,4.3650204E1,2.1976488E0,1.2858269E0,1.0843934E0,4.547449E1,5.4733116E1,2.1889822E0,1.3554479E0,1.9457996E0,1.2028953E0,6.521765E0,1.5567489E0,2.4328232E1,1.9321972E1,1.1468322E0,1.0508165E0,2.124031E0,4.3350464E1,9.357131E0,4.5375984E1,5.4896636E0,1.0321014E0,2.330813E1,1.0201015E0,1.8080523E1,1.2414494E0,3.8866207E1,4.484256E0,1.5467026E0,7.810428E0,1.973851E0,4.3402134E1,1.2094765E0,2.2098654E1,1.5594098E1,2.486425E0],"tree_param":{"num_deleted":"0","num_feature":"24","num_nodes":"47","size_leaf_vector":"1"}},{"base_weights":[-3.8567696E-2,-3.336645E-1,7.484638E-1,7.7630925E-1,-4.4383237E-1,8.9399874E-1,9.716147E-2,-7.893776E-3,9.783695E-2,-6.395444E-1,1.05274096E-1,6.0984874E-3,9.3114513E-1,-6.549621E-1,6.275064E-1,-7.126067E-1,8.1553304E-1,-4.669478E-1,4.1171482E-1,5.841803E-1,1.0781374E-1,2.6503688E-2,-1.0281768E-1,1.0490271E-1,1.6327653E-2,5.779063E-1,-7.736673E-1,1.1664476E-1,4.371578E-3,-5.0285276E-2,-9.636959E-2,8.854821E-1,2.0012537E-1,7.4400103E-1,-3.961011E-2,6.418914E-2,-6.0494613E-2,3.2415453E-3,8.9493625E-2,4.6700966E-2,-8.199238E-2,7.406837E-2,-4.4911236E-2,1.3502729E-1,-1.7973935E-2,-4.131624E-4,8.965572E-2,9.5334224E-2,4.06544E-2],"categories":[],"categories_nodes":[],"categories_segments":[],"categories_sizes":[],"default_left":[0,0,0,0,0,0,0,0,0,0,0,0,0,0,0,0,0,0,0,0,0,0,0,0,0,0,0,0,0,0,0,0,0,0,0,0,0,0,0,0,0,0,0,0,0,0,0,0,0],"id":10,"left_children":[1,3,5,7,9,11,13,-1,-1,15,17,-1,19,21,23,25,27,29,31,33,-1,-1,-1,-1,35,37,39,-1,-1,41,-1,43,45,47,-1,-1,-1,-1,-1,-1,-1,-1,-1,-1,-1,-1,-1,-1,-1],"loss_changes":[3.696201E1,1.4487523E1,4.028288E0,1.9447293E0,1.1442759E1,1.0374794E0,4.021383E0,0E0,0E0,8.892378E0,5.2200313E0,0E0,1.0931778E0,1.7256886E0,1.4819694E0,6.3550262E0,1.0876603E0,2.1182375E0,1.7478967E0,2.211711E0,0E0,0E0,0E0,0E0,1.7061872E0,6.55743E-1,4.5157776E0,0E0,0E0,2.4614167E0,0E0,3.0335445E0,2.0759153E0,3.801942E-1,0E0,0E0,0E0,0E0,0E0,0E0,0E0,0E0,0E0,0E0,0E0,0E0,0E0,0E0,0E0],"parents":[2147483647,0,0,1,1,2,2,3,3,4,4,5,5,6,6,9,9,10,10,12,12,13,13,14,14,15,15,16,16,17,17,18,18,19,19,24,24,25,25,26,26,29,29,31,31,32,32,33,33],"right_children":[2,4,6,8,10,12,14,-1,-1,16,18,-1,20,22,24,26,28,30,32,34,-1,-1,-1,-1,36,38,40,-1,-1,42,-1,44,46,48,-1,-1,-1,-1,-1,-1,-1,-1,-1,-1,-1,-1,-1,-1,-1],"split_conditions":[-6.957672E-2,2.2080567E-1,2.772529E-1,-4.8874408E-2,5.0568444E-1,-1.5446044E0,-1.7405361E-1,-7.893776E-3,9.783695E-2,3.3344536E0,-6.7339593E-1,6.0984874E-3,4.753333E-1,-4.8874408E-2,6.258798E-1,-2.69251E0,-1.3425074E0,1.3404408E0,-5.8503217E-1,3.1333303E-1,1.0781374E-1,2.6503688E-2,-1.0281768E-1,1.0490271E-1,5.931517E-1,-1.3681118E0,-9.4294137E-1,1.1664476E-1,4.371578E-3,-8.795781E-1,-9.636959E-2,6.457832E-1,1.7018244E-1,5.8373797E-1,-3.961011E-2,6.418914E-2,-6.0494613E-2,3.2415453E-3,8.9493625E-2,4.6700966E-2,-8.199238E-2,7.406837E-2,-4.4911236E-2,1.3502729E-1,-1.7973935E-2,-4.131624E-4,8.965572E-2,9.5334224E-2,4.06544E-2],"split_indices":[16,20,18,22,20,4,15,0,0,0,16,0,16,22,18,2,5,22,16,16,0,0,0,0,16,0,18,0,0,16,0,22,15,19,0,0,0,0,0,0,0,0,0,0,0,0,0,0,0],"split_type":[0,0,0,0,0,0,0,0,0,0,0,0,0,0,0,0,0,0,0,0,0,0,0,0,0,0,0,0,0,0,0,0,0,0,0,0,0,0,0,0,0,0,0,0,0,0,0,0,0],"sum_hessian":[1.5707188E2,1.1465728E2,4.24146E1,9.806573E0,1.0485071E2,3.4363396E1,8.051207E0,1.9905668E0,7.8160057E0,7.7178215E1,2.7672493E1,1.5797181E0,3.2783676E1,3.2322814E0,4.818925E0,7.397409E1,3.204121E0,9.468335E0,1.8204159E1,1.1236037E1,2.154764E1,1.0164697E0,2.2158117E0,2.4279826E0,2.3909423E0,2.9595535E0,7.101454E1,1.8511684E0,1.3529527E0,5.748138E0,3.7201967E0,4.636878E0,1.3567281E1,9.868202E0,1.3678347E0,1.174822E0,1.2161204E0,1.4929638E0,1.4665897E0,2.2255468E0,6.8788994E1,1.6394881E0,4.1086497E0,3.0419693E0,1.5949086E0,1.1259146E1,2.3081355E0,4.9638224E0,4.9043803E0],"tree_param":{"num_deleted":"0","num_feature":"24","num_nodes":"49","size_leaf_vector":"1"}},{"base_weights":[1.9336766E-2,9.8315865E-1,-1.432296E-1,-1.162323E-2,1.0467422E-1,6.3832134E-1,-2.786651E-1,-1.0381921E-1,8.1701285E-1,-6.696704E-1,-5.4312512E-2,7.393686E-2,-9.37647E-2,-2.7191818E-2,9.2479604E-1,-8.7191135E-1,-2.3269957E-1,1.3887288E-1,-7.461962E-1,2.3513198E-1,1.0765533E0,-9.558751E-1,3.2513943E-2,7.4348474E-1,-7.1145743E-1,2.5318867E-1,-7.818585E-1,-8.6366194E-1,1.9810766E-2,-3.261581E-2,8.218679E-2,2.9430503E-2,1.1250915E-1,8.587489E-3,-1.0316463E-1,-2.2583071E-2,1.1746087E-1,1.2334293E-2,-8.416142E-2,5.5067547E-2,-2.3216608E-3,-1.02352336E-1,9.263626E-3,-1.06950976E-1,1.1023232E-2],"categories":[],"categories_nodes":[],"categories_segments":[],"categories_sizes":[],"default_left":[0,0,0,0,0,0,0,0,0,0,0,0,0,0,0,0,0,0,0,0,0,0,0,0,0,0,0,0,0,0,0,0,0,0,0,0,0,0,0,0,0,0,0,0,0],"id":11,"left_children":[1,3,5,-1,-1,7,9,11,13,15,17,-1,-1,-1,19,21,23,25,27,29,31,33,-1,35,37,39,41,43,-1,-1,-1,-1,-1,-1,-1,-1,-1,-1,-1,-1,-1,-1,-1,-1,-1],"loss_changes":[2.4762857E1,1.7159424E0,1.450322E1,0E0,0E0,2.7759085E0,1.0143358E1,4.085682E0,2.1842327E0,3.5282364E0,1.0104726E1,0E0,0E0,0E0,1.338932E0,3.1750946E0,7.4094167E0,6.44322E0,2.0000954E0,1.5929409E0,1.3166332E-1,2.210661E0,0E0,2.4940617E0,1.2325916E0,4.414983E0,1.5314426E0,3.0951777E0,0E0,0E0,0E0,0E0,0E0,0E0,0E0,0E0,0E0,0E0,0E0,0E0,0E0,0E0,0E0,0E0,0E0],"parents":[2147483647,0,0,1,1,2,2,5,5,6,6,7,7,8,8,9,9,10,10,14,14,15,15,16,16,17,17,18,18,19,19,20,20,21,21,23,23,24,24,25,25,26,26,27,27],"right_children":[2,4,6,-1,-1,8,10,12,14,16,18,-1,-1,-1,20,22,24,26,28,30,32,34,-1,36,38,40,42,44,-1,-1,-1,-1,-1,-1,-1,-1,-1,-1,-1,-1,-1,-1,-1,-1,-1],"split_conditions":[-3.4895182E-1,-1.5291275E0,-4.8874408E-2,-1.162323E-2,1.0467422E-1,2.2080567E-1,-2.601126E-1,-8.79946E-2,-1.2640855E0,5.0568444E-1,1.603416E0,7.393686E-2,-9.37647E-2,-2.7191818E-2,-1.4381895E0,1.5393008E0,-2.7936748E-1,1.2064153E0,3.057832E0,1.7018244E-1,-7.764667E-1,-1.6626158E0,3.2513943E-2,-1.3143854E0,-8.625257E-1,9.5819706E-1,6.8653655E-1,2.4620419E0,1.9810766E-2,-3.261581E-2,8.218679E-2,2.9430503E-2,1.1250915E-1,8.587489E-3,-1.0316463E-1,-2.2583071E-2,1.1746087E-1,1.2334293E-2,-8.416142E-2,5.5067547E-2,-2.3216608E-3,-1.02352336E-1,9.263626E-3,-1.06950976E-1,1.1023232E-2],"split_indices":[20,4,22,0,0,20,15,15,4,20,2,0,0,0,22,17,4,4,0,15,15,4,0,4,15,1,15,5,0,0,0,0,0,0,0,0,0,0,0,0,0,0,0,0,0],"split_type":[0,0,0,0,0,0,0,0,0,0,0,0,0,0,0,0,0,0,0,0,0,0,0,0,0,0,0,0,0,0,0,0,0,0,0,0,0,0,0,0,0,0,0,0,0],"sum_hessian":[1.5614354E2,2.1806953E1,1.3433658E2,1.1469865E0,2.0659967E1,1.92926E1,1.1504398E2,3.8251228E0,1.5467478E1,4.122007E1,7.3823906E1,1.9582125E0,1.8669103E0,1.2559386E0,1.4211539E1,2.7497972E1,1.3722098E1,5.8335075E1,1.5488836E1,3.0229733E0,1.1188566E1,2.5883894E1,1.6140783E0,4.333392E0,9.388706E0,5.2537193E1,5.797879E0,1.3851225E1,1.6376114E0,1.7719676E0,1.2510058E0,1.0663561E0,1.01222105E1,1.7459623E0,2.4137932E1,1.4806229E0,2.8527694E0,1.2734426E0,8.115263E0,2.4825727E1,2.7711468E1,4.4090347E0,1.3888443E0,1.135334E1,2.4978848E0],"tree_param":{"num_deleted":"0","num_feature":"24","num_nodes":"45","size_leaf_vector":"1"}},{"base_weights":[4.787682E-2,-2.2217952E-1,6.994753E-1,9.261213E-1,-2.953295E-1,7.415285E-1,-5.8033247E-2,1.11044265E-1,7.0809834E-3,8.99474E-1,-3.5551924E-1,5.128675E-1,1.1155909E-1,7.323142E-3,1.1023774E-1,-6.82517E-2,-6.014336E-1,9.837185E-2,6.963158E-1,1.3993295E-1,-8.417399E-1,-7.2045904E-1,6.577694E-2,9.77248E-2,-4.0538904E-1,7.9426265E-1,-4.8415355E-2,2.1629317E-2,-9.858035E-2,-9.546197E-2,-1.6509833E-2,-7.867097E-2,6.1650492E-2,-7.290813E-2,4.7944013E-2,1.8688839E-2,-1.3642131E-1,8.620449E-2,-2.15681E-2],"categories":[],"categories_nodes":[],"categories_segments":[],"categories_sizes":[],"default_left":[0,0,0,0,0,0,0,0,0,0,0,0,0,0,0,0,0,0,0,0,0,0,0,0,0,0,0,0,0,0,0,0,0,0,0,0,0,0,0],"id":12,"left_children":[1,3,5,7,9,11,-1,-1,-1,13,15,17,-1,-1,-1,19,21,23,25,27,29,31,33,-1,35,37,-1,-1,-1,-1,-1,-1,-1,-1,-1,-1,-1,-1,-1],"loss_changes":[2.7532396E1,9.576433E0,2.896782E0,1.0051403E0,7.861994E0,3.260498E0,0E0,0E0,0E0,8.1001616E-1,7.063098E0,2.1868167E0,0E0,0E0,0E0,7.768256E0,4.340067E0,4.940574E0,2.7427893E0,3.5048594E0,6.228409E-1,4.5554028E0,3.3414454E0,0E0,4.361516E0,1.5011091E0,0E0,0E0,0E0,0E0,0E0,0E0,0E0,0E0,0E0,0E0,0E0,0E0,0E0],"parents":[2147483647,0,0,1,1,2,2,3,3,4,4,5,5,9,9,10,10,11,11,15,15,16,16,17,17,18,18,19,19,20,20,21,21,22,22,24,24,25,25],"right_children":[2,4,6,8,10,12,-1,-1,-1,14,16,18,-1,-1,-1,20,22,24,26,28,30,32,34,-1,36,38,-1,-1,-1,-1,-1,-1,-1,-1,-1,-1,-1,-1,-1],"split_conditions":[-1.284859E-1,-1.1172549E0,2.0350983E0,7.9056317E-1,-7.43532E-1,1.447335E0,-5.8033247E-2,1.11044265E-1,7.0809834E-3,-1.4381895E0,9.5819706E-1,-3.9544427E-1,1.1155909E-1,7.323142E-3,1.1023774E-1,8.001933E-1,5.0568444E-1,-5.9431446E-1,1.2509114E0,1.6571801E0,-3.0521348E-1,3.3344536E0,-7.028505E-1,9.77248E-2,5.8373797E-1,1.2853347E0,-4.8415355E-2,2.1629317E-2,-9.858035E-2,-9.546197E-2,-1.6509833E-2,-7.867097E-2,6.1650492E-2,-7.290813E-2,4.7944013E-2,1.8688839E-2,-1.3642131E-1,8.620449E-2,-2.15681E-2],"split_indices":[16,18,22,20,22,16,0,0,0,22,1,4,0,0,0,18,20,18,4,4,16,0,16,0,19,16,0,0,0,0,0,0,0,0,0,0,0,0,0],"split_type":[0,0,0,0,0,0,0,0,0,0,0,0,0,0,0,0,0,0,0,0,0,0,0,0,0,0,0,0,0,0,0,0,0,0,0,0,0,0,0],"sum_hessian":[1.5457909E2,1.0975141E2,4.482768E1,5.874445E0,1.0387697E2,4.3808758E1,1.01892E0,4.587532E0,1.286913E0,4.3132024E0,9.956377E1,2.8660145E1,1.5148614E1,1.1186931E0,3.1945095E0,4.6510067E1,5.30537E1,9.264204E0,1.939594E1,3.7292E1,9.218067E0,4.495436E1,8.099337E0,3.032941E0,6.231263E0,1.8212004E1,1.1839365E0,3.5679665E1,1.6123346E0,7.5480533E0,1.6700143E0,4.3224052E1,1.7303121E0,2.511316E0,5.5880203E0,4.3495674E0,1.8816957E0,1.7203814E1,1.0081903E0],"tree_param":{"num_deleted":"0","num_feature":"24","num_nodes":"39","size_leaf_vector":"1"}},{"base_weights":[-4.2771354E-2,-2.6700658E-1,6.3690835E-1,8.130827E-1,-3.588597E-1,4.137686E-1,9.5544297E-1,1.082595E-1,-2.8167576E-2,-4.6474487E-2,-6.4702165E-1,6.023403E-1,-3.0015647E-1,1.0412326E-1,1.90831E-2,-5.683788E-1,9.370446E-2,7.465636E-2,-7.149568E-1,-3.0472625E-2,7.096914E-1,7.0623115E-2,-6.9455004E-1,2.9816706E-2,-6.917197E-1,6.927837E-1,-4.7775537E-2,-7.7554905E-1,7.8518E-2,-2.5744084E-2,8.314984E-1,-1.6037509E-2,-9.133458E-2,-7.901343E-2,-6.043792E-4,2.071499E-2,8.8594645E-2,5.0715365E-2,-2.0378824E-2,2.8993044E-2,-8.4886774E-2,4.552496E-2,1.0937251E-1],"categories":[],"categories_nodes":[],"categories_segments":[],"categories_sizes":[],"default_left":[0,0,0,0,0,0,0,0,0,0,0,0,0,0,0,0,0,0,0,0,0,0,0,0,0,0,0,0,0,0,0,0,0,0,0,0,0,0,0,0,0,0,0],"id":13,"left_children":[1,3,5,7,9,11,13,-1,-1,15,17,19,21,-1,-1,23,25,-1,27,-1,29,-1,31,-1,33,35,37,39,-1,-1,41,-1,-1,-1,-1,-1,-1,-1,-1,-1,-1,-1,-1],"loss_changes":[2.2518902E1,1.1300678E1,2.211236E0,2.9613938E0,9.238377E0,3.3214998E0,7.421398E-1,0E0,0E0,3.7465382E0,5.596941E0,2.0456572E0,2.6901636E0,0E0,0E0,1.3637462E0,3.478702E0,0E0,5.290613E0,0E0,2.2284317E0,0E0,3.777933E-1,0E0,6.5529394E-1,5.510688E-1,3.031477E0,4.1527824E0,0E0,0E0,1.0237656E0,0E0,0E0,0E0,0E0,0E0,0E0,0E0,0E0,0E0,0E0,0E0,0E0],"parents":[2147483647,0,0,1,1,2,2,3,3,4,4,5,5,6,6,9,9,10,10,11,11,12,12,15,15,16,16,18,18,20,20,22,22,24,24,25,25,26,26,27,27,30,30],"right_children":[2,4,6,8,10,12,14,-1,-1,16,18,20,22,-1,-1,24,26,-1,28,-1,30,-1,32,-1,34,36,38,40,-1,-1,42,-1,-1,-1,-1,-1,-1,-1,-1,-1,-1,-1,-1],"split_conditions":[7.7696264E-2,-3.4895182E-1,1.447335E0,-4.012212E-2,9.5819706E-1,1.0202433E0,5.8373797E-1,1.082595E-1,-2.8167576E-2,-7.470324E-1,-7.8462356E-1,-4.7526017E-1,-6.3383055E-1,1.0412326E-1,1.90831E-2,-9.916142E-1,5.8373797E-1,7.465636E-2,3.3344536E0,-3.0472625E-2,-1.494716E0,7.0623115E-2,2.1321195E-1,2.9816706E-2,-2.601126E-1,-5.182897E-1,-1.4366132E-1,-1.6447333E0,7.8518E-2,-2.5744084E-2,4.458787E-1,-1.6037509E-2,-9.133458E-2,-7.901343E-2,-6.043792E-4,2.071499E-2,8.8594645E-2,5.0715365E-2,-2.0378824E-2,2.8993044E-2,-8.4886774E-2,4.552496E-2,1.0937251E-1],"split_indices":[16,20,16,16,1,16,19,0,0,16,21,15,20,0,0,15,19,0,0,0,21,0,15,0,15,15,5,0,0,0,16,0,0,0,0,0,0,0,0,0,0,0,0],"split_type":[0,0,0,0,0,0,0,0,0,0,0,0,0,0,0,0,0,0,0,0,0,0,0,0,0,0,0,0,0,0,0,0,0,0,0,0,0,0,0,0,0,0,0],"sum_hessian":[1.4563814E2,1.09966064E2,3.567208E1,8.003377E0,1.01962685E2,2.2329088E1,1.3342993E1,6.431222E0,1.5721548E0,4.9482216E1,5.248047E1,1.778719E1,4.5418987E0,1.1671652E1,1.6713406E0,9.829829E0,3.9652386E1,1.9750941E0,5.0505375E1,1.6877662E0,1.6099422E1,1.0561665E0,3.4857323E0,1.0481949E0,8.781634E0,6.8309402E0,3.2821445E1,4.9008865E1,1.4965107E0,1.6762993E0,1.4423123E1,1.5164392E0,1.9692932E0,7.5461907E0,1.2354432E0,2.5335953E0,4.2973447E0,6.7085953E0,2.611285E1,2.9651017E0,4.6043762E1,7.0474186E0,7.375705E0],"tree_param":{"num_deleted":"0","num_feature":"24","num_nodes":"43","size_leaf_vector":"1"}},{"base_weights":[2.8195877E-3,-2.4164025E-1,5.915586E-1,8.79039E-1,-3.013536E-1,6.551843E-1,-5.114606E-2,1.8481513E-2,9.970749E-2,-3.6563927E-1,3.1517863E-1,4.4007343E-1,1.0417465E-1,5.947936E-1,-4.0518674E-1,9.447362E-2,9.17772E-2,5.020393E-1,-5.2581817E-2,-3.0483225E-2,1.1760161E-1,2.5441343E-1,-4.632833E-1,4.2742956E-1,-6.0720604E-2,5.7073486E-1,-5.6098707E-2,8.2422264E-2,-6.556404E-2,-5.3291507E-2,2.00957E-2,-1.6411684E-2,1.0296877E-1,3.8956102E-2,1.0893267E-1],"categories":[],"categories_nodes":[],"categories_segments":[],"categories_sizes":[],"default_left":[0,0,0,0,0,0,0,0,0,0,0,0,0,0,0,0,0,0,0,0,0,0,0,0,0,0,0,0,0,0,0,0,0,0,0],"id":14,"left_children":[1,3,5,7,9,11,-1,-1,-1,13,15,17,-1,19,21,-1,23,25,-1,-1,-1,27,29,31,-1,33,-1,-1,-1,-1,-1,-1,-1,-1,-1],"loss_changes":[2.0460396E1,6.9876385E0,3.262248E0,2.5308466E-1,3.924986E0,2.8571072E0,0E0,0E0,0E0,3.5648403E0,1.2653574E0,1.9008646E0,0E0,2.37997E0,3.3614407E0,0E0,2.1841097E0,2.234272E0,0E0,0E0,0E0,4.428157E0,3.7215176E0,2.3524427E0,0E0,1.9354362E0,0E0,0E0,0E0,0E0,0E0,0E0,0E0,0E0,0E0],"parents":[2147483647,0,0,1,1,2,2,3,3,4,4,5,5,9,9,10,10,11,11,13,13,14,14,16,16,17,17,21,21,22,22,23,23,25,25],"right_children":[2,4,6,8,10,12,-1,-1,-1,14,16,18,-1,20,22,-1,24,26,-1,-1,-1,28,30,32,-1,34,-1,-1,-1,-1,-1,-1,-1,-1,-1],"split_conditions":[-1.284859E-1,-3.4895182E-1,2.0350983E0,-7.453105E-2,4.1093923E-2,1.6093353E0,-5.114606E-2,1.8481513E-2,9.970749E-2,-7.43532E-1,-1.3801622E0,1.3736985E0,1.0417465E-1,-7.453105E-2,-1.6447333E0,9.447362E-2,9.5819706E-1,1.2373691E0,-5.2581817E-2,-3.0483225E-2,1.1760161E-1,3.485447E0,1.9513462E0,5.0568444E-1,-6.0720604E-2,6.685929E-1,-5.6098707E-2,8.2422264E-2,-6.556404E-2,-5.3291507E-2,2.00957E-2,-1.6411684E-2,1.0296877E-1,3.8956102E-2,1.0893267E-1],"split_indices":[16,20,22,21,15,16,0,0,0,22,4,16,0,21,0,0,1,4,0,0,0,3,0,20,0,4,0,0,0,0,0,0,0,0,0],"split_type":[0,0,0,0,0,0,0,0,0,0,0,0,0,0,0,0,0,0,0,0,0,0,0,0,0,0,0,0,0,0,0,0,0,0,0],"sum_hessian":[1.4016887E2,9.946002E1,4.0708843E1,4.337342E0,9.512268E1,3.8872555E1,1.8362888E0,1.0031435E0,3.3341982E0,8.6509315E1,8.613363E0,2.6348682E1,1.2523871E1,2.8660343E0,8.364329E1,1.4102703E0,7.2030926E0,2.5211493E1,1.1371889E0,1.3115412E0,1.5544931E0,6.497273E0,7.714601E1,5.1287575E0,2.0743353E0,2.411615E1,1.0953441E0,4.0535507E0,2.4437227E0,7.000514E1,7.140869E0,2.9544008E0,2.1743565E0,1.9170118E1,4.9460316E0],"tree_param":{"num_deleted":"0","num_feature":"24","num_nodes":"35","size_leaf_vector":"1"}},{"base_weights":[-4.884186E-2,-2.586294E-1,6.567181E-1,9.531435E-1,-3.2287353E-1,7.586969E-1,-8.8936806E-2,2.164178E-2,1.0739609E-1,-4.843658E-2,-5.8032334E-1,8.3378863E-1,-2.0627927E-2,3.7179148E-1,-5.9615742E-2,8.0257714E-2,-6.4478284E-1,5.9399885E-1,-6.515601E-1,9.9840516E-1,5.0594205E-1,1.0713935E-2,4.608467E-2,8.787729E-1,1.8501848E-3,-8.0024415E-1,-9.246338E-2,1.3520271E-2,8.435625E-2,-7.6076996E-1,-2.2181688E-2,3.252161E-2,1.0693444E-1,7.592015E-1,5.5451646E-2,1.0237904E-1,2.7609825E-2,8.848601E-2,-8.077569E-3,-3.1868022E-2,-8.9582E-2,2.5855348E-2,-3.7832897E-2,-8.6325906E-2,-3.8226295E-4,-3.1959146E-2,6.450216E-2,1.8149238E-2,8.318397E-2,-8.475896E-2,8.2602605E-2],"categories":[],"categories_nodes":[],"categories_segments":[],"categories_sizes":[],"default_left":[0,0,0,0,0,0,0,0,0,0,0,0,0,0,0,0,0,0,0,0,0,0,0,0,0,0,0,0,0,0,0,0,0,0,0,0,0,0,0,0,0,0,0,0,0,0,0,0,0,0,0],"id":15,"left_children":[1,3,5,7,9,11,13,-1,-1,15,17,19,-1,21,-1,23,25,27,29,31,33,-1,-1,35,37,39,41,-1,-1,43,45,-1,-1,47,49,-1,-1,-1,-1,-1,-1,-1,-1,-1,-1,-1,-1,-1,-1,-1,-1],"loss_changes":[2.105138E1,8.829071E0,2.547574E0,2.8062773E-1,7.3690042E0,2.2586212E0,1.3478078E0,0E0,0E0,4.024666E0,4.898407E0,9.474678E-1,0E0,2.4657637E-2,0E0,2.7198615E0,7.244828E-1,2.98993E-1,3.5106373E0,4.5887375E-1,1.2156937E0,0E0,0E0,5.6824923E-2,3.0324E0,4.250431E-2,4.162277E-1,0E0,0E0,3.3870888E0,1.9163376E0,0E0,0E0,1.4186192E-1,4.2115736E0,0E0,0E0,0E0,0E0,0E0,0E0,0E0,0E0,0E0,0E0,0E0,0E0,0E0,0E0,0E0,0E0],"parents":[2147483647,0,0,1,1,2,2,3,3,4,4,5,5,6,6,9,9,10,10,11,11,13,13,15,15,16,16,17,17,18,18,19,19,20,20,23,23,24,24,25,25,26,26,29,29,30,30,33,33,34,34],"right_children":[2,4,6,8,10,12,14,-1,-1,16,18,20,-1,22,-1,24,26,28,30,32,34,-1,-1,36,38,40,42,-1,-1,44,46,-1,-1,48,50,-1,-1,-1,-1,-1,-1,-1,-1,-1,-1,-1,-1,-1,-1,-1,-1],"split_conditions":[1.21878155E-1,-1.2915683E0,6.258798E-1,-7.453105E-2,9.5819706E-1,2.0350983E0,8.8769764E-1,2.164178E-2,1.0739609E-1,9.745068E-1,-7.8462356E-1,9.5819706E-1,-2.0627927E-2,3.8696954E-1,-5.9615742E-2,-7.43532E-1,-3.1994078E-1,4.5156637E-1,2.9161713E-1,2.3969655E-1,8.870164E-1,1.0713935E-2,4.608467E-2,-3.1994078E-1,-1.6447333E0,-8.943054E-1,-2.4630429E-1,1.3520271E-2,8.435625E-2,7.9056317E-1,1.1323433E0,3.252161E-2,1.0693444E-1,3.8696954E-1,1.5393008E0,1.0237904E-1,2.7609825E-2,8.848601E-2,-8.077569E-3,-3.1868022E-2,-8.9582E-2,2.5855348E-2,-3.7832897E-2,-8.6325906E-2,-3.8226295E-4,-3.1959146E-2,6.450216E-2,1.8149238E-2,8.318397E-2,-8.475896E-2,8.2602605E-2],"split_indices":[16,18,18,21,1,22,16,0,0,18,21,1,0,16,0,22,16,18,0,16,17,0,0,16,0,16,16,0,0,20,5,0,0,16,17,0,0,0,0,0,0,0,0,0,0,0,0,0,0,0,0],"split_type":[0,0,0,0,0,0,0,0,0,0,0,0,0,0,0,0,0,0,0,0,0,0,0,0,0,0,0,0,0,0,0,0,0,0,0,0,0,0,0,0,0,0,0,0,0,0,0,0,0,0,0],"sum_hessian":[1.4007457E2,1.0845929E2,3.1615284E1,4.7640214E0,1.0369527E2,2.7796263E1,3.8190215E0,1.0644505E0,3.699571E0,5.0766846E1,5.292842E1,2.5915537E1,1.8807255E0,2.1411414E0,1.67788E0,4.2467567E1,8.29928E0,2.6074147E0,5.0321007E1,1.5891063E1,1.0024474E1,1.0937694E0,1.047372E0,2.8844175E0,3.958315E1,6.126091E0,2.1731894E0,1.4618027E0,1.1456119E0,4.27025E1,7.618507E0,2.047302E0,1.38437605E1,5.9782867E0,4.046188E0,1.7617542E0,1.1226635E0,2.5562003E0,3.7026947E1,1.7322712E0,4.39382E0,1.0183232E0,1.1548662E0,3.7486465E1,5.216036E0,5.6299305E0,1.9885764E0,1.0584832E0,4.919803E0,1.8169484E0,2.2292395E0],"tree_param":{"num_deleted":"0","num_feature":"24","num_nodes":"51","size_leaf_vector":"1"}},{"base_weights":[3.0932141E-2,-1.3007559E-1,7.313286E-1,5.8050895E-1,-2.3284934E-1,8.47577E-1,-3.4984404E-1,8.353819E-1,-3.4426856E-1,5.097585E-1,-3.163809E-1,9.3762076E-1,-4.7773052E-2,3.9270107E-2,-9.638441E-2,1.018473E0,3.5003468E-1,3.939413E-2,-8.50985E-2,1.3241127E-1,1.0605652E0,-3.8199517E-1,4.0573338E-1,9.806698E-1,8.2854E-3,1.0867765E-1,3.0107025E-2,9.202289E-1,-5.026078E-2,-6.1715025E-2,3.9638922E-1,1.2256131E-1,3.0062223E-2,6.379459E-1,-4.2471504E-1,7.7851176E-1,-2.8804672E-1,2.2079287E-2,1.012516E-1,1.0805978E-1,2.9744802E-2,-3.1866904E-2,7.443948E-2,-1.3436228E-2,1.0201501E-1,-1.0901084E-1,-3.481344E-2,2.1459885E-2,8.594208E-2,3.8784027E-2,-8.7821536E-2],"categories":[],"categories_nodes":[],"categories_segments":[],"categories_sizes":[],"default_left":[0,0,0,0,0,0,0,0,0,0,0,0,0,0,0,0,0,0,0,0,0,0,0,0,0,0,0,0,0,0,0,0,0,0,0,0,0,0,0,0,0,0,0,0,0,0,0,0,0,0,0],"id":16,"left_children":[1,3,5,7,9,11,13,15,17,19,21,23,-1,-1,-1,25,27,-1,-1,29,31,33,35,37,-1,-1,-1,39,-1,-1,41,-1,-1,43,45,47,49,-1,-1,-1,-1,-1,-1,-1,-1,-1,-1,-1,-1,-1,-1],"loss_changes":[1.635256E1,8.757614E0,3.7022457E0,3.8714366E0,6.604024E0,3.4025536E0,1.9006073E0,7.2866535E-1,1.828996E0,2.121889E0,4.6077776E0,7.84256E-1,0E0,0E0,0E0,8.162689E-2,2.829468E0,0E0,0E0,1.7488362E0,1.6870165E-1,4.0471134E0,2.3741841E0,3.1611633E-1,0E0,0E0,0E0,5.243778E-3,0E0,0E0,1.7877656E0,0E0,0E0,1.283457E0,3.889697E0,7.4608564E-2,1.790729E0,0E0,0E0,0E0,0E0,0E0,0E0,0E0,0E0,0E0,0E0,0E0,0E0,0E0,0E0],"parents":[2147483647,0,0,1,1,2,2,3,3,4,4,5,5,6,6,7,7,8,8,9,9,10,10,11,11,15,15,16,16,19,19,20,20,21,21,22,22,23,23,27,27,30,30,33,33,34,34,35,35,36,36],"right_children":[2,4,6,8,10,12,14,16,18,20,22,24,-1,-1,-1,26,28,-1,-1,30,32,34,36,38,-1,-1,-1,40,-1,-1,42,-1,-1,44,46,48,50,-1,-1,-1,-1,-1,-1,-1,-1,-1,-1,-1,-1,-1,-1],"split_conditions":[2.5624147E-1,2.2080567E-1,2.0350983E0,-4.496509E-2,-4.8874408E-2,1.5004765E0,-6.407308E-2,1.0293944E-1,-2.5394822E-2,6.3556147E-1,2.2279675E0,9.745068E-1,-4.7773052E-2,3.9270107E-2,-9.638441E-2,2.0557466E0,-4.3223065E-1,3.939413E-2,-8.50985E-2,-4.2000097E-1,-2.1708311E-1,-1.610993E0,1.6154702E0,-1.5446044E0,8.2854E-3,1.0867765E-1,3.0107025E-2,2.3473208E-1,-5.026078E-2,-6.1715025E-2,6.886285E-2,1.2256131E-1,3.0062223E-2,-1.643161E0,-1.2844923E0,-1.2447394E0,-4.5348266E-1,2.2079287E-2,1.012516E-1,1.0805978E-1,2.9744802E-2,-3.1866904E-2,7.443948E-2,-1.3436228E-2,1.0201501E-1,-1.0901084E-1,-3.481344E-2,2.1459885E-2,8.594208E-2,3.8784027E-2,-8.7821536E-2],"split_indices":[15,20,22,15,22,4,20,18,16,21,0,18,0,0,0,21,15,0,0,18,15,5,3,4,0,0,0,17,0,0,4,0,0,5,5,4,4,0,0,0,0,0,0,0,0,0,0,0,0,0,0],"split_type":[0,0,0,0,0,0,0,0,0,0,0,0,0,0,0,0,0,0,0,0,0,0,0,0,0,0,0,0,0,0,0,0,0,0,0,0,0,0,0,0,0,0,0,0,0,0,0,0,0,0,0],"sum_hessian":[1.4316548E2,1.17068054E2,2.609742E1,1.4205041E1,1.02863014E2,2.3758905E1,2.3385146E0,1.1211709E1,2.9933321E0,9.884629E0,9.2978386E1,2.2521294E1,1.237612E0,1.2215937E0,1.1169207E0,7.3431544E0,3.8685548E0,1.3089495E0,1.6843827E0,6.6020713E0,3.282558E0,8.5665474E1,7.312911E0,2.1301197E1,1.2200975E0,6.2346787E0,1.1084756E0,2.2707508E0,1.5978041E0,1.3710655E0,5.2310057E0,2.1934128E0,1.0891452E0,2.8836968E0,8.278178E1,4.6774936E0,2.6354172E0,1.1759177E0,2.0125278E1,1.2211754E0,1.0495752E0,1.7400231E0,3.4909825E0,1.1693274E0,1.7143695E0,7.1780853E0,7.560369E1,1.0451872E0,3.6323063E0,1.3883032E0,1.2471142E0],"tree_param":{"num_deleted":"0","num_feature":"24","num_nodes":"51","size_leaf_vector":"1"}},{"base_weights":[-2.0421565E-2,6.575372E-1,-1.8732598E-1,7.7120245E-1,-4.140173E-2,7.967167E-1,-2.7502736E-1,1.006592E0,5.6105727E-1,-6.712618E-1,9.941408E-2,6.9950245E-2,1.08942E0,-3.2781094E-1,8.231673E-2,1.1192818E-1,3.5307582E-2,-3.917051E-1,8.56323E-1,-1.6287946E-3,-9.811539E-2,-4.6701755E-2,7.366833E-2,2.1290775E-2,1.2124993E-1,8.919389E-2,-3.6276037E-1,6.043731E-2,-9.160715E-1,9.6440464E-1,-3.98368E-3,-4.5139834E-1,7.4450396E-2,-1.1812232E-1,-2.1928685E-2,1.41985165E-2,1.0436704E-1,-6.2843576E-2,-2.9524586E-3,4.75122E-2,-5.366671E-2],"categories":[],"categories_nodes":[],"categories_segments":[],"categories_sizes":[],"default_left":[0,0,0,0,0,0,0,0,0,0,0,0,0,0,0,0,0,0,0,0,0,0,0,0,0,0,0,0,0,0,0,0,0,0,0,0,0,0,0,0,0],"id":17,"left_children":[1,3,5,7,9,11,13,15,17,19,-1,21,23,25,-1,-1,-1,27,29,-1,-1,-1,-1,-1,-1,-1,31,-1,33,35,-1,37,39,-1,-1,-1,-1,-1,-1,-1,-1],"loss_changes":[1.5376937E1,2.165247E0,9.621908E0,5.802593E-1,3.736246E0,1.8749762E0,6.1117206E0,3.161211E-1,4.411404E0,6.9900215E-1,0E0,1.6694431E0,4.398532E-1,4.4532356E0,0E0,0E0,0E0,2.7024307E0,1.1401682E0,0E0,0E0,0E0,0E0,0E0,0E0,0E0,3.7107668E0,0E0,3.12356E-1,5.161171E-1,0E0,5.884245E0,4.381457E0,0E0,0E0,0E0,0E0,0E0,0E0,0E0,0E0],"parents":[2147483647,0,0,1,1,2,2,3,3,4,4,5,5,6,6,7,7,8,8,9,9,11,11,12,12,13,13,17,17,18,18,26,26,28,28,29,29,31,31,32,32],"right_children":[2,4,6,8,10,12,14,16,18,20,-1,22,24,26,-1,-1,-1,28,30,-1,-1,-1,-1,-1,-1,-1,32,-1,34,36,-1,38,40,-1,-1,-1,-1,-1,-1,-1,-1],"split_conditions":[2.2080567E-1,2.772529E-1,-7.43532E-1,-4.496509E-2,2.7297559E0,-1.4381895E0,1.300062E0,1.3404408E0,2.5624147E-1,9.5819706E-1,9.941408E-2,2.772529E-1,-1.1172549E0,-1.2915683E0,8.231673E-2,1.1192818E-1,3.5307582E-2,-1.1172549E0,2.0350983E0,-1.6287946E-3,-9.811539E-2,-4.6701755E-2,7.366833E-2,2.1290775E-2,1.2124993E-1,8.919389E-2,2.9161713E-1,6.043731E-2,-4.8874408E-2,-1.461416E0,-3.98368E-3,5.0568444E-1,1.603416E0,-1.1812232E-1,-2.1928685E-2,1.41985165E-2,1.0436704E-1,-6.2843576E-2,-2.9524586E-3,4.75122E-2,-5.366671E-2],"split_indices":[20,18,22,15,22,22,16,22,15,1,0,18,18,18,0,0,0,18,22,0,0,0,0,0,0,0,0,0,22,4,0,20,2,0,0,0,0,0,0,0,0],"split_type":[0,0,0,0,0,0,0,0,0,0,0,0,0,0,0,0,0,0,0,0,0,0,0,0,0,0,0,0,0,0,0,0,0,0,0,0,0,0,0,0,0],"sum_hessian":[1.3380498E2,2.5852716E1,1.0795226E2,2.2147568E1,3.7051473E0,8.172238E0,9.978002E1,8.658712E0,1.3488856E1,2.5225844E0,1.1825631E0,2.7020855E0,5.4701533E0,9.587347E1,3.9065566E0,6.777347E0,1.8813653E0,3.1139987E0,1.0374857E1,1.1482519E0,1.3743325E0,1.6626103E0,1.0394753E0,1.0096623E0,4.460491E0,1.9875152E0,9.388595E1,1.0213258E0,2.0926728E0,9.190306E0,1.1845517E0,7.803339E1,1.585256E1,1.012233E0,1.0804397E0,1.0532805E0,8.137025E0,5.462192E1,2.3411467E1,9.709309E0,6.143252E0],"tree_param":{"num_deleted":"0","num_feature":"24","num_nodes":"41","size_leaf_vector":"1"}},{"base_weights":[6.1332393E-3,7.9044914E-1,-1.0378658E-1,9.241651E-1,-1.3376236E-2,-1.9621448E-1,5.395204E-1,9.657101E-1,1.8558322E-2,-2.4009529E-1,7.8504777E-1,-3.0474726E-2,6.281362E-1,2.1318192E-2,1.0139819E-1,-3.68482E-1,1.4040579E-1,9.043793E-2,2.9670278E-2,1.0369306E-1,3.609571E-1,-4.5413253E-1,4.5536032E-1,4.633352E-1,-2.2209573E-1,-5.8974415E-2,5.927909E-1,-2.4661819E-2,-9.7631745E-2,1.11583434E-1,-2.1050086E-2,-3.5877552E-2,5.6855567E-2,1.1033417E-2,-5.5231657E-2,2.1025075E-2,9.0782456E-2],"categories":[],"categories_nodes":[],"categories_segments":[],"categories_sizes":[],"default_left":[0,0,0,0,0,0,0,0,0,0,0,0,0,0,0,0,0,0,0,0,0,0,0,0,0,0,0,0,0,0,0,0,0,0,0,0,0],"id":18,"left_children":[1,3,5,7,-1,9,11,13,-1,15,17,-1,19,-1,-1,21,23,-1,-1,-1,25,27,29,31,33,-1,35,-1,-1,-1,-1,-1,-1,-1,-1,-1,-1],"loss_changes":[1.17714E1,2.1976566E0,7.229474E0,2.745371E-1,0E0,4.7306747E0,1.3374119E0,2.8377247E-1,0E0,5.021816E0,8.450747E-3,0E0,1.1754723E0,0E0,0E0,5.5940523E0,3.1923804E0,0E0,0E0,0E0,2.5789595E0,7.3074245E0,3.6164942E0,1.439393E0,1.5000918E0,0E0,8.49226E-1,0E0,0E0,0E0,0E0,0E0,0E0,0E0,0E0,0E0,0E0],"parents":[2147483647,0,0,1,1,2,2,3,3,5,5,6,6,7,7,9,9,10,10,12,12,15,15,16,16,20,20,21,21,22,22,23,23,24,24,26,26],"right_children":[2,4,6,8,-1,10,12,14,-1,16,18,-1,20,-1,-1,22,24,-1,-1,-1,26,28,30,32,34,-1,36,-1,-1,-1,-1,-1,-1,-1,-1,-1,-1],"split_conditions":[-9.4294137E-1,7.9056317E-1,4.753333E-1,2.8438694E0,-1.3376236E-2,3.3344536E0,-4.7526017E-1,-1.4381895E0,1.8558322E-2,5.0568444E-1,1.6154702E0,-3.0474726E-2,1.2715293E-1,2.1318192E-2,1.0139819E-1,6.3556147E-1,6.457832E-1,9.043793E-2,2.9670278E-2,1.0369306E-1,2.1321195E-1,2.772529E-1,-3.4617165E-1,-1.4381895E0,1.075442E0,-5.8974415E-2,1.300062E0,-2.4661819E-2,-9.7631745E-2,1.11583434E-1,-2.1050086E-2,-3.5877552E-2,5.6855567E-2,1.1033417E-2,-5.5231657E-2,2.1025075E-2,9.0782456E-2],"split_indices":[18,20,16,17,0,0,15,22,0,20,3,0,15,0,0,21,22,0,0,0,15,18,15,22,20,0,16,0,0,0,0,0,0,0,0,0,0],"split_type":[0,0,0,0,0,0,0,0,0,0,0,0,0,0,0,0,0,0,0,0,0,0,0,0,0,0,0,0,0,0,0,0,0,0,0,0,0],"sum_hessian":[1.345888E2,1.5782693E1,1.18806114E2,1.3787894E1,1.9947987E0,1.0448858E2,1.4317532E1,1.2762489E1,1.0254049E0,1.0073898E2,3.7496002E0,1.1283607E0,1.3189171E1,1.0958073E0,1.1666682E1,7.534728E1,2.53917E1,2.3286471E0,1.420953E0,4.074302E0,9.114868E0,6.865803E1,6.6892505E0,1.3281712E1,1.2109988E1,1.4842899E0,7.630579E0,5.0186417E1,1.8471613E1,3.0189497E0,3.670301E0,1.2335974E0,1.2048115E1,6.366637E0,5.7433505E0,4.199087E0,3.4314919E0],"tree_param":{"num_deleted":"0","num_feature":"24","num_nodes":"37","size_leaf_vector":"1"}},{"base_weights":[4.5596775E-2,1.0365009E-1,-5.060077E-2,-5.6429255E-1,6.7734815E-2,4.6719465E-1,-7.085319E-1,1.24135435E-1,-8.517084E-1,-6.369008E-2,1.2540828E-1,3.752064E-2,-7.888882E-1,3.7036803E-1,-1.3424878E-1,-1.2365756E-2,-1.0027318E0,-8.5396516E-1,1.275026E-2,4.362242E-1,-3.7591013E-1,-2.4127612E-1,5.95422E-1,-1.1571635E-1,-2.8836235E-2,-4.767684E-4,-9.095332E-2,5.1954485E-2,-5.3507753E-2,-8.187102E-2,1.556852E-2,-3.1211058E-2,7.1099095E-2,-6.46731E-3,7.7907555E-2],"categories":[],"categories_nodes":[],"categories_segments":[],"categories_sizes":[],"default_left":[0,0,0,0,0,0,0,0,0,0,0,0,0,0,0,0,0,0,0,0,0,0,0,0,0,0,0,0,0,0,0,0,0,0,0],"id":19,"left_children":[1,-1,3,5,7,9,11,13,15,-1,-1,-1,17,19,21,-1,23,25,-1,27,29,31,33,-1,-1,-1,-1,-1,-1,-1,-1,-1,-1,-1,-1],"loss_changes":[1.21546955E1,0E0,7.1309505E0,3.59726E0,5.069827E0,3.6621926E0,2.0078669E0,5.8436117E0,4.983244E-1,0E0,0E0,0E0,1.2194719E0,2.468769E0,3.671257E0,0E0,1.6793299E-1,8.223047E-1,0E0,3.80295E0,1.1490376E0,2.927076E0,7.858126E-1,0E0,0E0,0E0,0E0,0E0,0E0,0E0,0E0,0E0,0E0,0E0,0E0],"parents":[2147483647,0,0,2,2,3,3,4,4,5,5,6,6,7,7,8,8,12,12,13,13,14,14,16,16,17,17,19,19,20,20,21,21,22,22],"right_children":[2,-1,4,6,8,10,12,14,16,-1,-1,-1,18,20,22,-1,24,26,-1,28,30,32,34,-1,-1,-1,-1,-1,-1,-1,-1,-1,-1,-1,-1],"split_conditions":[-1.1172549E0,1.0365009E-1,-6.5866864E-1,-9.916142E-1,1.5004765E0,-1.0563056E0,-4.8874408E-2,9.5819706E-1,-8.1486887E-1,-6.369008E-2,1.2540828E-1,3.752064E-2,3.4244134E0,2.0350983E0,6.3556147E-1,-1.2365756E-2,1.868053E0,-1.6471388E0,1.275026E-2,1.1488203E0,2.3473208E-1,1.5393008E0,-5.9431446E-1,-1.1571635E-1,-2.8836235E-2,-4.767684E-4,-9.095332E-2,5.1954485E-2,-5.3507753E-2,-8.187102E-2,1.556852E-2,-3.1211058E-2,7.1099095E-2,-6.46731E-3,7.7907555E-2],"split_indices":[18,0,16,15,4,16,22,1,0,0,0,0,22,22,21,0,4,4,0,18,17,17,18,0,0,0,0,0,0,0,0,0,0,0,0],"split_type":[0,0,0,0,0,0,0,0,0,0,0,0,0,0,0,0,0,0,0,0,0,0,0,0,0,0,0,0,0,0,0,0,0,0,0],"sum_hessian":[1.2596104E2,1.028132E1,1.1567972E2,2.0953318E1,9.47264E1,2.2958887E0,1.8657429E1,9.006651E1,4.659885E0,1.0346969E0,1.2611917E0,1.0346171E0,1.7622812E1,4.589578E1,4.4170734E1,1.1130259E0,3.546859E0,1.6517921E1,1.1048899E0,4.2555855E1,3.3399239E0,3.9104294E1,5.0664406E0,2.4067342E0,1.1401247E0,1.0811689E0,1.5436753E1,3.962208E1,2.933775E0,1.5274838E0,1.8124402E0,3.702261E1,2.0816855E0,1.2437946E0,3.8226461E0],"tree_param":{"num_deleted":"0","num_feature":"24","num_nodes":"35","size_leaf_vector":"1"}},{"base_weights":[7.0096724E-2,8.4800476E-1,-4.58403E-2,2.4500094E-1,1.0310196E0,-1.684016E-1,4.2965484E-1,-5.187211E-2,7.994702E-2,2.9821554E-2,1.0933486E-1,-5.476119E-1,-7.851003E-2,7.083582E-1,-3.2352957E-1,-2.3229414E-1,-8.135833E-1,3.6459263E-2,-4.960117E-1,8.165959E-2,2.9382384E-1,1.0415752E-1,-9.79441E-2,-6.919014E-1,6.8676746E-1,1.9339144E-2,-1.0827605E-1,9.8859586E-2,-1.2914044E-2,-2.657028E-1,-1.03686966E-1,-1.19773E-1,8.273442E-2,6.5000767E-1,-7.206196E-2,-9.582209E-2,-1.5376148E-2,9.138667E-2,1.5069442E-2,-6.4097606E-2,6.2096845E-2,-1.3318515E-2,3.7783604E-2,-4.2263325E-2,4.4771973E-2,1.3514303E-2,-3.950508E-2,2.0008722E-2,7.650965E-2],"categories":[],"categories_nodes":[],"categories_segments":[],"categories_sizes":[],"default_left":[0,0,0,0,0,0,0,0,0,0,0,0,0,0,0,0,0,0,0,0,0,0,0,0,0,0,0,0,0,0,0,0,0,0,0,0,0,0,0,0,0,0,0,0,0,0,0,0,0],"id":20,"left_children":[1,3,5,7,9,11,13,-1,-1,-1,-1,15,17,19,21,23,25,27,29,-1,31,33,-1,35,37,39,-1,-1,41,43,-1,45,-1,47,-1,-1,-1,-1,-1,-1,-1,-1,-1,-1,-1,-1,-1,-1,-1],"loss_changes":[1.1669984E1,1.599083E0,6.6685243E0,2.6245003E0,2.4763966E-1,3.049072E0,5.1573663E0,0E0,0E0,0E0,0E0,1.2547302E0,3.5937934E0,5.430002E-1,2.0733795E0,4.3935456E0,2.0249653E0,2.8024023E0,1.7365882E0,0E0,1.2410047E0,2.7903976E0,0E0,8.103056E-1,2.998618E-1,1.6555979E0,0E0,0E0,2.748021E0,1.6081114E0,0E0,3.1924653E-1,0E0,3.484559E-2,0E0,0E0,0E0,0E0,0E0,0E0,0E0,0E0,0E0,0E0,0E0,0E0,0E0,0E0,0E0],"parents":[2147483647,0,0,1,1,2,2,3,3,4,4,5,5,6,6,11,11,12,12,13,13,14,14,15,15,16,16,17,17,18,18,20,20,21,21,23,23,24,24,25,25,28,28,29,29,31,31,33,33],"right_children":[2,4,6,8,10,12,14,-1,-1,-1,-1,16,18,20,22,24,26,28,30,-1,32,34,-1,36,38,40,-1,-1,42,44,-1,46,-1,48,-1,-1,-1,-1,-1,-1,-1,-1,-1,-1,-1,-1,-1,-1,-1],"split_conditions":[-3.4895182E-1,-7.43532E-1,-4.012212E-2,2.9927096E-1,-1.494716E0,-7.470324E-1,6.457832E-1,-5.187211E-2,7.994702E-2,2.9821554E-2,1.0933486E-1,-8.943054E-1,7.4423075E-1,2.772529E-1,4.5156637E-1,-9.532146E-1,5.8373797E-1,-1.6062751E0,1.6154702E0,8.165959E-2,5.0568444E-1,2.0350983E0,-9.79441E-2,-1.0563056E0,-5.613192E-1,-7.912143E-1,-1.0827605E-1,9.8859586E-2,6.3556147E-1,2.4620419E0,-1.03686966E-1,8.8769764E-1,8.273442E-2,4.2835948E-1,-7.206196E-2,-9.582209E-2,-1.5376148E-2,9.138667E-2,1.5069442E-2,-6.4097606E-2,6.2096845E-2,-1.3318515E-2,3.7783604E-2,-4.2263325E-2,4.4771973E-2,1.3514303E-2,-3.950508E-2,2.0008722E-2,7.650965E-2],"split_indices":[20,22,16,15,21,16,22,0,0,0,0,16,2,18,18,16,19,5,3,0,20,22,0,16,15,16,0,0,21,5,0,16,0,15,0,0,0,0,0,0,0,0,0,0,0,0,0,0,0],"split_type":[0,0,0,0,0,0,0,0,0,0,0,0,0,0,0,0,0,0,0,0,0,0,0,0,0,0,0,0,0,0,0,0,0,0,0,0,0,0,0,0,0,0,0,0,0,0,0,0,0],"sum_hessian":[1.2796469E2,1.5778771E1,1.1218591E2,4.218429E0,1.1560343E1,8.970885E1,2.2477072E1,1.801512E0,2.416917E0,1.3596346E0,1.0200708E1,1.6214705E1,7.349414E1,1.6449663E1,6.0274096E0,8.276283E0,7.938421E0,5.834115E1,1.5152989E1,1.2274736E1,4.174926E0,4.157629E0,1.8697803E0,5.681984E0,2.5942993E0,2.1655748E0,5.772846E0,1.9383464E0,5.6402805E1,1.1673448E1,3.4795423E0,2.7886257E0,1.3863003E0,2.6293705E0,1.5282586E0,3.27875E0,2.4032342E0,1.327276E0,1.2670232E0,1.0012537E0,1.164321E0,4.3632175E1,1.277063E1,9.902752E0,1.7706952E0,1.7121692E0,1.0764565E0,1.0934106E0,1.53596E0],"tree_param":{"num_deleted":"0","num_feature":"24","num_nodes":"49","size_leaf_vector":"1"}},{"base_weights":[-1.0564024E-2,4.1248104E-1,-2.1115722E-1,6.0619646E-1,-2.7122733E-1,-1.027864E-1,-6.6706884E-1,-4.780033E-2,7.254046E-1,7.041974E-2,-4.670993E-1,-5.5729586E-1,4.7816303E-2,-9.6412987E-1,-1.6818716E-1,-5.451475E-1,5.195621E-1,9.703908E-1,5.3495306E-1,-6.746528E-1,1.15195E-1,2.4974401E-1,-9.882288E-1,1.4202487E-1,-3.001794E-1,4.14614E-3,-1.0843933E-1,2.7942702E-1,-8.73978E-2,-1.1688676E-2,-6.702276E-2,8.2936905E-2,-6.2203347E-3,1.0902071E-1,7.838148E-3,-7.0722E-2,7.664024E-1,-9.397309E-2,4.30732E-3,1.8296158E-2,-4.108734E-4,6.0163766E-1,-4.6182793E-2,-4.160783E-1,-1.1339718E-1,9.360444E-2,8.019901E-2,-6.1364067E-1,2.1949042E-1,-1.3498944E-1,9.317847E-2,-7.476453E-2,6.4668365E-2,9.197266E-2,2.0230955E-2,-4.62895E-2,1.2922117E-1,-7.278542E-2,-1.7197197E-3,4.5697164E-4,6.279246E-2,-2.9295627E-2,-1.2601177E-1,5.8255788E-2,-6.028629E-2,-6.1522868E-2,4.5022257E-2],"categories":[],"categories_nodes":[],"categories_segments":[],"categories_sizes":[],"default_left":[0,0,0,0,0,0,0,0,0,0,0,0,0,0,0,0,0,0,0,0,0,0,0,0,0,0,0,0,0,0,0,0,0,0,0,0,0,0,0,0,0,0,0,0,0,0,0,0,0,0,0,0,0,0,0,0,0,0,0,0,0,0,0,0,0,0,0],"id":21,"left_children":[1,3,5,7,9,11,13,15,17,-1,19,21,23,25,27,29,31,33,35,37,39,41,43,45,47,-1,-1,49,-1,-1,-1,-1,-1,-1,-1,51,53,-1,-1,-1,-1,55,-1,57,-1,-1,59,61,63,65,-1,-1,-1,-1,-1,-1,-1,-1,-1,-1,-1,-1,-1,-1,-1,-1,-1],"loss_changes":[1.0668729E1,5.521387E0,4.143347E0,2.5158978E0,2.1670308E0,4.8221807E0,2.2371564E0,1.9325427E0,7.397785E-1,0E0,1.1186612E0,6.338336E0,1.7979991E0,1.2466011E0,2.5358071E0,1.1464167E-1,6.359667E-1,1.0445061E0,2.4946108E0,1.2762799E0,2.5955744E-2,2.0044255E0,4.9714756E-1,2.0267553E0,2.045163E0,0E0,0E0,1.5306158E0,0E0,0E0,0E0,0E0,0E0,0E0,0E0,3.2655144E0,9.10614E-1,0E0,0E0,0E0,0E0,4.3091183E0,0E0,4.772988E-1,0E0,0E0,1.6878842E0,1.2020726E0,1.8886E0,1.4155408E0,0E0,0E0,0E0,0E0,0E0,0E0,0E0,0E0,0E0,0E0,0E0,0E0,0E0,0E0,0E0,0E0,0E0],"parents":[2147483647,0,0,1,1,2,2,3,3,4,4,5,5,6,6,7,7,8,8,10,10,11,11,12,12,13,13,14,14,15,15,16,16,17,17,18,18,19,19,20,20,21,21,22,22,23,23,24,24,27,27,35,35,36,36,41,41,43,43,46,46,47,47,48,48,49,49],"right_children":[2,4,6,8,10,12,14,16,18,-1,20,22,24,26,28,30,32,34,36,38,40,42,44,46,48,-1,-1,50,-1,-1,-1,-1,-1,-1,-1,52,54,-1,-1,-1,-1,56,-1,58,-1,-1,60,62,64,66,-1,-1,-1,-1,-1,-1,-1,-1,-1,-1,-1,-1,-1,-1,-1,-1,-1],"split_conditions":[5.8373797E-1,4.5156637E-1,8.001933E-1,-5.408502E-1,-3.4895182E-1,1.4995629E-2,7.9056317E-1,-2.601126E-1,-4.496509E-2,7.041974E-2,8.870164E-1,-1.6447333E0,2.3473208E-1,-1.0415784E0,1.3404408E0,-6.473782E-1,-5.555776E-1,2.772529E-1,2.9927096E-1,7.9056317E-1,1.9551465E-1,3.485447E0,-9.741396E-1,-7.43532E-1,9.2423566E-2,4.14614E-3,-1.0843933E-1,-4.496509E-2,-8.73978E-2,-1.1688676E-2,-6.702276E-2,8.2936905E-2,-6.2203347E-3,1.0902071E-1,7.838148E-3,-4.2000097E-1,-4.2000097E-1,-9.397309E-2,4.30732E-3,1.8296158E-2,-4.108734E-4,-2.7512193E0,-4.6182793E-2,-8.1486887E-1,-1.1339718E-1,9.360444E-2,1.2715293E-1,-5.4849416E-2,1.1380618E0,1.075442E0,9.317847E-2,-7.476453E-2,6.4668365E-2,9.197266E-2,2.0230955E-2,-4.62895E-2,1.2922117E-1,-7.278542E-2,-1.7197197E-3,4.5697164E-4,6.279246E-2,-2.9295627E-2,-1.2601177E-1,5.8255788E-2,-6.028629E-2,-6.1522868E-2,4.5022257E-2],"split_indices":[19,18,18,16,20,0,20,15,15,0,17,0,17,16,22,15,16,18,15,20,16,3,2,22,16,0,0,15,0,0,0,0,0,0,0,18,18,0,0,0,0,0,0,0,0,0,15,16,16,20,0,0,0,0,0,0,0,0,0,0,0,0,0,0,0,0,0],"split_type":[0,0,0,0,0,0,0,0,0,0,0,0,0,0,0,0,0,0,0,0,0,0,0,0,0,0,0,0,0,0,0,0,0,0,0,0,0,0,0,0,0,0,0,0,0,0,0,0,0,0,0,0,0,0,0,0,0,0,0,0,0,0,0,0,0,0,0],"sum_hessian":[1.2369521E2,3.9446793E1,8.424842E1,3.082617E1,8.620624E0,6.9058556E1,1.518986E1,4.8449483E0,2.5981222E1,1.0076125E0,7.6130114E0,1.651547E1,5.2543087E1,8.936191E0,6.2536707E0,2.6026409E0,2.2423074E0,9.572493E0,1.6408728E1,5.4955583E0,2.117453E0,5.8953223E0,1.0620149E1,4.1814926E1,1.0728161E1,1.0245541E0,7.9116364E0,4.1963983E0,2.057272E0,1.0255985E0,1.5770422E0,1.1854265E0,1.056881E0,8.243075E0,1.3294177E0,4.7287083E0,1.168002E1,3.7874281E0,1.70813E0,1.0101132E0,1.1073399E0,4.047973E0,1.8473494E0,2.938645E0,7.6815033E0,1.9992231E0,3.9815704E1,6.5789537E0,4.1492076E0,3.0511808E0,1.1452175E0,2.4113123E0,2.317396E0,8.688087E0,2.9919324E0,1.7224616E0,2.3255115E0,1.1865032E0,1.7521418E0,3.5871017E1,3.9446845E0,5.3688827E0,1.2100712E0,3.0806866E0,1.0685208E0,1.6477255E0,1.4034555E0],"tree_param":{"num_deleted":"0","num_feature":"24","num_nodes":"67","size_leaf_vector":"1"}},{"base_weights":[3.8382433E-2,5.7943314E-1,-7.422323E-2,1.8434113E-1,8.032469E-1,-1.8026707E-1,3.890285E-1,5.15752E-1,-7.1749486E-2,1.0131045E-1,5.070665E-1,6.0238326E-1,-2.41577E-1,5.864175E-1,-3.778207E-1,8.810707E-2,1.152372E-1,9.943943E-2,2.2415642E-1,-1.17679745E-1,9.917265E-2,-3.261324E-1,2.6849124E-1,6.7633915E-1,-2.7334137E-2,-9.612372E-2,2.1125306E-1,6.180373E-2,-2.5926274E-1,4.3418196E-1,-3.144933E-2,4.4361588E-2,-6.4375505E-2,-1.119734E-1,-2.4805158E-1,6.233679E-1,-4.815471E-1,2.4690132E-1,9.2757297E-1,5.715813E-2,-2.669983E-2,9.853224E-3,-4.575082E-2,-3.1412214E-3,7.760621E-2,6.468114E-2,-3.1434577E-2,2.143756E-3,8.077978E-2,-9.370241E-2,1.4692004E-2,9.8678514E-2,-4.4019338E-2,1.02106705E-1,2.1558575E-2],"categories":[],"categories_nodes":[],"categories_segments":[],"categories_sizes":[],"default_left":[0,0,0,0,0,0,0,0,0,0,0,0,0,0,0,0,0,0,0,0,0,0,0,0,0,0,0,0,0,0,0,0,0,0,0,0,0,0,0,0,0,0,0,0,0,0,0,0,0,0,0,0,0,0,0],"id":22,"left_children":[1,3,5,7,9,11,13,15,-1,-1,17,19,21,23,25,-1,27,-1,29,31,-1,33,35,37,-1,-1,39,-1,41,43,-1,-1,-1,-1,45,47,49,51,53,-1,-1,-1,-1,-1,-1,-1,-1,-1,-1,-1,-1,-1,-1,-1,-1],"loss_changes":[7.776852E0,1.7956882E0,5.275322E0,3.1337707E0,3.3996677E-1,4.315566E0,3.25704E0,9.729841E-1,0E0,0E0,8.384001E-1,1.9668763E0,3.5941682E0,1.4481568E0,1.8229275E0,0E0,1.0365068E0,0E0,8.335904E-1,1.2334377E0,0E0,4.0718822E0,3.5235195E0,1.3980556E0,0E0,0E0,6.980503E-1,0E0,2.8422943E-1,7.9687047E-1,0E0,0E0,0E0,0E0,4.0707755E0,9.4365835E-1,1.4125428E0,3.9569082E0,3.890829E-1,0E0,0E0,0E0,0E0,0E0,0E0,0E0,0E0,0E0,0E0,0E0,0E0,0E0,0E0,0E0,0E0],"parents":[2147483647,0,0,1,1,2,2,3,3,4,4,5,5,6,6,7,7,10,10,11,11,12,12,13,13,14,14,16,16,18,18,19,19,21,21,22,22,23,23,26,26,28,28,29,29,34,34,35,35,36,36,37,37,38,38],"right_children":[2,4,6,8,10,12,14,16,-1,-1,18,20,22,24,26,-1,28,-1,30,32,-1,34,36,38,-1,-1,40,-1,42,44,-1,-1,-1,-1,46,48,50,52,54,-1,-1,-1,-1,-1,-1,-1,-1,-1,-1,-1,-1,-1,-1,-1,-1],"split_conditions":[2.2080567E-1,-7.453105E-2,-1.9355833E-3,-7.137403E-2,-6.3383055E-1,-1.6045774E0,6.258798E-1,-4.496509E-2,-7.1749486E-2,1.0131045E-1,-4.3223065E-1,-1.7129157E0,1.3981031E0,1.3070152E0,2.1321195E-1,8.810707E-2,-4.3457353E-1,9.943943E-2,1.0293944E-1,-1.7535425E0,9.917265E-2,-1.332783E0,2.6232415E-1,-1.787676E-1,-2.7334137E-2,-9.612372E-2,9.745068E-1,6.180373E-2,-9.4294137E-1,1.7018244E-1,-3.144933E-2,4.4361588E-2,-6.4375505E-2,-1.119734E-1,-1.9213549E0,-9.741396E-1,6.318352E-1,-7.686279E-1,8.870164E-1,5.715813E-2,-2.669983E-2,9.853224E-3,-4.575082E-2,-3.1412214E-3,7.760621E-2,6.468114E-2,-3.1434577E-2,2.143756E-3,8.077978E-2,-9.370241E-2,1.4692004E-2,9.8678514E-2,-4.4019338E-2,1.02106705E-1,2.1558575E-2],"split_indices":[20,21,15,18,20,4,18,15,0,0,15,4,0,4,15,0,19,0,18,4,0,5,4,4,0,0,18,0,18,15,0,0,0,0,0,2,4,18,17,0,0,0,0,0,0,0,0,0,0,0,0,0,0,0,0],"split_type":[0,0,0,0,0,0,0,0,0,0,0,0,0,0,0,0,0,0,0,0,0,0,0,0,0,0,0,0,0,0,0,0,0,0,0,0,0,0,0,0,0,0,0,0,0,0,0,0,0,0,0,0,0,0,0],"sum_hessian":[1.25939644E2,2.0981499E1,1.04958145E2,8.24698E0,1.2734518E1,8.590446E1,1.9053688E1,6.3438287E0,1.9031509E0,6.036684E0,6.6978345E0,5.599462E0,8.0305E1,1.5340334E1,3.7133536E0,2.690195E0,3.6536338E0,1.5364094E0,5.161425E0,2.2099898E0,3.3894725E0,6.919497E1,1.1110025E1,1.40809555E1,1.2593789E0,1.5482224E0,2.165131E0,1.2820566E0,2.3715773E0,3.8530297E0,1.3083954E0,1.1450373E0,1.0649524E0,5.0031357E0,6.419183E1,7.6563497E0,3.4536755E0,5.929067E0,8.151888E0,1.1235032E0,1.0416279E0,1.0248672E0,1.34671E0,2.0158439E0,1.8371859E0,3.8235445E0,6.036829E1,2.0574894E0,5.5988603E0,1.717768E0,1.7359077E0,2.6448472E0,3.2842197E0,6.821959E0,1.3299292E0],"tree_param":{"num_deleted":"0","num_feature":"24","num_nodes":"55","size_leaf_vector":"1"}},{"base_weights":[7.271005E-2,1.3492064E-1,-9.958362E-1,3.0303983E-2,7.136328E-1,-1.9983813E-2,-1.1347184E-1,2.7815533E-1,-2.3662645E-1,7.865294E-1,-2.3426734E-2,3.9477906E-1,-2.7030203E-1,5.8297575E-1,-3.864129E-1,4.5904246E-1,8.676548E-2,-8.619296E-2,4.926831E-1,-4.9467498E-1,5.9221733E-2,-4.341509E-1,1.16513066E-1,-2.5066116E-1,-1.1680464E-1,8.6137556E-2,-3.765942E-2,-5.863725E-2,7.1282744E-2,5.697312E-2,-3.523407E-2,-7.008897E-2,-7.4451644E-4,-6.863808E-2,-4.6745483E-3,-3.1785745E-2,8.090895E-2],"categories":[],"categories_nodes":[],"categories_segments":[],"categories_sizes":[],"default_left":[0,0,0,0,0,0,0,0,0,0,0,0,0,0,0,0,0,0,0,0,0,0,0,0,0,0,0,0,0,0,0,0,0,0,0,0,0],"id":23,"left_children":[1,3,5,7,9,-1,-1,11,13,15,-1,17,19,21,23,25,-1,27,29,31,-1,33,-1,35,-1,-1,-1,-1,-1,-1,-1,-1,-1,-1,-1,-1,-1],"loss_changes":[8.07532E0,6.8661337E0,5.1298666E-1,6.509274E0,1.3847208E0,0E0,0E0,3.366347E0,6.048299E0,3.6406517E-2,0E0,2.0405235E0,2.1372116E0,5.0815907E0,4.0262966E0,2.1304474E0,0E0,3.6261768E0,2.505803E0,8.0935967E-1,0E0,3.1397188E-1,0E0,2.8175385E0,0E0,0E0,0E0,0E0,0E0,0E0,0E0,0E0,0E0,0E0,0E0,0E0,0E0],"parents":[2147483647,0,0,1,1,2,2,3,3,4,4,7,7,8,8,9,9,11,11,12,12,13,13,14,14,15,15,17,17,18,18,19,19,21,21,23,23],"right_children":[2,4,6,8,10,-1,-1,12,14,16,-1,18,20,22,24,26,-1,28,30,32,-1,34,-1,36,-1,-1,-1,-1,-1,-1,-1,-1,-1,-1,-1,-1,-1],"split_conditions":[1.5004765E0,3.4230047E-1,-7.137403E-2,9.5819706E-1,8.001933E-1,-1.9983813E-2,-1.1347184E-1,8.001933E-1,-1.6045774E0,5.57448E-1,-2.3426734E-2,1.4995629E-2,-1.310241E-1,-1.7129157E0,4.635239E-1,4.71389E-1,8.676548E-2,9.123541E-1,1.5629408E0,6.685929E-1,5.9221733E-2,-1.6238103E0,1.16513066E-1,2.2258224E0,-1.1680464E-1,8.6137556E-2,-3.765942E-2,-5.863725E-2,7.1282744E-2,5.697312E-2,-3.523407E-2,-7.008897E-2,-7.4451644E-4,-6.863808E-2,-4.6745483E-3,-3.1785745E-2,8.090895E-2],"split_indices":[4,15,18,1,18,0,0,18,4,15,0,0,15,4,4,15,0,4,5,4,0,5,0,5,0,0,0,0,0,0,0,0,0,0,0,0,0],"split_type":[0,0,0,0,0,0,0,0,0,0,0,0,0,0,0,0,0,0,0,0,0,0,0,0,0,0,0,0,0,0,0,0,0,0,0,0,0],"sum_hessian":[1.18458046E2,1.1276653E2,5.691515E0,9.639339E1,1.6373144E1,1.2078236E0,4.4836917E0,4.9961178E1,4.643221E1,1.5361998E1,1.0111474E0,4.143142E1,8.529758E0,6.7276692E0,3.970454E1,4.3719077E0,1.099009E1,7.0274367E0,3.4403984E1,7.1073523E0,1.4224068E0,2.5414848E0,4.186185E0,3.495445E1,4.750093E0,2.9302716E0,1.441636E0,4.485617E0,2.5418198E0,3.1827753E1,2.5762293E0,4.6856728E0,2.4216793E0,1.0718757E0,1.469609E0,3.3528545E1,1.4259019E0],"tree_param":{"num_deleted":"0","num_feature":"24","num_nodes":"37","size_leaf_vector":"1"}},{"base_weights":[-7.2605717E-3,-7.98198E-1,1.0905225E-1,4.8539337E-2,-9.2367977E-1,1.9207086E-1,-3.648776E-1,-8.230336E-4,-9.954007E-1,8.3218104E-1,1.351498E-1,-6.164972E-1,6.3834006E-1,-1.1686787E-2,-1.0653104E-1,2.6475033E-2,9.6237026E-2,1.821676E-1,-5.1770437E-1,-7.356776E-1,1.3533301E-2,1.0260796E-1,-4.9543823E-3,9.030257E-2,1.3330673E-1,3.158313E-2,-7.845749E-1,1.3493645E-2,-8.8906336E-1,1.857924E-2,-3.6638595E-2,-8.150323E-3,-9.655629E-2,-1.8724635E-2,-9.5845096E-2],"categories":[],"categories_nodes":[],"categories_segments":[],"categories_sizes":[],"default_left":[0,0,0,0,0,0,0,0,0,0,0,0,0,0,0,0,0,0,0,0,0,0,0,0,0,0,0,0,0,0,0,0,0,0,0],"id":24,"left_children":[1,3,5,-1,7,9,11,-1,13,15,17,19,21,-1,-1,-1,-1,23,25,27,-1,-1,-1,-1,29,-1,31,-1,33,-1,-1,-1,-1,-1,-1],"loss_changes":[1.1058383E1,2.9303322E0,4.195368E0,0E0,9.3607235E-1,3.1622086E0,4.425748E0,0E0,6.9411373E-1,2.7307653E-1,2.664463E0,1.289433E0,1.0361856E0,0E0,0E0,0E0,0E0,2.656666E0,1.5569581E0,1.6713891E0,0E0,0E0,0E0,0E0,2.035411E0,0E0,5.25095E-1,0E0,3.0795765E-1,0E0,0E0,0E0,0E0,0E0,0E0],"parents":[2147483647,0,0,1,1,2,2,4,4,5,5,6,6,8,8,9,9,10,10,11,11,12,12,17,17,18,18,19,19,24,24,26,26,28,28],"right_children":[2,4,6,-1,8,10,12,-1,14,16,18,20,22,-1,-1,-1,-1,24,26,28,-1,-1,-1,-1,30,-1,32,-1,34,-1,-1,-1,-1,-1,-1],"split_conditions":[-7.617597E-1,2.2080567E-1,7.4423075E-1,4.8539337E-2,-1.6239235E0,-1.452885E0,3.057832E0,-8.230336E-4,-9.916142E-1,-2.904862E-1,1.3070152E0,1.2799306E0,-1.3425074E0,-1.1686787E-2,-1.0653104E-1,2.6475033E-2,9.6237026E-2,-1.4884669E0,-2.456875E-1,-1.6239235E0,1.3533301E-2,1.0260796E-1,-4.9543823E-3,9.030257E-2,1.0202433E0,3.158313E-2,-8.1486887E-1,1.3493645E-2,1.603416E0,1.857924E-2,-3.6638595E-2,-8.150323E-3,-9.655629E-2,-1.8724635E-2,-9.5845096E-2],"split_indices":[16,20,2,0,4,19,0,0,15,16,4,4,5,0,0,0,0,20,18,4,0,0,0,0,16,0,0,0,2,0,0,0,0,0,0],"split_type":[0,0,0,0,0,0,0,0,0,0,0,0,0,0,0,0,0,0,0,0,0,0,0,0,0,0,0,0,0,0,0,0,0,0,0],"sum_hessian":[1.1825865E2,1.4409599E1,1.0384905E2,1.0277895E0,1.3381809E1,8.887542E1,1.4973639E1,1.0532203E0,1.2328589E1,6.145524E0,8.272989E1,1.2279312E1,2.6943262E0,1.1056707E0,1.12229185E1,1.7129968E0,4.432527E0,7.784458E1,4.8853106E0,1.0617679E1,1.6616337E0,1.4086602E0,1.2856659E0,3.8317754E0,7.40128E1,1.1402923E0,3.7450182E0,1.608447E0,9.009232E0,6.754621E1,6.4665923E0,1.0636097E0,2.6814084E0,1.1433585E0,7.865873E0],"tree_param":{"num_deleted":"0","num_feature":"24","num_nodes":"35","size_leaf_vector":"1"}},{"base_weights":[6.0936954E-2,8.738376E-1,-4.3198556E-2,3.337631E-1,9.6272826E-2,1.5165478E-1,-2.6750773E-1,6.556332E-2,-1.9379256E-2,-2.8527507E-1,3.6126086E-1,6.4387727E-3,-5.4962015E-1,-1.0215015E-1,-9.929798E-2,4.68292E-1,-2.733472E-1,-1.9259322E-1,6.054222E-1,1.0969097E-1,-6.724968E-1,4.449693E-1,-4.128037E-1,5.976433E-1,-2.0759769E-1,5.894953E-2,-6.6561246E-1,-3.5994023E-1,4.1462365E-1,8.0509025E-1,-8.647877E-3,-6.245638E-2,6.9277847E-1,-7.765571E-1,-2.8974349E-2,-6.3618146E-2,7.655404E-2,-9.112225E-2,1.306721E-2,4.208216E-2,9.411263E-2,-6.817314E-2,3.2087326E-2,-1.059738E-1,-1.9000346E-2,7.797713E-3,-6.1954904E-2,6.1160238E-3,5.812518E-2,1.0476253E-1,3.369626E-2,8.7339945E-2,1.7513502E-2,-8.578524E-2,5.2215136E-3,7.041918E-2,-6.573861E-2],"categories":[],"categories_nodes":[],"categories_segments":[],"categories_sizes":[],"default_left":[0,0,0,0,0,0,0,0,0,0,0,0,0,0,0,0,0,0,0,0,0,0,0,0,0,0,0,0,0,0,0,0,0,0,0,0,0,0,0,0,0,0,0,0,0,0,0,0,0,0,0,0,0,0,0,0,0],"id":25,"left_children":[1,3,5,7,-1,9,11,-1,-1,13,15,17,19,21,-1,23,25,27,29,31,33,35,37,39,41,-1,43,45,47,49,-1,-1,51,53,55,-1,-1,-1,-1,-1,-1,-1,-1,-1,-1,-1,-1,-1,-1,-1,-1,-1,-1,-1,-1,-1,-1],"loss_changes":[1.0010751E1,3.2320023E-1,4.646742E0,7.091547E-1,0E0,5.326449E0,3.8176584E0,0E0,0E0,2.3673177E0,2.7759895E0,3.2194436E0,2.044455E0,2.9452727E0,0E0,3.072771E0,2.510359E0,2.211455E0,9.997449E-1,2.4368305E0,1.3599396E0,2.6932764E0,3.066863E0,1.3390036E0,1.7622526E0,0E0,6.930795E-1,1.9178836E0,2.5006145E-1,2.5122166E-1,0E0,0E0,1.3531232E-1,1.239481E0,2.265458E0,0E0,0E0,0E0,0E0,0E0,0E0,0E0,0E0,0E0,0E0,0E0,0E0,0E0,0E0,0E0,0E0,0E0,0E0,0E0,0E0,0E0,0E0],"parents":[2147483647,0,0,1,1,2,2,3,3,5,5,6,6,9,9,10,10,11,11,12,12,13,13,15,15,16,16,17,17,18,18,19,19,20,20,21,21,22,22,23,23,24,24,26,26,27,27,28,28,29,29,32,32,33,33,34,34],"right_children":[2,4,6,8,-1,10,12,-1,-1,14,16,18,20,22,-1,24,26,28,30,32,34,36,38,40,42,-1,44,46,48,50,-1,-1,52,54,56,-1,-1,-1,-1,-1,-1,-1,-1,-1,-1,-1,-1,-1,-1,-1,-1,-1,-1,-1,-1,-1,-1],"split_conditions":[-3.4895182E-1,-5.676248E-1,9.5819706E-1,-1.1789625E0,9.6272826E-2,-3.0521348E-1,-1.8263684E-1,6.556332E-2,-1.9379256E-2,2.3473208E-1,6.457832E-1,-8.79946E-2,-4.8874408E-2,-5.613192E-1,-9.929798E-2,2.0489156E0,-1.726678E-1,-5.2506334E-1,-4.3413654E-1,1.3850892E-1,-2.0212239E-1,-1.0121238E0,5.718622E-1,7.459774E-1,2.4028711E0,5.894953E-2,-1.7405361E-1,-1.571689E0,-3.6062124E-1,-2.904862E-1,-8.647877E-3,-6.245638E-2,3.9774707E-1,2.0557466E0,1.9551465E-1,-6.3618146E-2,7.655404E-2,-9.112225E-2,1.306721E-2,4.208216E-2,9.411263E-2,-6.817314E-2,3.2087326E-2,-1.059738E-1,-1.9000346E-2,7.797713E-3,-6.1954904E-2,6.1160238E-3,5.812518E-2,1.0476253E-1,3.369626E-2,8.7339945E-2,1.7513502E-2,-8.578524E-2,5.2215136E-3,7.041918E-2,-6.573861E-2],"split_indices":[20,4,1,4,0,16,4,0,0,17,22,15,22,15,0,5,16,4,4,4,16,16,4,4,5,0,15,4,4,16,0,0,4,21,16,0,0,0,0,0,0,0,0,0,0,0,0,0,0,0,0,0,0,0,0,0,0],"split_type":[0,0,0,0,0,0,0,0,0,0,0,0,0,0,0,0,0,0,0,0,0,0,0,0,0,0,0,0,0,0,0,0,0,0,0,0,0,0,0,0,0,0,0,0,0,0,0,0,0,0,0,0,0,0,0,0,0],"sum_hessian":[1.1681202E2,1.242544E1,1.0438658E2,2.4280503E0,9.997389E0,5.6034405E1,4.8352173E1,1.3572159E0,1.0708344E0,1.8049242E1,3.7985165E1,2.5026884E1,2.332529E1,1.524802E1,2.8012216E0,3.2727512E1,5.25765E0,1.9294212E1,5.7326713E0,3.6811101E0,1.964418E1,5.3656807E0,9.8823395E0,2.7567444E1,5.1600695E0,1.4860585E0,3.7715914E0,1.5444881E1,3.8493307E0,4.321877E0,1.4107943E0,1.5978633E0,2.0832467E0,1.6731842E1,2.912338E0,1.001962E0,4.3637185E0,4.8018928E0,5.0804467E0,1.9667809E1,7.8996363E0,2.5670002E0,2.593069E0,1.3908542E0,2.380737E0,6.008748E0,9.436133E0,1.6712351E0,2.1780953E0,2.0314734E0,2.2904036E0,1.0348845E0,1.0483624E0,1.5205252E1,1.5265914E0,1.2884811E0,1.623857E0],"tree_param":{"num_deleted":"0","num_feature":"24","num_nodes":"57","size_leaf_vector":"1"}},{"base_weights":[1.5449138E-2,5.59878E-1,-4.978203E-2,6.7942595E-1,-6.219386E-3,-7.388006E-3,-7.285613E-1,9.54146E-2,3.3362862E-1,1.761585E-1,-1.9506443E-1,-1.2404228E-2,-8.382181E-2,7.913075E-2,-5.720788E-2,7.5058645E-1,7.7009864E-2,4.1870147E-1,-3.3865783E-1,-1.6486991E-2,9.263567E-1,-9.8410405E-2,3.6725575E-1,-5.1252276E-2,6.283619E-1,-3.9589205E-1,6.8257384E-2,1.0406496E-1,3.4286123E-2,-2.5751589E-2,5.2738745E-2,-2.8023813E-2,5.632302E-2,8.446648E-2,-2.3690274E-2,-4.693284E-2,4.570008E-2],"categories":[],"categories_nodes":[],"categories_segments":[],"categories_sizes":[],"default_left":[0,0,0,0,0,0,0,0,0,0,0,0,0,0,0,0,0,0,0,0,0,0,0,0,0,0,0,0,0,0,0,0,0,0,0,0,0],"id":26,"left_children":[1,3,5,7,-1,9,11,-1,13,15,17,-1,-1,-1,-1,19,21,23,25,-1,27,29,31,-1,33,35,-1,-1,-1,-1,-1,-1,-1,-1,-1,-1,-1],"loss_changes":[4.300449E0,1.005619E0,3.1126218E0,7.218704E-1,0E0,3.5822446E0,3.1758165E-1,0E0,3.0995986E0,2.9377117E0,4.671713E0,0E0,0E0,0E0,0E0,1.3800836E0,2.376601E0,2.3119912E0,2.7371736E0,0E0,8.0020905E-2,3.0671003E0,2.3819854E0,0E0,1.8411987E0,2.7573686E0,0E0,0E0,0E0,0E0,0E0,0E0,0E0,0E0,0E0,0E0,0E0],"parents":[2147483647,0,0,1,1,2,2,3,3,5,5,6,6,8,8,9,9,10,10,15,15,16,16,17,17,18,18,20,20,21,21,22,22,24,24,25,25],"right_children":[2,4,6,8,-1,10,12,-1,14,16,18,-1,-1,-1,-1,20,22,24,26,-1,28,30,32,-1,34,36,-1,-1,-1,-1,-1,-1,-1,-1,-1,-1,-1],"split_conditions":[-9.4294137E-1,7.9056317E-1,1.4811304E0,9.5819706E-1,-6.219386E-3,9.5819706E-1,-5.3824735E-1,9.54146E-2,-9.557925E-2,-4.8874408E-2,-1.5504082E0,-1.2404228E-2,-8.382181E-2,7.913075E-2,-5.720788E-2,-9.758282E-1,6.685929E-1,-1.7728887E0,1.5393008E0,-1.6486991E-2,1.2853347E0,1.345654E0,-5.703049E-1,-5.1252276E-2,6.258798E-1,2.2528756E0,6.8257384E-2,1.0406496E-1,3.4286123E-2,-2.5751589E-2,5.2738745E-2,-2.8023813E-2,5.632302E-2,8.446648E-2,-2.3690274E-2,-4.693284E-2,4.570008E-2],"split_indices":[18,20,4,1,0,1,0,0,4,22,4,0,0,0,0,4,4,4,17,0,16,21,16,0,18,5,0,0,0,0,0,0,0,0,0,0,0],"split_type":[0,0,0,0,0,0,0,0,0,0,0,0,0,0,0,0,0,0,0,0,0,0,0,0,0,0,0,0,0,0,0,0,0,0,0,0,0],"sum_hessian":[1.1930775E2,1.19541E1,1.07353645E2,9.949781E0,2.0043185E0,1.0199435E2,5.359303E0,4.5643516E0,5.3854303E0,5.159555E1,5.0398792E1,1.1501132E0,4.2091894E0,3.6614892E0,1.7239411E0,6.6275916E0,4.496796E1,9.192238E0,4.1206554E1,1.0775338E0,5.550058E0,2.8440119E1,1.652784E1,1.4237953E0,7.768442E0,3.9599564E1,1.6069918E0,3.9858499E0,1.564208E0,2.3144312E1,5.295807E0,3.740236E0,1.2787604E1,6.233876E0,1.5345658E0,3.687431E1,2.725253E0],"tree_param":{"num_deleted":"0","num_feature":"24","num_nodes":"37","size_leaf_vector":"1"}},{"base_weights":[2.6879799E-2,6.1582553E-1,-4.2003687E-2,9.6076064E-2,1.8568848E-1,7.3105484E-2,-8.27563E-2,-5.6469697E-1,7.316918E-1,-4.37803E-2,-9.768077E-2,5.6408238E-2,-1.3401334E-1,1.9318162E-2,8.402147E-2,-1.4735328E-1,1.9687E-1,1.5055612E-1,-4.0470952E-1,4.4000715E-1,-9.008278E-2,9.311045E-2,5.043769E-3,3.8891356E-2,-4.4899493E-2,8.860976E-2,2.5783865E-2,2.3394143E-2,-6.833784E-2],"categories":[],"categories_nodes":[],"categories_segments":[],"categories_sizes":[],"default_left":[0,0,0,0,0,0,0,0,0,0,0,0,0,0,0,0,0,0,0,0,0,0,0,0,0,0,0,0,0],"id":27,"left_children":[1,3,5,-1,7,-1,9,11,13,15,-1,-1,-1,-1,-1,17,19,21,23,25,27,-1,-1,-1,-1,-1,-1,-1,-1],"loss_changes":[4.7298675E0,1.6325254E0,3.360438E0,0E0,3.1465757E0,0E0,3.4557989E0,3.7094169E0,8.881903E-2,2.453003E0,0E0,0E0,0E0,0E0,0E0,5.3174915E0,2.1110845E0,2.4933033E0,1.4769788E0,1.0914183E0,2.9374003E0,0E0,0E0,0E0,0E0,0E0,0E0,0E0,0E0],"parents":[2147483647,0,0,1,1,2,2,4,4,6,6,7,7,8,8,9,9,15,15,16,16,17,17,18,18,19,19,20,20],"right_children":[2,4,6,-1,8,-1,10,12,14,16,-1,-1,-1,-1,-1,18,20,22,24,26,28,-1,-1,-1,-1,-1,-1,-1,-1],"split_conditions":[-3.4895182E-1,9.5819706E-1,-1.452885E0,9.6076064E-2,-7.453105E-2,7.3105484E-2,1.6571801E0,-1.4884669E0,-7.6302075E-1,5.0568444E-1,-9.768077E-2,5.6408238E-2,-1.3401334E-1,1.9318162E-2,8.402147E-2,9.5819706E-1,6.457832E-1,-1.8333248E0,-7.43532E-1,-2.1745987E-1,4.635239E-1,9.311045E-2,5.043769E-3,3.8891356E-2,-4.4899493E-2,8.860976E-2,2.5783865E-2,2.3394143E-2,-6.833784E-2],"split_indices":[20,1,19,0,21,0,4,20,4,20,0,0,0,0,0,1,22,2,22,4,4,0,0,0,0,0,0,0,0],"split_type":[0,0,0,0,0,0,0,0,0,0,0,0,0,0,0,0,0,0,0,0,0,0,0,0,0,0,0,0,0],"sum_hessian":[1.1495166E2,1.1205536E1,1.03746124E2,5.5340557E0,5.6714807E0,4.3469834E0,9.939914E1,2.3742518E0,3.2972286E0,9.625202E1,3.1471205E0,1.0778376E0,1.2964143E0,1.0193135E0,2.2779152E0,6.756189E1,2.8690132E1,3.1506136E1,3.6055756E1,1.5242052E1,1.3448079E1,2.6381812E0,2.8867954E1,1.494335E0,3.456142E1,3.2991061E0,1.19429455E1,9.089568E0,4.3585114E0],"tree_param":{"num_deleted":"0","num_feature":"24","num_nodes":"29","size_leaf_vector":"1"}},{"base_weights":[5.2754946E-2,9.883775E-2,-6.6226846E-1,4.108608E-2,6.5066904E-1,-3.9812764E-3,-8.2737E-1,7.5046025E-2,-6.888939E-1,7.999295E-1,-2.1254158E-2,-2.4189875E-2,-9.628748E-2,-8.1673846E-2,1.02103725E-1,-8.536914E-2,-8.0231335E-3,8.734142E-2,2.0395007E-2,1.3966246E-1,7.166904E-2,2.4464747E-3,8.409136E-2],"categories":[],"categories_nodes":[],"categories_segments":[],"categories_sizes":[],"default_left":[0,0,0,0,0,0,0,0,0,0,0,0,0,0,0,0,0,0,0,0,0,0,0],"id":28,"left_children":[1,3,5,7,9,-1,11,13,15,17,-1,-1,-1,-1,19,-1,-1,-1,-1,-1,21,-1,-1],"loss_changes":[3.9433885E0,3.5245996E0,7.1271443E-1,2.5789192E0,1.5215683E0,0E0,2.1802211E-1,2.4556918E0,3.959298E-1,2.2274256E-1,0E0,0E0,0E0,0E0,3.6943002E0,0E0,0E0,0E0,0E0,0E0,3.4344938E0,0E0,0E0],"parents":[2147483647,0,0,1,1,2,2,3,3,4,4,6,6,7,7,8,8,9,9,14,14,20,20],"right_children":[2,4,6,8,10,-1,12,14,16,18,-1,-1,-1,-1,20,-1,-1,-1,-1,-1,22,-1,-1],"split_conditions":[1.4811304E0,7.725955E-1,5.8373797E-1,2.0203876E0,2.0350983E0,-3.9812764E-3,-5.3824735E-1,-1.0563056E0,-4.7526017E-1,2.772529E-1,-2.1254158E-2,-2.4189875E-2,-9.628748E-2,-8.1673846E-2,-9.916142E-1,-8.536914E-2,-8.0231335E-3,8.734142E-2,2.0395007E-2,1.3966246E-1,2.7297559E0,2.4464747E-3,8.409136E-2],"split_indices":[4,15,19,18,22,0,0,16,15,18,0,0,0,0,15,0,0,0,0,0,22,0,0],"split_type":[0,0,0,0,0,0,0,0,0,0,0,0,0,0,0,0,0,0,0,0,0,0,0],"sum_hessian":[1.1669039E2,1.10434715E2,6.2556767E0,1.0094483E2,9.489883E0,1.5716145E0,4.6840625E0,9.731477E1,3.6300583E0,8.153368E0,1.3365159E0,1.4038141E0,3.2802484E0,2.0062568E0,9.530852E1,2.5398235E0,1.0902349E0,6.8439884E0,1.3093792E0,1.158148E0,9.415037E1,8.967906E1,4.471306E0],"tree_param":{"num_deleted":"0","num_feature":"24","num_nodes":"23","size_leaf_vector":"1"}},{"base_weights":[5.319933E-2,7.160139E-1,-2.0727335E-2,8.869421E-2,-1.0644249E-2,-1.24383464E-1,2.6354545E-1,-1.7239276E-1,8.059231E-2,5.8976847E-1,-1.1560851E-1,-7.5398564E-2,-6.393482E-1,9.47016E-1,3.0058798E-1,1.2873752E-1,-5.079591E-1,6.3481545E-1,-1.711318E-1,-8.488926E-1,4.344905E-2,7.910655E-3,1.0991893E0,-1.93788E-1,9.529909E-2,-6.0027998E-2,3.4973827E-1,-8.681184E-1,1.4700356E-2,-3.8076572E-2,9.8485045E-2,4.128718E-2,-2.4509152E-2,-9.7825475E-2,-3.149453E-2,1.3162912E-1,1.2330601E-2,-5.2426796E-2,4.1682478E-2,-5.314364E-2,6.2762186E-2,-1.708802E-2,-1.11376144E-1],"categories":[],"categories_nodes":[],"categories_segments":[],"categories_sizes":[],"default_left":[0,0,0,0,0,0,0,0,0,0,0,0,0,0,0,0,0,0,0,0,0,0,0,0,0,0,0,0,0,0,0,0,0,0,0,0,0,0,0,0,0,0,0],"id":29,"left_children":[1,3,5,-1,-1,7,9,11,-1,13,15,17,19,21,23,25,27,29,31,33,-1,-1,35,37,-1,-1,39,41,-1,-1,-1,-1,-1,-1,-1,-1,-1,-1,-1,-1,-1,-1,-1],"loss_changes":[5.6790853E0,1.7290158E0,3.1258936E0,0E0,0E0,3.604858E0,3.577114E0,3.3313293E0,0E0,1.3076215E0,1.4033679E0,4.3864307E0,3.2264805E0,7.622676E-1,3.4044766E0,1.7240901E0,1.438745E0,3.1072266E0,2.5299687E0,4.4926262E-1,0E0,0E0,9.8032856E-1,1.5322706E0,0E0,0E0,2.254168E0,4.486947E-1,0E0,0E0,0E0,0E0,0E0,0E0,0E0,0E0,0E0,0E0,0E0,0E0,0E0,0E0,0E0],"parents":[2147483647,0,0,1,1,2,2,5,5,6,6,7,7,9,9,10,10,11,11,12,12,13,13,14,14,15,15,16,16,17,17,18,18,19,19,22,22,23,23,26,26,27,27],"right_children":[2,4,6,-1,-1,8,10,12,-1,14,16,18,20,22,24,26,28,30,32,34,-1,-1,36,38,-1,-1,40,42,-1,-1,-1,-1,-1,-1,-1,-1,-1,-1,-1,-1,-1,-1,-1],"split_conditions":[-9.4294137E-1,7.9056317E-1,5.0568444E-1,8.869421E-2,-1.0644249E-2,1.5393008E0,6.457832E-1,6.258798E-1,8.059231E-2,-5.8503217E-1,-3.7884998E-1,-1.5504082E0,6.3556147E-1,-7.8462356E-1,-6.957672E-2,-6.6242087E-1,-1.9355833E-3,-5.3824735E-1,-1.6447333E0,6.87939E-1,4.344905E-2,7.910655E-3,1.345654E0,7.072851E-1,9.529909E-2,-6.0027998E-2,1.0293944E-1,-2.7936748E-1,1.4700356E-2,-3.8076572E-2,9.8485045E-2,4.128718E-2,-2.4509152E-2,-9.7825475E-2,-3.149453E-2,1.3162912E-1,1.2330601E-2,-5.2426796E-2,4.1682478E-2,-5.314364E-2,6.2762186E-2,-1.708802E-2,-1.11376144E-1],"split_indices":[18,20,20,0,0,17,22,18,0,16,16,4,21,21,16,4,15,0,0,4,0,0,21,4,0,0,18,4,0,0,0,0,0,0,0,0,0,0,0,0,0,0,0],"split_type":[0,0,0,0,0,0,0,0,0,0,0,0,0,0,0,0,0,0,0,0,0,0,0,0,0,0,0,0,0,0,0,0,0,0,0,0,0,0,0,0,0,0,0],"sum_hessian":[1.1459759E2,1.0627517E1,1.0397007E2,8.733962E0,1.8935546E0,7.660102E1,2.736905E1,7.361666E1,2.98436E0,1.4412817E1,1.2956232E1,6.1916977E1,1.1699687E1,5.4299464E0,8.982871E0,8.398032E0,4.5582004E0,6.685835E0,5.523114E1,9.964696E0,1.7349913E0,1.036752E0,4.393194E0,5.510274E0,3.4725971E0,1.554383E0,6.843649E0,2.7309976E0,1.8272028E0,1.6912111E0,4.9946237E0,5.6932783E0,4.953786E1,7.351495E0,2.6132014E0,3.3083706E0,1.0848236E0,3.6670012E0,1.8432727E0,1.4220034E0,5.4216456E0,1.1532459E0,1.5777516E0],"tree_param":{"num_deleted":"0","num_feature":"24","num_nodes":"43","size_leaf_vector":"1"}},{"base_weights":[8.154255E-2,-3.258551E-1,1.5986073E-1,4.3701082E-1,-7.1929646E-1,5.838995E-1,9.301574E-2,9.140594E-1,-7.3921464E-2,6.780074E-3,-8.285252E-1,-4.4497173E-2,7.7326083E-1,1.3094182E-1,-6.6791147E-1,2.7746695E-1,1.2658885E0,-9.679879E-1,-2.81847E-1,9.7736694E-2,2.66216E-1,-7.513135E-2,1.6164698E-1,-9.297093E-3,-8.8548705E-2,1.0755265E-1,-6.521635E-2,1.5461566E-1,3.768961E-2,-1.07756E-1,-2.496323E-2,-3.4580853E-2,-7.508784E-3,7.420934E-2,-5.7034172E-2,3.2870013E-1,-4.8576887E-3,-4.137263E-2,3.7589636E-2,8.116364E-3,-8.154942E-2],"categories":[],"categories_nodes":[],"categories_segments":[],"categories_sizes":[],"default_left":[0,0,0,0,0,0,0,0,0,0,0,0,0,0,0,0,0,0,0,0,0,0,0,0,0,0,0,0,0,0,0,0,0,0,0,0,0,0,0,0,0],"id":30,"left_children":[1,3,5,7,9,11,13,15,-1,-1,17,-1,19,21,23,25,27,29,31,-1,33,-1,35,-1,-1,-1,-1,-1,-1,-1,-1,-1,-1,-1,-1,37,39,-1,-1,-1,-1],"loss_changes":[3.6328075E0,5.844343E0,2.6327872E0,4.5424223E0,1.133718E0,2.8222423E0,2.4850767E0,8.469715E-1,0E0,0E0,5.720582E-1,0E0,8.8936996E-1,2.28788E0,4.3158412E-1,3.0643685E0,2.0580006E-1,3.9364052E-1,2.2478491E-2,0E0,2.239527E0,0E0,2.174113E0,0E0,0E0,0E0,0E0,0E0,0E0,0E0,0E0,0E0,0E0,0E0,0E0,1.5221763E0,2.862612E0,0E0,0E0,0E0,0E0],"parents":[2147483647,0,0,1,1,2,2,3,3,4,4,5,5,6,6,7,7,10,10,12,12,13,13,14,14,15,15,16,16,17,17,18,18,20,20,22,22,35,35,36,36],"right_children":[2,4,6,8,10,12,14,16,-1,-1,18,-1,20,22,24,26,28,30,32,-1,34,-1,36,-1,-1,-1,-1,-1,-1,-1,-1,-1,-1,-1,-1,38,40,-1,-1,-1,-1],"split_conditions":[1.4995629E-2,-1.6447333E0,-4.3457353E-1,3.485447E0,-2.69251E0,-5.408502E-1,1.5004765E0,4.364393E-1,-7.3921464E-2,6.780074E-3,1.0555155E0,-4.4497173E-2,4.5578545E-1,-1.0563056E0,5.8373797E-1,1.1374645E0,9.394387E-1,-2.6162586E-1,2.6311512E0,9.7736694E-2,8.870164E-1,-7.513135E-2,9.5819706E-1,-9.297093E-3,-8.8548705E-2,1.0755265E-1,-6.521635E-2,1.5461566E-1,3.768961E-2,-1.07756E-1,-2.496323E-2,-3.4580853E-2,-7.508784E-3,7.420934E-2,-5.7034172E-2,-1.2640855E0,5.0415075E-1,-4.137263E-2,3.7589636E-2,8.116364E-3,-8.154942E-2],"split_indices":[0,0,19,3,2,16,4,4,0,0,4,0,4,16,19,5,4,0,5,0,17,0,1,0,0,0,0,0,0,0,0,0,0,0,0,4,4,0,0,0,0],"split_type":[0,0,0,0,0,0,0,0,0,0,0,0,0,0,0,0,0,0,0,0,0,0,0,0,0,0,0,0,0,0,0,0,0,0,0,0,0,0,0,0,0],"sum_hessian":[1.11224785E2,1.742456E1,